{
  "shared_layers": [
    {
      "weight": [
        [
          0.3218912714046807,
          -0.5238860683463862,
          -0.050540850268966174,
          -0.24173302041997535,
          -0.30780283297768535,
          0.3401821093696079,
          0.09024521613332852,
          0.18851277870047292,
          0.35368142755697035,
          -0.03821761775858626,
          0.23862343560940688,
          0.2367067311898791,
          -0.31485818925140646,
          -0.24607845893557054,
          -0.3567769280718143,
          0.15286848704179504,
          0.39224649041775256,
          0.0689353110218891,
          0.18476384182154007,
          0.43659968629572543,
          -0.4815916532019188,
          -0.0887242777875522,
          0.025007713430780024,
          -0.21737300574937946
        ],
        [
          0.3558059091247129,
          -0.25931054874067705,
          -0.26235293078323757,
          -0.12355098307284967,
          0.28554128407894164,
          -0.4166234865826891,
          0.2569435959254504,
          0.2951646562221758,
          0.015684668592083763,
          0.3835464035342358,
          0.46514787210231984,
          -0.16152954070904302,
          -0.36196070583684303,
          0.16230268880231108,
          -0.20466346503550734,
          0.08290747849396661,
          -0.5261349238196592,
          0.26911459909429053,
          0.1206830600499227,
          -0.4757616631818077,
          0.10762094230897212,
          -0.41525151920112485,
          -0.11726889862298538,
          0.3494454838633019
        ],
        [
          -0.26681917510098957,
          0.052354001029301454,
          -0.45035318074703246,
          -0.034308167364024325,
          0.16007096522882927,
          -0.3012233479333942,
          -0.47573529445918195,
          0.029875565777819885,
          0.20920763372624882,
          -0.2595854955016474,
          0.30965885554257166,
          -0.4953795088904675,
          0.5242711180735145,
          -0.40629604562275307,
          0.4516906881306286,
          -0.2638318117802864,
          -0.2721919766924798,
          0.4638563301569466,
          0.5371654076832117,
          -0.09445227147741168,
          -0.1649358760324731,
          0.28343514327859004,
          0.08724592544204231,
          0.42320890903479635
        ],
        [
          -0.1033595135808474,
          -0.3103586114617639,
          0.3303958274898829,
          -0.4658522592361808,
          0.0752693137062925,
          0.4867117323270944,
          -0.34606517864683956,
          -0.2798180748857001,
          -0.1717168428027782,
          0.05283279902850743,
          -0.23061121984868027,
          0.2066157760337037,
          0.2481500400022268,
          0.17785842223257606,
          -0.5248058042197484,
          0.2762131766289865,
          -0.26078610310391426,
          0.3702970508162667,
          0.12244264138355673,
          0.13966947830168316,
          -0.22579932700331687,
          0.2875631478901293,
          0.35603326835212346,
          -0.3802319515818722
        ],
        [
          -0.2618855535333641,
          -0.005803518289360818,
          0.2765148078695752,
          -0.35627255733544105,
          -0.3130408674267393,
          -0.48776839317244,
          0.08174731267645727,
          -0.2525136877402669,
          -0.0397488496284829,
          -0.3407102427184636,
          -0.1965269871877698,
          0.3102407913282368,
          0.32126100303111915,
          -0.016430645383544627,
          0.42385021823048075,
          0.4748356960087353,
          0.18641713411997657,
          0.10867525187219994,
          0.20030600948758298,
          0.2946286573166751,
          0.07152090127463935,
          -0.37924523948741595,
          -0.1451403970509973,
          -0.08006927805095702
        ],
        [
          0.30325839524751,
          0.13638456615800504,
          0.12804623310037305,
          -0.13372634155414773,
          -0.028611135521462445,
          -0.1436883078985334,
          0.24171476980506312,
          0.01462303218008363,
          0.45413018231182356,
          -0.028163689599245336,
          -0.2547502748181072,
          0.34834116487128375,
          0.27826491663816166,
          -0.14342924040530938,
          -0.2645372886286393,
          -0.18396639335316525,
          0.3552272028911703,
          -0.30402674616410524,
          -0.17697041281729078,
          0.13855274879888668,
          -0.14822988761713882,
          -0.175958872041313,
          0.34412251671133043,
          -0.48760676522524127
        ],
        [
          -0.06131418872213437,
          -0.15190715014329007,
          -0.14056685292506246,
          -0.20152179006319218,
          0.20265034037755383,
          0.028837998011703,
          -0.22630312931274765,
          0.13933010523410094,
          -0.2123888600614795,
          0.0007666637167489783,
          0.5092293338973652,
          -0.057681344345437265,
          -0.11250729762231883,
          -0.2174407360289566,
          -0.22336474801934217,
          0.15092984189095837,
          -0.35803590797684576,
          0.13025947386723288,
          0.07114840195034038,
          0.06037594953143993,
          -0.03189934783931228,
          0.3636181233929135,
          0.18216953194482574,
          0.32773209944667614
        ],
        [
          0.3510255086301691,
          -0.17145412663433282,
          -0.08516819259209904,
          0.3779437153786428,
          0.09772104026156692,
          0.10231548336882498,
          0.038601702920872005,
          0.14293968866676698,
          0.29049811497709654,
          0.058682445770165875,
          -0.11946471895708392,
          0.18458350620873948,
          -0.027329025064387533,
          -0.09210618545137034,
          -0.44738615574120955,
          -0.08041716511259057,
          -0.12922702427303506,
          -0.3320945369109086,
          -0.22254661240387244,
          -0.13411983248698875,
          -0.36074556755150433,
          -0.19791141077167324,
          0.1543156159548524,
          0.43749011201112414
        ],
        [
          -0.5436164965847983,
          -0.16038647448629395,
          -0.34678566153182533,
          0.04028562335537207,
          0.11086312031315727,
          -0.05524826906337448,
          -0.4019554270605069,
          0.21095837766526554,
          0.12650737989708868,
          0.05903769287467948,
          -0.053727539250198984,
          -0.4612829973181152,
          0.4043166262233476,
          -0.09137038018746725,
          -0.10920211030539292,
          0.25951448691787865,
          0.11221140440835184,
          0.24951783908431802,
          0.48824967013663134,
          -0.021719502388989977,
          0.2609311750089771,
          0.12690697520268904,
          -0.16821664759886634,
          0.16480330248277758
        ],
        [
          0.20789550661012712,
          0.21428468614450558,
          0.4831614990032198,
          -0.027582852347155302,
          0.05644520521039809,
          0.09114108371125923,
          -0.025717298851130724,
          0.40270513309654876,
          -0.012342045606075713,
          0.014453056118162283,
          0.45322880059047665,
          0.1574976804525111,
          -0.014842508353550186,
          -0.2858065753453462,
          -0.17899856615356363,
          -0.27430445946119386,
          0.049816069185359524,
          -0.3963501560149709,
          -0.12217708997043444,
          -0.059634710834511516,
          -0.355616882306773,
          0.24592654989070103,
          -0.4590707602467883,
          0.005288767584460248
        ],
        [
          0.33187055738606613,
          0.1367859068922403,
          -0.33585479254355927,
          -0.11595819621920166,
          0.24655696536485575,
          0.3040269324351597,
          -0.2649449974131265,
          0.25485457783249976,
          -0.4947010502522268,
          0.07971390255106645,
          0.004236768861317129,
          -0.017319666637253605,
          0.15771959725580947,
          -0.03203617526660616,
          0.24098572722300463,
          0.434436321525691,
          0.06458404663815663,
          -0.3061369463342235,
          -0.33363550049313556,
          0.11117431714055818,
          0.009807667355645576,
          -0.3724532566447732,
          0.12779893264756137,
          0.12086366918764561
        ],
        [
          -0.2322291423549886,
          0.3267429327126328,
          -0.08823838000746347,
          -0.25682965900646276,
          -0.12494887338113424,
          0.09767530022489726,
          0.32098538935106197,
          0.19277469025645202,
          0.5099545718864288,
          0.22897020246230473,
          -0.19987828055773177,
          0.4405131779460958,
          0.4228533194675711,
          0.016502321046668666,
          -0.31121305033572694,
          -0.3709475987072266,
          -0.4472070160350165,
          -0.14034286756748238,
          -0.3657923513269974,
          0.2861077260239984,
          -0.21774165588721625,
          0.3047130897146847,
          -0.18965604662059507,
          -0.21281791299629824
        ],
        [
          0.10916635323013726,
          -0.08233686197379587,
          0.39149434390477184,
          -0.16283497999892865,
          0.22014732624208389,
          0.15173626232618134,
          0.1975118046445358,
          0.36779706899945197,
          0.3958872654923709,
          -0.48287138321648243,
          0.14837302726514198,
          -0.21576056452790526,
          0.27326540481092393,
          0.005967058881393129,
          -0.04045204581454988,
          -0.17835775754081026,
          0.10358536369890643,
          0.35525999567142125,
          -0.2107224187501857,
          -0.37877052251157334,
          -0.5824922163670891,
          0.12824725754169936,
          -0.28164061468348767,
          -0.20792789137734208
        ],
        [
          -0.35949639327902777,
          -0.4460251882828049,
          0.3032019929079225,
          0.055555491639883825,
          0.05591783021123091,
          0.4285345070286449,
          -0.3180466684731097,
          -0.313129575759578,
          0.4901154162565037,
          -0.06566937679980285,
          -0.30273633174049286,
          -0.19406023379363066,
          -0.012690526387161144,
          0.21633907078369122,
          -0.31856522578075624,
          -0.08051055680658628,
          0.37992424858137325,
          -0.4273772513352278,
          0.024880826887649986,
          0.30069833325269457,
          0.059792577081924925,
          0.3984036287233892,
          0.3576350265509823,
          -0.11615555577777922
        ],
        [
          0.30535881536588183,
          -0.351408429084699,
          0.06823734275035527,
          0.26738589252260475,
          0.24611962528556997,
          -0.06680222135159442,
          0.49031285844612377,
          -0.26013171209435243,
          0.27779731107695915,
          0.27129149894741666,
          -0.5185199119177403,
          -0.018803584186668273,
          0.044476751423428516,
          0.18627701713257958,
          -0.43175058765310603,
          -0.30779238164792116,
          0.05399051944216636,
          0.034716289328572826,
          -0.31893730910886225,
          0.5440512812449804,
          0.05228708127881159,
          -0.1643160267446868,
          -0.2217825108541907,
          -0.17795118271837382
        ],
        [
          0.2813020500642869,
          0.033407386814191836,
          0.07424101737540945,
          -0.2517278398129371,
          -0.2897405761885359,
          0.3889889288398861,
          -0.3162660798281817,
          0.33463308700416533,
          0.10728457403291508,
          -0.2343180162269255,
          -0.2495185676059702,
          0.28211387516023884,
          -0.20892384219871676,
          -0.09931640291784716,
          0.040917261491575464,
          -0.08327469455741297,
          0.3166620386269133,
          -0.2581434851855221,
          0.5796414746952989,
          -0.22636112932302982,
          -0.1308884823868677,
          -0.21535436896973648,
          0.29992178024121485,
          -0.36526069438667613
        ],
        [
          -0.20988205743362953,
          -0.5033463880185207,
          0.13308287511619882,
          -0.25866654675868317,
          -0.018060358508493832,
          0.13535909241876523,
          -0.02200355108642237,
          -0.05935056540210357,
          -0.26803384014785786,
          -0.32029358555224013,
          -0.260883222979556,
          -0.09247367982784585,
          -0.12994706217652716,
          0.41478998716541404,
          -0.004598341201980979,
          0.4509713552080302,
          0.16144457119657707,
          0.36944958650592297,
          0.34039496859599394,
          0.3929122303850241,
          -0.3383548793378097,
          0.1898854448332666,
          -0.08615867337305047,
          -0.011126204859931273
        ],
        [
          -0.29550707717709845,
          0.1632342194029164,
          -0.3084786905603465,
          -0.632084473979999,
          0.31672137431542513,
          -0.32299468669510073,
          0.01580380063856781,
          0.0654971753777196,
          -0.13202929761987264,
          -0.36134453764702174,
          0.044922994474169226,
          0.19150391331299257,
          0.3981110368227088,
          0.25071352020285315,
          0.26102990288336075,
          0.15691847343587778,
          -0.18546514325646743,
          0.03956515593261284,
          0.500053336430144,
          0.15269946630735978,
          -0.022416175654261357,
          0.1796028343851337,
          -0.29677595957926045,
          0.19602243781041107
        ],
        [
          -0.20074477627261286,
          0.2777551702646709,
          0.329299402322736,
          -0.29165386002695665,
          -0.042148176327973734,
          0.1895644458293641,
          -0.0500409993551921,
          0.029610185426567518,
          -0.2591710952118376,
          -0.15431485818202792,
          -0.023906201962540143,
          0.05076278599914527,
          0.008213696768501885,
          0.36897958454782676,
          -0.2862959749627002,
          0.30450147562197605,
          -0.4415547568813783,
          -0.01253267505635258,
          0.08566663089503464,
          -0.002174347420085194,
          -0.10633907843379037,
          0.454217826441916,
          0.31051367976704786,
          -0.3252863646583886
        ],
        [
          -0.2536915837259625,
          0.23040406161161853,
          0.19833488527700388,
          -0.14014562236082437,
          -0.10124833830789597,
          -0.23703091527085857,
          0.07451076125583377,
          -0.41644493656567716,
          -0.21792498958927906,
          0.3428072631464405,
          -0.3382264573777338,
          -0.1791940294411389,
          0.08245089220210143,
          -0.105822468590729,
          0.16084745086359045,
          0.037621451980940544,
          0.22456971644296475,
          0.12151317497993244,
          0.11205564843564622,
          0.34372488343380986,
          -0.3324015627458169,
          0.11745525362045076,
          0.09631219906016848,
          0.2601726970327835
        ],
        [
          -0.20773244060323431,
          0.3743451922674071,
          -0.04688293658181155,
          0.22249626553189888,
          -0.3771214120636803,
          -0.06093866310116174,
          0.3111566727103677,
          -0.014000078336447914,
          -0.2338057196984556,
          0.3549884151272277,
          0.1251151548538428,
          -0.5609028097318027,
          -0.06314456033405175,
          -0.3964673609945532,
          -0.03861379018295394,
          -0.20605367747728853,
          0.3961242237869156,
          0.232668554756337,
          0.019596844899048067,
          0.03750068274071887,
          0.24487128881842196,
          -0.2739130133739861,
          -0.22118547088715415,
          0.3704396451604974
        ],
        [
          0.08904444284937348,
          0.48043818242149483,
          0.3538212676265296,
          -0.20258232795525405,
          -0.007693830733348713,
          -0.18551260905804234,
          -0.29568558292984143,
          0.3098298945254262,
          0.024559077664136664,
          -0.06833469993430034,
          0.3293405538103636,
          0.4644348068942841,
          -0.1490232549487607,
          -0.21193903762596386,
          -0.44811181385697296,
          0.138870786800553,
          -0.06863748430738828,
          -0.16147977203239405,
          0.058845585437118327,
          -0.5489887208554998,
          -0.20498004654281773,
          0.1973491767042731,
          -0.32573413258804385,
          0.08788208008829708
        ],
        [
          -0.1586018131767428,
          -0.4961570744481034,
          0.14609334624382708,
          -0.5960299646623345,
          -0.20668852901749044,
          -0.32100207985805934,
          -0.07086900356500232,
          0.2360604114614044,
          0.03412222926498596,
          0.2136855713587005,
          0.10253952825819194,
          0.29757980746021,
          0.32493217318860074,
          0.312849666060685,
          0.10964958027895332,
          -0.039082395694116215,
          -0.11238982893612422,
          -0.24983923324467508,
          0.5115002253950214,
          0.31943150183198193,
          0.23084210809869637,
          -0.23372263883643254,
          -0.30839923605775243,
          0.40010852233360045
        ],
        [
          -0.12360492422775102,
          -0.17766320568451285,
          -0.1613538321273906,
          0.04609723653926946,
          0.38885323580215436,
          -0.30730496415841513,
          -0.2467405290011924,
          0.2536160012728653,
          -0.17918719001306313,
          0.32438125184274075,
          -0.2819426091441001,
          0.006300892345271442,
          0.3493151480042013,
          -0.1909732955244741,
          0.28690443531984194,
          -0.05163418839064469,
          0.13389146139542532,
          0.03904955360574475,
          -0.07982362722747156,
          0.040815147808450504,
          0.6959369843303208,
          0.08237838081337688,
          -0.37675233788211615,
          -0.2371944289614266
        ],
        [
          0.5499851938758418,
          -0.283448268350842,
          0.1658041370600811,
          0.1679463911652879,
          0.24891921293693367,
          -0.23576014188030867,
          -0.31751730386748933,
          0.18389980809284473,
          0.2915762801526636,
          -0.3064142900144963,
          -0.20889595745096604,
          -0.06346629726336017,
          0.34374629951322416,
          0.17699824504705147,
          0.09006207617307814,
          -0.004221987326887067,
          0.267273588804369,
          -0.0793152023091297,
          -0.24240162847786187,
          0.13534448287302708,
          0.23092409053332696,
          -0.36607849355048916,
          -0.37126411284763017,
          -0.07617126521161237
        ],
        [
          -0.26390003215748636,
          -0.36933365385896316,
          -0.16838209536730483,
          0.17978398634531392,
          -0.2345489817462006,
          -0.47592156170232747,
          0.4599761689883169,
          -0.008192337908120188,
          0.07486257693144079,
          -0.23103569511636513,
          0.2485983242013465,
          0.06192050797160041,
          -0.0666048731074392,
          -0.2391201118920106,
          0.4098985550226751,
          0.15751196538597023,
          0.25584683249454127,
          -0.023048458357794583,
          -0.09983993160306524,
          -0.06507238939479217,
          0.11295335626714646,
          -0.08411791509593453,
          0.11599375914743525,
          0.018314632962333155
        ],
        [
          -0.2390249282669031,
          0.20903065199645166,
          -0.23256818209508237,
          0.002126096356176335,
          0.5171004021593559,
          0.19636834299474581,
          0.3661734323446514,
          0.5729165615923436,
          0.2988409701804596,
          -0.30417314139460555,
          -0.1865034740639128,
          -0.0299511423447843,
          -0.3745611935947053,
          -0.029353982147712183,
          0.42803109549441865,
          -0.2013551950952751,
          -0.4329145817050651,
          -0.21334228749127124,
          0.48653296383701217,
          -0.18201562266710866,
          -0.41764151808766575,
          0.17526535945243507,
          -0.36945921280054683,
          -0.2460471160541432
        ],
        [
          -0.4840443045378755,
          -0.2671410273941078,
          -0.279857591944698,
          -0.06858437169894228,
          -0.15282305391635082,
          0.12659374927562111,
          -0.10250860249519692,
          -0.17256124003610837,
          0.3863616553058394,
          0.17509702891546702,
          0.03326954849322767,
          0.3468958569382044,
          0.2535440417215651,
          0.428264406983823,
          -0.18829521380022135,
          -0.027962252146847104,
          0.2974563748394345,
          -0.1881115405678158,
          0.0463489136108009,
          -0.03971890751417275,
          -0.15275137804584132,
          0.06414948720997599,
          0.3982648681902819,
          -0.10106915010030725
        ],
        [
          -0.17490478374545643,
          -0.11564746910327137,
          -0.06701924221681352,
          -0.20791156743723246,
          -0.025836609616406978,
          0.12605203549882624,
          0.5207350752503287,
          -0.3207039877072071,
          -0.22187092749473167,
          0.3225691546928359,
          -0.44248107168304174,
          0.06367222534257744,
          -0.4822960548089699,
          0.3343407106061932,
          0.19711684131298496,
          -0.007413143855459449,
          0.08878271906011748,
          0.3467455883415714,
          0.2982838144927264,
          0.49862547274325614,
          -0.16766460926722915,
          -0.4234383705872839,
          0.060341353224491544,
          -0.27696810409087835
        ],
        [
          -0.22220887665642156,
          -0.11225392928583428,
          -0.22338210734279185,
          0.1338356040467674,
          0.4879913077377417,
          -0.20786293913993434,
          -0.027838763568891638,
          0.46529020964795353,
          0.2843442363814588,
          -0.4409246938276089,
          -0.5270892035847943,
          -0.13721375088320376,
          0.09056909258274722,
          0.2070231113811794,
          0.08748773413418963,
          -0.1399937745667155,
          0.11456833720088272,
          0.1163423202111812,
          0.3617575811336489,
          -0.6025664112046116,
          0.2504789384018572,
          0.12296999510990043,
          0.247962208024038,
          -0.16982482572932597
        ],
        [
          0.11984625290824577,
          0.2397591736803705,
          -0.03800774804499521,
          0.2285852460265974,
          -0.3704952588663581,
          0.2190548029521236,
          0.06011739313464655,
          -0.03023011303126919,
          -0.10612212832860957,
          -0.22726032153976639,
          0.1776686078232516,
          0.2015635404650106,
          0.07577774103330577,
          -0.3334615164111599,
          -0.3292197023293493,
          -0.18378801633252623,
          -0.027326538427662438,
          0.30498799808159155,
          0.07737005543687236,
          0.2671686270234564,
          0.1629203906217642,
          -0.24102232070480265,
          0.04330289581815641,
          -0.4097522481799758
        ],
        [
          -0.03248441428975016,
          -0.08966053975915278,
          -0.2037162740548639,
          -0.20404154618832462,
          0.06789247731889876,
          -0.2159125212531272,
          0.31831560618709204,
          0.09818987792387239,
          -0.20749115445591915,
          0.23212988719937025,
          0.3412641263956736,
          -0.15063037355695694,
          0.17340585949169354,
          0.2487207367013635,
          0.5508289786007461,
          -0.1887467912338191,
          -0.5024498787182581,
          0.03981389700883672,
          -0.2687050781425736,
          -0.47322110612150503,
          0.11189667480750524,
          -0.15677876978627722,
          0.47869771790626814,
          0.03277095851869246
        ],
        [
          0.003585078137230889,
          0.4200048218394543,
          -0.20691320848118905,
          -0.03170351917017292,
          0.5466964350070954,
          -0.34523689276951197,
          0.15169814693353284,
          0.16406427095852183,
          -0.2797250520799722,
          -0.351826479401684,
          0.20947196364307022,
          -0.39825048219212894,
          -0.03942997081348128,
          -0.2858301876808209,
          0.15936723506918513,
          0.1225881700729556,
          -0.3482475435265792,
          0.49752213531398726,
          -0.2605636343051655,
          0.06085906541271107,
          -0.0741593727327511,
          0.0989338496502154,
          0.02106347762316181,
          -0.03824827220445769
        ],
        [
          0.03904046858766503,
          0.23693155897310877,
          -0.2908405280079556,
          0.4336965990884255,
          0.5182789346450397,
          0.4561897611112026,
          -0.020993607422658395,
          0.33596677447557555,
          0.2244776408286216,
          0.2595011682793099,
          -0.04671635721867201,
          -0.397992331018808,
          -0.13879160788884737,
          -0.38356329739865513,
          0.2770501856939624,
          -0.23714063644818664,
          -0.37856377125002894,
          -0.28476175567354745,
          -0.12197696809984498,
          0.2517241061878849,
          0.08512112475396973,
          -0.31994171870157867,
          -0.38532883363461595,
          -0.13748910613886178
        ],
        [
          0.39824727434853613,
          0.2571603753380821,
          -0.31154891662667095,
          -0.02569578623801054,
          -0.28277961670315865,
          0.1266922657089218,
          0.22208942104071833,
          -0.14424712463631822,
          -0.4453248784026982,
          -0.353806759098718,
          -0.3251329196456077,
          -0.2424664268179155,
          -0.26646337493656463,
          0.28973847632230565,
          0.3368238772181308,
          0.21136324751790558,
          0.22922540390131635,
          -0.12034820192867778,
          -0.014059412789828465,
          0.04960129025817296,
          0.09570351420197948,
          -0.11222141564020871,
          -0.00686198591171474,
          0.3387570442708058
        ],
        [
          0.14895627577953943,
          -0.294371183614546,
          0.18873456337292038,
          0.08631142770536845,
          0.20750764332742308,
          0.40457068214371134,
          -0.3884246289337556,
          0.028634174399662465,
          -0.016854859374127798,
          0.5492987578665389,
          0.06495881833855321,
          0.25102372759349306,
          -0.39154552863023456,
          0.1920955122235489,
          -0.15063415683767892,
          -0.3251755529210268,
          -0.18620110779970062,
          0.2147697090334133,
          0.14472439361799447,
          -0.026797993564207766,
          -0.1996752890604393,
          -0.13074893346581418,
          0.011558543960610184,
          -0.7076953254262109
        ],
        [
          0.44120856378334444,
          0.3913566574380132,
          0.2012296283418017,
          0.04204967647281804,
          -0.4224671792652812,
          0.09670464799888116,
          0.25195709486895024,
          -0.1202091987652082,
          0.11289181719655333,
          0.3849850273069188,
          -0.36740030806237867,
          0.22175007654845294,
          -0.40872132443334447,
          0.1848311240106096,
          -0.04753050214284867,
          -0.48332104372323503,
          0.3202379093365528,
          -0.18356240234633753,
          -0.07727378527055172,
          0.020979771422962878,
          -0.37418735156979793,
          0.041874683932878944,
          -0.1369168693212855,
          -0.06899742243636961
        ],
        [
          0.009761332972812255,
          0.12509370665635178,
          -0.2241767010114893,
          -0.6466447330004756,
          -0.18518413318691782,
          0.21603702892381577,
          -0.2908986623550552,
          0.2396446394557437,
          0.09771951453115806,
          0.29235366978858873,
          0.16404454773760246,
          0.44769004082461894,
          0.304664067999182,
          -0.37115466098189714,
          -0.2691851158177539,
          0.0664216998412813,
          0.4133223535611961,
          -0.41677260899294494,
          0.024554080143176872,
          0.000226097936666684,
          -0.2017425644666202,
          0.3522511213171781,
          -0.2519708316963179,
          -0.3036138487322558
        ],
        [
          -0.13700851322787408,
          -0.09949425256675926,
          0.2831874901950772,
          0.13430946678771125,
          -0.18998879027066762,
          -0.19886560707690826,
          0.09888369537527321,
          -0.005567432040731865,
          -0.025673090888386103,
          -0.14402093521117895,
          -0.08006544253782981,
          0.07107250810089237,
          -0.09491003367207877,
          -0.07311202615108602,
          -0.07832538612589358,
          0.044540819192038415,
          -0.09166832950593906,
          -0.13136781725715294,
          -0.016308105473994916,
          0.04339183841960242,
          -0.014618558151867089,
          -0.06889779941681433,
          0.35927247062330286,
          -0.08403931625781119
        ],
        [
          -0.35977641700286045,
          0.11349905402685455,
          0.1693365435657495,
          0.07885146807162036,
          0.2046538619789059,
          -0.32479831544554727,
          0.2922215984417552,
          -0.03182303583891285,
          0.049560443812897835,
          -0.3119253710632335,
          -0.4013658387325838,
          0.3788338840999836,
          0.2052087408187549,
          -0.1413508823058839,
          -0.05837145330325901,
          -0.10074357579568231,
          -0.17421289691282515,
          -0.21663804444326096,
          -0.043237576147364364,
          0.30307688969007035,
          0.16695367091652727,
          0.30028589327012994,
          0.26597498993135754,
          -0.3514860998582305
        ],
        [
          0.03882386058317656,
          -0.37170817722363625,
          0.21300092799623443,
          0.5501085173689952,
          -0.45582824183161724,
          0.308752485649628,
          -0.00031806003312241264,
          0.13794508254237955,
          -0.002504134748524741,
          0.42691454586232597,
          -0.28975749006557294,
          0.039059005326354215,
          -0.5068219129286378,
          0.3647971006122236,
          0.29057531558810124,
          -0.3229135879196528,
          0.35109986011147837,
          -0.26444090475922466,
          0.08629287714367284,
          -0.27475771575241326,
          -0.45657763878134594,
          -0.2568213485405086,
          0.5679241290039317,
          0.13971051173521634
        ],
        [
          -0.01204777181597838,
          -0.09061486712054727,
          -0.09460565742738009,
          0.27846558638386204,
          0.2247274023079669,
          -0.23179150278155258,
          -0.06663507794434097,
          0.0732871717996075,
          0.259449066617099,
          0.3738607020182257,
          0.21641926834371158,
          -0.2658080659417351,
          -0.3610006459025561,
          0.3827840008066986,
          0.05023918081773099,
          -0.1791665272498343,
          0.061057891583111285,
          0.11385746492955233,
          0.06191735310885956,
          -0.17330133160377897,
          -0.11729885953112956,
          0.0017390809059834702,
          -0.43699826597996694,
          0.22487489035409858
        ],
        [
          0.07549001358838235,
          0.03156661956281263,
          -0.2295757357511697,
          -0.12906319397895002,
          0.3534730530957565,
          0.4461971834409088,
          -0.2805729818023474,
          -0.002820056553378651,
          -0.021454031619175726,
          -0.16217419372790817,
          -0.08691764193475499,
          -0.024056011461187916,
          0.23531296247268887,
          0.0677538858407763,
          -0.13454149156393552,
          0.11128176321233742,
          0.36848618864002153,
          0.2344264796841452,
          0.14591543984512295,
          -0.27599871550835764,
          0.1412712705367382,
          -0.06012816980945694,
          -0.3502852860393981,
          -0.24421684203751937
        ],
        [
          0.20505703247274024,
          -0.22927751927805617,
          -0.31639307565393293,
          0.2787177301481566,
          -0.3305869845250323,
          0.01605082138568718,
          -0.13385545071482824,
          -0.1269371750191794,
          0.18789707851219437,
          0.20107871208830555,
          -0.07490271209930012,
          0.09094163681378174,
          -0.1820058456748725,
          0.1280003298570622,
          0.06296676818996656,
          -0.20284935114608585,
          -0.024671157678716357,
          -0.2630777967846339,
          0.0005510810618006347,
          0.10017742305855842,
          0.3141873136547495,
          -0.012314511975426693,
          0.21182553477466146,
          0.2652978815404545
        ],
        [
          0.0030143897753310517,
          -0.3306115694927313,
          -0.3690718371967417,
          0.46206642121120417,
          -0.36051274857210236,
          -0.40909319938749017,
          -0.008599635767094929,
          -0.13280347822497687,
          0.11197229175500555,
          0.18005178466992533,
          -0.4768072289570094,
          -0.2389182589518215,
          -0.4707673340807137,
          0.22947105017991146,
          0.306969504431429,
          0.09437355935059207,
          0.2719365526034791,
          0.0916443592130009,
          -0.22773108275686985,
          0.48131727253681283,
          0.0034564657635971496,
          -0.08079748057933285,
          0.43483739467345284,
          0.20165255265414628
        ],
        [
          0.102349514905998,
          0.11706287500875348,
          0.6416049677769571,
          -0.10406621023751743,
          -0.4216044768840386,
          0.24577961013109278,
          -0.3636994772167178,
          -0.1402040714414839,
          0.3429375566630167,
          -0.0674543134575284,
          -0.09568585832724572,
          -0.15128864535093856,
          0.26743607910861555,
          0.35989457597962454,
          0.2464948940595596,
          0.42508557459400337,
          -0.14927067896775412,
          -0.3969100888782169,
          -0.07673030125434102,
          0.1303799879381195,
          -0.35055873805536714,
          -0.038164509314824686,
          0.06563232409836814,
          -0.42345199481202694
        ],
        [
          0.29458164600555425,
          0.013021466513913888,
          0.595497808201455,
          0.5701462014183099,
          0.1926627766313972,
          0.2830944912843038,
          0.3023757263211105,
          -0.24645386368221858,
          0.37654670309924754,
          -0.10521498395634477,
          0.1629668561840691,
          0.22618678333803235,
          -0.09730455858549791,
          0.06286636704228832,
          -0.43059615940858265,
          -0.22391102991534614,
          -0.21716541502490788,
          -0.3433414075394751,
          -0.4272979369766477,
          0.06284748224240602,
          -0.46064180959268264,
          -0.11818809246600476,
          0.14452256923120999,
          -0.3303523623755755
        ],
        [
          0.2623472102943153,
          -0.18605108793981992,
          0.07601023083195174,
          -0.27109025353674304,
          0.13893347822212582,
          0.20501138979895006,
          0.4757193358572766,
          -0.36074339818821505,
          -0.020327247038574803,
          0.051894602117440604,
          -0.06827733364370907,
          -0.13422337894346545,
          -0.022092298340911695,
          0.12579682703338171,
          -0.3501801087799189,
          -0.1772656791730689,
          0.3802141071065355,
          -0.222449051968296,
          0.04979365894701808,
          0.0023880209975210447,
          0.2157544790177448,
          -0.26638053337255646,
          0.18396296986527905,
          0.10262969343642556
        ],
        [
          0.03505918333947546,
          0.4100959434249307,
          -0.4262760531544395,
          -0.0031106677755067622,
          0.26818864430832356,
          0.08318165367597376,
          0.1752684034660891,
          -0.24432069294977518,
          0.17339985850336348,
          -0.043554129282268254,
          0.3944389852285188,
          -0.10105689164976064,
          -0.0643259855516924,
          -0.5871313288970086,
          -0.3714010274408646,
          -0.06620366727867066,
          -0.3192919190784227,
          0.3646418473030164,
          -0.012288495607299256,
          -0.1792629806386584,
          0.06469777977203217,
          -0.3093491262425011,
          0.11519192458192481,
          0.43628873679477564
        ],
        [
          -0.21205560769665127,
          -0.13382424683386693,
          -0.12212336768544475,
          0.36470759936159164,
          -0.14451607929043236,
          0.5329030381877361,
          0.3045214902024678,
          0.2411033992682596,
          -0.017014050044137797,
          -0.06000678953272037,
          0.16009586204220697,
          0.41515187762884664,
          0.24697805223745953,
          0.1895355928345976,
          -0.3748977673464514,
          -0.23667704132307268,
          0.3547135901981605,
          -0.0654956759167501,
          -0.07184303275690435,
          -0.1860310437525816,
          -0.11868507744635738,
          -0.2805862691256041,
          -0.31807213272679224,
          -0.431477853387942
        ],
        [
          0.526468500249132,
          -0.14168687774524522,
          -0.01549678719704494,
          0.21575131695710453,
          0.05607207076524901,
          -0.2005333918005514,
          -0.11959337766119403,
          -0.019785615306835713,
          0.3455356248050621,
          -0.03603895866241147,
          -0.17966907035410842,
          0.3067646603412879,
          0.04356322582184125,
          -0.1782016243861561,
          -0.11111904430417138,
          -0.27846950719836133,
          -0.12118911054054717,
          0.28267487852389866,
          -0.1425328713686336,
          0.0322849629785414,
          -0.12788745413471456,
          0.062442263943374814,
          -0.032357718800673084,
          -0.2667011845862503
        ],
        [
          -0.16217410267220464,
          0.0143077568268739,
          0.048557341494186494,
          -0.33410919899693475,
          -0.24278962895855405,
          -0.18173757795694792,
          0.5080829853235737,
          0.2695905760858979,
          -0.00018007435812558708,
          0.17003462860336335,
          0.14985305416415937,
          0.19004639373972018,
          -0.37029732384967107,
          -0.3203827567428652,
          -0.4495861149372502,
          -0.05011641293401129,
          0.492943650761062,
          -0.011806391284854062,
          -0.31712094974133453,
          -0.36565999161013724,
          0.28207411779817204,
          0.4798444878722869,
          0.23457860015877652,
          0.1946627822421641
        ],
        [
          0.16340231307989722,
          -0.14125521424433277,
          -0.29819540042868214,
          -0.4336113033385303,
          -0.11461406131799504,
          -0.3612237211741392,
          -0.022919236884678482,
          -0.21950421047816465,
          -0.08193152396683354,
          -0.5283643176377812,
          -0.21546837629923934,
          0.30576148141340004,
          0.4055148016876146,
          -0.12749923798047513,
          0.42014301585756203,
          0.37763463339833153,
          0.3167273051993782,
          0.07095395865069878,
          0.3528036372925627,
          -0.07079149495812585,
          -0.13405167222668238,
          0.37355342242845263,
          -0.1957004459395833,
          0.0606995442881439
        ],
        [
          -0.32253574518191863,
          0.19284375470697013,
          0.2993382229703981,
          -0.167930129482332,
          -0.18711798608169747,
          -0.2875415397214596,
          -0.36392099098980796,
          -0.14871014489157847,
          -0.2307699598810444,
          -0.293430192573799,
          0.1265438067411838,
          -0.1079263358454744,
          0.18409571903678335,
          0.20112639955359282,
          -0.1081712833823634,
          0.37649920962951616,
          0.29900883898872477,
          -0.13152724908771946,
          -0.13499811326668393,
          0.17501795676533663,
          0.1576256442407307,
          0.5731081164076846,
          0.1126793130758023,
          0.15980310539697642
        ],
        [
          0.027270478080962134,
          0.039801817800396884,
          -0.11327449025235553,
          -0.07029123840335806,
          0.24050100813913217,
          -0.4561447921414595,
          -0.3830553311040232,
          0.10311986793705322,
          -0.5041702814074445,
          0.008106783669142872,
          0.15476181342137574,
          0.19419963702363266,
          0.4432195560427474,
          -0.3496856959922362,
          0.44828406575521146,
          0.427595509234661,
          -0.39289709087094515,
          0.25093762206815834,
          0.3297322856004703,
          -0.18084900480108193,
          0.3699860272345937,
          -0.39117168754242754,
          0.060817875571564296,
          -0.07916681737746784
        ],
        [
          0.25687435894981064,
          -0.4735170288488052,
          -0.2842363207411898,
          0.207920961662159,
          -0.22225722106322415,
          0.24787871621856403,
          0.18405271830829423,
          -0.2890561137862798,
          -0.07330273669963831,
          0.46230240553467217,
          -0.15859882935972508,
          0.28578075330218117,
          0.10058153408907822,
          -0.23249558978033186,
          -0.02874904609372257,
          -0.5094434721541512,
          0.19729135626571537,
          0.05657736448727244,
          -0.12751818434831771,
          0.0045331540644739056,
          0.15307885863869422,
          -0.37566288361748923,
          0.6560438739584113,
          -0.14410571417226728
        ],
        [
          0.23675240934599226,
          0.17675015934203286,
          0.38009411539002147,
          0.13485281349629835,
          -0.15773064441020063,
          0.46896830517741894,
          -0.05552815156310101,
          0.2937189909674018,
          0.059380450245891475,
          -0.39845571334147795,
          0.02840658417882614,
          -0.10305592751918354,
          0.36726953085149716,
          -0.11772730112056422,
          -0.30416033063423287,
          0.12407794243959877,
          -0.47449579952121024,
          -0.4504629807255375,
          0.11726210549081373,
          0.0028850047523172606,
          -0.1302585491528632,
          -0.3769704153362214,
          0.14888775805933055,
          0.004708412940909614
        ],
        [
          0.053614360422019364,
          0.05720583640752016,
          -0.02998717893389425,
          0.3319657692141775,
          0.4008605378058232,
          -0.3089056260924923,
          -0.3340492917219407,
          0.26362537778125833,
          -0.22094136612724732,
          0.1887664992612566,
          0.0947698495404331,
          0.047416692275221904,
          -0.13186413958371546,
          0.22913717890594448,
          -0.23441342062412596,
          -0.2856245444418837,
          -0.11507997828132399,
          0.28829100744935765,
          -0.20029162987182553,
          -0.003933040697592226,
          0.017881087017937117,
          0.3243874867459126,
          -0.5922969410714156,
          0.34929595182100953
        ],
        [
          -0.22065620756733906,
          -0.4705861771178132,
          0.2557108805264302,
          -0.5951509222837262,
          -0.009190710444872269,
          -0.13839871456269687,
          -0.161294746762765,
          -0.3644717372020678,
          0.2668276138537824,
          -0.2790716258007562,
          0.3954605621081821,
          0.010690090686818742,
          0.43525795379854776,
          0.06881946073347707,
          -0.08995059443676569,
          0.4156637443683729,
          -0.12327126038148009,
          -0.3306192065907366,
          0.23296445947659192,
          0.013737512294947034,
          -0.1449634060832877,
          0.41409892258485986,
          0.2636235308608389,
          -0.09592238474515176
        ],
        [
          0.09282290298108269,
          -0.25609146070196004,
          -0.02345000322611955,
          0.14484455027495763,
          -0.2707178175966584,
          0.31461625814059296,
          0.0195025260649871,
          -0.5636828780588569,
          -0.20498595905580175,
          -0.4401249671086275,
          0.22210043584737701,
          0.4804564539590859,
          0.06540750873212195,
          0.49023378738478446,
          0.14500336209052564,
          0.12391230142623083,
          0.18199082030242716,
          -0.49401331173377866,
          -0.10830606009081133,
          0.25764892877856815,
          -0.24293244572687886,
          0.3502874045466294,
          -0.06383118769975882,
          -0.4177869869119293
        ],
        [
          0.4825108554054244,
          0.35029587082578856,
          0.28536888160427304,
          0.13959601142120986,
          0.24565732465581427,
          -0.36184378121029365,
          -0.028546183907134294,
          -0.4785386572966248,
          0.020572144002606145,
          0.3583525018564758,
          0.3895582307604684,
          0.036517669700106684,
          -0.05602989627494542,
          0.20923488992554298,
          0.031016336929691395,
          -0.46073296052470325,
          0.03178602972086219,
          -0.048141016918553346,
          0.04441317769243317,
          -0.4274099973772201,
          -0.111725477727281,
          -0.572651539894754,
          -0.04995017913895152,
          0.007153299745643987
        ],
        [
          -0.4118710410892799,
          -0.16317625347905088,
          0.16298182316534193,
          0.21260863056285093,
          0.03633474722082564,
          -0.02430853297731792,
          0.16660592682779693,
          0.4071376105623767,
          -0.1424738552919601,
          -0.23794927881443562,
          -0.15960610600903816,
          -0.09777413723678666,
          0.18659101898785552,
          -0.6524529147592721,
          0.4809549076182761,
          -0.19179431748820588,
          0.033943005493605356,
          -0.39381187998876827,
          0.28660506609501685,
          0.538662173964091,
          -0.0991585972897474,
          -0.08397738754974371,
          0.2747475140545598,
          0.2002676372478098
        ],
        [
          0.4553872709638316,
          0.38746285110166984,
          -0.17252264856951174,
          0.06395088561116362,
          -0.34901735714608656,
          -0.29848044132114576,
          0.26873536190848657,
          -0.0318868841194895,
          0.3155501775288113,
          0.21323358905648976,
          0.14309786299026944,
          -0.218906443751255,
          -0.4447262917344705,
          -0.23672529925180538,
          -0.07292429751950696,
          -0.09776476234217919,
          -0.05911788178686054,
          0.3052349389736124,
          -0.2877264741503406,
          0.17786030301870284,
          -0.2749133240126167,
          -0.3502000373105637,
          0.061740582540056266,
          -0.08525799162202623
        ],
        [
          -0.24210144766699193,
          -0.11207645573728466,
          0.06021249583800701,
          -0.13696369117576307,
          0.33727668363454893,
          0.41858671650131873,
          -0.06313589273575694,
          0.06843013430972816,
          0.6315577176125186,
          0.054388972239561066,
          0.16675351777284012,
          0.3101862980645795,
          0.05970162958134852,
          -0.2172941548234653,
          -0.10958621442627942,
          0.06922893578284992,
          -0.3103875838658322,
          -0.4812977347727966,
          0.31548839152316993,
          -0.06893301444671024,
          -0.49857580887590724,
          -0.0072775970051735216,
          0.2749518919055658,
          -0.42268720284799
        ],
        [
          -0.21780263565487573,
          0.021027695943465787,
          -0.3487906765765562,
          -0.11759841474598341,
          0.20113418371696318,
          0.29837700851854876,
          0.014654514837442576,
          -0.2075971984189363,
          0.08089145752139672,
          0.18717557780646987,
          0.3297442525707032,
          0.13889524271034998,
          0.35029764653863305,
          0.38588133708213235,
          0.2678067351620339,
          -0.0569721993200707,
          0.017236322344319772,
          -0.28355895154838934,
          -0.4222402088436724,
          -0.16221689163029918,
          -0.25261833982908927,
          0.27517805608293355,
          -0.21750896381165272,
          -0.3608739908218066
        ],
        [
          0.14818062309717617,
          -0.16112793015751642,
          0.4334055213424384,
          -0.3708562507844869,
          0.34230095260960286,
          0.33093026053841834,
          0.07980866136065164,
          -0.2709653604490802,
          0.4079673272618357,
          -0.5689429730905549,
          -0.13495883235493983,
          0.18649329840036116,
          -0.22123172058397556,
          -0.2544532191708803,
          -0.07340930950335418,
          0.4144753133421226,
          0.35274288459152214,
          -0.27291458578165106,
          0.23642566951803867,
          -0.20639865803449736,
          -0.5106586759500554,
          0.3565454118990075,
          -0.18374543696332393,
          -0.22378789971852323
        ],
        [
          0.17451287190897655,
          0.18748778914357628,
          0.06046648626286654,
          0.020396208063360604,
          0.08154030293524865,
          -0.14636643075986558,
          0.07702129959811166,
          0.1719121966716686,
          0.01295675618615403,
          0.04849393719920335,
          0.3785209989915529,
          -0.1598005108788948,
          0.202450964214117,
          -0.18949176817608346,
          0.025853111721456365,
          0.1835473840185837,
          0.24514766840888041,
          0.40573626043145633,
          -0.25588708315285014,
          -0.567638696921936,
          -0.43224349504119686,
          -0.32061371706749286,
          -0.4245539334513264,
          0.01369721806588725
        ],
        [
          -0.11299737454577177,
          0.2979924097801885,
          -0.036533561565955774,
          0.07569226956989311,
          0.28562480357284364,
          0.4995132686512627,
          -0.3035742899232701,
          -0.34948260010778975,
          0.34214345236753824,
          -0.008976872625408836,
          -0.16519623286312884,
          0.0023300675729161064,
          -0.04525585137855751,
          -0.2505463541431223,
          -0.19611825207168035,
          0.4327443015263912,
          0.4265911482268529,
          -0.19513007744694105,
          -0.04440229595390718,
          -0.23846267983789646,
          0.07135825104479594,
          -0.06722311166241372,
          -0.13820335690961036,
          -0.3434672610704789
        ],
        [
          0.26443879156745875,
          -0.552547340253237,
          -0.12080180741543121,
          0.3153002815898787,
          0.2762513276394573,
          0.08020738313698322,
          0.21538673523692534,
          0.05963339694989656,
          -0.35461598936175076,
          -0.1715575557497655,
          -0.09793797703824915,
          -0.14980411283491335,
          -0.058158626831150806,
          0.2336345715485867,
          0.04871887374713545,
          -0.3723646247019529,
          0.16782981050960927,
          0.13956300463687446,
          -0.33724872447988735,
          -0.10476034072427373,
          0.20374461849840564,
          -0.16041733788446688,
          0.13475762813019954,
          -0.060994136349445734
        ],
        [
          0.2928362233058958,
          0.2894519995213022,
          0.2334424419261498,
          -0.09234936828279916,
          -0.4660247652284337,
          0.04410499771252101,
          -0.3329632988300511,
          -0.10036763249759066,
          0.19410070038568839,
          -0.43982569885478257,
          -0.05933494971199415,
          0.13707777646868485,
          0.2856812134473189,
          0.5510719439888683,
          -0.5958449940823458,
          -0.09339286349014982,
          -0.3042112291927646,
          0.22617319893154952,
          0.22299083466553585,
          -0.05024156263261168,
          -0.021769981973425948,
          -0.08530431382950832,
          0.22790917962137106,
          -0.09543186197968401
        ],
        [
          0.41906063707653674,
          0.20248951951602542,
          -0.23386681245734722,
          -0.2546910487970324,
          0.1426694266023953,
          0.5076863847688973,
          0.2153955173174767,
          -0.37673027800401504,
          0.29589920992948177,
          0.2720660588219083,
          -0.03915111521500137,
          -0.2995698608392476,
          0.14103685104547262,
          -0.14579956187033005,
          0.0015239177326218441,
          0.18082677830996755,
          -0.21813617086581177,
          0.03641399720404666,
          -0.5430724585491162,
          0.10705220924385804,
          -0.27407566118994764,
          -0.18214513231887086,
          -0.07665575056487353,
          0.3391091530207751
        ],
        [
          -0.3079362412991569,
          -0.506256282916593,
          0.18992429041606476,
          0.010381690856997491,
          -0.19075434583378603,
          -0.18250080523632467,
          -0.1290945055267573,
          -0.43840909070916045,
          -0.21555794400351735,
          -0.05082836761112995,
          -0.49469625028168085,
          -0.10549196052241179,
          0.3083211783820881,
          0.3219145165862723,
          -0.11050469837096354,
          0.5200130919014032,
          0.5670308458470505,
          0.25812380833730236,
          -0.30073727535270095,
          0.15464411192053926,
          -0.11002037839293438,
          0.06386749691659722,
          0.5439769217750025,
          0.43835793112364335
        ],
        [
          0.1061295362948084,
          -0.11843577900545572,
          -0.16607522482198808,
          0.11252077402153754,
          0.178486224828513,
          -0.19803056006754996,
          -0.21449709122321164,
          0.09855859085341258,
          -0.41796319089814765,
          -0.4347972271269364,
          -0.13446904702915174,
          0.25541284675451026,
          -0.32304455462257053,
          -0.1052051110678391,
          0.0481339822867996,
          0.39240083529539405,
          -0.2775259605270785,
          0.4664370276012389,
          0.18600751503426186,
          -0.021976718689394815,
          -0.13391283490475817,
          0.3360735751527047,
          0.0021595259969889643,
          0.4018777037467386
        ],
        [
          -0.15635168198436056,
          0.1942794126974323,
          -0.08010985875490215,
          -0.20558772595259917,
          -0.20651848888623445,
          -0.04219325660918599,
          0.055092814426470384,
          0.020449060981458433,
          0.1017730973396036,
          -0.0042995646913355405,
          -0.01967916147059361,
          0.0009509483155877115,
          0.22880981967172967,
          0.08118796370626097,
          0.20204064758097803,
          -0.1684507018087078,
          0.23735455636964178,
          0.20322710222985263,
          0.08494811876430246,
          -0.1710726400530694,
          -0.04040092659244759,
          0.22660291466512045,
          -0.02154022445817627,
          -0.23919409042786022
        ],
        [
          0.4203106175535548,
          -0.13672178548327152,
          0.10950469342066069,
          -0.4156538520033207,
          -0.035009498784005576,
          -0.03566801358244958,
          -0.09104621959497022,
          0.38876474362303176,
          -0.1631354265380893,
          0.26223655740441504,
          -0.014899521310646873,
          -0.41117912075250657,
          -0.2252926670434664,
          -0.5128582047082166,
          0.4353678980423963,
          0.1024879031252744,
          0.10941341287720988,
          0.0037011502173756755,
          -0.4723235718347644,
          0.3751156871508794,
          -0.03175248059135707,
          -0.08201666600047425,
          -0.11060976561135522,
          0.1946139018453342
        ],
        [
          -0.41387793489821395,
          0.23672790861777698,
          0.39856617499897024,
          -0.16446029309097682,
          0.06765170939582518,
          0.062412890716763196,
          -0.41778677674414566,
          -0.4451694339532035,
          0.05811778819240947,
          0.1253693679518723,
          0.17945290609742887,
          -0.07228033717096047,
          0.055864056962921856,
          0.3402011230806534,
          0.2872587826254043,
          0.09768665337926048,
          -0.36533835846201357,
          0.04069096576546227,
          0.06938051891258792,
          -0.19625225272922184,
          -0.24365296052116528,
          0.48554318521065193,
          -0.02299004621607402,
          -0.3219212897823156
        ],
        [
          -0.336027393394493,
          -0.14038356400827198,
          0.5280804472432978,
          -0.30612774796764736,
          -0.1620636002930009,
          0.12706670605951145,
          0.24979026110047364,
          -0.10510656857299876,
          0.12430678709739641,
          0.035806638502440674,
          -0.5159334372789542,
          -0.21258558379090767,
          0.3159937960982767,
          0.1605396657294909,
          -0.40757103469282696,
          -0.010777990602543084,
          0.4853915628744343,
          0.38044502276196007,
          0.18247889846172247,
          0.12835144414902722,
          -0.4006888745469028,
          -0.10843294212888033,
          -0.02401667724227934,
          -0.06093490988444685
        ],
        [
          0.0033991534012211715,
          -0.1457605490180031,
          0.08264953454920743,
          0.0927994530252331,
          0.18565220315081168,
          0.40593269886588906,
          -0.45286311483329267,
          -0.17584321193307653,
          -0.17146518935415117,
          -0.23957279511858237,
          0.3718891404839718,
          0.2506530029754992,
          0.28570596346080324,
          -0.36641974178058845,
          -0.2380124506007744,
          -0.291529163280714,
          0.16800251095311225,
          -0.3789302506525226,
          0.37402412574842087,
          -0.059778710658458765,
          -0.5362641175905639,
          0.22188979954688595,
          0.269235937612029,
          0.17519079411642305
        ],
        [
          0.3236658061699264,
          -0.1895967876192544,
          0.08244238513955536,
          -0.030274694432619605,
          -0.6391329830488722,
          0.006092460120640229,
          -0.3438444639242221,
          -0.34595342879179125,
          0.12444387385861425,
          0.19110096288506173,
          0.19670838494777013,
          -0.34984338318571045,
          -0.21290583404532895,
          -0.016435119399662364,
          -0.005872232435219494,
          -0.24951711541301405,
          0.5150138759861637,
          0.02661388240729871,
          0.18809579422028255,
          0.35686319017518653,
          0.22600207227621763,
          -0.20641916047820089,
          0.10954522147599949,
          0.0614789784314643
        ],
        [
          0.03869648927513896,
          -0.1721298257212093,
          0.276476638145077,
          -0.5489427761497835,
          0.444810427929205,
          0.055990360569129004,
          -0.12961037700873165,
          -0.22276568590732324,
          0.4054522339247978,
          0.2813891448698217,
          0.2534714134795033,
          0.23456906944517597,
          -0.30055720563400395,
          -0.3602962878864308,
          -0.1765081902550461,
          0.1573478102623746,
          -0.024533761121357044,
          -0.5589068306941356,
          0.2720661642446514,
          -0.12873731786215953,
          0.04264797490084095,
          0.18862582389960386,
          -0.08397893582580737,
          -0.07565667146081684
        ],
        [
          -0.4052476770923004,
          0.2335935137509856,
          -0.33376716969421266,
          -0.2372834611560534,
          -0.2268437568193382,
          0.06139090387414003,
          -0.29069471672353986,
          -0.3937110660674735,
          0.14910936450555043,
          -0.3203743164885119,
          -0.32130600451967656,
          -0.5024291431597665,
          0.470314183352654,
          -0.15536696830237415,
          0.15998874665113524,
          0.46551044856440454,
          0.18486548638524286,
          0.2359951783176103,
          0.4144305931828676,
          -0.19625616898841225,
          0.29141769285048186,
          0.31768680887906225,
          0.44340807120849635,
          0.014257257161434111
        ],
        [
          0.0898567657683339,
          0.04756994365080127,
          0.11783829606460614,
          -0.2340703273190031,
          0.22688670203998657,
          -0.45106994666019723,
          0.2080067384823281,
          0.17237267744732984,
          0.07805766112024087,
          0.15949877243962282,
          -0.015852671402747275,
          -0.3130958891982038,
          -0.0621834747149913,
          -0.052535343014387705,
          0.29420322249236514,
          0.07581147900851201,
          0.1226781508570762,
          0.22094840682131897,
          -0.27077193553071127,
          -0.3193331756748454,
          -0.3173920770905443,
          -0.22298758079511175,
          -0.39929522023028036,
          0.3390698873875352
        ],
        [
          -0.3457943758314144,
          0.32523112652715597,
          0.3368547032936796,
          0.10265090591932073,
          0.36967850645007816,
          -0.05138618098958691,
          -0.4294604273052331,
          0.15786012003661,
          -0.20891828117816486,
          -0.10643658910057621,
          0.4226480142295539,
          0.2786326201815396,
          0.32270434525744895,
          -0.3213481524618054,
          -0.2958293982290331,
          -0.05543084971588562,
          -0.14609644962468724,
          0.05838248129867326,
          0.49526240010964345,
          0.08014228193896646,
          -0.049258087905309646,
          -0.14046876286688398,
          -0.5722843964746145,
          -0.03474474908051595
        ],
        [
          0.36257955026570854,
          -0.20946665214755253,
          0.22311087384249226,
          0.19982532786428467,
          0.17127370386121088,
          -0.06094968230274249,
          0.09033345315338553,
          0.28185996770470245,
          -0.2725791769212556,
          0.14031501894930762,
          0.08215053104412115,
          0.08310417139758773,
          -0.4007069942584441,
          -0.3437143298759238,
          -0.018064002781178843,
          -0.06831459981148495,
          0.10527158927152724,
          -0.09638260442464608,
          -0.5796161029519906,
          -0.19891004917952218,
          0.3378735754169603,
          0.07909693315494132,
          0.18189236760767513,
          -0.041452638402841684
        ],
        [
          -0.12631961938794736,
          -0.18715577150014345,
          0.35884327660953075,
          -0.10275878545808888,
          0.1806672202418263,
          0.07620263232378839,
          -0.16706124878055884,
          -0.12077268214119509,
          0.10846233730216473,
          0.39330056071767616,
          -0.35671080268399796,
          -0.20383747629488336,
          0.290617017603587,
          0.006224656110919774,
          -0.051543583347785686,
          0.09093901746089965,
          0.28049746566156175,
          0.2581462655232479,
          -0.3394680738751247,
          0.08658569057606041,
          -0.119432414170772,
          0.033561253731008656,
          0.32327512711795725,
          -0.4997801996890716
        ],
        [
          -0.1028206193578691,
          -0.25029734997408837,
          -0.07493968494176899,
          -0.11339226434863285,
          -0.26271708104344854,
          -0.11441451952317201,
          0.020153768805773898,
          0.3279835031352041,
          0.4477183779593427,
          -0.45951133596233257,
          -0.3892766596665806,
          -0.3137115808245101,
          -0.05226080032268365,
          0.2832634918208675,
          -0.4054909587763854,
          0.06449680602526275,
          -0.025823495150180252,
          -0.08116751793722461,
          0.35663659834890504,
          0.3562067342486887,
          0.4105535985624635,
          0.43019058246602354,
          0.14158537735021767,
          0.26802331869419344
        ],
        [
          0.3526497779433508,
          -0.21407490511705235,
          0.055520265106997466,
          -0.10827285453462027,
          0.4667695817422476,
          0.23106801920491116,
          0.20197705361044063,
          -0.31671529241429774,
          0.050324959725678305,
          -0.15343196881274898,
          -0.14191406905839754,
          0.02469024646677053,
          -0.04856616563952794,
          -0.17185899865286,
          0.331953711222621,
          -0.32402939728454083,
          -0.2823440752385744,
          -0.26550479638988067,
          -0.38719414639890104,
          0.3831893192346158,
          -0.5164987405704515,
          0.13361240301205654,
          0.3182415734360393,
          0.34327133129213655
        ],
        [
          -0.3710810483847741,
          -0.3320040032107061,
          0.525381023665541,
          0.06316946823761836,
          -0.251478616916406,
          0.3171855474544661,
          0.2885467009455153,
          -0.11214246876795447,
          0.05544495150885281,
          0.20387964819425125,
          0.3684105069726285,
          0.3530157524382605,
          0.1651750104085686,
          0.04834114812061465,
          -0.4384750902554956,
          -0.09595163622668319,
          -0.22062673661678642,
          -0.07412968451568487,
          -0.103412732327969,
          -0.058575256883104235,
          -0.5388170162729449,
          -0.04303339189671977,
          -0.05797325686403741,
          0.14830145701534322
        ],
        [
          0.03835689170390068,
          -0.1301433809931147,
          -0.27978767968605167,
          -0.5641048834860318,
          0.06741137422605917,
          -0.17637402545946318,
          0.17196012777278485,
          0.2568586265304796,
          0.2869976359531844,
          0.47368052657331555,
          0.32593834543147576,
          0.08549255118999653,
          0.009130805561395334,
          -0.3171831597681378,
          -0.09356563976668322,
          0.012550437670324644,
          -0.18665805381812206,
          0.16630232214703838,
          0.06152646199246054,
          0.36740558011217544,
          0.14719622108056085,
          -0.11471840840032341,
          -0.037526820289183305,
          -0.3115263096021867
        ],
        [
          -0.13687058136439154,
          -0.25536957127110604,
          -0.3195178948223883,
          -0.5819818767914546,
          -0.0319425434513452,
          -0.002214075376786531,
          -0.621550556987697,
          -0.037890689872482945,
          0.08347148013398792,
          -0.3254493307025897,
          0.01200714887392108,
          0.037981727817659586,
          0.058414546188861306,
          0.22058327391717023,
          0.21516511336145658,
          0.2505020439224688,
          0.06812399004034474,
          0.03939975257172555,
          0.47117386179489906,
          0.08331899883357667,
          0.21556743648180654,
          0.6030312716300794,
          0.21388102096403616,
          0.012858048553275594
        ],
        [
          0.19814388599671678,
          0.25412195158671486,
          0.281581408809424,
          0.36564511698180374,
          -0.37525653197914066,
          -0.4378287977386868,
          -0.1301032825908025,
          -0.2240325418642093,
          0.4096822806148301,
          0.2340787871220917,
          -0.43031781087942417,
          0.26188800006374935,
          -0.1343421568892884,
          0.29068978449115507,
          -0.07412346407374916,
          -0.47719412954140455,
          -0.05337702946730865,
          0.017901134679959612,
          -0.07171717116878235,
          0.4922527601596485,
          -0.4571622958331198,
          -0.09850002219971597,
          0.2805171851046774,
          -0.2872912157249392
        ],
        [
          0.3575479419865292,
          -0.31819340427328474,
          -0.3129852189011968,
          -0.03441987937442563,
          -0.1272553556619736,
          -0.15632685477169683,
          0.43689218247355865,
          -0.24887566679906148,
          0.16698101154600897,
          -0.018190798159750242,
          0.01115541979989431,
          0.32735644451020274,
          -0.28428844012096605,
          0.45376229086426556,
          0.2898264348732046,
          -0.4100427073471848,
          0.314154823170154,
          0.20292104761198712,
          -0.28519636337348536,
          -0.11321854514317554,
          -0.09479305367527376,
          -0.3822067959889847,
          0.45772102157058303,
          -0.2220176224195359
        ],
        [
          0.02659071141523388,
          0.31518465245130195,
          -0.09147721899087981,
          -0.1468358365841626,
          -0.1780990115938048,
          -0.08849502315822912,
          0.04849886933614613,
          -0.010918195590694905,
          -0.055183316280925675,
          -0.07921900684330309,
          0.0961592658350871,
          0.00019564681218807578,
          0.11733496640149903,
          -0.2019888391053531,
          0.12838860988952572,
          -0.08802740536671377,
          -0.14631253768536553,
          0.1337107199311339,
          0.08020885870893489,
          0.201961663865628,
          -0.18744147047048365,
          0.09415804618037472,
          -0.11662219492176498,
          0.12865690547900455
        ],
        [
          0.3034114060843508,
          -0.3125254692383076,
          0.2735707646268148,
          -0.5172444490453196,
          -0.4361802462695972,
          -0.21553866478462338,
          -0.09709355001570397,
          -0.07289592087963015,
          0.010855286289740309,
          -0.2871408174694927,
          -0.02600159599832714,
          -0.290532042282041,
          0.1774239563261854,
          0.41426029355297717,
          -0.0453990503447168,
          -0.14365012009806755,
          -0.16258340094683943,
          -0.04942613003678186,
          0.38913576273758627,
          0.2510273671230972,
          0.13927614482790793,
          -0.08037688927993986,
          0.3324472972153928,
          0.17007481104063404
        ],
        [
          0.11802064353033138,
          -0.22122032185537668,
          -0.017121070498552698,
          -0.21428172286977998,
          0.0818921884156666,
          0.10622330754075145,
          0.34997628149579163,
          -0.5572038229136925,
          0.4134169690679844,
          0.21891129715096086,
          -0.1665056472644405,
          -0.3496685374812995,
          -0.48710967920459286,
          0.37337895571430635,
          0.011030441457447781,
          -0.22595663855949252,
          0.2760093432191992,
          -0.18800945164621702,
          0.1371534323569464,
          0.3846324209246297,
          -0.014223276475077939,
          0.006468943070924605,
          0.036161423881696034,
          0.22635756987272193
        ],
        [
          0.2765351673832475,
          0.33263357639321495,
          -0.008569759329099763,
          -0.22946176772790391,
          -0.051297613662488015,
          0.2929344380335722,
          -0.18501284030174442,
          0.45152030482519373,
          0.507267070601788,
          0.08683308142176538,
          -0.13820501134081362,
          0.5486363968084003,
          0.2741735431666524,
          -0.3134724681675878,
          -0.4251130652114665,
          0.07973989951426849,
          -0.33816342222903756,
          -0.526241192802475,
          -0.1263538953369259,
          -0.32419498502168725,
          -0.08091985075328882,
          0.20553129743547463,
          0.12963585294614313,
          -0.37503675294042016
        ],
        [
          0.3683704307198524,
          0.45207814197576823,
          0.32677167760215914,
          0.0952079543971216,
          0.10585006719985951,
          -0.20650382660854488,
          -0.15561131826805538,
          0.3059014853145146,
          0.25152030436386025,
          0.3077041461440956,
          -0.4352738441123384,
          0.17271475144546444,
          -0.2778344550371769,
          -0.1720272640261979,
          -0.16949577944735666,
          -0.2950695862769172,
          0.12477661325679942,
          0.2333656508204067,
          0.18315548166618692,
          -0.47013519540312904,
          -0.3519191705232078,
          0.11414296178741538,
          0.14566842373024227,
          -0.4135577815567107
        ],
        [
          0.3792568598730781,
          0.2572911950081823,
          -0.034849334480008376,
          -0.02044788993408893,
          0.03196931762908461,
          0.12448355954462491,
          -0.16036039971882723,
          0.18353637974301878,
          0.12645761704552788,
          -0.1237378971876799,
          0.2621343122815795,
          0.2956971959584835,
          0.13707327894102203,
          0.07293693147339575,
          0.21592903188405052,
          -0.09657974185828623,
          0.1870711268610702,
          0.1276629055098102,
          0.27335520883233877,
          -0.06226583693227061,
          0.20085007950690997,
          0.1580364831941478,
          -0.005398361419908997,
          -0.12133782557290532
        ],
        [
          0.25479190906004656,
          -0.1782624831475525,
          0.08575108430817478,
          0.05983125262943209,
          0.33014379908534036,
          0.3176866125961903,
          0.4967001762223053,
          0.09990422354571632,
          -0.27744825306342996,
          0.18034961137008146,
          0.2620326548052254,
          -0.38103894388259757,
          -0.2131467568368744,
          -0.21361434994848047,
          -0.05483875290219508,
          -0.431357171741607,
          -0.171627775148056,
          0.2997165635158008,
          0.08297345670610486,
          -0.0501792208546325,
          0.22754590251929654,
          -0.046354903022139585,
          -0.26672886522869743,
          -0.38531417431020415
        ],
        [
          0.32538852839909477,
          0.07288264264255864,
          0.14267943089443585,
          -0.014076765916645022,
          0.05683983936038532,
          -0.1822889381355788,
          -0.05135866484380354,
          0.43975534282165907,
          -0.2603580080319886,
          0.21733462786805052,
          -0.2211014869574267,
          -0.3606184218850575,
          0.2884598016608755,
          0.11711943499032837,
          0.4900569694436952,
          -0.42220981773145233,
          0.3604705939358546,
          -0.0024332813927320056,
          -0.20143569564684272,
          -0.20933217492895706,
          -0.3384716954647287,
          -0.020267556029659364,
          -0.32576858147938204,
          0.28257729538948007
        ],
        [
          0.09189142540241708,
          0.34185317749332467,
          -0.1191447236788051,
          -0.22056079340166806,
          0.36008524605725395,
          0.21599532577613373,
          -0.1347382081147113,
          -0.28268421550094447,
          -0.10103564955037173,
          0.12651783582756707,
          -0.13155253889919918,
          0.39603655555481465,
          0.5035359031380849,
          0.23539453772952673,
          0.019777528041516196,
          0.004953089475320268,
          -0.36491117110704974,
          -0.3894658816416657,
          -0.1876135424331707,
          0.1767933586534886,
          0.10227032702932459,
          -0.24650145905213372,
          -0.30727148074899857,
          0.35618809075027613
        ],
        [
          0.47854373826396907,
          -0.2741204214110268,
          -0.022171154825391268,
          -0.1009877445114993,
          0.08989995379790448,
          -0.38663149657007373,
          -0.03415824019479808,
          -0.2496874496769802,
          0.04864163160768098,
          0.551289312301857,
          -0.2620285066047264,
          0.11330523847596731,
          -0.33853477806398885,
          0.006628273026569172,
          0.24208898073192003,
          -0.4251979048131968,
          0.0020363164677368634,
          0.32028393876012734,
          -0.3597065991714085,
          -0.1935137967200916,
          0.02299136039890147,
          0.2902119866918177,
          0.38071823141401445,
          -0.006498581340656313
        ],
        [
          -0.14814394073613096,
          0.09961174696186281,
          -0.3002916364631781,
          -0.0008601205495377013,
          0.40186928827626456,
          -0.21297880231543112,
          0.3280773287996632,
          -0.3876226783972302,
          -0.21625871055413604,
          -0.2590037675436283,
          -0.3334248796044228,
          0.2796886668373132,
          -0.15749130516694188,
          -0.2716294040029153,
          -0.35321358268138053,
          -0.13873464164783167,
          0.4589558577107013,
          -0.016952342281261405,
          0.02682151481089052,
          -0.2469179626141961,
          -0.04104291590022001,
          -0.07549207906737382,
          0.5566470143943641,
          0.4397123309984005
        ],
        [
          -0.17598613184970036,
          0.19101705671282232,
          -0.6719011598636433,
          -0.30288603760424654,
          -0.07677797235447809,
          0.3484584918467991,
          -0.28385127434539476,
          0.3461188312201149,
          -0.06539066825093212,
          0.07227869974992789,
          -0.31416127559946794,
          0.055818533374044105,
          0.44415324304376375,
          0.20724039088001492,
          -0.1268572469476503,
          -0.13358457041192756,
          -0.060983161398729155,
          0.40087011163280406,
          -0.05710867473587611,
          -0.2717013371989542,
          -0.11506034343919713,
          0.3056394775651017,
          -0.09215722870412782,
          0.43535034857717414
        ],
        [
          0.02341945451213855,
          0.21556503612167965,
          0.5454468107747462,
          -0.25779846783999283,
          0.3431111032432943,
          0.251962523297548,
          0.242426367096709,
          0.011819625595050225,
          -0.2565233209892062,
          0.2945618119700997,
          -0.08593216459347953,
          0.5793806517032547,
          -0.05948778519287515,
          -0.29055526509888396,
          -0.1297349972391802,
          -0.20833684154047044,
          0.07755354095821068,
          -0.5927738532499297,
          0.2499004603820047,
          0.04005904814431076,
          -0.3721320144973053,
          -0.21054189609713744,
          -0.15556351756076026,
          -0.12793807530663043
        ],
        [
          -0.1697316805630307,
          -0.3824600195073827,
          -0.037642868885688005,
          0.16451485180124342,
          -0.14490440942501553,
          0.43928852562961945,
          0.09428920269358863,
          0.15404799058913252,
          0.0436194079948945,
          0.05905032131881446,
          0.040882034470846144,
          0.36090667109608665,
          -0.016602177491498178,
          0.3241085972914411,
          -0.010858500193036507,
          -0.10026841892994125,
          0.2432006079573773,
          -0.46739122107333175,
          0.39116573986404035,
          -0.17246622270657397,
          -0.490551146005379,
          -0.3369105159183851,
          -0.20372823194726664,
          0.20775597547602012
        ],
        [
          -0.2513616308540871,
          -0.4044933133884725,
          0.0558821001672608,
          0.36545931518399033,
          0.02298519012444104,
          0.050522640517773096,
          0.06256202964019164,
          -0.4976533471599979,
          0.35764051352014203,
          -0.24160851742278516,
          -0.04285539658857743,
          0.4277939333338964,
          0.16363717117180673,
          -0.10612139849817137,
          -0.3635365020002571,
          0.2590649224105655,
          0.2841642597464066,
          0.40917859484042646,
          -0.1838615269529182,
          0.5782629150554548,
          -0.4038043599207567,
          -0.36873755840908556,
          -0.21136131886240234,
          -0.08291475550016827
        ],
        [
          0.005635229886105031,
          -0.6653256238014361,
          0.30150065223418127,
          -0.21432670762235131,
          0.06957975600632821,
          -0.3225806925011963,
          -0.23142618406557477,
          -0.38383341688276706,
          -0.10553880503606428,
          0.04481295738123851,
          0.13935233070974895,
          -0.35741551578696823,
          0.2818171788102377,
          0.18865840119502256,
          -0.06256313357082655,
          -0.2998574891505229,
          0.40079833825917566,
          0.022033316546591897,
          0.2612834080175745,
          0.24033018943671253,
          0.4137044255290619,
          0.44507992047508327,
          0.13985522915150797,
          -0.11110609806173777
        ],
        [
          -0.3421039886712264,
          0.43211084560755475,
          0.5759313310309317,
          -0.236263354281701,
          0.4541267431262844,
          0.13500693539693592,
          0.21347029070289456,
          -0.24452662021743918,
          0.34696252081999474,
          0.15350041252667185,
          0.11264961209086391,
          -0.16813051964502448,
          0.0338827742205916,
          0.1401934312393305,
          -0.07423426712930012,
          -0.3384623045196125,
          0.1009254322994677,
          -0.5538267709833311,
          0.37205429816884844,
          -0.3993528373517217,
          0.2264567598877245,
          -0.04496194751743678,
          -0.24710637495942267,
          -0.25593473390632987
        ],
        [
          0.0022657402362042164,
          -0.006782036506461888,
          0.26332434510424246,
          0.0023410136529785496,
          -0.4351511814701352,
          0.15981983613913198,
          0.023228044574160864,
          0.11337110841840878,
          0.34185875278546846,
          -0.23305946327345067,
          0.1107644251561523,
          -0.20693231096474038,
          0.4146743969156579,
          -0.12616273102511233,
          0.20014058657459521,
          -0.3099692714274674,
          0.028042082793836097,
          -0.21095055574977664,
          -0.32554949502119795,
          0.21665725786525114,
          0.07825679498973186,
          0.3606862029507487,
          0.0826767012666515,
          -0.33437644694272295
        ],
        [
          0.06547562527233002,
          -0.09587445632874517,
          0.020257737915342265,
          -0.06324034081082067,
          -0.10734653711163224,
          0.28307748641844666,
          0.05154595764079509,
          0.0686092061418269,
          0.2826001367868654,
          -0.25204768051812015,
          -0.0007134939962489668,
          -0.40666557784637897,
          -0.02969426039212757,
          0.2848623355225164,
          0.13840514323379394,
          0.5648179399476784,
          -0.01070165417652074,
          -0.12607198786786908,
          -0.11979782607776134,
          -0.1757075202978577,
          0.40791626914455537,
          -0.2042195344580145,
          -0.17246026786897828,
          0.020050789767557486
        ],
        [
          -0.3770539059515473,
          0.29602158033465653,
          -0.1631846848098955,
          -0.2676408731531756,
          0.09103023311518256,
          0.13147414140562358,
          0.41464925150888604,
          -0.12068469874705239,
          -0.3279913897771819,
          -0.2121084715378899,
          0.23034729507854726,
          0.0925937800998087,
          -0.1810880744890795,
          -0.2060861702686383,
          0.36343207215861234,
          -0.22034317937835393,
          -0.31957468501083924,
          0.28616569496063066,
          -0.07989424563225526,
          -0.4574439030497541,
          0.1797569014661296,
          0.5649582993044027,
          -0.15917516631774092,
          0.17621467867023236
        ],
        [
          0.10979828300225858,
          0.10929042986815123,
          0.06078427038793964,
          -0.3916097929209159,
          0.426845218966611,
          0.027099878175154284,
          0.3062384438602963,
          -0.0061188127534014605,
          0.5386276912964494,
          -0.4335534729516231,
          0.21385257484244544,
          -0.11355150195851102,
          0.2756536243813786,
          0.0011512459824783879,
          -0.17060057280834154,
          -0.09419268068411416,
          -0.24126596143165951,
          0.018133294576844705,
          0.3128035093180883,
          -0.14924488532908778,
          -0.08010630815765328,
          -0.16042803477595063,
          -0.13304153999126608,
          -0.2635096727909776
        ],
        [
          0.43614567848603036,
          0.19528002273463993,
          -0.18608853233155329,
          0.3484139081472949,
          0.08542475066557774,
          -0.3395684535832536,
          0.23958565442985066,
          -0.36269318273877077,
          -0.05788648636307991,
          0.5789101545242745,
          -0.3288403942168951,
          0.25597927960810374,
          -0.6585880199835791,
          0.3501618307896336,
          -0.16899166944861455,
          -0.04644638927945651,
          -0.04863873126638351,
          -0.2547210018299281,
          -0.2112341754759191,
          0.16201452047245404,
          0.4673923446181129,
          -0.7104739402399095,
          0.13422102418099463,
          -0.05849063452604156
        ],
        [
          0.19457916497465882,
          0.10012875945528422,
          0.2420721568305527,
          -0.18166793851598448,
          -0.13263349639884373,
          0.1853321473000206,
          0.2297720522049059,
          -0.3355165685377424,
          -0.43652972490961334,
          -0.34865490922731596,
          -0.5005763370438914,
          -0.17160017962720073,
          -0.11897685754977246,
          0.05990878398997673,
          -0.07002969917200377,
          -0.3473114794669562,
          0.4321592168154149,
          0.1434214341830048,
          0.4494352831509816,
          0.04957799021225105,
          0.2973142616700185,
          0.1103425713595065,
          0.13759513825712774,
          0.07535706461704385
        ],
        [
          -0.04030001226718957,
          -0.34188158000642643,
          -0.42256625292026556,
          -0.25342518694315835,
          -0.2000604815382351,
          -0.016031770314655608,
          0.057676108441297884,
          -0.4427846349372732,
          -0.43559021169747614,
          0.20938185977271456,
          -0.30044869251014034,
          -0.27053375878183944,
          0.3289159892614725,
          0.25453299180087924,
          0.4153541668168491,
          -0.25409311759077907,
          0.40477865439307775,
          0.5059992523399424,
          -0.019382407900000585,
          0.3141575989100158,
          -0.19572976880551646,
          -0.22579644688694275,
          0.4839303152137254,
          0.1174546571961665
        ],
        [
          -0.27653227253903157,
          0.3349900450314864,
          -0.18021283360518858,
          -0.08147773161564235,
          0.23018562991781985,
          -0.3190423602900687,
          -0.33640128196687413,
          -0.12526181245703982,
          0.322877237645017,
          0.10953535771594691,
          -0.011608960371929237,
          0.10620174004512858,
          0.059766877948074844,
          -0.23868037460419192,
          -0.0016016899230770236,
          -0.17877730556629723,
          0.17488602825340904,
          -0.16635537483943938,
          0.34499398895508027,
          0.15498355741635866,
          -0.1939222743889562,
          0.2582203234524491,
          -0.07151975483992418,
          0.20708259713276775
        ],
        [
          -0.12289858293610038,
          -0.0074575111916426766,
          0.2060830852227795,
          -0.08072139369553405,
          0.30905577928757344,
          -0.012827400297960834,
          -0.00224193606952069,
          0.30333738241592084,
          0.4500839580830119,
          0.10161000605932877,
          -0.20405424866164146,
          0.6026785110066258,
          -0.24613068973722302,
          0.033564914823036085,
          -0.46631218054003093,
          0.47983686388440144,
          -0.021092719687253857,
          0.021179348240280102,
          -0.36160368529535836,
          -0.06159843424934858,
          -0.34348284928059997,
          -0.020384919887853657,
          -0.297242640833601,
          -0.11013040967657371
        ],
        [
          -0.060361125748025775,
          0.17745814985381328,
          -0.2402650589681858,
          0.10266555887193211,
          0.3076284032862057,
          -0.10153551734121918,
          -0.1930673874355495,
          -0.2424868540031052,
          0.31634671702549216,
          -0.3171119962095755,
          0.3474770382961993,
          -0.0013113775595964858,
          -0.26433169393871675,
          -0.3458679809464336,
          0.24694202046796193,
          0.39547483381893533,
          0.27522919110465205,
          0.1317037709182598,
          0.45392756692454345,
          -0.01976824830193819,
          -0.1543548332700519,
          -0.23493429927134124,
          -0.025715120878372643,
          -0.39576242111518795
        ],
        [
          -0.013406830666966645,
          -0.08657072229169609,
          0.24567823824749624,
          0.25223902130942244,
          0.3574726013086512,
          -0.3075976415918596,
          -0.2591159914117422,
          0.043282720880458585,
          0.3995404054734225,
          -0.11455947110812342,
          0.1788155101607365,
          0.25919918955222115,
          0.01002535579098065,
          -0.22273418169766193,
          -0.037829683382096774,
          0.1343369654569069,
          -0.11208136915032149,
          -0.11455246188909998,
          0.08568197573823405,
          -0.2525108481704782,
          -0.4211140526890679,
          -0.13500011504972234,
          0.09918652062691624,
          0.15133500287411422
        ],
        [
          -0.38380448434819997,
          0.4186835094404891,
          0.07522351806960889,
          0.42382575915816656,
          0.08928604485404902,
          0.11073383933608974,
          -0.14745983765308687,
          -0.2145847996732437,
          0.2347691274856515,
          0.10269120910076071,
          0.44977116853010213,
          0.1605025012192925,
          -0.48029457867526154,
          -0.4631078454391724,
          0.3647971220107696,
          0.36771824977090073,
          -0.06167865885382683,
          0.07008696858170982,
          -0.3350020067109816,
          -0.2661139815495474,
          -0.10866859911395571,
          0.10340733048474078,
          -0.022132700946230363,
          -0.28792889780274533
        ],
        [
          -0.056349950681330585,
          0.11381307365517711,
          0.5360281941663311,
          0.24421288564961308,
          0.18978465845403056,
          -0.08019008330038425,
          0.5006228332290344,
          0.4365407893328651,
          0.15474446375550996,
          0.12322711747142596,
          0.03028226707391448,
          -0.19143475453404737,
          0.21462894432020022,
          -0.13947799978059525,
          -0.2538892147084558,
          -0.05160129504367481,
          -0.35425626383311715,
          -0.18766483171395004,
          -0.14865589940034338,
          -0.4336659169755242,
          -0.27496360799024844,
          -0.5330178588732634,
          0.3769234729173958,
          -0.13471944460014573
        ],
        [
          0.3876591848395923,
          -0.23906298419826863,
          -0.38336134052105547,
          -0.22621002854097885,
          -0.09480870341195491,
          -0.31638566254162737,
          -0.27321085336205747,
          -0.4577332941299142,
          -0.03199737552782504,
          -0.33629062508198004,
          -0.18073921218304387,
          0.26053484851866354,
          0.3993389551341953,
          0.4269757874578766,
          0.2544262268520829,
          0.045496735065560956,
          0.4871001078004097,
          -0.18024355353304589,
          0.07967626969768232,
          0.14030216847168964,
          -0.07008528459579062,
          0.10745297787736842,
          0.2219278974889152,
          0.08889270562563774
        ],
        [
          0.32967137068418856,
          0.4947289071830793,
          -0.2498849999243771,
          -0.09496766429914508,
          0.4197974855036078,
          -0.35073613531315667,
          0.2397757239115711,
          -0.015990958156365705,
          -0.1942165766287138,
          0.04506642498417967,
          0.469248983629535,
          -0.4524278456924431,
          -0.08412264584091982,
          -0.30948177800078136,
          0.32713918552329585,
          -0.1097757409900496,
          -0.20500194770115912,
          0.019485948050587863,
          -0.006227305861639878,
          -0.5492432823573317,
          0.4390395543506115,
          -0.03814845582904756,
          -0.4061441744543174,
          0.26105308494179935
        ],
        [
          -0.18030077042187861,
          0.05356857366452018,
          0.21967307761707766,
          -0.28781399802684204,
          -0.4008751861887475,
          0.2321943534093096,
          0.24866845031803533,
          0.43549445558174865,
          0.3693182058997138,
          0.08980174999780839,
          0.1782213315522213,
          0.12253869968764677,
          -0.2681236901250744,
          0.21605674842481648,
          -0.052403266985707804,
          0.45471325330337314,
          -0.023971184160397837,
          -0.18210507170985024,
          -0.08352948012584989,
          -0.23353844652425634,
          -0.33044611862831047,
          0.12167426722372159,
          0.01598364884572889,
          -0.47073894255433474
        ],
        [
          0.35062674788195175,
          0.044215019720996035,
          -0.12941535089555553,
          0.38214617184212096,
          -0.23238367632872176,
          0.11823882111425837,
          0.2861037760206353,
          -0.5514879728089074,
          0.08305850057080554,
          -0.2271637546817948,
          0.26300556730020364,
          0.1362387197668085,
          -0.21815120911073435,
          0.5224144407129478,
          -0.33624001266132086,
          -0.4558871654813658,
          0.04254338569846908,
          -0.0411852263883784,
          0.019513492401265233,
          0.33771999559884563,
          -0.09737066461871635,
          0.20183163288479514,
          -0.4045924803929984,
          0.01280548405522683
        ],
        [
          -0.48748123891345235,
          -0.25031998831047436,
          -0.017829266745649105,
          0.22897947858328171,
          -0.4033318821844533,
          -0.15915564727281326,
          0.1274370588317082,
          -0.1244157111743808,
          0.4570165082501679,
          -0.08224787491955456,
          0.08130162423654191,
          0.3532406248577994,
          0.3750504618276756,
          0.29320835542049073,
          -0.03256963249682533,
          -0.08871161499961602,
          0.5208064686735075,
          -0.3234442280520667,
          0.05062566153686208,
          0.0267156590447727,
          0.006435332173172077,
          -0.14212839181816017,
          0.1575483085166336,
          -0.2779377287872326
        ],
        [
          0.3992789522703268,
          -0.1986426123106492,
          -0.19780779664208326,
          0.4431457011192777,
          0.17998418629213458,
          -0.11437631498072602,
          0.412413091948754,
          0.14689424235675844,
          -0.310753864046139,
          -0.06724827280125406,
          0.5310623333548589,
          -0.046379007923183765,
          -0.14694000677241956,
          -0.32444691230331324,
          0.3465471687865662,
          -0.4493404266601237,
          -0.05210671981235658,
          0.34324924677417845,
          -0.4458246935849279,
          -0.1350611433835204,
          0.329857647347747,
          0.0156273272431383,
          -0.3292500730234963,
          -0.2423916714661503
        ]
      ],
      "bias": [
        -0.10482219979780064,
        0.09115931391332775,
        0.018984334923070147,
        0.10528566371441969,
        0.11369069028274768,
        -0.1893249672111076,
        -0.2261481864155891,
        0.06430054454798716,
        -0.07295890694900355,
        -0.08271210562602041,
        -0.19284400541081145,
        0.03092344602679633,
        -0.06828116874958198,
        -0.06487661160070003,
        0.1439854787450892,
        0.0961251886661004,
        -0.20458134640696873,
        -0.08394067497020431,
        -0.1260395820010596,
        -0.08672599860556052,
        -0.05753525548718295,
        0.045560432676547045,
        -0.14247478333965288,
        -0.08110844207523416,
        -0.13193962167749773,
        0.20686634740825613,
        0.09135893979044889,
        -0.14905336026666066,
        0.09040402912726953,
        -0.08121256204265663,
        0.11554071441632215,
        -0.10247098608310885,
        -0.04660158907543471,
        -0.022044850237400854,
        0.031433674371362755,
        0.11828618515189455,
        -0.1903343533944031,
        0.057682432722025015,
        0.18256311234056338,
        0.014902179617796232,
        -0.1382487981177476,
        -0.15814310926894648,
        -0.1280703069803895,
        -0.12281594979306773,
        0.07137887834371241,
        -0.06027215477513959,
        -0.065960891745574,
        -0.1631983630170611,
