{
  "shared_layers": [
    {
      "weight": [
        [
          -0.0594903901219368,
          -0.017809012904763222,
          0.027567880228161812,
          -0.022545473650097847,
          -0.16449202597141266,
          0.13312172889709473,
          -0.3612092137336731,
          -0.05442330986261368,
          -0.25829824805259705,
          0.1616324633359909,
          0.2343033105134964,
          -0.1684103012084961,
          0.0311603881418705,
          -0.08107489347457886,
          -0.026880046352744102,
          -0.12830983102321625,
          -0.054513394832611084,
          -0.16864842176437378,
          0.024751238524913788,
          0.03269374743103981,
          0.01581626385450363,
          -0.1109679564833641,
          -0.09369470924139023,
          0.028268415480852127
        ],
        [
          -0.1571274995803833,
          0.25667622685432434,
          0.26732105016708374,
          0.19669532775878906,
          -0.29548048973083496,
          -0.21193714439868927,
          0.1725095510482788,
          -0.3195260763168335,
          -0.2431706339120865,
          -0.19571417570114136,
          0.2981199622154236,
          0.29879090189933777,
          0.009941457770764828,
          -0.02230364829301834,
          0.013700968585908413,
          -0.05836690962314606,
          0.0260937437415123,
          -0.06314018368721008,
          -0.04687575250864029,
          0.02409394085407257,
          -0.024027209728956223,
          0.009235496632754803,
          0.0033574369736015797,
          -0.008217624388635159
        ],
        [
          -0.03519430011510849,
          -0.12219024449586868,
          -0.004524139687418938,
          -0.010666186921298504,
          -0.10928917676210403,
          0.009547433815896511,
          -0.10658132284879684,
          0.0030137249268591404,
          -0.08911481499671936,
          0.022856874391436577,
          0.07402876764535904,
          -0.17703884840011597,
          0.05786817520856857,
          0.06431590765714645,
          0.052948370575904846,
          -0.22390051186084747,
          0.05805877223610878,
          0.09550082683563232,
          -0.18074609339237213,
          -0.27531880140304565,
          -0.15590713918209076,
          0.12170829623937607,
          -0.06854861974716187,
          -0.15963132679462433
        ],
        [
          0.18533584475517273,
          0.11129584908485413,
          -0.10647954046726227,
          -0.10487768054008484,
          0.12745115160942078,
          0.05275009199976921,
          0.1958492398262024,
          -0.3507278561592102,
          -0.06288463622331619,
          -0.361706405878067,
          -0.08902611583471298,
          -0.06308403611183167,
          -0.08965040743350983,
          0.15257766842842102,
          -0.314365416765213,
          -0.42015260457992554,
          -0.1449483335018158,
          -0.15647263824939728,
          0.05342632532119751,
          0.0022470552939921618,
          0.23049744963645935,
          0.27981796860694885,
          0.00978096853941679,
          -0.06580955535173416
        ],
        [
          -0.04298500344157219,
          0.06407417356967926,
          -0.10255003720521927,
          -0.08225508779287338,
          -0.18966899812221527,
          0.10223063081502914,
          -0.1534782350063324,
          -0.24038991332054138,
          -0.18479077517986298,
          0.1779988408088684,
          0.09029603749513626,
          -0.0820993185043335,
          0.050103507936000824,
          0.10093920677900314,
          0.3594667911529541,
          0.13933920860290527,
          0.02892453409731388,
          -0.34231993556022644,
          -0.36208900809288025,
          -0.2624765932559967,
          0.17236338555812836,
          -0.07802493125200272,
          0.056531477719545364,
          -0.0465843491256237
        ],
        [
          -0.1552315205335617,
          0.24173206090927124,
          -0.03156207874417305,
          0.03440049663186073,
          -0.10534051805734634,
          -0.5042215585708618,
          -0.016130894422531128,
          -0.11576373875141144,
          0.1271030157804489,
          -0.15740729868412018,
          -0.21516337990760803,
          -0.021262716501951218,
          -0.10373126715421677,
          -0.047855257987976074,
          0.12823419272899628,
          -0.24199502170085907,
          -0.05018157139420509,
          -0.18059630692005157,
          0.042630668729543686,
          -0.08382027596235275,
          -0.3298337757587433,
          -0.010534240864217281,
          -0.14907719194889069,
          -0.016316652297973633
        ],
        [
          -0.037506960332393646,
          -0.07715628296136856,
          -0.15092197060585022,
          -0.08687439560890198,
          0.043049659579992294,
          -0.05359101668000221,
          0.08619357645511627,
          -0.10529017448425293,
          0.03719085827469826,
          -0.1263708472251892,
          0.009515926241874695,
          0.0318458154797554,
          -0.04822276905179024,
          0.13883094489574432,
          0.02794269472360611,
          0.1013416275382042,
          -0.1349603831768036,
          -0.08257845044136047,
          -0.2739693522453308,
          -0.15870964527130127,
          -0.09375883638858795,
          -0.0182352252304554,
          -0.02366020157933235,
          -0.139092817902565
        ],
        [
          0.29716283082962036,
          -0.29292547702789307,
          -0.23814037442207336,
          -0.29692521691322327,
          0.27257293462753296,
          0.2547415792942047,
          0.286308228969574,
          -0.30869102478027344,
          -0.24518771469593048,
          -0.2583043575286865,
          0.2153976708650589,
          0.21627962589263916,
          0.020771078765392303,
          -0.009744727984070778,
          0.015596146695315838,
          0.0029228359926491976,
          0.030651740729808807,
          0.020551059395074844,
          -0.035729896277189255,
          0.02583835832774639,
          -0.018410716205835342,
          0.006995136849582195,
          0.020070679485797882,
          -0.020395612344145775
        ],
        [
          0.08474665880203247,
          -0.01068660244345665,
          0.031890884041786194,
          -0.019753748551011086,
          -0.006079154089093208,
          0.01684705726802349,
          -0.09178625047206879,
          -0.004487326834350824,
          0.0009507018839940429,
          -0.016102133318781853,
          0.018418725579977036,
          0.023005787283182144,
          0.13793958723545074,
          -0.15979406237602234,
          -0.1376461237668991,
          0.3250746726989746,
          -0.3267501890659332,
          -0.2628322243690491,
          -0.32924824953079224,
          0.3141852915287018,
          0.29399850964546204,
          -0.16168533265590668,
          0.16238263249397278,
          0.15969409048557281
        ],
        [
          -0.09280776977539062,
          -0.03447981923818588,
          -0.23654085397720337,
          0.14783120155334473,
          -0.04797139763832092,
          0.07062988728284836,
          -0.09885133802890778,
          -0.17338956892490387,
          -0.09738700091838837,
          -0.08413645625114441,
          -0.009858262725174427,
          0.047605257481336594,
          0.07982157170772552,
          -0.17236533761024475,
          -0.18791607022285461,
          -0.2774599492549896,
          0.08911563456058502,
          -0.002813005121424794,
          0.11696655303239822,
          0.06204870343208313,
          -0.1221451684832573,
          0.05695875734090805,
          -0.13462033867835999,
          0.00529138557612896
        ],
        [
          -0.07464543730020523,
          -0.21444332599639893,
          0.049765683710575104,
          -0.08601085096597672,
          -0.01663392037153244,
          0.022936822846531868,
          0.09413488209247589,
          0.08927498012781143,
          -0.13028797507286072,
          -0.07375358045101166,
          -0.10653075575828552,
          -0.10281568020582199,
          -0.43314796686172485,
          -0.0925464779138565,
          -0.36400842666625977,
          0.16377012431621552,
          0.09026018530130386,
          0.11270610988140106,
          -0.4401528537273407,
          -0.22825227677822113,
          -0.33668285608291626,
          0.2936655879020691,
          0.1541716754436493,
          0.29300445318222046
        ],
        [
          -0.12689504027366638,
          -0.0583326518535614,
          -0.16671226918697357,
          -0.04075198620557785,
          -0.2658069133758545,
          0.03985758125782013,
          0.03547164425253868,
          0.010606895200908184,
          -0.2813391387462616,
          -0.0691637396812439,
          -0.02160104550421238,
          0.05535155162215233,
          -0.3792814016342163,
          0.09188476949930191,
          -0.2385275959968567,
          0.19407877326011658,
          -0.014356749132275581,
          0.1798960119485855,
          0.2209605872631073,
          0.04297474026679993,
          -0.40595877170562744,
          -0.02949967421591282,
          -0.3833218812942505,
          -0.017133664339780807
        ],
        [
          -0.06320981681346893,
          -0.05592874810099602,
          -0.035801153630018234,
          -0.11790827661752701,
          -0.09849412739276886,
          -0.0032551297917962074,
          0.09010708332061768,
          -0.05394503474235535,
          -0.05608268082141876,
          0.05147644504904747,
          -0.1260710507631302,
          -0.11188200861215591,
          0.2553931772708893,
          -0.41207578778266907,
          0.22861728072166443,
          -0.008647618815302849,
          -0.2932579219341278,
          -0.5419255495071411,
          -0.5500689744949341,
          -0.13333554565906525,
          0.12058019638061523,
          0.10217655450105667,
          0.30798637866973877,
          -0.06792665272951126
        ],
        [
          0.004390416666865349,
          -0.09120117127895355,
          0.0440138503909111,
          0.036607082933187485,
          -0.021453678607940674,
          -0.16496489942073822,
          -0.004756478127092123,
          -0.05026485398411751,
          -0.006850916426628828,
          0.024880675598978996,
          -0.009285531006753445,
          -0.021020160987973213,
          0.07005185633897781,
          -0.1548948884010315,
          -0.05329447239637375,
          -0.016004610806703568,
          0.03570759668946266,
          -0.104830302298069,
          -0.029922565445303917,
          -0.017873035743832588,
          -0.1271962672472,
          -0.041099488735198975,
          -0.05690528452396393,
          0.08620535582304001
        ],
        [
          -0.2219984233379364,
          0.24047482013702393,
          -0.24882136285305023,
          -0.29350340366363525,
          0.2493160218000412,
          -0.2721084654331207,
          0.22750426828861237,
          -0.23906952142715454,
          0.264726459980011,
          0.25778356194496155,
          -0.31670403480529785,
          0.30692264437675476,
          -0.0017085537547245622,
          -0.00762632442638278,
          0.011407287791371346,
          0.006412772461771965,
          0.016548683866858482,
          0.016164857894182205,
          0.017314555123448372,
          0.044322822242975235,
          -0.01834392361342907,
          -0.002857761923223734,
          0.02559163235127926,
          0.006505731493234634
        ],
        [
          0.3040197193622589,
          -0.10555331408977509,
          -0.17232023179531097,
          -0.20199793577194214,
          -0.003312653861939907,
          -0.052291180938482285,
          -0.16378210484981537,
          0.07261355221271515,
          0.21934150159358978,
          -0.393138587474823,
          -0.015399010851979256,
          -0.32462310791015625,
          -0.05357887223362923,
          -0.11393418163061142,
          -0.08052394539117813,
          -0.3790987432003021,
          0.030146731063723564,
          -0.2396625131368637,
          -0.11864069104194641,
          0.05486738309264183,
          0.16810832917690277,
          -0.09121595323085785,
          0.006972363218665123,
          -0.08860845863819122
        ],
        [
          -0.1245236024260521,
          -0.35266417264938354,
          -0.24086609482765198,
          -0.28360864520072937,
          0.2039182484149933,
          -0.03601756691932678,
          -0.13329803943634033,
          -0.16204802691936493,
          0.25648555159568787,
          0.26822009682655334,
          0.01867355778813362,
          -0.05373372510075569,
          -0.07034804672002792,
          -0.13510549068450928,
          -0.08759348839521408,
          0.1416357010602951,
          -0.00467958627268672,
          -0.004525637254118919,
          -0.10152551531791687,
          -0.0781281590461731,
          -0.010479144752025604,
          -0.07712257653474808,
          -0.1806914210319519,
          0.1387641578912735
        ],
        [
          -0.03564540669322014,
          -0.018031245097517967,
          -0.02288290113210678,
          0.037058617919683456,
          0.003428286872804165,
          -0.016081200912594795,
          0.012905956245958805,
          -0.011029892601072788,
          0.04043630138039589,
          0.10847208648920059,
          -0.02694064751267433,
          0.0061780414544045925,
          -0.008335092104971409,
          0.18790298700332642,
          -0.17431682348251343,
          0.027499690651893616,
          -0.09442044794559479,
          0.11452740430831909,
          0.058272842317819595,
          -0.46675771474838257,
          0.36974525451660156,
          -0.07355359196662903,
          0.37512215971946716,
          -0.35567912459373474
        ],
        [
          -0.3030412197113037,
          -0.24784903228282928,
          -0.20556950569152832,
          0.11810893565416336,
          0.1737678050994873,
          -0.17372997105121613,
          -0.06005777418613434,
          0.07512291520833969,
          0.2695850431919098,
          0.16422519087791443,
          -0.22504375874996185,
          -0.24880222976207733,
          0.0606050118803978,
          0.14827953279018402,
          -0.057132408022880554,
          -0.3642151653766632,
          -0.2316780388355255,
          -0.00038445580867119133,
          0.009856656193733215,
          0.18761569261550903,
          0.12332966178655624,
          0.004652518779039383,
          -0.09345492720603943,
          -0.18705017864704132
        ],
        [
          -0.09909163415431976,
          -0.0891323983669281,
          -0.1670284867286682,
          -0.022596847265958786,
          -0.034123744815588,
          0.07538583874702454,
          0.04402291774749756,
          0.03711944445967674,
          -0.056439392268657684,
          -0.07404904067516327,
          -0.0972193107008934,
          -0.027881652116775513,
          -0.0735204890370369,
          0.02107434719800949,
          -0.1168661117553711,
          -0.11384881287813187,
          -0.040307361632585526,
          0.09907951205968857,
          -0.02734108455479145,
          -0.14405861496925354,
          -0.10405941307544708,
          0.03209555149078369,
          -0.005703537259250879,
          -0.07487442344427109
        ],
        [
          0.08854316920042038,
          -0.03615028038620949,
          -0.007739038206636906,
          0.013135688379406929,
          0.005331992171704769,
          -0.03702166676521301,
          -0.002728545106947422,
          0.016233351081609726,
          -0.008876866661012173,
          0.0014667129144072533,
          0.008242221549153328,
          0.008078621700406075,
          -0.18562820553779602,
          0.19451943039894104,
          0.19692322611808777,
          0.3518739640712738,
          -0.33354246616363525,
          -0.31898292899131775,
          0.12594355642795563,
          -0.14773954451084137,
          -0.15941010415554047,
          -0.34409651160240173,
          0.3356264531612396,
          0.2955421209335327
        ],
        [
          0.047731224447488785,
          0.012694652192294598,
          0.05263877660036087,
          -0.03363252431154251,
          -0.011665002442896366,
          -0.01067077275365591,
          -0.03109033592045307,
          0.008344318717718124,
          -0.004017597530037165,
          0.032759688794612885,
          -0.008340755477547646,
          -0.008194869384169579,
          0.37118399143218994,
          0.36232367157936096,
          0.017451882362365723,
          -0.35560110211372375,
          -0.28436702489852905,
          0.0036209828685969114,
          0.23769740760326385,
          0.2707522213459015,
          -0.05127745866775513,
          -0.31998226046562195,
          -0.31723758578300476,
          0.022766506299376488
        ],
        [
          -0.1277199238538742,
          -0.09690046310424805,
          -0.30803120136260986,
          -0.14471955597400665,
          -0.12157010287046432,
          -0.31400296092033386,
          -0.14468011260032654,
          -0.10758582502603531,
          -0.31942057609558105,
          -0.13680410385131836,
          -0.11315258592367172,
          -0.3021935224533081,
          0.13017919659614563,
          0.12146098166704178,
          0.28509917855262756,
          0.14381974935531616,
          0.1128663569688797,
          0.293779194355011,
          0.15460412204265594,
          0.11913587898015976,
          0.304654061794281,
          0.12193059176206589,
          0.11393315345048904,
          0.299776554107666
        ],
        [
          0.018863018602132797,
          0.00024154353013727814,
          -0.0005893043708056211,
          0.0334901437163353,
          0.035217031836509705,
          0.03807956725358963,
          -0.06027664244174957,
          -0.006442119367420673,
          -0.03784089535474777,
          0.025490934029221535,
          -0.0348329097032547,
          0.016910191625356674,
          0.32166787981987,
          -0.24865375459194183,
          -0.35625481605529785,
          -0.31429925560951233,
          0.21539781987667084,
          0.2957076132297516,
          0.20355306565761566,
          -0.15910828113555908,
          -0.3099082112312317,
          -0.20534111559391022,
          0.14113657176494598,
          0.24757228791713715
        ],
        [
          -0.16618263721466064,
          0.29805776476860046,
          -0.2674150764942169,
          0.233170285820961,
          -0.3648120164871216,
          0.3177383840084076,
          0.14429308474063873,
          -0.27009159326553345,
          0.22526150941848755,
          -0.19678731262683868,
          0.2520793378353119,
          -0.2843845784664154,
          0.024355536326766014,
          0.0033013485372066498,
          -0.010627641342580318,
          0.0001037152178469114,
          0.040469005703926086,
          0.0024887085892260075,
          -0.007705370429903269,
          0.029417824000120163,
          0.00042527177720330656,
          0.004568926990032196,
          -0.025939613580703735,
          -0.018776165321469307
        ],
        [
          -0.03791629523038864,
          -0.006163284182548523,
          -0.005214586388319731,
          0.11321011185646057,
          0.04238178953528404,
          0.08819007873535156,
          -0.06313975155353546,
          -0.04770750552415848,
          -0.01484356727451086,
          0.024655111134052277,
          -0.0009179174667224288,
          0.02693753130733967,
          0.12554381787776947,
          0.13005442917346954,
          -0.14891403913497925,
          0.1657521277666092,
          0.1806071698665619,
          -0.18783320486545563,
          -0.5317627787590027,
          -0.315853476524353,
          0.3732422888278961,
          0.1717376410961151,
          0.16173724830150604,
          -0.23572900891304016
        ],
        [
          0.08701720833778381,
          -0.037362802773714066,
          -0.19790978729724884,
          -0.02299460768699646,
          -0.5211155414581299,
          -0.016881395131349564,
          -0.20587533712387085,
          0.1328343152999878,
          0.2100832611322403,
          -0.10554248094558716,
          0.07701839506626129,
          -0.2316853404045105,
          -0.0753181204199791,
          -0.11690445989370346,
          -0.11914227157831192,
          -0.35912781953811646,
          0.13402922451496124,
          -0.14184319972991943,
          0.08100259304046631,
          0.07638121396303177,
          -0.2171417623758316,
          -0.00643931794911623,
          -0.2224443554878235,
          0.051458317786455154
        ],
        [
          0.02368127927184105,
          0.016380930319428444,
          -0.0030658170580863953,
          -0.023728083819150925,
          0.008448225446045399,
          -0.040217217057943344,
          0.00021743829711340368,
          0.00013325797044672072,
          0.014987216331064701,
          0.0005670013488270342,
          -0.0319393053650856,
          -0.03137558326125145,
          -0.26000985503196716,
          -0.15082977712154388,
          -0.2524902820587158,
          0.3661683201789856,
          0.18775434792041779,
          0.32382452487945557,
          0.21751819550991058,
          0.1651705950498581,
          0.24867694079875946,
          -0.34105297923088074,
          -0.19651389122009277,
          -0.35402435064315796
        ],
        [
          -0.005332265514880419,
          -0.07346337288618088,
          -0.08977951854467392,
          0.09469298273324966,
          -0.04146461561322212,
          0.03760239854454994,
          -0.06736660748720169,
          -0.04879231005907059,
          -0.01677962765097618,
          0.0545646995306015,
          0.04260604828596115,
          0.09088879078626633,
          -0.07188735902309418,
          0.003626965219154954,
          -0.12296026945114136,
          -0.10641390830278397,
          -0.09134404361248016,
          -0.0663573294878006,
          -0.06962694972753525,
          0.043870341032743454,
          0.01384001225233078,
          -0.02069443091750145,
          -0.032566383481025696,
          -0.10297981649637222
        ],
        [
          -0.07329799234867096,
          -0.05901961028575897,
          -0.01759130321443081,
          0.08990516513586044,
          0.060310591012239456,
          0.047838225960731506,
          -0.05300099775195122,
          0.02363007143139839,
          -0.015725314617156982,
          0.03610167279839516,
          -0.00560779171064496,
          0.026828015223145485,
          0.1030406504869461,
          0.32939451932907104,
          -0.3565758168697357,
          -0.04185746982693672,
          -0.16307984292507172,
          0.18523450195789337,
          0.0591374896466732,
          0.35471466183662415,
          -0.35032930970191956,
          -0.052632857114076614,
          -0.4125663638114929,
          0.38931751251220703
        ],
        [
          0.36820265650749207,
          -0.27347323298454285,
          -0.2914198637008667,
          -0.31516778469085693,
          0.1752765029668808,
          0.2076680064201355,
          -0.360202819108963,
          0.17615549266338348,
          0.2724892497062683,
          0.25742295384407043,
          -0.12210580706596375,
          -0.16297751665115356,
          0.003082584822550416,
          0.009973461739718914,
          0.02637959085404873,
          0.002886347007006407,
          0.03155459836125374,
          0.01881740428507328,
          -0.0023010061122477055,
          0.07572244852781296,
          -0.08198940753936768,
          0.023777440190315247,
          -0.002114054746925831,
          -0.004188616760075092
        ],
        [
          0.08520131558179855,
          -0.25336185097694397,
          0.08493079245090485,
          0.09235132485628128,
          0.04335395246744156,
          -0.3292977511882782,
          0.11928665637969971,
          0.03896801918745041,
          -0.042143046855926514,
          -0.20567402243614197,
          -0.07359789311885834,
          -0.05916300788521767,
          -0.18054541945457458,
          -0.06231444701552391,
          0.029506273567676544,
          0.13795511424541473,
          -0.472766250371933,
          -0.276459276676178,
          0.026955820620059967,
          -0.1138346865773201,
          0.22412730753421783,
          0.0302017442882061,
          0.29480093717575073,
          -0.3681224286556244
        ],
        [
          -0.0019580076914280653,
          -0.0019757021218538284,
          -0.005747875664383173,
          0.028923669829964638,
          -0.002697718096897006,
          0.03131734952330589,
          0.024487072601914406,
          -0.026961246505379677,
          0.0007097740308381617,
          -0.009312826208770275,
          -0.03727387636899948,
          -0.015002662315964699,
          -0.25759637355804443,
          0.26175081729888916,
          -0.3060169219970703,
          0.23951998353004456,
          -0.2726364731788635,
          0.28174495697021484,
          0.24652913212776184,
          -0.24001726508140564,
          0.2751210331916809,
          -0.24896547198295593,
          0.19314098358154297,
          -0.30011680722236633
        ],
        [
          -0.24892006814479828,
          -0.39606666564941406,
          -0.34370365738868713,
          0.14951543509960175,
          0.24160455167293549,
          0.20485258102416992,
          -0.06220977008342743,
          0.05944053828716278,
          0.08034683018922806,
          0.06901899725198746,
          0.08808756619691849,
          0.10522927343845367,
          -0.13684312999248505,
          -0.17867375910282135,
          0.18122459948062897,
          -0.030451849102973938,
          0.09048020094633102,
          -0.03731970489025116,
          -0.023019805550575256,
          -0.02640082687139511,
          -0.06425490230321884,
          0.15765437483787537,
          0.13571152091026306,
          -0.09647694230079651
        ],
        [
          -0.21909861266613007,
          -0.23039986193180084,
          -0.516333818435669,
          0.20434901118278503,
          0.2896232008934021,
          0.10415820777416229,
          0.11264561116695404,
          -0.05419190973043442,
          -0.07149215787649155,
          -0.1354702264070511,
          -0.1345655769109726,
          0.3301801085472107,
          0.05496738851070404,
          0.00270143267698586,
          -0.012982559390366077,
          0.17706458270549774,
          -0.10978225618600845,
          -0.07354599237442017,
          0.00259144464507699,
          -0.0037557040341198444,
          -0.056938327848911285,
          -0.1700533926486969,
          -0.18625348806381226,
          0.11523120850324631
        ],
        [
          0.3593962788581848,
          -0.23867125809192657,
          -0.25637537240982056,
          0.2785675525665283,
          -0.1767304390668869,
          -0.21614937484264374,
          -0.3882425129413605,
          0.18600529432296753,
          0.23959912359714508,
          -0.2670157551765442,
          0.16841338574886322,
          0.19385337829589844,
          0.012338539585471153,
          -0.005299493204802275,
          0.011941052041947842,
          -0.046862389892339706,
          0.02945459634065628,
          0.018734432756900787,
          -0.01703646406531334,
          0.00998624600470066,
          -0.01714845933020115,
          -0.03010309673845768,
          0.025056922808289528,
          -0.04151598736643791
        ],
        [
          -0.22270911931991577,
          -0.43520739674568176,
          -0.26817888021469116,
          -0.33892762660980225,
          -0.49956414103507996,
          -0.24955274164676666,
          0.24654936790466309,
          0.28479090332984924,
          0.08857537060976028,
          0.030808137729763985,
          0.24161088466644287,
          -0.07517579942941666,
          -0.039257537573575974,
          0.06422319263219833,
          -0.2324143499135971,
          -0.15120308101177216,
          -0.03743739426136017,
          -0.13286349177360535,
          -0.2000565081834793,
          -0.2435658872127533,
          -0.04952599108219147,
          0.07617378234863281,
          0.0037045807112008333,
          0.10878172516822815
        ],
        [
          0.06157800927758217,
          0.04941948503255844,
          0.02086140215396881,
          -0.09025764465332031,
          -0.0007534344913437963,
          -0.12206277996301651,
          0.31853997707366943,
          0.36212873458862305,
          0.3342461585998535,
          -0.35556724667549133,
          -0.34064361453056335,
          -0.3055439591407776,
          -0.04237018898129463,
          0.013931510038673878,
          -0.0787690132856369,
          0.009016230702400208,
          0.05128328129649162,
          -0.02955673076212406,
          0.017305104061961174,
          -0.01848839968442917,
          -0.028074169531464577,
          0.04301009327173233,
          0.023437507450580597,
          0.013730705715715885
        ],
        [
          0.34854942560195923,
          0.25901147723197937,
          0.34314683079719543,
          -0.26919758319854736,
          -0.2845933139324188,
          -0.2632567584514618,
          -0.30447259545326233,
          -0.2758503556251526,
          -0.28380194306373596,
          0.2425052970647812,
          0.2026730328798294,
          0.19286684691905975,
          -0.027414673939347267,
          0.007103028241544962,
          0.005224315915256739,
          -0.019897744059562683,
          0.028320379555225372,
          -3.0049988708924502e-05,
          -0.017448002472519875,
          0.030741505324840546,
          -0.033613670617341995,
          -0.003635495901107788,
          0.005640593357384205,
          -0.025629308074712753
        ],
        [
          -0.2797729969024658,
          0.334804892539978,
          -0.3361315131187439,
          0.10594269633293152,
          -0.06625582277774811,
          0.12131311744451523,
          0.30619075894355774,
          -0.3031289279460907,
          0.39129361510276794,
          -0.06991076469421387,
          0.112599216401577,
          -0.12904122471809387,
          -0.0030245392117649317,
          -0.0015888405032455921,
          0.02910136803984642,
          -0.01488952524960041,
          -0.020997576415538788,
          -0.03240101411938667,
          -0.0372786670923233,
          0.01161218248307705,
          -0.017926083877682686,
          0.003593023866415024,
          0.020995520055294037,
          -0.013372533954679966
        ],
        [
          0.08875347673892975,
          0.367963969707489,
          -0.003306183498352766,
          0.08170074969530106,
          0.33799558877944946,
          -0.014963723719120026,
          0.09506911784410477,
          0.32915645837783813,
          0.008699611760675907,
          0.09399455040693283,
          0.3225783705711365,
          -0.00260558957234025,
          -0.07943718135356903,
          -0.33980637788772583,
          -0.00445730471983552,
          -0.07553213089704514,
          -0.33806103467941284,
          0.0021357806399464607,
          -0.07920768111944199,
          -0.3713107705116272,
          0.009344113059341908,
          -0.09617771208286285,
          -0.35340699553489685,
          -0.02323978953063488
        ],
        [
          -0.16067394614219666,
          -0.20767797529697418,
          0.19444739818572998,
          0.19748404622077942,
          0.2409648895263672,
          -0.24048632383346558,
          0.2731945216655731,
          0.27578040957450867,
          -0.2775181829929352,
          -0.3254721462726593,
          -0.3181324005126953,
          0.3321775794029236,
          -0.019240008667111397,
          0.027750341221690178,
          -0.0001334277621936053,
          -0.020072774961590767,
          0.017460569739341736,
          -0.013846296817064285,
          -0.01009631622582674,
          -0.004629130475223064,
          -0.0373968780040741,
          0.011939593590795994,
          -0.009202578105032444,
          -0.010242199525237083
        ],
        [
          0.07663104683160782,
          -0.22146113216876984,
          0.057019397616386414,
          -0.1808808147907257,
          -0.0855981633067131,
          0.00411326065659523,
          0.060134150087833405,
          -0.013515508733689785,
          -0.08626360446214676,
          -0.0968191996216774,
          0.2672514021396637,
          -0.32650426030158997,
          -0.06833336502313614,
          -0.20339946448802948,
          -0.12520243227481842,
          0.003614073619246483,
          -0.07148377597332001,
          0.19293548166751862,
          0.15576495230197906,
          -0.1652301400899887,
          -0.14935652911663055,
          -0.2544906735420227,
          0.17140546441078186,
          -0.16220010817050934
        ],
        [
          0.017994670197367668,
          -0.12769106030464172,
          -0.040043678134679794,
          -0.1085415631532669,
          0.07749482244253159,
          -0.17042061686515808,
          -0.033882834017276764,
          -0.08335059136152267,
          0.04837051033973694,
          -0.07197235524654388,
          -0.11429235339164734,
          -0.07741839438676834,
          -0.042574405670166016,
          -0.04289516434073448,
          -0.22014650702476501,
          -0.11507555842399597,
          -0.12118243426084518,
          0.06117120757699013,
          -0.05476994439959526,
          0.08772429823875427,
          -0.05283912271261215,
          0.05427119880914688,
          -0.12022940069437027,
          -0.03682617470622063
        ],
        [
          0.002947458066046238,
          -0.027627062052488327,
          0.012005092576146126,
          0.02765118144452572,
          -0.0040445406921207905,
          0.024894945323467255,
          -0.02081640250980854,
          -0.041039060801267624,
          -0.01386331394314766,
          0.0441109761595726,
          -0.045456916093826294,
          0.004912630654871464,
          -0.22403724491596222,
          -0.28855425119400024,
          0.2640674114227295,
          0.2410409152507782,
          0.34722861647605896,
          -0.3248925507068634,
          0.18174611032009125,
          0.28339317440986633,
          -0.26645663380622864,
          -0.2292197346687317,
          -0.2653696537017822,
          0.24222905933856964
        ],
        [
          -0.22484000027179718,
          -0.20872274041175842,
          -0.5257037281990051,
          -0.10854233801364899,
          -0.006371971685439348,
          0.23796921968460083,
          0.312531441450119,
          0.15749308466911316,
          -0.12494710832834244,
          -0.3517192006111145,
          0.05594564974308014,
          0.038882240653038025,
          0.07612930983304977,
          -0.022501731291413307,
          0.008495964109897614,
          -0.06941046565771103,
          -0.20888705551624298,
          0.06590448319911957,
          -0.0021936960984021425,
          -0.020518969744443893,
          -0.2703994810581207,
          -0.009203658439218998,
          0.060088012367486954,
          0.17523504793643951
        ],
        [
          -0.016075966879725456,
          -0.14028213918209076,
          -0.14667823910713196,
          -0.12691673636436462,
          -0.20652823150157928,
          -0.11973113566637039,
          -0.12473481893539429,
          -0.0019239804241806269,
          -0.02541365846991539,
          0.054170724004507065,
          0.01884044148027897,
          -0.002018966246396303,
          0.03651650249958038,
          -0.12839870154857635,
          -0.01910713128745556,
          0.039522647857666016,
          -0.010931276716291904,
          0.15875080227851868,
          0.00839396845549345,
          0.10333012044429779,
          -0.25467994809150696,
          -0.3840974271297455,
          -0.14335031807422638,
          -0.1746981143951416
        ],
        [
          0.31677842140197754,
          -0.0349920280277729,
          0.12433748692274094,
          0.3337545394897461,
          -0.06492411345243454,
          0.10767682641744614,
          0.277389258146286,
          -0.05936574190855026,
          0.07373688369989395,
          0.2991487383842468,
          -0.06028313934803009,
          0.0809640884399414,
          -0.3262574374675751,
          0.07573912292718887,
          -0.1381492167711258,
          -0.30290818214416504,
          0.0668412521481514,
          -0.14468738436698914,
          -0.294288694858551,
          0.06073181331157684,
          -0.1306096613407135,
          -0.34230294823646545,
          0.09025782346725464,
          -0.13005903363227844
        ],
        [
          -0.06608477979898453,
          0.0928344652056694,
          0.08580897748470306,
          -0.012798414565622807,
          -0.00989234447479248,
          -0.08195773512125015,
          -0.10307987779378891,
          -0.07843673229217529,
          -0.10463032871484756,
          0.10216941684484482,
          0.021135756745934486,
          -0.06346767395734787,
          -0.07291825115680695,
          -0.10451338440179825,
          -0.06006180867552757,
          -0.03060351498425007,
          -0.07794256508350372,
          -0.10239405184984207,
          -0.034275926649570465,
          -0.020496677607297897,
          0.028461217880249023,
          0.04124358296394348,
          -0.06281322240829468,
          -0.06789020448923111
        ],
        [
          -0.2857287526130676,
          -0.3837929964065552,
          -0.23131510615348816,
          -0.2507898807525635,
          -0.3072058856487274,
          -0.17953971028327942,
          0.29962456226348877,
          0.34065085649490356,
          0.23042552173137665,
          0.23015885055065155,
          0.2665606141090393,
          0.169137641787529,
          0.009121491573750973,
          0.01028407271951437,
          -0.00966593436896801,
          0.021639322862029076,
          -0.000270080374320969,
          -0.001150572090409696,
          0.003563946345821023,
          0.011370450258255005,
          -0.0036157371941953897,
          0.01462179608643055,
          0.011657120659947395,
          0.003372007282450795
        ],
        [
          0.020346306264400482,
          -0.15178747475147247,
          0.02160722017288208,
          -0.08881373703479767,
          0.1953137367963791,
          -0.23147337138652802,
          0.011232947930693626,
          -0.07368563115596771,
          0.012551323510706425,
          -0.14266616106033325,
          -0.1591683179140091,
          0.0632469579577446,
          -0.29476198554039,
          -0.04032737389206886,
          -0.01887514628469944,
          0.10669335722923279,
          0.020824365317821503,
          -0.057880520820617676,
          0.06653338670730591,
          -0.07351453602313995,
          0.033597033470869064,
          -0.09979486465454102,
          -0.07175667583942413,
          -0.11431210488080978
        ],
        [
          -0.027349097654223442,
          -0.06808727979660034,
          -0.2220214456319809,
          -0.08748193830251694,
          0.08646870404481888,
          -0.22823908925056458,
          -0.09039830416440964,
          -0.12067180871963501,
          -0.06861456483602524,
          0.05200847238302231,
          -0.2655162513256073,
          0.1497216522693634,
          -0.20648446679115295,
          -0.2063538134098053,
          -0.011997158639132977,
          -0.2297501266002655,
          -0.2138197124004364,
          -0.04137585684657097,
          0.04450858011841774,
          0.05862800031900406,
          -0.06523580849170685,
          0.09343479573726654,
          0.07224486768245697,
          -0.09972062706947327
        ],
        [
          0.1253783404827118,
          -0.1187511458992958,
          -0.05003530532121658,
          0.02927342616021633,
          -0.006802107207477093,
          -0.09030146151781082,
          -0.2727542519569397,
          0.008834455162286758,
          -0.048310063779354095,
          -0.12174389511346817,
          0.016370099037885666,
          0.031063426285982132,
          -0.12044394016265869,
          0.004840297624468803,
          -0.1035010889172554,
          -0.07842648029327393,
          -0.01617705076932907,
          -0.03568705916404724,
          -0.06326909363269806,
          -0.16843661665916443,
          -0.05281641334295273,
          0.07343591004610062,
          -0.1593523919582367,
          -0.0417289175093174
        ],
        [
          -0.06549736857414246,
          0.1009669229388237,
          -0.02235996536910534,
          -0.0389246791601181,
          -0.10064592957496643,
          -0.04657502472400665,
          -0.14260756969451904,
          -0.20987799763679504,
          0.18122896552085876,
          0.10406418144702911,
          -0.1973160356283188,
          0.09867741912603378,
          -0.0709676742553711,
          0.03272392228245735,
          -0.3961728811264038,
          0.1096331998705864,
          0.22215895354747772,
          0.07439641654491425,
          0.12029538303613663,
          -0.40314486622810364,
          0.06499417126178741,
          -0.32062503695487976,
          0.057007063180208206,
          0.19616961479187012
        ],
        [
          -0.18697881698608398,
          -0.14507320523262024,
          -0.4355892241001129,
          0.13498270511627197,
          0.17371490597724915,
          0.21052239835262299,
          -0.5554221272468567,
          -0.1119244247674942,
          0.06637022644281387,
          0.2945268750190735,
          0.10365643352270126,
          0.07573463767766953,
          0.13282619416713715,
          -0.11884140968322754,
          0.06408627331256866,
          -0.01617274060845375,
          -0.0935874953866005,
          0.00302088912576437,
          -0.120089091360569,
          -0.046595871448516846,
          0.06333687156438828,
          -0.09375517070293427,
          0.1406293362379074,
          -0.11760986596345901
        ],
        [
          -0.13351325690746307,
          -0.3093971312046051,
          -0.2702871263027191,
          -0.08251064270734787,
          0.14337192475795746,
          -0.19102749228477478,
          -0.10624478757381439,
          0.04891262575984001,
          0.11446920037269592,
          0.07642603665590286,
          -0.01220002956688404,
          0.03255811706185341,
          -0.03356757387518883,
          -0.1736975908279419,
          -0.384247362613678,
          0.20315611362457275,
          0.07414723187685013,
          0.0599711537361145,
          -0.1496499478816986,
          -0.23185087740421295,
          0.09474250674247742,
          -0.2656621038913727,
          0.06533502787351608,
          -0.03101913072168827
        ],
        [
          -0.026066873222589493,
          -0.20278657972812653,
          0.2208430916070938,
          -0.023295573890209198,
          -0.21937203407287598,
          0.2504812777042389,
          -0.02333795838057995,
          -0.22141768038272858,
          0.26940929889678955,
          -0.021894875913858414,
          -0.24554921686649323,
          0.3003990054130554,
          0.03258698806166649,
          0.22632725536823273,
          -0.2575890123844147,
          0.020227251574397087,
          0.22721733152866364,
          -0.2713807225227356,
          0.02311873435974121,
          0.21154022216796875,
          -0.25069087743759155,
          0.02189793810248375,
          0.20285843312740326,
          -0.2856198251247406
        ],
        [
          -0.016399484127759933,
          -0.07676471769809723,
          0.052074331790208817,
          0.1685560792684555,
          -0.09257066249847412,
          -0.03018553927540779,
          0.08618819713592529,
          0.11506005376577377,
          -0.09449883550405502,
          -0.38264110684394836,
          -0.0814221203327179,
          -0.10197492688894272,
          -0.0412982702255249,
          -0.1466219574213028,
          0.00534867076203227,
          -0.1871035099029541,
          -0.17441564798355103,
          0.050124336034059525,
          0.06363128870725632,
          0.1153886541724205,
          0.008947115391492844,
          0.0066076419316232204,
          -0.032498784363269806,
          -0.255221426486969
        ],
        [
          0.18884427845478058,
          0.07604832947254181,
          0.23765181005001068,
          0.35284799337387085,
          0.19331079721450806,
          0.3836419880390167,
          -0.1748579889535904,
          -0.09783843904733658,
          -0.20675477385520935,
          -0.3248869776725769,
          -0.2295963168144226,
          -0.3671925663948059,
          -0.0025281496345996857,
          -0.0012256141053512692,
          0.01106043066829443,
          -0.059448037296533585,
          -0.0012206543469801545,
          0.03544965386390686,
          -0.021915731951594353,
          -0.00073185411747545,
          -0.00886293314397335,
          -0.02626076340675354,
          0.022900454699993134,
          0.024938594549894333
        ],
        [
          0.21736639738082886,
          0.2818458676338196,
          0.30905765295028687,
          -0.20150688290596008,
          -0.2666962444782257,
          -0.30699074268341064,
          0.18679207563400269,
          0.27599474787712097,
          0.3018400967121124,
          -0.19871746003627777,
          -0.2719621956348419,
          -0.30696097016334534,
          -0.006905869580805302,
          -0.01688021793961525,
          0.05225008726119995,
          -0.002061346312984824,
          -0.0007017054012976587,
          -0.006928714457899332,
          -0.008818912319839,
          0.024728862568736076,
          -0.03314652293920517,
          0.016587650403380394,
          0.00277701485902071,
          -0.005118953064084053
        ],
        [
          0.0422477088868618,
          0.09997013211250305,
          0.10938190668821335,
          -0.1034926176071167,
          -0.023265983909368515,
          -0.0400773249566555,
          0.07049699127674103,
          0.02096284180879593,
          0.09723984450101852,
          -0.0501142293214798,
          0.008799436502158642,
          0.0336642749607563,
          0.22953172028064728,
          0.18545734882354736,
          -0.39572039246559143,
          0.2122805118560791,
          0.09189879149198532,
          -0.2673002779483795,
          -0.16941604018211365,
          -0.21604040265083313,
          0.26084673404693604,
          -0.2884444296360016,
          -0.14990904927253723,
          0.2992865741252899
        ],
        [
          0.0376414954662323,
          0.010227415710687637,
          -0.0018399734981358051,
          -0.010026481002569199,
          -0.01494093518704176,
          -0.007510401774197817,
          -0.022138282656669617,
          0.01995774544775486,
          -0.01639699935913086,
          0.02990684285759926,
          -0.006160051561892033,
          -0.034351520240306854,
          -0.3016921281814575,
          -0.10025767982006073,
          -0.34863802790641785,
          -0.31098929047584534,
          -0.12653374671936035,
          -0.3234284222126007,
          0.29764801263809204,
          0.14031267166137695,
          0.3308396637439728,
          0.295040488243103,
          0.12957821786403656,
          0.36060696840286255
        ],
        [
          0.03533695638179779,
          -0.0013289394555613399,
          0.005995484068989754,
          0.04729931429028511,
          -0.014209023676812649,
          0.03379453718662262,
          -0.030519846826791763,
          0.022625388577580452,
          0.0010389117524027824,
          0.009931367821991444,
          -0.030743204057216644,
          0.014520978555083275,
          -0.2671583592891693,
          0.20258474349975586,
          0.15483178198337555,
          0.21676218509674072,
          -0.17982225120067596,
          -0.17343440651893616,
          -0.33178722858428955,
          0.26989981532096863,
          0.23837900161743164,
          0.3280029296875,
          -0.3613038659095764,
          -0.3109847605228424
        ],
        [
          -0.2642657160758972,
          -0.3073955476284027,
          -0.353048175573349,
          0.2061602622270584,
          0.11018732935190201,
          0.05063866451382637,
          -0.13565491139888763,
          0.0380612351000309,
          0.2509814500808716,
          0.15087352693080902,
          -0.014500073157250881,
          -0.08132289350032806,
          0.05178225040435791,
          0.10152974724769592,
          -0.17982450127601624,
          -0.003021647222340107,
          -0.0488101951777935,
          -0.027766643092036247,
          -0.10906414687633514,
          0.06273683905601501,
          -0.28108513355255127,
          -0.16226965188980103,
          -0.12099232524633408,
          0.16153587400913239
        ],
        [
          0.0021137078292667866,
          -0.05548584461212158,
          0.048338040709495544,
          -0.04332316294312477,
          -0.08984463661909103,
          0.02157757803797722,
          0.030253035947680473,
          -0.0930476039648056,
          -0.20163704454898834,
          0.016689687967300415,
          -0.1188630536198616,
          0.07296876609325409,
          -0.03387056291103363,
          -0.06656496226787567,
          -0.0722195953130722,
          0.06840319186449051,
          0.09450358897447586,
          -0.055850908160209656,
          -0.12656772136688232,
          -0.10876362025737762,
          -0.09529818594455719,
          -0.02030090056359768,
          -0.08372754603624344,
          -0.023194121196866035
        ],
        [
          -0.21532611548900604,
          0.09100234508514404,
          0.05648551881313324,
          -0.07226593792438507,
          -0.25860536098480225,
          0.03021041303873062,
          0.03436148911714554,
          0.010892976075410843,
          -0.010205302387475967,
          -0.044080063700675964,
          -0.10377288609743118,
          -0.21253719925880432,
          0.09954650700092316,
          0.025218453258275986,
          -0.21505971252918243,
          -0.19392746686935425,
          -0.15130774676799774,
          0.022499797865748405,
          -0.20567849278450012,
          -0.046090129762887955,
          -0.14400000870227814,
          -0.026844317093491554,
          -0.01653364673256874,
          0.13122867047786713
        ],
        [
          -0.174298495054245,
          0.09029644727706909,
          0.052554450929164886,
          0.02146683819591999,
          -0.14919161796569824,
          -0.07447200268507004,
          -0.09934325516223907,
          0.08737460523843765,
          0.09334153681993484,
          0.0735911950469017,
          -0.2844536602497101,
          -0.3107466697692871,
          0.049114909023046494,
          0.006157464347779751,
          -0.05410873517394066,
          0.051310908049345016,
          0.048954639583826065,
          -0.05143392086029053,
          -0.16529162228107452,
          -0.057016998529434204,
          -0.04514257609844208,
          -0.19636322557926178,
          -0.10309550911188126,
          -0.008631579577922821
        ],
        [
          0.13120517134666443,
          0.20738375186920166,
          0.10458093881607056,
          -0.23357351124286652,
          -0.19566357135772705,
          -0.21062390506267548,
          0.05090775713324547,
          0.07667940855026245,
          0.13020119071006775,
          -0.054391566663980484,
          -0.11999647319316864,
          -0.10936502367258072,
          -0.23558270931243896,
          0.030194563791155815,
          -0.12484780699014664,
          -0.4075315296649933,
          0.10253151506185532,
          0.07361190021038055,
          0.11595968157052994,
          -0.14727124571800232,
          -0.0022791912779212,
          0.3387949466705322,
          0.07480040937662125,
          -0.07887919247150421
        ],
        [
          0.02421928383409977,
          -0.0073661115020513535,
          0.1072797179222107,
          -0.07266703248023987,
          0.07090158760547638,
          -0.05748829245567322,
          -0.2142733335494995,
          -0.022125715389847755,
          -0.17751245200634003,
          -0.05956416204571724,
          -0.2519647181034088,
          0.0341472364962101,
          0.060618773102760315,
          0.10248054563999176,
          -0.07339750230312347,
          -0.09128530323505402,
          -0.07679260522127151,
          0.036116715520620346,
          -0.1017010435461998,
          -0.31040501594543457,
          -0.0761064887046814,
          -0.08850400894880295,
          0.06693383306264877,
          -0.14162731170654297
        ],
        [
          0.03478425741195679,
          0.010730058886110783,
          0.023769056424498558,
          -0.00807530339807272,
          0.0012613970320671797,
          0.028667999431490898,
          -0.005969641264528036,
          -0.017180372029542923,
          -0.009903245605528355,
          0.019739411771297455,
          -0.011233431287109852,
          -0.008885703980922699,
          -0.36667659878730774,
          0.30129072070121765,
          0.24893324077129364,
          -0.2564031183719635,
          0.2700338065624237,
          0.16477654874324799,
          0.21563124656677246,
          -0.21022608876228333,
          -0.17765700817108154,
          0.33344292640686035,
          -0.31325235962867737,
          -0.26878735423088074
        ],
        [
          -0.030128799378871918,
          -0.08253923803567886,
          -0.11478791385889053,
          -0.17763681709766388,
          -0.09122644364833832,
          0.03897727280855179,
          -0.12348033487796783,
          0.1174236610531807,
          0.05718975514173508,
          0.04688221216201782,
          -0.10153282433748245,
          -0.2549799680709839,
          -0.13489940762519836,
          -0.2729366421699524,
          -0.04144197702407837,
          -0.0656367614865303,
          0.004623339977115393,
          -0.026095308363437653,
          0.1163807064294815,
          0.2278275042772293,
          -0.08037401735782623,
          -0.09503462165594101,
          -0.07706630975008011,
          -0.027396831661462784
        ],
        [
          0.025000527501106262,
          -0.09327957779169083,
          -0.07717674225568771,
          -0.06479166448116302,
          -0.01590736396610737,
          0.004083229228854179,
          0.04160837456583977,
          0.026980066671967506,
          -0.10242927819490433,
          -0.020461205393075943,
          -0.037621140480041504,
          0.008215104229748249,
          -0.09953811764717102,
          -0.014982305467128754,
          -0.012043464928865433,
          0.06320808082818985,
          -0.16669316589832306,
          -0.1434175968170166,
          -0.0745992586016655,
          -0.10161858797073364,
          0.0178599301725626,
          0.038181371986866,
          0.007256112992763519,
          0.008527138270437717
        ],
        [
          -0.21648827195167542,
          -0.11059271544218063,
          -0.17909333109855652,
          -0.22424419224262238,
          -0.018214814364910126,
          0.12620657682418823,
          -0.03215871751308441,
          -0.06191202998161316,
          -0.07847949862480164,
          0.1779373288154602,
          -0.006278729997575283,
          -0.18188521265983582,
          -0.16836798191070557,
          -0.0406075082719326,
          -0.1812010109424591,
          -0.12843893468379974,
          0.0018786829896271229,
          -0.10329046100378036,
          -0.006002150475978851,
          -0.0010669740149751306,
          0.1334361881017685,
          0.08316154032945633,
          -0.13896553218364716,
          -0.02820087969303131
        ],
        [
          -0.09436026960611343,
          0.023308172821998596,
          -0.0642353817820549,
          -0.030556926503777504,
          -0.11585689336061478,
          -0.19903987646102905,
          -0.049064554274082184,
          -0.13006576895713806,
          0.09164944291114807,
          -0.06166500598192215,
          0.024407388642430305,
          0.017803790047764778,
          -0.11175230890512466,
          0.007835364900529385,
          -0.040514975786209106,
          0.024711180478334427,
          -0.12483647465705872,
          0.01805162988603115,
          -0.15723039209842682,
          0.022444486618041992,
          0.13475750386714935,
          -0.03746114298701286,
          -0.14104290306568146,
          -0.2524327337741852
        ],
        [
          0.11723765730857849,
          -0.03526747226715088,
          0.015730351209640503,
          0.008420185185968876,
          0.03580615669488907,
          -0.013376573100686073,
          -0.019331960007548332,
          -0.0181124247610569,
          -0.017341293394565582,
          -0.02115093730390072,
          0.014020300470292568,
          -0.05239224061369896,
          -0.09692247211933136,
          0.2695847749710083,
          0.2683683931827545,
          0.0661519467830658,
          -0.4675794243812561,
          -0.3967650830745697,
          -0.015640219673514366,
          0.23191885650157928,
          0.21095655858516693,
          -0.010801484808325768,
          0.012226531282067299,
          0.03647758066654205
        ],
        [
          -0.004875615239143372,
          0.18403176963329315,
          0.08207065612077713,
          -0.07600849121809006,
          -0.051320385187864304,
          0.06091035529971123,
          -0.09373142570257187,
          -0.1057228147983551,
          -0.2154332846403122,
          -0.03842782601714134,
          -0.1796257346868515,
          -0.2703072428703308,
          -0.09289772808551788,
          -0.15211547911167145,
          -0.37505337595939636,
          -0.055294256657361984,
          0.10893667489290237,
          0.011190811172127724,
          -0.08640465140342712,
          0.014475496485829353,
          0.058610349893569946,
          0.015328722074627876,
          -0.31493669748306274,
          0.06479522585868835
        ],
        [
          0.02105601131916046,
          -0.010081884451210499,
          0.009999905712902546,
          -0.014156786724925041,
          0.008385094814002514,
          -0.22839103639125824,
          0.04928988590836525,
          0.02154303900897503,
          -0.046246495097875595,
          -0.22224147617816925,
          -0.16967645287513733,
          -0.012181798927485943,
          -0.06660565733909607,
          0.035747647285461426,
          -0.30444812774658203,
          -0.020435407757759094,
          -0.03681075572967529,
          -0.014716098085045815,
          -0.08252301812171936,
          -0.16098567843437195,
          -0.02099577523767948,
          0.020194996148347855,
          -0.034808553755283356,
          0.11875393241643906
        ],
        [
          0.033010758459568024,
          -0.004532685037702322,
          -0.041322074830532074,
          0.0013360603479668498,
          -0.04381528124213219,
          0.006182401441037655,
          0.006012800615280867,
          -0.005556607153266668,
          0.038879841566085815,
          0.022525062784552574,
          -0.034530963748693466,
          0.010413757525384426,
          0.24819597601890564,
          -0.22855789959430695,
          0.24389217793941498,
          -0.29412734508514404,
          0.2801224887371063,
          -0.2545352280139923,
          0.2809523940086365,
          -0.21179331839084625,
          0.26858052611351013,
          -0.2919159233570099,
          0.2522925138473511,
          -0.2779243290424347
        ],
        [
          -0.0453801192343235,
          -0.003872932167723775,
          0.02506624162197113,
          -0.18541932106018066,
          -0.054587144404649734,
          0.01576117053627968,
          0.009715800173580647,
          -0.37109339237213135,
          -0.0010379102313891053,
          0.16977734863758087,
          0.06317467987537384,
          -0.24284407496452332,
          0.06923089921474457,
          -0.015934690833091736,
          -0.07376427948474884,
          -0.03484821692109108,
          -0.04037611931562424,
          -0.009497337974607944,
          -0.13585105538368225,
          -0.19569870829582214,
          -0.11984732747077942,
          -0.036793094128370285,
          -0.16994914412498474,
          0.01144282054156065
        ],
        [
          -0.13438749313354492,
          0.06814984977245331,
          -0.19221307337284088,
          0.026830656453967094,
          -0.12806519865989685,
          -0.015181707218289375,
          -0.0022510550916194916,
          -0.05319887399673462,
          0.00029884628020226955,
          -0.12125200033187866,
          -0.0496407188475132,
          -0.023087384179234505,
          -0.053750380873680115,
          -0.08948730677366257,
          -0.12348850071430206,
          -0.020088978111743927,
          -0.0006503542535938323,
          0.00892686191946268,
          -0.061054106801748276,
          -0.03895861282944679,
          0.028873788192868233,
          -0.03381874039769173,
          -0.09227453172206879,
          0.0682215690612793
        ],
        [
          0.22109687328338623,
          -0.027398400008678436,
          0.20802034437656403,
          -0.13605143129825592,
          -0.057833898812532425,
          -0.09732671827077866,
          -0.28459277749061584,
          0.11188645660877228,
          0.07265768945217133,
          0.05848860740661621,
          -0.04833608493208885,
          -0.2755439579486847,
          0.19115540385246277,
          -0.18069617450237274,
          -0.04558061435818672,
          -0.2383032590150833,
          -0.17425402998924255,
          0.13055375218391418,
          0.005148123484104872,
          0.1875779777765274,
          -0.2670871615409851,
          -0.11470817029476166,
          0.07343477010726929,
          0.04039684683084488
        ],
        [
          -0.1485954225063324,
          -0.43417057394981384,
          -0.14475314319133759,
          0.15170343220233917,
          0.04349629580974579,
          0.238830104470253,
          0.32043740153312683,
          0.08737857639789581,
          -0.3129931688308716,
          -0.2941335141658783,
          0.235311821103096,
          -0.04005618393421173,
          0.0991487056016922,
          -0.05051289498806,
          -0.13838988542556763,
          -0.11189193278551102,
          -0.2033538818359375,
          0.041476886719465256,
          -0.25780487060546875,
          -0.008390560746192932,
          -0.029621392488479614,
          0.07084530591964722,
          -0.09966149926185608,
          -0.03464942052960396
        ],
        [
          -0.040742017328739166,
          0.09533246606588364,
          0.05332161486148834,
          -0.20881615579128265,
          0.028436239808797836,
          0.03479925915598869,
          -0.021451713517308235,
          -0.12697839736938477,
          -0.24542509019374847,
          0.11035575717687607,
          -0.20879849791526794,
          0.03861771523952484,
          -0.1589595228433609,
          -0.1493625044822693,
          -0.007476243656128645,
          -0.04284946992993355,
          0.01918402872979641,
          -0.03571802377700806,
          -0.07676459103822708,
          -0.16395728290081024,
          -0.017135150730609894,
          0.14105616509914398,
          0.08762476593255997,
          -0.040624361485242844
        ],
        [
          0.10021357238292694,
          -0.020511610433459282,
          -0.00607975572347641,
          -0.025426112115383148,
          0.009218423627316952,
          -0.131000816822052,
          -0.48061102628707886,
          0.027398759499192238,
          0.15842491388320923,
          -0.06641777604818344,
          -0.4367017447948456,
          -0.07399273663759232,
          0.1376938372850418,
          0.02225923351943493,
          -0.25275880098342896,
          -0.030368734151124954,
          -0.11914674937725067,
          -0.10595832020044327,
          -0.19231010973453522,
          -0.15557488799095154,
          -0.13437145948410034,
          -0.12205249816179276,
          0.12448956817388535,
          0.22219718992710114
        ],
        [
          -0.10120803117752075,
          -0.012818343006074429,
          -0.07638348639011383,
          0.016994955018162727,
          -0.14091640710830688,
          -0.11113711446523666,
          -0.05488588288426399,
          -0.020166946575045586,
          -0.06412768363952637,
          0.06500140577554703,
          -0.042866483330726624,
          -0.005997455213218927,
          -0.028907908126711845,
          -0.02600700594484806,
          -0.016735024750232697,
          0.006980373524129391,
          -0.15592409670352936,
          -0.11574262380599976,
          -0.18194228410720825,
          0.0027536158449947834,
          0.055776841938495636,
          0.07397965341806412,
          0.0029626355972141027,
          -0.0915876105427742
        ],
        [
          -0.1780092418193817,
          0.07568974047899246,
          0.011143434792757034,
          -0.058883894234895706,
          -0.07769130170345306,
          -0.09367182850837708,
          -0.09320741146802902,
          -0.5031794905662537,
          0.19818872213363647,
          0.18766650557518005,
          -0.005822819657623768,
          -0.1334560662508011,
          0.0132472924888134,
          0.24117782711982727,
          0.024840889498591423,
          0.1900094747543335,
          -0.05724918469786644,
          0.07416250556707382,
          -0.04886671155691147,
          -0.20656760036945343,
          -0.5602139830589294,
          -0.17483839392662048,
          -0.4582732319831848,
          0.15153461694717407
        ],
        [
          -0.07962531596422195,
          -0.18337546288967133,
          -0.11669714748859406,
          0.031551018357276917,
          -0.17704859375953674,
          0.18696562945842743,
          -0.11793090403079987,
          -0.2993564009666443,
          -0.06876949220895767,
          -0.020238809287548065,
          0.15211771428585052,
          -0.0951184555888176,
          -0.13246668875217438,
          -0.25823453068733215,
          0.08922504633665085,
          0.10805226862430573,
          0.12018042057752609,
          -0.1878264993429184,
          -0.020901517942547798,
          -0.010862286202609539,
          -0.023305892944335938,
          -0.1877516508102417,
          -0.06443273276090622,
          -0.07018917053937912
        ],
        [
          -0.1690434217453003,
          -0.33171719312667847,
          0.283122181892395,
          -0.24053429067134857,
          -0.33020657300949097,
          0.3233264684677124,
          0.2209407389163971,
          0.2815009653568268,
          -0.3035713732242584,
          0.1808318942785263,
          0.23840013146400452,
          -0.31382811069488525,
          0.022081756964325905,
          0.00393805094063282,
          -0.011741772294044495,
          0.029614809900522232,
          0.04728718101978302,
          -0.027734866365790367,
          -0.01904420740902424,
          0.0473364032804966,
          -0.009075464680790901,
          -0.027825292199850082,
          0.009832173585891724,
          -0.014228979125618935
        ],
        [
          0.20998381078243256,
          -0.06753300130367279,
          0.04956860840320587,
          0.09433899819850922,
          -0.32404258847236633,
          0.27587756514549255,
          0.007471079006791115,
          0.3062288165092468,
          -0.18745975196361542,
          -0.04657638072967529,
          -0.3323722183704376,
          -0.4546625018119812,
          -0.06777439266443253,
          0.03737365081906319,
          -0.03158897906541824,
          0.06977102905511856,
          -0.016353251412510872,
          -0.07109510153532028,
          -0.22059962153434753,
          -0.10659203678369522,
          -0.023154135793447495,
          0.09526000171899796,
          0.03135565668344498,
          0.03341592848300934
        ],
        [
          -0.22743260860443115,
          -0.11498413234949112,
          0.004717555828392506,
          0.07431112229824066,
          -0.07227985560894012,
          -0.11364226043224335,
          0.0766628086566925,
          0.06405923515558243,
          -0.11094904690980911,
          -0.09426737576723099,
          -0.061123523861169815,
          -0.09141303598880768,
          -0.04695919528603554,
          -0.13603436946868896,
          0.05042891204357147,
          -0.0655151903629303,
          0.02705879881978035,
          -0.1263055056333542,
          -0.06891444325447083,
          0.09256892651319504,
          -0.1916530281305313,
          -0.0197612214833498,
          -0.23608025908470154,
          0.10001609474420547
        ],
        [
          0.19379188120365143,
          -0.08141066133975983,
          -0.1322668492794037,
          -0.11111711710691452,
          -0.18238170444965363,
          0.04623274505138397,
          -0.24823178350925446,
          -0.01623574271798134,
          -0.07724756002426147,
          -0.15532465279102325,
          0.04533204063773155,
          -0.07892020046710968,
          -0.16322536766529083,
          0.010507653467357159,
          0.02844678983092308,
          -0.2738979160785675,
          -0.1742759495973587,
          -0.07871054112911224,
          0.1052468791604042,
          -0.030775077641010284,
          -0.12839218974113464,
          -0.03584155812859535,
          -0.0639195665717125,
          -0.05182401463389397
        ],
        [
          -0.005708818789571524,
          0.0025884511414915323,
          -0.011011102236807346,
          0.004386480897665024,
          -0.00429413840174675,
          -0.01956355571746826,
          -0.028080223128199577,
          0.03834241256117821,
          0.011122222058475018,
          -0.004205395467579365,
          -0.04530210793018341,
          0.03268992155790329,
          0.32023778557777405,
          -0.39717936515808105,
          -0.28559646010398865,
          -0.09958195686340332,
          0.1577693074941635,
          0.12698599696159363,
          -0.3302822411060333,
          0.3843843340873718,
          0.3381318151950836,
          0.13665729761123657,
          -0.1888871043920517,
          -0.1721803843975067
        ],
        [
          -0.279875785112381,
          -0.021628567948937416,
          0.22952161729335785,
          -0.26684826612472534,
          -0.030905816704034805,
          0.2198398858308792,
          -0.24474625289440155,
          -0.0166952982544899,
          0.2066982537508011,
          -0.2694486081600189,
          -0.027759475633502007,
          0.19929279386997223,
          0.23729193210601807,
          0.011657274328172207,
          -0.2423882931470871,
          0.2684635818004608,
          0.007281864527612925,
          -0.2185547947883606,
          0.2703375518321991,
          -0.000957453332375735,
          -0.23317956924438477,
          0.23468749225139618,
          0.023000355809926987,
          -0.21593718230724335
        ],
        [
          -0.0070814285427331924,
          -0.07004845142364502,
          -0.12626302242279053,
          0.05901438742876053,
          -0.16452495753765106,
          0.17617890238761902,
          -0.2755599617958069,
          -0.2152114361524582,
          -0.13367705047130585,
          0.10236939042806625,
          0.1109982281923294,
          -0.1575900912284851,
          0.19059453904628754,
          -0.07974906265735626,
          0.1197940856218338,
          0.18833832442760468,
          0.05674310028553009,
          -0.15371258556842804,
          -0.29287269711494446,
          0.23565272986888885,
          0.008914681151509285,
          -0.4532376825809479,
          -0.4080447256565094,
          -0.05690144747495651
        ],
        [
          -0.12752164900302887,
          0.246769979596138,
          0.19144822657108307,
          -0.231113001704216,
          0.3575095534324646,
          0.28183865547180176,
          0.13206839561462402,
          -0.27722635865211487,
          -0.1928142011165619,
          0.22208601236343384,
          -0.3792584240436554,
          -0.266707181930542,
          0.0026147272437810898,
          -0.0009550461545586586,
          0.011650145053863525,
          0.009330608882009983,
          -0.002563820220530033,
          -0.02478899247944355,
          -0.06797810643911362,
          -0.002698172815144062,
          0.010959839448332787,
          0.002283075824379921,
          -0.013233417645096779,
          -0.02114247903227806
        ],
        [
          0.22568969428539276,
          0.09124037623405457,
          -0.0002565005561336875,
          -0.42541584372520447,
          -0.10970678925514221,
          -0.250083327293396,
          0.12867873907089233,
          0.13190463185310364,
          -0.48858222365379333,
          0.04709837585687637,
          -0.06459492444992065,
          0.1250387579202652,
          -0.3604702651500702,
          -0.015425772406160831,
          -0.23981550335884094,
          -0.04926810413599014,
          -0.187064990401268,
          0.16437049210071564,
          0.2773500382900238,
          -0.023663761094212532,
          -0.11140139400959015,
          0.08384564518928528,
          0.08754939585924149,
          -0.06493529677391052
        ],
        [
          0.06366078555583954,
          -0.19482257962226868,
          0.05185484141111374,
          -0.16905523836612701,
          0.048420704901218414,
          -0.1699063628911972,
          0.11154188960790634,
          0.01598496548831463,
          -0.23439070582389832,
          -0.19448964297771454,
          -0.05587643384933472,
          0.021743040531873703,
          0.02194870635867119,
          0.030003074556589127,
          0.09775105118751526,
          -0.24438601732254028,
          -0.19226719439029694,
          -0.23504360020160675,
          -0.18863193690776825,
          -0.014778862707316875,
          -0.12485000491142273,
          0.1125330775976181,
          0.027793509885668755,
          -0.08176887780427933
        ],
        [
          -0.1941359043121338,
          0.039451878517866135,
          -0.07337784767150879,
          -0.0022156001068651676,
          0.014621435664594173,
          -0.08988137543201447,
          0.049634773284196854,
          0.00310006202198565,
          0.0713978260755539,
          -0.027336077764630318,
          -0.1587502658367157,
          -0.15438823401927948,
          0.07760607451200485,
          -0.15519066154956818,
          -0.019422702491283417,
          -0.0028543679509311914,
          0.04781632125377655,
          -0.12351173162460327,
          -0.07068625092506409,
          -0.04074886441230774,
          -0.008125685155391693,
          -0.08485521376132965,
          -0.1063525378704071,
          -0.09578906744718552
        ],
        [
          0.41130417585372925,
          0.2058113068342209,
          -0.30758118629455566,
          0.17410816252231598,
          0.023158779367804527,
          -0.08828014135360718,
          -0.15819932520389557,
          -0.0902644470334053,
          0.09250593185424805,
          -0.4425972104072571,
          -0.1919691264629364,
          0.2710880935192108,
          -0.0009809157345443964,
          0.05538396164774895,
          0.056370217353105545,
          -0.012875976040959358,
          0.02976151369512081,
          0.06710465252399445,
          -0.011988179758191109,
          0.0052687739953398705,
          -0.020389806479215622,
          -0.013069692067801952,
          -0.032823119312524796,
          -0.03527548909187317
        ],
        [
          -0.19033393263816833,
          0.0847872793674469,
          0.04202309250831604,
          -0.10467151552438736,
          -0.3498768210411072,
          0.06767426431179047,
          0.07235116511583328,
          -0.06309643387794495,
          0.04094095900654793,
          -0.0253757294267416,
          0.09821679443120956,
          -0.22745685279369354,
          0.11111826449632645,
          -0.16203047335147858,
          -0.05360279977321625,
          -0.02233840711414814,
          -0.20281070470809937,
          0.05834943428635597,
          -0.13475288450717926,
          -0.17416277527809143,
          -0.09581439197063446,
          -0.1375272125005722,
          0.12562912702560425,
          -0.029498741030693054
        ],
        [
          -0.06502998620271683,
          0.03133941441774368,
          -0.009039316326379776,
          0.2147020548582077,
          -0.20122268795967102,
          0.1173873171210289,
          0.2685425877571106,
          -0.2656651437282562,
          0.2032867968082428,
          -0.39627933502197266,
          0.3237665891647339,
          -0.24981848895549774,
          -0.04256508871912956,
          0.010374068282544613,
          0.02623789571225643,
          -0.056179244071245193,
          -0.03540608659386635,
          0.015624257735908031,
          0.03721221163868904,
          0.012106248177587986,
          -0.16741140186786652,
          0.00779726030305028,
          0.03337599337100983,
          0.014708153903484344
        ],
        [
          -0.09545134007930756,
          0.046160295605659485,
          -0.00939094740897417,
          -0.1309392750263214,
          -0.006397194694727659,
          0.0397162064909935,
          0.042453233152627945,
          -0.13783225417137146,
          -0.030398746952414513,
          -0.11566793918609619,
          -0.03802945092320442,
          -0.13506421446800232,
          0.024343542754650116,
          -0.07314933836460114,
          0.02173120155930519,
          0.018215876072645187,
          -0.052806902676820755,
          0.021183401346206665,
          -0.034945882856845856,
          0.057785939425230026,
          -0.03406396508216858,
          -0.03961420804262161,
          -0.11941086500883102,
          0.024728059768676758
        ],
        [
          0.054713811725378036,
          -0.10032998770475388,
          -0.011946848593652248,
          -0.046429477632045746,
          -0.0077034542337059975,
          -0.022713368758559227,
          0.05452454462647438,
          -0.1217350885272026,
          0.0033073679078370333,
          0.06254412233829498,
          -0.1482514590024948,
          -0.07832673192024231,
          -0.07226598262786865,
          -0.13452386856079102,
          -0.0762096419930458,
          -0.08071736991405487,
          -0.022413069382309914,
          -0.028810929507017136,
          0.016037628054618835,
          0.014248334802687168,
          -0.16653525829315186,
          -0.02775845304131508,
          0.035867106169462204,
          -0.0885455310344696
        ],
        [
          -0.2594517767429352,
          -0.266188383102417,
          0.25886309146881104,
          0.31996965408325195,
          0.2659558653831482,
          -0.2673822343349457,
          -0.31051936745643616,
          -0.28399261832237244,
          0.2823217809200287,
          0.26972687244415283,
          0.21635214984416962,
          -0.2626763880252838,
          0.011339366436004639,
          0.024381710216403008,
          0.007487118244171143,
          -0.02205284684896469,
          0.0004780801245942712,
          -0.004007955547422171,
          -0.01733320765197277,
          0.015103560872375965,
          -0.003751549404114485,
          -0.001013208064250648,
          0.05052737891674042,
          -0.007218791171908379
        ],
        [
          -0.032713934779167175,
          -0.5252653360366821,
          -0.09793521463871002,
          0.0916561707854271,
          0.2558588683605194,
          0.12903043627738953,
          0.2238086462020874,
          0.14160789549350739,
          -0.12005636096000671,
          -0.5702753067016602,
          0.18879593908786774,
          -0.16197234392166138,
          -0.2662524878978729,
          -0.026241300627589226,
          -0.011373349465429783,
          -0.07232048362493515,
          -0.014276371337473392,
          -0.2260325849056244,
          -0.2862771153450012,
          0.11692758649587631,
          -0.15047845244407654,
          0.11975087970495224,
          0.004799467511475086,
          -0.003901633433997631
        ],
        [
          -0.02819567546248436,
          -0.038877636194229126,
          -0.08273755759000778,
          0.08803874999284744,
          0.024852605536580086,
          0.07536148279905319,
          -0.12709078192710876,
          -0.07239119708538055,
          -0.014084524475038052,
          0.11739279329776764,
          0.08759339153766632,
          0.10423566401004791,
          -0.23350389301776886,
          0.43741464614868164,
          -0.4242248237133026,
          -0.07082255929708481,
          -0.054773956537246704,
          0.021212894469499588,
          0.09966777265071869,
          -0.1301642507314682,
          0.14288689196109772,
          0.1874406784772873,
          -0.2592319846153259,
          0.31714990735054016
        ],
        [
          -0.03638025373220444,
          -0.035177189856767654,
          0.005832172930240631,
          0.08787386864423752,
          0.08039865642786026,
          0.032540250569581985,
          -0.04799976572394371,
          -0.01373665127903223,
          0.01326813455671072,
          0.03481195122003555,
          -0.006073050666600466,
          0.058748695999383926,
          -0.2072294056415558,
          -0.39826837182044983,
          0.38121652603149414,
          0.15894316136837006,
          0.3149653375148773,
          -0.36370420455932617,
          -0.10074508190155029,
          -0.10334432870149612,
          0.06041411682963371,
          0.13063962757587433,
          0.13438290357589722,
          -0.14789211750030518
        ],
        [
          0.011953333392739296,
          -0.02059011161327362,
          -0.0014233846450224519,
          -0.05999148637056351,
          -0.007480322383344173,
          -0.0195818729698658,
          0.022854061797261238,
          -0.03292137756943703,
          0.030322110280394554,
          0.05937457084655762,
          -0.04993396997451782,
          0.008405099622905254,
          0.29586848616600037,
          0.2863559424877167,
          0.16883371770381927,
          -0.3552088141441345,
          -0.29113107919692993,
          -0.15263254940509796,
          -0.3071913421154022,
          -0.2679397165775299,
          -0.19808752834796906,
          0.3013645112514496,
          0.27756911516189575,
          0.12108675390481949
        ],
        [
          -0.10684169083833694,
          -0.08764234930276871,
          -0.04498546943068504,
          -0.007287392392754555,
          -0.06986360251903534,
          -0.09343347698450089,
          -0.11193229258060455,
          0.04038965702056885,
          0.023517390713095665,
          0.06348739564418793,
          -0.11233058571815491,
          0.055626776069402695,
          -0.039771974086761475,
          -0.08763931691646576,
          0.013767783530056477,
          -0.10557889193296432,
          -0.01360299065709114,
          0.029626665636897087,
          0.014800047501921654,
          0.06736302375793457,
          -0.012472323141992092,
          -0.06367963552474976,
          -0.009178565815091133,
          0.04370151460170746
        ],
        [
          -0.0787733718752861,
          -0.05626603588461876,
          0.02762494422495365,
          0.04318810999393463,
          -0.08186431229114532,
          0.04249146953225136,
          0.050843607634305954,
          -0.12394306063652039,
          -0.10484368354082108,
          -0.1617029458284378,
          -0.07716239243745804,
          0.07705270498991013,
          0.018521171063184738,
          0.029413113370537758,
          -0.08101394027471542,
          -0.11846154183149338,
          -0.07032598555088043,
          -0.06280751526355743,
          -0.07903602719306946,
          -0.08922398090362549,
          0.0011819726787507534,
          0.07429605722427368,
          0.01502845250070095,
          0.016529010608792305
        ],
        [
          -0.014385993592441082,
          0.0031501529738307,
          -0.02555643394589424,
          0.0022393048275262117,
          0.0272598247975111,
          0.015044327825307846,
          -0.04183749854564667,
          -0.016244200989603996,
          -0.009686321020126343,
          -0.0040428549982607365,
          0.011442352086305618,
          0.0217683557420969,
          -0.02620404027402401,
          -0.26305267214775085,
          0.26937299966812134,
          -0.032250139862298965,
          -0.41691696643829346,
          0.3816486895084381,
          0.017663467675447464,
          0.32897746562957764,
          -0.3237294554710388,
          0.057423725724220276,
          0.332121342420578,
          -0.33068546652793884
        ],
        [
          -0.26093971729278564,
          -0.15240323543548584,
          0.03724750503897667,
          -0.09232001006603241,
          0.07758285850286484,
          -0.029773004353046417,
          -0.1138908863067627,
          0.11615550518035889,
          -0.22378389537334442,
          0.17588812112808228,
          -0.10049053281545639,
          0.00932612270116806,
          -0.1085292398929596,
          -0.3736688792705536,
          0.1271054744720459,
          -0.4104163646697998,
          0.25150781869888306,
          -0.11827289313077927,
          0.10503681749105453,
          -0.01988925039768219,
          0.064820796251297,
          0.3201003670692444,
          0.014865688048303127,
          -0.3131851553916931
        ],
        [
          0.19254137575626373,
          -0.10499412566423416,
          -0.034587312489748,
          0.047767285257577896,
          0.0017752606654539704,
          -0.12647786736488342,
          -0.15618830919265747,
          0.13113318383693695,
          -0.06523820012807846,
          -0.009758970700204372,
          -0.22454114258289337,
          0.061237599700689316,
          0.1563177853822708,
          0.16917768120765686,
          0.20418044924736023,
          -0.11450348049402237,
          0.05777261406183243,
          -0.09935066103935242,
          -0.02772018127143383,
          -0.21371571719646454,
          -0.10503625869750977,
          0.10800328850746155,
          -0.3525959849357605,
          -0.45816880464553833
        ],
        [
          0.06094975396990776,
          0.03760009631514549,
          0.09743133932352066,
          0.07751331478357315,
          0.08787474781274796,
          0.03845113143324852,
          -0.2580229341983795,
          0.005643688142299652,
          -0.25947269797325134,
          -0.1281650811433792,
          -0.25295302271842957,
          -0.1543731838464737,
          -0.16188302636146545,
          -0.22300663590431213,
          -0.007898841984570026,
          -0.10041508823633194,
          0.010036847554147243,
          0.04376501962542534,
          0.039288558065891266,
          0.029457220807671547,
          -0.1530160903930664,
          0.004893741570413113,
          -0.0056946915574371815,
          -0.08950506895780563
        ],
        [
          0.10470433533191681,
          -0.004983899183571339,
          0.11365535110235214,
          -0.044438354671001434,
          -0.012754584662616253,
          -0.06835173815488815,
          -0.10532869398593903,
          -0.17527350783348083,
          0.0460297092795372,
          -0.1322767287492752,
          -0.026028860360383987,
          -0.17034046351909637,
          0.12394899874925613,
          0.09815060347318649,
          0.03522736579179764,
          -0.35582682490348816,
          -0.18607042729854584,
          -0.16975466907024384,
          -0.18664827942848206,
          0.0812688022851944,
          -0.005275473929941654,
          0.1719067096710205,
          -0.37545493245124817,
          -0.10680625587701797
        ],
        [
          -0.20790895819664001,
          -0.25578057765960693,
          -0.25230973958969116,
          0.000182686053449288,
          -0.03446384519338608,
          0.09895465523004532,
          0.08001046627759933,
          -0.0709739550948143,
          -0.21747130155563354,
          -0.06690517067909241,
          0.06812811642885208,
          0.04576258361339569,
          -0.007748996373265982,
          -0.23968735337257385,
          -0.2242596298456192,
          -0.1564314216375351,
          0.09978891164064407,
          -0.036640435457229614,
          -0.029345061630010605,
          0.07533004134893417,
          -0.15443956851959229,
          -0.06687016785144806,
          -0.23250441253185272,
          0.09324665367603302
        ],
        [
          0.051626596599817276,
          -0.00024572148686274886,
          0.02370181679725647,
          0.00975253339856863,
          -0.06678620725870132,
          -0.049475427716970444,
          -0.043092984706163406,
          -0.02708137407898903,
          0.007335328962653875,
          0.03844909369945526,
          -0.0002487023884896189,
          -0.0006329676252789795,
          0.022616375237703323,
          0.07956410199403763,
          0.08961986750364304,
          0.232122540473938,
          0.2377951443195343,
          0.15582269430160522,
          -0.5162239670753479,
          -0.4047335684299469,
          -0.30234718322753906,
          0.1962578296661377,
          0.21375663578510284,
          0.14508125185966492
        ],
        [
          -0.027521193027496338,
          -0.10206334292888641,
          -0.09311095625162125,
          0.09895358979701996,
          0.11757012456655502,
          0.08575865626335144,
          0.0007136143394745886,
          -0.034524962306022644,
          -0.05833029747009277,
          0.017161129042506218,
          -0.008770116604864597,
          0.011226123198866844,
          -0.006133199669420719,
          -0.0673220232129097,
          0.058075688779354095,
          -0.1842394769191742,
          0.35476112365722656,
          -0.46944859623908997,
          0.17707213759422302,
          -0.3424204885959625,
          0.361002653837204,
          0.06985873728990555,
          0.014623320661485195,
          0.012416977435350418
        ],
        [
          0.05210329219698906,
          -0.25921615958213806,
          0.20378878712654114,
          -0.3052419424057007,
          -0.04853095859289169,
          -0.023121606558561325,
          0.06026359274983406,
          0.08752134442329407,
          -0.04236399754881859,
          -0.10111565887928009,
          -0.12654772400856018,
          0.03627186641097069,
          -0.2555045485496521,
          -0.2777118980884552,
          -0.013497316278517246,
          -0.11384572088718414,
          0.08943966776132584,
          -0.2341584414243698,
          -0.11295050382614136,
          -0.1527959108352661,
          -0.11600808054208755,
          0.04920779541134834,
          0.1584833264350891,
          -0.06582412868738174
        ],
        [
          -0.3618156611919403,
          -0.36356350779533386,
          0.3319009244441986,
          0.33320286870002747,
          0.31927821040153503,
          -0.2624533772468567,
          0.08528205752372742,
          0.14507147669792175,
          -0.07018036395311356,
          -0.12493839859962463,
          -0.10834446549415588,
          0.08424534648656845,
          0.034062352031469345,
          -0.015561603009700775,
          0.016510870307683945,
          -0.011393197812139988,
          -0.017865188419818878,
          0.022057658061385155,
          -0.01016402430832386,
          0.006625974550843239,
          -0.04206644371151924,
          0.0056753745302557945,
          -0.014838771894574165,
          -0.03008279949426651
        ],
        [
          0.20556297898292542,
          -0.21899983286857605,
          -0.09066230803728104,
          0.23615387082099915,
          -0.23951922357082367,
          -0.0964750126004219,
          0.25787195563316345,
          -0.24366594851016998,
          -0.09097809344530106,
          0.2520838975906372,
          -0.25788041949272156,
          -0.06451268494129181,
          -0.2646995186805725,
          0.2268567979335785,
          0.10397329181432724,
          -0.2189752608537674,
          0.21107147634029388,
          0.0916646420955658,
          -0.21832206845283508,
          0.19772261381149292,
          0.07883714139461517,
          -0.24944354593753815,
          0.2063518762588501,
          0.09530937671661377
        ],
        [
          -0.1351059526205063,
          0.12465033680200577,
          -0.13889415562152863,
          -0.18481308221817017,
          -0.33239081501960754,
          -0.15368172526359558,
          -0.13001985847949982,
          -0.03310030698776245,
          0.19879047572612762,
          0.18157069385051727,
          -0.08741626888513565,
          -0.0011604437604546547,
          -0.3439195454120636,
          -0.23295706510543823,
          0.013141571544110775,
          -0.11882755905389786,
          0.04372774809598923,
          0.15232686698436737,
          0.05675751715898514,
          -0.07984212785959244,
          -0.0612066425383091,
          0.09606784582138062,
          0.015214521437883377,
          -0.12327095121145248
        ],
        [
          0.314069002866745,
          -0.2565014958381653,
          -0.18751510977745056,
          0.02187967300415039,
          -0.30680274963378906,
          0.0191397275775671,
          0.017231909558176994,
          0.17556080222129822,
          -0.08114682883024216,
          -0.05279065668582916,
          -0.08544526249170303,
          0.19925348460674286,
          -0.19301719963550568,
          0.047353751957416534,
          -0.020189393311738968,
          -0.1665869504213333,
          0.09881759434938431,
          0.029851237311959267,
          0.008954166434705257,
          -0.21472294628620148,
          0.17175379395484924,
          0.20518682897090912,
          -0.15252940356731415,
          -0.45541247725486755
        ],
        [
          -0.0011485774302855134,
          0.0019240539986640215,
          -0.008467608131468296,
          -0.045817259699106216,
          -0.09655728936195374,
          0.03200683742761612,
          -0.07255245745182037,
          0.027776693925261497,
          -0.10167838633060455,
          -0.03713231906294823,
          -0.05713893473148346,
          -0.002710108645260334,
          -0.09430328011512756,
          0.05879998579621315,
          -0.09411998838186264,
          0.06604494899511337,
          0.01052769273519516,
          -0.0293030496686697,
          -0.07166797667741776,
          -0.04671446233987808,
          0.07072236388921738,
          -0.06637236475944519,
          -0.07098997384309769,
          -0.0054817283526062965
        ],
        [
          0.027279779314994812,
          -0.012632578611373901,
          0.007100660819560289,
          -0.00843911711126566,
          -0.0003713935730047524,
          -0.030738243833184242,
          -0.027090242132544518,
          0.020749634131789207,
          0.031624529510736465,
          0.015092145651578903,
          0.004941949620842934,
          -0.010140798054635525,
          -0.2952030599117279,
          -0.2548484206199646,
          -0.3768041729927063,
          0.2381780445575714,
          0.20915654301643372,
          0.32541555166244507,
          -0.1975824385881424,
          -0.16665597259998322,
          -0.3022899627685547,
          0.22861267626285553,
          0.20221486687660217,
          0.3180299997329712
        ],
        [
          -0.2622305750846863,
          0.23892520368099213,
          -0.28352856636047363,
          0.25612226128578186,
          -0.28956928849220276,
          0.27299928665161133,
          -0.27680346369743347,
          0.26295849680900574,
          -0.2849941551685333,
          0.2537633776664734,
          -0.3038855493068695,
          0.27550941705703735,
          0.01709047704935074,
          0.04134516417980194,
          0.01700747199356556,
          -0.00022777153935749084,
          0.014458243735134602,
          -0.011038037948310375,
          0.007108953781425953,
          0.03230997920036316,
          -0.049656111747026443,
          0.008505870588123798,
          0.06559190899133682,
          0.005250010173767805
        ],
        [
          0.003916913643479347,
          0.046335719525814056,
          0.09000029414892197,
          -0.12646956741809845,
          -0.10415854305028915,
          -0.1843906193971634,
          0.11922305822372437,
          0.09672850370407104,
          -0.33280205726623535,
          -0.14511851966381073,
          -0.02184162102639675,
          0.17551255226135254,
          0.06215916574001312,
          0.04657904431223869,
          -0.040065303444862366,
          -0.14831100404262543,
          0.24998651444911957,
          -0.24283237755298615,
          -0.531782865524292,
          -0.2969397008419037,
          -0.035967618227005005,
          0.025096673518419266,
          -0.10375256091356277,
          0.25196003913879395
        ],
        [
          0.04419592767953873,
          0.022313544526696205,
          0.005539573263376951,
          -0.005380627233535051,
          -0.006163058802485466,
          -0.05608740448951721,
          -0.01893390528857708,
          0.04744187369942665,
          0.01050249021500349,
          -0.010853479616343975,
          0.01962728425860405,
          -0.010443447157740593,
          0.3019154369831085,
          0.3404959440231323,
          0.0805412232875824,
          0.28241056203842163,
          0.30465570092201233,
          0.04005095735192299,
          -0.29743683338165283,
          -0.2842845618724823,
          -0.03689971938729286,
          -0.352693647146225,
          -0.38580432534217834,
          -0.04144987836480141
        ]
      ],
      "bias": [
        -0.19464939832687378,
        -0.007180226966738701,
        -0.14675243198871613,
        -0.05757876858115196,
        -0.1307864636182785,
