{
  "shared_layers": [
    {
      "weight": [
        [
          -0.11097563803195953,
          -0.5136891603469849,
          -0.1421477347612381,
          -0.014907416887581348,
          0.38986319303512573,
          0.0549469031393528,
          0.09255549311637878,
          0.27682170271873474,
          -0.027878811582922935,
          -0.010306531563401222,
          -0.022695863619446754,
          0.02915157563984394,
          -0.18942691385746002,
          -0.3521914780139923,
          -0.1153869703412056,
          -0.06449417769908905,
          -0.12827232480049133,
          -0.1320595145225525,
          -0.029636843129992485,
          -0.1830761879682541,
          -0.23895348608493805,
          -0.03132378309965134,
          -0.15824946761131287,
          -0.18382291495800018
        ],
        [
          0.04886218532919884,
          -0.06809918582439423,
          0.0402015782892704,
          0.03538285195827484,
          -0.12326680123806,
          -0.02200787328183651,
          -0.10401949286460876,
          -0.17824870347976685,
          0.041762180626392365,
          0.00907034520059824,
          -0.12282871454954147,
          -0.029765740036964417,
          -0.0941542237997055,
          -0.11725789308547974,
          0.020068222656846046,
          0.05293074995279312,
          -0.12319318950176239,
          -0.09410372376441956,
          -0.002933225827291608,
          -0.05397796630859375,
          -0.12737606465816498,
          0.05736544355750084,
          0.06752508133649826,
          -0.008905163034796715
        ],
        [
          -0.11911535263061523,
          -0.00011668435035971925,
          -0.0695008635520935,
          0.072967030107975,
          -0.06300655007362366,
          -0.07113880664110184,
          -0.049928855150938034,
          0.05899745598435402,
          -0.021726323291659355,
          0.04613770917057991,
          -0.0333874486386776,
          -0.009389711543917656,
          -0.0964079275727272,
          -0.01994023099541664,
          0.008238992653787136,
          -0.12327739596366882,
          0.00776243768632412,
          -0.01232499536126852,
          -0.04247967526316643,
          -0.10967079550027847,
          0.07957634329795837,
          -0.016631465405225754,
          -0.029343629255890846,
          -0.12312152981758118
        ],
        [
          -0.12770915031433105,
          0.0011713604908436537,
          0.2502676546573639,
          -0.11265761405229568,
          0.023539047688245773,
          0.199235200881958,
          -0.18818415701389313,
          0.02549278363585472,
          0.34073153138160706,
          -0.00809604674577713,
          0.03964897617697716,
          0.012301715090870857,
          0.4009282886981964,
          -0.09246157854795456,
          -0.7219111323356628,
          -0.02025311253964901,
          0.022705838084220886,
          0.014012359082698822,
          0.044052984565496445,
          -0.030231883749365807,
          -0.05007259547710419,
          -0.04292987659573555,
          -0.0005231438553892076,
          -0.026868553832173347
        ],
        [
          0.026509718969464302,
          -0.11933273822069168,
          -0.07978450506925583,
          0.02035951055586338,
          -0.02613040618598461,
          -0.10893376916646957,
          0.031597793102264404,
          -0.14574868977069855,
          -0.01605214737355709,
          0.02025725319981575,
          -0.01998528651893139,
          -0.12409457564353943,
          -0.21215078234672546,
          0.031001925468444824,
          0.013443421572446823,
          -0.07975757122039795,
          -0.12598975002765656,
          0.0011347840772941709,
          0.057740919291973114,
          -0.019758453592658043,
          -0.069953553378582,
          0.04378202185034752,
          0.012668825685977936,
          0.0028159664943814278
        ],
        [
          0.004889973439276218,
          0.07070088386535645,
          -0.011385541409254074,
          -0.10765743255615234,
          -0.08363323658704758,
          -0.10600845515727997,
          -0.045597001910209656,
          0.0020150993950664997,
          -0.023008476942777634,
          -0.027255073189735413,
          0.06759718060493469,
          0.03531862795352936,
          -0.07602139562368393,
          0.0031089631374925375,
          -0.07526479661464691,
          -0.035026371479034424,
          -0.010492991656064987,
          0.0006142379716038704,
          0.08546175807714462,
          -0.01597609557211399,
          -0.08602695167064667,
          -0.10108146071434021,
          0.0058719320222735405,
          0.0016804906772449613
        ],
        [
          -0.14888063073158264,
          -0.043571509420871735,
          0.040189310908317566,
          0.3942137360572815,
          -0.36220669746398926,
          0.21725152432918549,
          -0.19207322597503662,
          -0.030718879774212837,
          -0.13706430792808533,
          -0.14777621626853943,
          0.023931337520480156,
          -0.1642812192440033,
          0.08284691721200943,
          -0.3633364737033844,
          0.1425652801990509,
          -0.11977725476026535,
          -0.07239948213100433,
          0.05709521472454071,
          0.02610069513320923,
          -0.17390473186969757,
          0.09853652864694595,
          0.008409635163843632,
          -0.22683033347129822,
          0.18059010803699493
        ],
        [
          0.020519405603408813,
          -0.06902263313531876,
          0.0188682209700346,
          -0.08049750328063965,
          0.04433829337358475,
          -0.0971219465136528,
          0.04715963825583458,
          -0.039368364959955215,
          -0.10735584050416946,
          0.012738586403429508,
          -0.08242176473140717,
          -0.028151635080575943,
          -0.2608301043510437,
          -0.04785802215337753,
          0.014222967438399792,
          -0.23648053407669067,
          0.08768421411514282,
          -0.22473713755607605,
          0.029886500909924507,
          -0.19064152240753174,
          0.10081619024276733,
          0.06749621033668518,
          0.037295863032341,
          -0.04813417047262192
        ],
        [
          -0.18880121409893036,
          0.11907967925071716,
          -0.41925835609436035,
          -0.11616815626621246,
          -0.4623359739780426,
          -0.09359759092330933,
          -0.135948047041893,
          0.08436485379934311,
          0.3040400445461273,
          -0.2715543508529663,
          0.1666167676448822,
          0.17814114689826965,
          -0.19081856310367584,
          -0.056509774178266525,
          0.07618092000484467,
          -0.14807088673114777,
          -0.04872297868132591,
          -0.15539905428886414,
          0.2692720293998718,
          0.0792878121137619,
          0.038880329579114914,
          -0.04556908458471298,
          -0.10744749754667282,
          -0.06545732170343399
        ],
        [
          0.32279595732688904,
          0.09483951330184937,
          -0.14981023967266083,
          0.27964261174201965,
          0.2377842366695404,
          -0.22935983538627625,
          -0.3838595747947693,
          -0.12280652672052383,
          0.16222897171974182,
          0.10213875025510788,
          -0.10278032720088959,
          0.014296840876340866,
          -0.2689226567745209,
          -0.2261323630809784,
          0.15493887662887573,
          -0.16204330325126648,
          -0.07782036811113358,
          0.10955914855003357,
          -0.34563949704170227,
          0.00645410967990756,
          0.06140854209661484,
          -0.19669543206691742,
          0.04014391452074051,
          -0.1270698457956314
        ],
        [
          -0.07437323778867722,
          -0.026235247030854225,
          0.07430338859558105,
          0.1178574413061142,
          -0.22901301085948944,
          -0.31597450375556946,
          0.012824238277971745,
          -0.08902939409017563,
          -0.04865480586886406,
          0.25248607993125916,
          -0.2084154486656189,
          0.11896299570798874,
          -0.23818375170230865,
          0.18927742540836334,
          -0.053086575120687485,
          -0.40214744210243225,
          0.19034187495708466,
          -0.36334794759750366,
          -0.1073460802435875,
          -0.23114904761314392,
          0.19516152143478394,
          0.3389260768890381,
          0.06345120072364807,
          0.09848304092884064
        ],
        [
          -0.07155991345643997,
          0.11510913074016571,
          -0.027647793292999268,
          -0.21655935049057007,
          -0.18456704914569855,
          0.03230026364326477,
          -0.05368125066161156,
          -0.07082784175872803,
          -0.2090797871351242,
          0.0592239610850811,
          0.006262840703129768,
          0.06215205043554306,
          -0.14356867969036102,
          -0.025992726907134056,
          0.0034458520822227,
          -0.05033433437347412,
          0.09470274299383163,
          -0.017545068636536598,
          -0.27558434009552,
          -0.06947670876979828,
          -0.0034536398015916348,
          -0.10602129250764847,
          -0.0071143535897135735,
          -0.01651672087609768
        ],
        [
          -0.0005279508186504245,
          -0.048095010221004486,
          0.054783470928668976,
          0.007285339292138815,
          -0.07916958630084991,
          -0.00029645671020261943,
          0.0287681445479393,
          0.04654654860496521,
          -0.004087324719876051,
          -0.07059290260076523,
          0.02155146934092045,
          -0.06014234572649002,
          0.01642129197716713,
          -0.021526748314499855,
          -0.1476229578256607,
          -0.03607267513871193,
          -0.12014129012823105,
          -0.035326361656188965,
          -0.09308391064405441,
          -0.055589620023965836,
          -0.143492192029953,
          -0.01703224889934063,
          0.035447001457214355,
          -0.023456808179616928
        ],
        [
          -0.19430242478847504,
          -0.17262594401836395,
          -0.14620693027973175,
          -0.22352685034275055,
          -0.17080101370811462,
          -0.19676454365253448,
          -0.20666173100471497,
          -0.16190269589424133,
          -0.1854017972946167,
          -0.010178821161389351,
          -0.023400945588946342,
          -0.02120196633040905,
          0.5433586835861206,
          0.4210298955440521,
          0.41076725721359253,
          0.055806487798690796,
          0.008434005081653595,
          0.028805935755372047,
          0.032732538878917694,
          0.024759331718087196,
          0.019639432430267334,
          -0.04312987998127937,
          0.021649740636348724,
          0.022522972896695137
        ],
        [
          0.1461493968963623,
          0.1433107852935791,
          -0.04983752965927124,
          -0.04326516389846802,
          0.022604094818234444,
          -0.1928868442773819,
          -0.5940905213356018,
          0.18590807914733887,
          -0.16178622841835022,
          0.06476529687643051,
          -0.14745961129665375,
          0.2047497183084488,
          -0.11108727008104324,
          -0.034625109285116196,
          -0.093451589345932,
          -0.11442176252603531,
          -0.05302482098340988,
          -0.0343637615442276,
          -0.060383159667253494,
          0.08926369994878769,
          -0.2837775647640228,
          -0.08527927845716476,
          0.08183307200670242,
          -0.10920663177967072
        ],
        [
          0.23646678030490875,
          -0.09506411105394363,
          0.11773492395877838,
          -0.08552533388137817,
          -0.2810509502887726,
          0.06009732931852341,
          0.24400779604911804,
          -0.38541555404663086,
          0.06823018938302994,
          -0.09658131003379822,
          0.05524751543998718,
          0.009258407168090343,
          -0.09182034432888031,
          -0.06983327865600586,
          -0.12946200370788574,
          0.09137625247240067,
          0.05168471857905388,
          -0.16764496266841888,
          0.17965824902057648,
          -0.584002673625946,
          -0.047423768788576126,
          0.11311303079128265,
          -0.3448394536972046,
          0.1187467873096466
        ],
        [
          0.029490778222680092,
          -0.007681108079850674,
          -0.014664550311863422,
          0.05587199702858925,
          0.025853639468550682,
          -0.11812707036733627,
          0.037332575768232346,
          -0.10741104185581207,
          -0.024627095088362694,
          -0.10466470569372177,
          -0.052812106907367706,
          -0.0788203775882721,
          0.021863458678126335,
          -0.010093217715620995,
          0.024391090497374535,
          0.07585371285676956,
          0.0026790527626872063,
          -0.06022747978568077,
          -0.14892341196537018,
          0.07204627245664597,
          -0.12045778334140778,
          -0.01543346792459488,
          -0.0203598253428936,
          -0.0666419118642807
        ],
        [
          -0.1302775740623474,
          0.10183434188365936,
          -0.24013489484786987,
          -0.2700061798095703,
          -0.34568384289741516,
          -0.04445040971040726,
          -0.016861962154507637,
          0.30211254954338074,
          0.22294121980667114,
          0.16448253393173218,
          -0.26053887605667114,
          0.014096572063863277,
          -0.03270605579018593,
          -0.12111601233482361,
          -0.08930515497922897,
          0.07080743461847305,
          -0.0605311393737793,
          0.03564447909593582,
          -0.26352235674858093,
          0.06615527719259262,
          0.040948282927274704,
          -0.344875693321228,
          -0.05444420874118805,
          -0.04500370845198631
        ],
        [
          0.3367999792098999,
          -0.3543768525123596,
          -0.45940884947776794,
          0.004796134307980537,
          -0.007338241674005985,
          0.11333541572093964,
          -0.19620002806186676,
          0.13197867572307587,
          0.014939585700631142,
          0.06227990239858627,
          0.29354092478752136,
          0.07340110093355179,
          0.05175011232495308,
          -0.19696488976478577,
          -0.4344690144062042,
          0.09823640435934067,
          0.007689428981393576,
          -0.07748623192310333,
          -0.021893607452511787,
          -0.129119411110878,
          -0.15954692661762238,
          0.018847379833459854,
          -0.18710577487945557,
          -0.10662569105625153
        ],
        [
          -0.05732611566781998,
          -0.0414850153028965,
          -0.17218349874019623,
          0.46236395835876465,
          0.33123472332954407,
          0.4539756774902344,
          -0.24300800263881683,
          -0.22384750843048096,
          -0.30213257670402527,
          0.010789012536406517,
          0.0029988016467541456,
          -0.015805570408701897,
          -0.07458412647247314,
          -0.043743330985307693,
          0.011090610176324844,
          -0.02067338302731514,
          -0.06640534847974777,
          0.009076767601072788,
          -0.0025644400157034397,
          0.03264434263110161,
          -0.05808570235967636,
          0.03095324896275997,
          -0.04458620399236679,
          0.007500150706619024
        ],
        [
          -0.3149624466896057,
          -0.3041454255580902,
          -0.19091078639030457,
          0.528160810470581,
          0.41923826932907104,
          0.28385597467422485,
          -0.10277938842773438,
          -0.11875874549150467,
          -0.10069607943296432,
          -0.01899060606956482,
          0.00660419138148427,
          -0.002265540650114417,
          -0.16957181692123413,
          0.036237090826034546,
          0.06753604114055634,
          -0.018001509830355644,
          -0.03885718062520027,
          -0.04419530928134918,
          -0.02641080506145954,
          0.0201603714376688,
          -0.01574823260307312,
          0.030914943665266037,
          -0.029015682637691498,
          0.025996802374720573
        ],
        [
          0.11438409984111786,
          0.14887019991874695,
          0.14037027955055237,
          0.15009187161922455,
          0.31552448868751526,
          0.26929664611816406,
          0.12897561490535736,
          0.2663736343383789,
          0.1990060806274414,
          0.009791193529963493,
          0.06536686420440674,
          0.058812085539102554,
          -0.12690553069114685,
          -0.1441444605588913,
          -0.06689278781414032,
          -0.22228506207466125,
          -0.41726088523864746,
          -0.3819841146469116,
          -0.006528959143906832,
          -0.1503286212682724,
          -0.15385502576828003,
          -0.06365962326526642,
          -0.10584010183811188,
          -0.04713825881481171
        ],
        [
          0.04353984072804451,
          -0.09750280529260635,
          -0.060992900282144547,
          -0.10038841515779495,
          0.03361339122056961,
          -0.055339500308036804,
          -0.01806795224547386,
          -0.05118931457400322,
          0.04383816197514534,
          0.03353765979409218,
          0.032905399799346924,
          -0.03952986001968384,
          0.008983883075416088,
          -0.0004691016220021993,
          -0.03058917634189129,
          -0.05615518242120743,
          -0.03635237738490105,
          -0.0779758170247078,
          -0.09601924568414688,
          -0.04003903269767761,
          0.05934997648000717,
          -0.020240485668182373,
          0.029774850234389305,
          0.017011677846312523
        ],
        [
          -0.18700069189071655,
          -0.010116799734532833,
          -0.15398605167865753,
          -0.0026564488653093576,
          0.0908859521150589,
          -0.1744195520877838,
          0.01661829836666584,
          -0.3984416723251343,
          0.17954450845718384,
          -0.023867618292570114,
          -0.2224566638469696,
          0.07503524422645569,
          -0.10485908389091492,
          -0.25651001930236816,
          0.10496518760919571,
          -0.0185378585010767,
          -0.09465046972036362,
          0.023430410772562027,
          0.18415158987045288,
          -0.1959662139415741,
          -0.0945928767323494,
          0.11386408656835556,
          -0.005734425038099289,
          0.005303020589053631
        ],
        [
          -0.047228433191776276,
          -0.06904502213001251,
          0.07573433965444565,
          -0.11280214041471481,
          0.01862322725355625,
          -0.10260669887065887,
          -0.10147740691900253,
          -0.10250084847211838,
          0.07898151874542236,
          -0.02019648812711239,
          -0.08893463015556335,
          -0.07261128723621368,
          -0.07037662714719772,
          0.06746745854616165,
          0.06996376067399979,
          -0.08001092821359634,
          0.06596262007951736,
          -0.11454574763774872,
          0.0821884498000145,
          0.05940539017319679,
          -0.05753478407859802,
          -0.09175974875688553,
          -0.12658752501010895,
          -0.05557805672287941
        ],
        [
          -0.0017880628583952785,
          -0.04974687471985817,
          -0.0624091699719429,
          -0.01674334891140461,
          -0.07852938771247864,
          -0.022738827392458916,
          -0.0634244903922081,
          -0.11066391319036484,
          -0.1181550845503807,
          -0.062161121517419815,
          -0.09723073244094849,
          -0.0031289176549762487,
          0.013054846785962582,
          0.05683078244328499,
          0.014013051055371761,
          -0.0019572568126022816,
          0.08365076035261154,
          -0.025310708209872246,
          -0.07790596783161163,
          0.07684342563152313,
          -0.05981655418872833,
          -0.03220172971487045,
          -0.0030252307187765837,
          -0.026187777519226074
        ],
        [
          0.29209911823272705,
          -0.13642628490924835,
          -0.2590690851211548,
          0.017005732282996178,
          0.1784871518611908,
          -0.3096068203449249,
          0.14250731468200684,
          -0.26128950715065,
          0.0035194812808185816,
          -0.06007619947195053,
          -0.16336673498153687,
          0.13429734110832214,
          0.09847757965326309,
          -0.1402001827955246,
          -0.30663859844207764,
          0.010199185460805893,
          -0.03239738941192627,
          -0.05661548674106598,
          0.17389975488185883,
          -0.19411149621009827,
          -0.16330072283744812,
          0.19914859533309937,
          0.031398847699165344,
          -0.3000689148902893
        ],
        [
          0.20228475332260132,
          0.19854043424129486,
          -0.3418295085430145,
          0.10168053209781647,
          0.11001795530319214,
          -0.25113505125045776,
          0.1486363559961319,
          0.16706176102161407,
          -0.29080724716186523,
          0.00035738322185352445,
          -0.031399428844451904,
          -0.033607881516218185,
          -0.07659970223903656,
          -0.23494163155555725,
          0.5287236571311951,
          -0.14512459933757782,
          -0.1129506453871727,
          0.21668292582035065,
          -0.09226775914430618,
          -0.04429110139608383,
          -0.02133128046989441,
          -0.202626034617424,
          -0.11676840484142303,
          0.057804301381111145
        ],
        [
          0.03070122003555298,
          -0.0074619692750275135,
          -0.009218554012477398,
          0.015441377647221088,
          -0.010461518540978432,
          0.010039955377578735,
          0.021248122677206993,
          3.737893348443322e-05,
          0.00884459912776947,
          -0.05132222920656204,
          -0.006033261772245169,
          -0.0007425441290251911,
          0.7481768131256104,
          0.014090356417000294,
          -0.058877114206552505,
          0.005624698009341955,
          0.012511201202869415,
          -0.00502404710277915,
          -0.7770959138870239,
          -0.013097536750137806,
          0.04360580816864967,
          0.05161092430353165,
          0.007626782637089491,
          0.007099656853824854
        ],
        [
          -0.33299344778060913,
          0.11980000138282776,
          0.012734540738165379,
          -0.13636766374111176,
          -0.04330890625715256,
          0.22022953629493713,
          0.022713739424943924,
          -0.5131922364234924,
          -0.2955821752548218,
          0.24233552813529968,
          -0.057767368853092194,
          -0.05593450739979744,
          0.11294307559728622,
          -0.3126429617404938,
          -0.13459491729736328,
          0.03179614990949631,
          0.11897659301757812,
          0.0024386500008404255,
          -0.31800636649131775,
          -0.07903892546892166,
          -0.26928409934043884,
          -0.1696251630783081,
          -0.14388853311538696,
          -0.1841413825750351
        ],
        [
          -0.17600104212760925,
          -0.0023367905523627996,
          -0.11736206710338593,
          -0.12513145804405212,
          0.1767025589942932,
          -0.01824353262782097,
          -0.2181258350610733,
          0.06839527189731598,
          -0.08185834437608719,
          -0.08893861621618271,
          0.09467148035764694,
          -0.08263838291168213,
          0.05163506418466568,
          -0.4299822151660919,
          -0.3219609260559082,
          0.23843811452388763,
          -0.15334022045135498,
          0.3282136917114258,
          0.1763218641281128,
          0.2000415325164795,
          0.08378827571868896,
          -0.20473617315292358,
          0.04907618835568428,
          0.046094998717308044
        ],
        [
          -0.060796014964580536,
          -0.03273193538188934,
          0.04096994176506996,
          -0.1730898916721344,
          -0.0817914605140686,
          -0.05414358526468277,
          -0.1243581473827362,
          -0.04958854615688324,
          -0.043042104691267014,
          -0.20537914335727692,
          0.20792348682880402,
          -0.002724043093621731,
          0.5435983538627625,
          -0.022217517718672752,
          0.08345912396907806,
          0.18214963376522064,
          -0.4738054573535919,
          0.0018066586926579475,
          -0.07561740279197693,
          0.16344070434570312,
          -0.15148383378982544,
          -0.2651146650314331,
          0.14932529628276825,
          -0.018842147663235664
        ],
        [
          0.3436741232872009,
          -0.08554521203041077,
          0.28218844532966614,
          -0.4774934947490692,
          0.06793791800737381,
          -0.18662621080875397,
          0.311178594827652,
          0.021440425887703896,
          0.19816112518310547,
          0.09369634091854095,
          -0.1933591365814209,
          -0.032422278076410294,
          -0.2607508897781372,
          0.03964480757713318,
          -0.3701549470424652,
          -0.11781298369169235,
          -0.09474226087331772,
          -0.08010098338127136,
          -0.4172826111316681,
          0.0337916724383831,
          -0.0009737859363667667,
          -0.18469339609146118,
          0.06007274240255356,
          -0.07010671496391296
        ],
        [
          -0.10954181849956512,
          0.1950320154428482,
          0.10788656026124954,
          -0.06512939929962158,
          0.040482502430677414,
          0.14414988458156586,
          0.1370764970779419,
          -0.60325026512146,
          -0.22430641949176788,
          0.08841603994369507,
          0.12758739292621613,
          -0.045746516436338425,
          0.06625105440616608,
          -0.2823609709739685,
          -0.15018707513809204,
          0.1620621234178543,
          -0.19750364124774933,
          0.04149991646409035,
          -0.16402094066143036,
          -0.24329295754432678,
          -0.1697554588317871,
          0.002513029146939516,
          -0.3775731921195984,
          -0.112905353307724
        ],
        [
          0.22221580147743225,
          -0.20544366538524628,
          -0.057496409863233566,
          -0.6907635927200317,
          0.5414823293685913,
          0.24440863728523254,
          0.25760337710380554,
          -0.22431044280529022,
          -0.06992839276790619,
          0.003209912683814764,
          -0.01664763316512108,
          -0.01903296634554863,
          0.14766547083854675,
          -0.07691680639982224,
          0.033603254705667496,
          0.057976048439741135,
          -0.034677885472774506,
          0.007011579815298319,
          0.0026188481133431196,
          0.022092126309871674,
          -0.00893371645361185,
          0.04426724091172218,
          -0.019254125654697418,
          0.009575048461556435
        ],
        [
          0.24279621243476868,
          -0.026321206241846085,
          -0.016233211383223534,
          0.1336091160774231,
          0.09260722249746323,
          -0.09334389120340347,
          0.11964038014411926,
          0.06032281368970871,
          0.02202625386416912,
          -0.12894630432128906,
          -0.008096936158835888,
          -0.014264656230807304,
          -0.029789043590426445,
          -0.3239205777645111,
          0.0015005494933575392,
          -0.4653884768486023,
          0.13958865404129028,
          -0.31386473774909973,
          -0.22194474935531616,
          -0.139031320810318,
          0.2195199728012085,
          -0.24114970862865448,
          0.1688678115606308,
          0.003946441691368818
        ],
        [
          -0.0234838854521513,
          -0.03318053483963013,
          0.033212605863809586,
          0.008987770415842533,
          -0.07746977359056473,
          -0.0008956966921687126,
          -0.004759001079946756,
          -0.04424859210848808,
          -0.06337997317314148,
          -0.022381767630577087,
          0.040135812014341354,
          -0.09517242014408112,
          -0.03981107473373413,
          -0.0036446352023631334,
          -0.09826198220252991,
          0.09235676378011703,
          -0.08443610370159149,
          -0.02290073223412037,
          0.006537065841257572,
          0.07288580387830734,
          0.04105667024850845,
          -0.0804339200258255,
          -0.09952463209629059,
          0.04374606907367706
        ],
        [
          0.25903943181037903,
          -0.25522351264953613,
          -0.14012064039707184,
          0.24654358625411987,
          -0.23231622576713562,
          -0.14785267412662506,
          0.1320204734802246,
          -0.13809806108474731,
          -0.08272866159677505,
          -0.001410270924679935,
          -0.013334476388990879,
          -0.008736057206988335,
          -0.6785321235656738,
          0.5287188291549683,
          0.2829432785511017,
          0.009231061674654484,
          -0.03521646931767464,
          0.0016360265435650945,
          0.022168688476085663,
          0.026663407683372498,
          0.00309869647026062,
          -0.035747408866882324,
          0.03584612160921097,
          0.01767784170806408
        ],
        [
          -0.21703465282917023,
          -0.2713511884212494,
          -0.22135402262210846,
          -0.21605020761489868,
          -0.14904800057411194,
          -0.15748709440231323,
          0.5760719776153564,
          0.4461365342140198,
          0.3877989947795868,
          0.02211548574268818,
          0.005749278701841831,
          0.007955553941428661,
          -0.12235017120838165,
          -0.018547693267464638,
          0.03094911202788353,
          -0.017683766782283783,
          -0.06382102519273758,
          0.0026067618746310472,
          -0.023057596758008003,
          0.0029269044753164053,
          0.008773785084486008,
          0.03756466507911682,
          -0.027776729315519333,
          -0.0046617016196250916
        ],
        [
          -0.027816690504550934,
          -0.3110363483428955,
          -0.03513419255614281,
          0.0636318102478981,
          -0.2795651853084564,
          -0.03768334165215492,
          0.21743875741958618,
          -0.34041228890419006,
          -0.08663087338209152,
          -0.022099312394857407,
          -0.14237940311431885,
          -0.04599648341536522,
          -0.35387131571769714,
          0.014079289510846138,
          0.13049408793449402,
          0.11816981434822083,
          0.13292112946510315,
          -0.15375161170959473,
          -0.15792714059352875,
          0.4026341736316681,
          -0.015374474227428436,
          0.22155456244945526,
          -0.12352943420410156,
          -0.07099048793315887
        ],
        [
          -0.026965033262968063,
          -0.09628898650407791,
          0.2557447552680969,
          -0.052087124437093735,
          -0.115412637591362,
          0.20110774040222168,
          -0.1520240604877472,
          -0.12323063611984253,
          0.22219721972942352,
          -0.01835048943758011,
          0.024250172078609467,
          -0.022504454478621483,
          0.12741056084632874,
          0.04251929745078087,
          0.2918267250061035,
          0.05921049043536186,
          0.24146489799022675,
          -0.5240824818611145,
          0.13100887835025787,
          0.0936475545167923,
          -0.21592096984386444,
          -0.11882279813289642,
          0.022261731326580048,
          -0.3427073061466217
        ],
        [
          0.12269115447998047,
          -0.009270277805626392,
          -0.09762261807918549,
          0.16144007444381714,
          0.12420893460512161,
          -0.09232703596353531,
          0.12597286701202393,
          0.18952150642871857,
          0.07148931920528412,
          -0.10956743359565735,
          0.03306031972169876,
          0.1542235165834427,
          0.021296799182891846,
          -0.21828526258468628,
          -0.5647295713424683,
          -0.06622709333896637,
          -0.3926256597042084,
          -0.14948450028896332,
          -0.22078067064285278,
          -0.044139016419649124,
          0.17915688455104828,
          -0.16888073086738586,
          0.10579448193311691,
          0.3447844684123993
        ],
        [
          -0.05415415018796921,
          -0.17664209008216858,
          -0.24754689633846283,
          0.12802451848983765,
          0.2862303853034973,
          -0.1494523584842682,
          0.007943318225443363,
          0.05364895984530449,
          -0.15987566113471985,
          -0.12598122656345367,
          0.06055418401956558,
          0.025935303419828415,
          -0.19003574550151825,
          0.1346118450164795,
          -0.3153829276561737,
          -0.20095400512218475,
          0.21813729405403137,
          -0.11544890701770782,
          0.044746361672878265,
          -0.06257838010787964,
          -0.1312694549560547,
          0.0021094288676977158,
          0.1369294375181198,
          -0.3872799277305603
        ],
        [
          0.22192764282226562,
          0.21311545372009277,
          0.18512660264968872,
          0.25359997153282166,
          0.24003282189369202,
          0.1634352058172226,
          0.1836899220943451,
          0.20623651146888733,
          0.1257593333721161,
          0.01959185115993023,
          0.01335829310119152,
          0.023872455582022667,
          -0.6474249362945557,
          -0.5916547775268555,
          -0.4341081976890564,
          -0.013301189057528973,
          -0.02515907771885395,
          -0.010500273667275906,
          0.00485438434407115,
          0.006129537709057331,
          -0.008256145752966404,
          -0.09579961001873016,
          -0.023537689819931984,
          -0.014594870619475842
        ],
        [
          0.14687801897525787,
          0.03502323105931282,
          -0.06463262438774109,
          0.1709049493074417,
          0.020877141505479813,
          -0.09390757977962494,
          0.16459061205387115,
          0.04550241678953171,
          -0.058807406574487686,
          0.20896416902542114,
          0.06939098984003067,
          -0.0610770620405674,
          -0.19247403740882874,
          -0.2697812616825104,
          -0.01677338033914566,
          -0.7957165241241455,
          -0.07973556220531464,
          0.1705053597688675,
          0.09376206248998642,
          0.22383913397789001,
          0.049118634313344955,
          0.0002813573519233614,
          -0.03496673330664635,
          -0.007194239180535078
        ],
        [
          -0.26748576760292053,
          -0.08475839346647263,
          0.3238317668437958,
          0.23915158212184906,
          0.266211599111557,
          -0.7586582899093628,
          -0.006938944570720196,
          -0.0889565646648407,
          0.25161540508270264,
          0.04300924018025398,
          -0.04510151222348213,
          0.11126601696014404,
          -0.015096243470907211,
          0.09559416770935059,
          -0.20664143562316895,
          0.033944301307201385,
          0.0408250130712986,
          -0.10972727835178375,
          -0.1257448047399521,
          -0.11880888044834137,
          -0.14152894914150238,
          0.1090160608291626,
          0.02398010529577732,
          -0.1560099571943283
        ],
        [
          0.031629618257284164,
          0.07786381244659424,
          -0.3641316890716553,
          -0.20699386298656464,
          -0.13771793246269226,
          -0.3001243472099304,
          -0.06636463850736618,
          0.06684669107198715,
          -0.4119878113269806,
          0.0420183502137661,
          0.15048451721668243,
          -0.08217725902795792,
          -0.2375965714454651,
          -0.02291944809257984,
          0.20539824664592743,
          -0.019562534987926483,
          -0.27352020144462585,
          0.15978503227233887,
          0.18497109413146973,
          -0.034001000225543976,
          0.15730930864810944,
          0.06837209314107895,
          0.16392703354358673,
          0.16053234040737152
        ],
        [
          0.035605043172836304,
          0.12407279014587402,
          0.07125773280858994,
          0.23715633153915405,
          0.038595739752054214,
          0.1462719589471817,
          -0.3368259072303772,
          -0.4485741853713989,
          0.17741894721984863,
          -0.004615037236362696,
          0.09594094753265381,
          -0.13250158727169037,
          -0.19346848130226135,
          -0.2100488245487213,
          0.09127252548933029,
          -0.09560813009738922,
          0.05307859927415848,
          0.08496466279029846,
          -0.09010335057973862,
          -0.45702826976776123,
          0.14250296354293823,
          0.014385577291250229,
          -0.2757989764213562,
          0.059738289564847946
        ],
        [
          0.20211005210876465,
          -0.13596700131893158,
          -0.11574367433786392,
          0.2182614505290985,
          -0.15760785341262817,
          -0.12593483924865723,
          0.368078351020813,
          -0.2907284200191498,
          -0.1893639713525772,
          -0.011227160692214966,
          -0.02454720064997673,
          -0.037904419004917145,
          -0.5239565372467041,
          0.4057254195213318,
          0.29084959626197815,
          -0.1209365725517273,
          0.09160379320383072,
          0.11682108044624329,
          -0.02359079010784626,
          0.0076716141775250435,
          -0.008380255661904812,
          -0.10253920406103134,
          0.05306457728147507,
          0.018228990957140923
        ],
        [
          -0.03921646252274513,
          0.16452209651470184,
          -0.1357896327972412,
          -0.1503554731607437,
          -0.6399457454681396,
          0.4640830457210541,
          0.17568561434745789,
          0.3230270445346832,
          -0.4524393379688263,
          -0.010696087963879108,
          -0.07173443585634232,
          0.051968615502119064,
          0.0038356822915375233,
          0.0810815766453743,
          -0.02646362967789173,
          -0.05643277242779732,
          0.02869574911892414,
          0.01676752232015133,
          -0.028441373258829117,
          0.04764042794704437,
          -0.056456685066223145,
          -0.08238474279642105,
          0.05373474955558777,
          -0.07880871742963791
        ],
        [
          -0.054763201624155045,
          -0.04404455050826073,
          -0.0438445545732975,
          0.06559906154870987,
          0.04316849261522293,
          0.07217229902744293,
          -0.0017330520786345005,
          -0.06695403158664703,
          -0.11871854960918427,
          0.029318373650312424,
          -0.05906378850340843,
          0.0013054825831204653,
          -0.05598391219973564,
          0.05627705529332161,
          0.04892982169985771,
          0.004064986947923899,
          0.08017391711473465,
          -0.12520955502986908,
          -0.0762275904417038,
          -0.09615633636713028,
          0.049778811633586884,
          0.04146392643451691,
          -0.09424632787704468,
          -0.09250470250844955
        ],
        [
          -0.013205176219344139,
          -0.27909761667251587,
          0.07946603745222092,
          -0.06466618180274963,
          0.2228657603263855,
          -0.5452823638916016,
          0.12111524492502213,
          -0.2767188847064972,
          0.2992912530899048,
          0.018447456881403923,
          -0.14416882395744324,
          -0.22339974343776703,
          -0.008519169874489307,
          -0.15656176209449768,
          0.006220504175871611,
          0.011656520888209343,
          -0.05516701936721802,
          -0.07620047777891159,
          -0.04425477981567383,
          -0.1917993128299713,
          0.21390938758850098,
          -0.05195844918489456,
          -0.16143175959587097,
          0.15549632906913757
        ],
        [
          0.22464203834533691,
          0.008795180357992649,
          0.13218344748020172,
          -0.15758447349071503,
          -0.43611353635787964,
          0.13661237061023712,
          0.11480862647294998,
          -0.01805705763399601,
          0.04745974391698837,
          0.021065250039100647,
          -0.01349053904414177,
          0.019460361450910568,
          -0.2243320196866989,
          0.20473533868789673,
          0.14213977754116058,
          0.057221509516239166,
          -0.1175977811217308,
          -0.3413321375846863,
          -0.256908118724823,
          -0.12069649994373322,
          -0.1652134507894516,
          0.07274430245161057,
          0.09640704840421677,
          -0.09630873054265976
        ],
        [
          0.2306613028049469,
          -0.07969927042722702,
          -0.1264837235212326,
          0.13055406510829926,
          0.020005865022540092,
          -0.037889111787080765,
          0.19830602407455444,
          -0.012394031509757042,
          -0.006092045456171036,
          0.08928573876619339,
          0.011509159579873085,
          -0.036645371466875076,
          -0.33944863080978394,
          -0.33686378598213196,
          0.28764477372169495,
          0.06969909369945526,
          -0.23558643460273743,
          -0.145860493183136,
          0.10046225041151047,
          0.27095428109169006,
          -0.24697449803352356,
          -0.2845841646194458,
          0.03593418002128601,
          0.03779014199972153
        ],
        [
          0.019821692258119583,
          0.1869705766439438,
          0.012278283014893532,
          0.013598460704088211,
          0.22617444396018982,
          0.05626247078180313,
          0.13045620918273926,
          -0.2740093469619751,
          -0.4400888979434967,
          -0.1517828106880188,
          -0.16743184626102448,
          0.1961468905210495,
          -0.049251995980739594,
          -0.06334681063890457,
          -0.15823759138584137,
          0.02821110002696514,
          -0.005048437975347042,
          -0.007997107692062855,
          0.009811206720769405,
          0.05273401364684105,
          -0.11419956386089325,
          0.05295950174331665,
          0.06148429960012436,
          -0.055598966777324677
        ],
        [
          -0.00022164668189361691,
          0.025348365306854248,
          0.0087672658264637,
          0.010256149806082249,
          0.021642806008458138,
          -0.05605015903711319,
          0.06263406574726105,
          0.006163041573017836,
          0.00534787867218256,
          -0.01444813422858715,
          -0.006129374727606773,
          -0.0963604673743248,
          -0.11040695756673813,
          -0.41799789667129517,
          0.04902558773756027,
          -0.005149437114596367,
          -0.13887813687324524,
          0.05965949967503548,
          0.07317565381526947,
          0.04680933803319931,
          -0.0505373477935791,
          -0.12417742609977722,
          0.03267852962017059,
          -0.15913787484169006
        ],
        [
          -0.11952392011880875,
          -0.11409115046262741,
          -0.011046282015740871,
          0.010545260272920132,
          0.04889244958758354,
          -0.15678414702415466,
          0.012683704495429993,
          -0.03824714943766594,
          -0.15030644834041595,
          -0.105362169444561,
          0.04838460311293602,
          -0.025170737877488136,
          0.060419391840696335,
          -0.044529374688863754,
          -0.09504997730255127,
          -0.05070554465055466,
          -0.0051265317015349865,
          -0.06618256121873856,
          -0.017400529235601425,
          -0.01734836772084236,
          0.06548477709293365,
          -0.07741468399763107,
          -0.08484913408756256,
          -0.10389206558465958
        ],
        [
          -0.11045841872692108,
          -0.22559162974357605,
          0.042286716401576996,
          -0.08428971469402313,
          -0.06594403833150864,
          0.1293477863073349,
          -0.16079752147197723,
          0.2248343974351883,
          -0.3118458688259125,
          -0.03472576662898064,
          0.06808201968669891,
          -0.13196688890457153,
          -0.16640768945217133,
          0.10301375389099121,
          -0.11800588667392731,
          0.019922379404306412,
          -0.25946980714797974,
          0.11772748082876205,
          -0.1810007095336914,
          0.14136852324008942,
          -0.14301197230815887,
          -0.11293398588895798,
          -0.019836843013763428,
          0.06137305125594139
        ],
        [
          -0.06554757803678513,
          0.09263168275356293,
          0.10766442865133286,
          -0.04532913118600845,
          0.07642072439193726,
          -0.0066721877083182335,
          -0.045061443001031876,
          0.10339193046092987,
          0.09855286031961441,
          -0.08057902753353119,
          -0.038546785712242126,
          -0.060087159276008606,
          0.33307915925979614,
          0.14455221593379974,
          0.396947979927063,
          -0.041553791612386703,
          0.012577876448631287,
          0.05449889972805977,
          0.030921122059226036,
          -0.31741148233413696,
          -0.6202518939971924,
          -0.276069700717926,
          0.02292187139391899,
          0.1155010461807251
        ],
        [
          -0.402631551027298,
          0.18772786855697632,
          -0.40064194798469543,
          0.13464510440826416,
          -0.2121082991361618,
          -0.0014813747256994247,
          0.21406376361846924,
          -0.03960408642888069,
          -0.062418825924396515,
          0.1727224439382553,
          0.09030546993017197,
          0.1228274330496788,
          -0.21073803305625916,
          0.11567422747612,
          -0.37695014476776123,
          0.09179569035768509,
          0.07308444380760193,
          -0.09757663309574127,
          -0.26740187406539917,
          -0.05256443843245506,
          -0.2031436711549759,
          -0.047421444207429886,
          0.11446800827980042,
          -0.3220556080341339
        ],
        [
          -0.045253686606884,
          0.013971694745123386,
          -0.0014894299674779177,
          -0.021901817992329597,
          0.0026322323828935623,
          -0.01744205877184868,
          -0.06505275517702103,
          0.021327489987015724,
          -0.0031915355939418077,
          0.05213962122797966,
          0.006416641641408205,
          0.003729396965354681,
          -0.5505918264389038,
          0.3506982624530792,
          -0.18042750656604767,
          -0.01322445459663868,
          -0.019825277850031853,
          -0.01899566873908043,
          -0.05230764299631119,
          -0.006096320692449808,
          -0.004601976368576288,
          0.584475576877594,
          -0.3231051564216614,
          0.18344520032405853
        ],
        [
          -0.7446936964988708,
          0.5168210864067078,
          0.22544319927692413,
          0.2802157700061798,
          -0.2681783139705658,
          -0.04436958208680153,
          0.23466530442237854,
          -0.25774654746055603,
          -0.13239918649196625,
          -0.009959290735423565,
          -0.06640338152647018,
          0.04476006329059601,
          0.14913009107112885,
          -0.027047045528888702,
          -0.019210882484912872,
          0.012639375403523445,
          -0.0399937629699707,
          -0.04463953524827957,
          0.0004139101947657764,
          -0.03914200887084007,
          -0.0278761088848114,
          0.08579797297716141,
          -0.05166882276535034,
          0.010691036470234394
        ],
        [
          -0.13248634338378906,
          0.0077578662894666195,
          -0.07040910422801971,
          -0.30254217982292175,
          -0.2927960157394409,
          -0.11316817253828049,
          0.07624673843383789,
          0.06815046817064285,
          -0.061485227197408676,
          0.19110694527626038,
          0.11317573487758636,
          0.00754214683547616,
          -0.4836108684539795,
          -0.050273701548576355,
          0.09314531087875366,
          -0.1273413598537445,
          -0.06930095702409744,
          0.15904667973518372,
          -0.17126984894275665,
          -0.11472587287425995,
          -0.004652667324990034,
          -0.11887465417385101,
          -0.22640524804592133,
          0.19335578382015228
        ],
        [
          0.09050429612398148,
          0.14050310850143433,
          0.1775137037038803,
          0.15610693395137787,
          0.3128435015678406,
          -0.03908705711364746,
          -0.4865835905075073,
          -0.4169800579547882,
          -0.2300131618976593,
          0.12196917086839676,
          0.15550048649311066,
          0.007573838345706463,
          0.04826913774013519,
          -0.02937339060008526,
          -0.05253548175096512,
          -0.08957643806934357,
          -0.01528258342295885,
          0.015191487967967987,
          -0.1322329044342041,
          -0.23316599428653717,
          0.026661422103643417,
          -0.08250711858272552,
          -0.07358435541391373,
          0.03611861914396286
        ],
        [
          0.09060797095298767,
          -0.0116084860637784,
          -0.3317756950855255,
          -0.21779824793338776,
          -0.2511482834815979,
          0.26711568236351013,
          -0.02671031840145588,
          0.16325725615024567,
          -0.42933890223503113,
          -0.21769949793815613,
          0.23494009673595428,
          -0.01260654628276825,
          -0.11054912954568863,
          -0.08977382630109787,
          -0.03213399648666382,
          -0.13160771131515503,
          0.026916038244962692,
          -0.04664217308163643,
          0.050068650394678116,
          -0.21377325057983398,
          -0.15697111189365387,
          -0.014736862853169441,
          -0.09399405121803284,
          -0.13041582703590393
        ],
        [
          0.28767335414886475,
          -0.24713797867298126,
          -0.018532445654273033,
          0.2670523226261139,
          -0.22737057507038116,
          -0.05155293643474579,
          -0.8219306468963623,
          0.5276808142662048,
          0.18149852752685547,
          0.037381526082754135,
          0.0038582743145525455,
          0.010371033102273941,
          0.20016053318977356,
          -0.022521542385220528,
          -0.05770236626267433,
          0.0729237049818039,
          -0.03393397107720375,
          -0.006312205456197262,
          -0.009894115850329399,
          0.025335213169455528,
          -0.024421747773885727,
          0.03417389467358589,
          -0.02067353017628193,
          -0.009055735543370247
        ],
        [
          -0.17693465948104858,
          0.027506249025464058,
          0.0026900004595518112,
          -0.06268125027418137,
          0.025945909321308136,
          -0.023301884531974792,
          0.023570649325847626,
          0.0666075125336647,
          0.03342035040259361,
          -0.029347622767090797,
          -0.04626690223813057,
          -0.067230224609375,
          0.11198900640010834,
          0.02078855410218239,
          -0.15466594696044922,
          -0.10499704629182816,
          -0.08119324594736099,
          -0.016398072242736816,
          -0.18477164208889008,
          -0.048710159957408905,
          -0.11911702901124954,
          0.08467160910367966,
          -0.13108453154563904,
          0.04993877187371254
        ],
        [
          0.32505959272384644,
          -0.36441770195961,
          -0.015699932351708412,
          -0.29612526297569275,
          0.0055223628878593445,
          0.16578295826911926,
          -0.13094057142734528,
          0.13853341341018677,
          0.08524782210588455,
          -0.1983693391084671,
          -0.04355837404727936,
          -0.30555519461631775,
          -0.017819013446569443,
          -0.11417988687753677,
          -0.016571301966905594,
          0.07576259970664978,
          -0.2660619914531708,
          0.01784210465848446,
          0.06677846610546112,
          -0.3118172287940979,
          0.08029000461101532,
          0.05751685053110123,
          -0.15426447987556458,
          0.05834087356925011
        ],
        [
          -0.07006483525037766,
          -0.10534392297267914,
          -0.04998202249407768,
          -0.11571943759918213,
          -0.09716339409351349,
          0.018390612676739693,
          -0.08907974511384964,
          0.044671960175037384,
          -0.024601208046078682,
          -0.058521829545497894,
          0.05514906346797943,
          0.04086934030056,
          0.022218622267246246,
          0.031841833144426346,
          -0.10844379663467407,
          -0.10191067308187485,
          -0.011357364244759083,
          -0.0012282226234674454,
          -0.016901342198252678,
          -0.014938345178961754,
          -0.0505245104432106,
          -0.030967239290475845,
          -0.06184905767440796,
          -0.05974698066711426
        ],
        [
          0.1023055836558342,
          -0.19892790913581848,
          0.25437766313552856,
          0.02802301198244095,
          -0.144887313246727,
          0.1190105751156807,
          0.08009406179189682,
          -0.22457535564899445,
          0.28469061851501465,
          0.042082399129867554,
          -0.056768931448459625,
          0.06679309159517288,
          -0.2057301104068756,
          0.43077048659324646,
          -0.6182907223701477,
          -0.01881449483335018,
          0.06919677555561066,
          -0.10658756643533707,
          0.0433766171336174,
          -0.013755974359810352,
          0.011080867610871792,
          0.010350620374083519,
          0.05883506312966347,
          -0.023029815405607224
        ],
        [
          0.1353880763053894,
          -0.5352637767791748,
          0.3071591556072235,
          -0.027091316878795624,
          0.14401337504386902,
          -0.35913974046707153,
          -0.3612622022628784,
          0.10241439938545227,
          0.06596039235591888,
          -0.17932625114917755,
          0.14596422016620636,
          0.14157186448574066,
          -0.19882874190807343,
          -0.20937152206897736,
          0.18470223248004913,
          -0.2126825451850891,
          -0.055319223552942276,
          0.01912967674434185,
          0.08747024089097977,
          -0.12136519700288773,
          -0.006656244397163391,
          0.10177971422672272,
          -0.11983955651521683,
          -0.02817664109170437
        ],
        [
          -0.13223610818386078,
          0.18619832396507263,
          0.22498087584972382,
          0.22101502120494843,
          -0.030306268483400345,
          -0.3232366144657135,
          -0.03447762504220009,
          -0.0898243635892868,
          -0.29719972610473633,
          -0.03802864998579025,
          0.10610521584749222,
          -0.1800665259361267,
          0.04286971315741539,
          -0.012143808417022228,
          -0.23551104962825775,
          0.1801927089691162,
          -0.11115994304418564,
          -0.1966373175382614,
          0.04418037459254265,
          0.010144314728677273,
          -0.16147902607917786,
          -0.02993660606443882,
          0.03944188356399536,
          -0.22617387771606445
        ],
        [
          -0.03584202378988266,
          -0.137656569480896,
          0.14450190961360931,
          -0.12169560045003891,
          -0.3432776927947998,
          0.37776362895965576,
          -0.059352170675992966,
          -0.11346422880887985,
          0.16253557801246643,
          -0.024300891906023026,
          -0.04125024378299713,
          0.021914592012763023,
          0.18602484464645386,
          0.5422957539558411,
          -0.6808032393455505,
          0.015852132812142372,
          0.008180933073163033,
          -0.02872645854949951,
          0.02939877286553383,
          0.0044104536063969135,
          0.019155172631144524,
          -0.05768924206495285,
          0.024940384551882744,
          -0.010969308204948902
        ],
        [
          -0.08138180524110794,
          0.1273246556520462,
          -0.20585374534130096,
          0.0639314353466034,
          -0.16354240477085114,
          0.19069036841392517,
          0.12602125108242035,
          -0.304253488779068,
          -0.328831285238266,
          0.09395848959684372,
          -0.06319108605384827,
          -0.0029777653981000185,
          0.012358641251921654,
          0.07395496219396591,
          -0.03372306376695633,
          -0.0863855704665184,
          0.12731525301933289,
          0.012142553925514221,
          -0.14304053783416748,
          0.011783949099481106,
          -0.23775714635849,
          -0.1373877376317978,
          -0.002223924035206437,
          0.07059972733259201
        ],
        [
          0.013068554922938347,
          -0.11290562152862549,
          -0.019266890361905098,
          0.06272511929273605,
          -0.09724713861942291,
          -0.035313475877046585,
          0.05250590294599533,
          -0.048344679176807404,
          -0.06394458562135696,
          0.055118437856435776,
          -0.0826021060347557,
          -0.12117981165647507,
          -0.15554560720920563,
          -0.09546224772930145,
          -0.051863666623830795,
          -0.005786015652120113,
          8.683859778102487e-05,
          -0.13802920281887054,
          0.02815070003271103,
          0.03395921736955643,
          -0.08776282519102097,
          0.039861567318439484,
          -0.08839816600084305,
          0.013964814133942127
        ],
        [
          -0.2203717976808548,
          -0.22896119952201843,
          -0.2483951300382614,
          -0.07494871318340302,
          -0.11865556985139847,
          -0.133957177400589,
          -0.19083507359027863,
          -0.1864268183708191,
          -0.23320432007312775,
          0.008397240191698074,
          -0.0017684577032923698,
          -0.01928453892469406,
          0.38547903299331665,
          0.4574589431285858,
          0.518735408782959,
          0.03803900629281998,
          0.021177375689148903,
          0.015623247250914574,
          0.05708129331469536,
          0.04195062071084976,
          0.007770877331495285,
          -0.012862957082688808,
          -0.01078924722969532,
          0.010443177074193954
        ],
        [
          0.26003241539001465,
          -0.05810372903943062,
          0.06531672924757004,
          -0.34320616722106934,
          -0.3010745048522949,
          -0.1751803308725357,
          0.0433373786509037,
          0.036200687289237976,
          0.12015458941459656,
          -0.2285173088312149,
          -0.21800658106803894,
          -0.010837119072675705,
          0.1029968112707138,
          -0.01009207870811224,
          -0.09392651170492172,
          -0.022430291399359703,
          0.06437161564826965,
          -0.3737952411174774,
          -0.017362801358103752,
          0.03594205155968666,
          0.01945079118013382,
          0.11421824246644974,
          0.11232142150402069,
          -0.17762717604637146
        ],
        [
          -0.24663302302360535,
          0.1251424252986908,
          0.05681827291846275,
          0.21122527122497559,
          -0.4711751341819763,
          -0.09509042650461197,
          -0.10750802606344223,
          0.24294215440750122,
          0.13653138279914856,
          0.11169679462909698,
          0.05513650178909302,
          0.1352616846561432,
          0.02618154138326645,
          -0.5023127794265747,
          -0.25691911578178406,
          -0.036509107798337936,
          0.004930519033223391,
          0.010229223407804966,
          -0.2187153846025467,
          -0.1431826502084732,
          -0.09821324795484543,
          0.13417358696460724,
          -0.3675633370876312,
          -0.2729508578777313
        ],
        [
          -0.20320820808410645,
          -0.18533577024936676,
          0.14650960266590118,
          -0.1929418295621872,
          -0.2118818461894989,
          0.04254629462957382,
          -0.1797264814376831,
          -0.11039567738771439,
          0.14603999257087708,
          -0.10597239434719086,
          -0.12779338657855988,
          -0.08918531984090805,
          0.0347997322678566,
          0.42075562477111816,
          -0.33947721123695374,
          0.2234247475862503,
          0.10812082141637802,
          0.008726650848984718,
          0.29967230558395386,
          -0.07312236726284027,
          -0.0911412388086319,
          0.120189368724823,
          0.08827527612447739,
          -0.05886766314506531
        ],
        [
          -0.011548860929906368,
          0.011032229289412498,
          -0.04482438787817955,
          -0.055316682904958725,
          0.026984725147485733,
          -0.09022277593612671,
          -0.020978355780243874,
          0.01698625087738037,
          -0.04501178488135338,
          -0.03025265783071518,
          -0.025230130180716515,
          0.06808525323867798,
          -0.12232281267642975,
          0.5647597312927246,
          -0.2513350248336792,
          -0.013984761200845242,
          -0.05111806467175484,
          0.02836388535797596,
          0.3534495532512665,
          -0.5273841619491577,
          0.2727351188659668,
          -0.19893896579742432,
          -0.020236557349562645,
          0.0011015476193279028
        ],
        [
          0.5267654061317444,
          0.45446139574050903,
          0.4175403416156769,
          -0.17443864047527313,
          -0.22677476704120636,
          -0.23964950442314148,
          -0.18374516069889069,
          -0.18486817181110382,
          -0.192713662981987,
          0.05700040981173515,
          -0.002993558533489704,
          -0.015827588737010956,
          -0.21483537554740906,
          0.027042042464017868,
          0.009970341809093952,
          0.005161827430129051,
          0.010286238044500351,
          -0.030331285670399666,
          -0.03902377560734749,
          -0.04208733141422272,
          0.04872681200504303,
          0.01300785131752491,
          -0.03377324342727661,
          0.019073689356446266
        ],
        [
          -0.022613385692238808,
          0.0294948797672987,
          0.015567314811050892,
          -0.08970407396554947,
          -0.06093636527657509,
          -0.05629783868789673,
          -0.0940232127904892,
          0.04256767779588699,
          -0.004024549853056669,
          0.08755747973918915,
          -0.10156694799661636,
          -0.04165323078632355,
          -0.08018237352371216,
          -0.01302366517484188,
          -0.08139883726835251,
          -0.03660205006599426,
          0.0004264015005901456,
          -0.004758949391543865,
          -0.09490370005369186,
          -0.0004013206053059548,
          -0.046136848628520966,
          -0.0033073804806917906,
          -0.07588338851928711,
          -0.08379621803760529
        ],
        [
          0.14027772843837738,
          -0.19641642272472382,
          0.20985926687717438,
          0.21392107009887695,
          -0.05234704911708832,
          0.09261765331029892,
          0.1693916916847229,
          -0.17717546224594116,
          0.10342339426279068,
          0.026032261550426483,
          -0.03512151911854744,
          -0.10697778314352036,
          -0.35776546597480774,
          0.25101417303085327,
          -0.33847030997276306,
          0.014465934596955776,
          -0.1416948139667511,
          0.2503696382045746,
          0.05571611970663071,
          -0.04722937196493149,
          -0.2812920808792114,
          -0.27100738883018494,
          -0.05779635161161423,
          0.10209906846284866
        ],
        [
          -0.3085551857948303,
          0.03282805159687996,
          0.05587548762559891,
          -0.05186856538057327,
          0.06757136434316635,
          0.10437748581171036,
          -0.3129841387271881,
          0.21960711479187012,
          0.18407997488975525,
          -0.048949409276247025,
          0.10528234392404556,
          -0.12633217871189117,
          -0.4732041358947754,
          0.17169353365898132,
          0.01139786560088396,
          -0.11055754125118256,
          -0.0092092240229249,
          -0.08437203615903854,
          -0.306146502494812,
          0.09563000500202179,
          0.10812487453222275,
          -0.1969975382089615,
          0.04384709894657135,
          0.17116612195968628
        ],
        [
          -0.09605712443590164,
          0.14844313263893127,
          -0.07898315787315369,
          -0.2647254765033722,
          0.142451211810112,
          -0.03925664722919464,
          -0.18147467076778412,
          0.20467227697372437,
          -0.03695353865623474,
          0.0178217776119709,
          0.01942501775920391,
          -0.08340073376893997,
          -0.17824018001556396,
          -0.12257462739944458,
          0.38657376170158386,
          0.13563014566898346,
          -0.19162334501743317,
          0.30696409940719604,
          0.11062868684530258,
          -0.03387168049812317,
          -0.20765584707260132,
          0.2772115468978882,
          -0.1924390345811844,
          -0.1516994684934616
        ],
        [
          0.07319877296686172,
          0.0164694394916296,
          0.003256704192608595,
          0.028281638398766518,
          0.07365039736032486,
          -0.007190474774688482,
          0.06422173231840134,
          -0.02856450341641903,
          0.09493514150381088,
          -0.11814559996128082,
          0.03148793801665306,
          -0.06834620982408524,
          0.407122939825058,
          -0.48172393441200256,
          0.06454620510339737,
          0.040265221148729324,
          0.10160520672798157,
          -0.06610014289617538,
          0.03327400982379913,
          0.23603598773479462,
          -0.1226673349738121,
          -0.6050664782524109,
          0.11660706251859665,
          0.011178543791174889
        ],
        [
          -0.01618441753089428,
          0.039452001452445984,
          -0.03339015692472458,
          -0.0867382287979126,
          -0.1088179424405098,
          -0.01139660831540823,
          -0.052127156406641006,
          0.024494629353284836,
          -0.11278843879699707,
          -0.00943710096180439,
          0.02511908859014511,
          -0.18497349321842194,
          -0.08536146581172943,
          0.07891791313886642,
          0.11695989221334457,
          0.0843060314655304,
          -0.04800727590918541,
          0.02946152724325657,
          -0.09776616096496582,
          -0.10401580482721329,
          -0.06241794675588608,
          -0.022727882489562035,
          0.08072192221879959,
          -0.009100629948079586
        ],
        [
          -0.15197286009788513,
          -0.17130723595619202,
          -0.13988856971263885,
          -0.10017639398574829,
          -0.11929135769605637,
          -0.12360502034425735,
          -0.06686397641897202,
          -0.08653631061315536,
          -0.11864018440246582,
          0.07927270978689194,
          0.0172598734498024,
          0.07905762642621994,
          -0.4051513671875,
          -0.23338629305362701,
          -0.17606890201568604,
          0.2671809792518616,
          0.3118737041950226,
          0.060158438980579376,
          0.1720348596572876,
          0.014642163179814816,
          -0.07474832981824875,
          0.11963926255702972,
          0.25506865978240967,
          0.3349795937538147
        ],
        [
          0.09966399520635605,
          -0.14977280795574188,
          -0.15866172313690186,
          0.10879775136709213,
          -0.16212765872478485,
          -0.16298620402812958,
          0.05403967574238777,
          -0.14794756472110748,
          -0.1882699579000473,
          -0.16050560772418976,
          -0.016997186467051506,
          0.01912178471684456,
          0.23693250119686127,
          -0.2816224992275238,
          -0.3196254372596741,
          -0.06655712425708771,
          0.3069051206111908,
          0.23230528831481934,
          -0.09851055592298508,
          0.19853822886943817,
          0.24200114607810974,
          -0.2155556082725525,
          0.14877229928970337,
          0.23462626338005066
        ],
        [
          0.14257057011127472,
          0.3465508818626404,
          -0.08146720379590988,
          -0.320869505405426,
          -0.22958452999591827,
          -0.23882202804088593,
          0.08112210780382156,
          -0.029679633677005768,
          0.03285668417811394,
          -0.10554712265729904,
          -0.13886380195617676,
          0.3294117748737335,
          -0.0679570659995079,
          0.1282290667295456,
          -0.038799334317445755,
          -0.1688513308763504,
          -0.07622585445642471,
          0.05745522677898407,
          0.13355375826358795,
          0.0018018820555880666,
          -0.3646352291107178,
          -0.09143552929162979,
          0.01049413625150919,
          -0.10722210258245468
        ],
        [
          0.09366238862276077,
          -0.08935830742120743,
          0.003859576303511858,
          -0.01184156071394682,
          0.0007284278399311006,
          0.0005166353657841682,
          0.023096000775694847,
          -0.0019032031996175647,
          -0.03705013543367386,
          -0.07310022413730621,
          -0.12371285259723663,
          0.026339199393987656,
          -0.08667290955781937,
          -0.21461747586727142,
          -0.134566068649292,
          -0.06398934870958328,
          -0.08345605432987213,
          0.04413115233182907,
          -0.0016338563291355968,
          0.015922613441944122,
          -0.037364501506090164,
          -0.10537786781787872,
          0.03711605817079544,
          -0.12104752659797668
        ],
        [
          -0.0696885734796524,
          0.24895814061164856,
          -0.14586493372917175,
          -0.03457147628068924,
          0.20339155197143555,
          -0.10521472990512848,
          -0.06531894952058792,
          0.29206547141075134,
          -0.16513390839099884,
          -0.07678573578596115,
          0.08331221342086792,
          -0.04274114966392517,
          0.26088273525238037,
          -0.7009154558181763,
          0.47254934906959534,
          0.007535356562584639,
          -0.034125398844480515,
          0.0038155303336679935,
          0.03574848175048828,
          -0.012105430476367474,
          0.009991400875151157,
          -0.07176359742879868,
          0.03394121304154396,
          -0.05721940100193024
        ],
        [
          0.08928819745779037,
          0.18877024948596954,
          -0.15942104160785675,
          0.15351305902004242,
          -0.11169907450675964,
          0.0089335348457098,
          0.20705516636371613,
          0.019611872732639313,
          -0.0012801745906472206,
          -0.004137576092034578,
          -0.06308280676603317,
          -0.06422188878059387,
          -0.19248464703559875,
          0.05152716487646103,
          0.4267495274543762,
          -0.16697998344898224,
          -0.10205699503421783,
          0.2362952083349228,
          -0.10633978992700577,
          -0.31595250964164734,
          -0.2088901251554489,
          -0.2983343303203583,
          0.18176162242889404,
          -0.23423315584659576
        ],
        [
          -0.1385839432477951,
          0.01720726117491722,
          -0.0923783928155899,
          -0.030344368889927864,
          -0.1088486760854721,
          -0.15418843924999237,
          -0.029610125347971916,
          -0.14493004977703094,
          -0.1385996788740158,
          -0.1538390964269638,
          -0.17048650979995728,
          -0.08881396055221558,
          0.06414581090211868,
          0.09746630489826202,
          -0.01429666019976139,
          0.09534630924463272,
          -0.07423042505979538,
          0.033606965094804764,
          -0.05855785310268402,
          -0.06780729442834854,
          0.12301160395145416,
          0.0699644684791565,
          0.0816834419965744,
          -0.16734513640403748
        ],
        [
          0.24780027568340302,
          0.34188151359558105,
          -0.6837932467460632,
          0.019684549421072006,
          -0.199488565325737,
          0.18717209994792938,
          -0.2026476114988327,
          -0.1992647349834442,
          0.41347602009773254,
          0.033397555351257324,
          0.05374160408973694,
          -0.06288270652294159,
          -0.017031190916895866,
          0.016444796696305275,
          -0.007648714818060398,
          -0.019142860546708107,
          -0.01805189624428749,
          0.01835876703262329,
          0.05181669443845749,
          -0.04523272067308426,
          0.026542840525507927,
          -0.05326500162482262,
          -0.0489368736743927,
          0.05008682236075401
        ],
        [
          0.02587461844086647,
          -0.038432590663433075,
          0.03285735100507736,
          -0.018861563876271248,
          -0.019507693126797676,
          0.00809727143496275,
          -0.023703891783952713,
          -0.03645996376872063,
          0.005725575145334005,
          0.029781755059957504,
          0.026098130270838737,
          -0.06139006093144417,
          -0.2932218611240387,
          -0.40191981196403503,
          0.4798588454723358,
          0.01385982520878315,
          0.03556136414408684,
          0.003715954255312681,
          -0.003805136540904641,
          0.023650532588362694,
          -0.012055475264787674,
          0.2680841386318207,
          0.35494059324264526,
          -0.4845930337905884
        ],
        [
          0.20474296808242798,
          0.08749854564666748,
          -0.6752831935882568,
          -0.2348175048828125,
          -0.004795761313289404,
          0.3486166298389435,
          0.008853531442582607,
          -0.14350782334804535,
          0.20241224765777588,
          -0.053967539221048355,
          -0.17252902686595917,
          0.09441879391670227,
          -0.06880901753902435,
          0.05172450840473175,
          -0.003310712520033121,
          -0.03808717057108879,
          -0.02012147754430771,
          0.051266517490148544,
          -0.03508748859167099,
          0.1354004293680191,
          -0.09101908653974533,
          0.10418778657913208,
          0.10648396611213684,
          -0.18575306236743927
        ],
        [
          0.12899422645568848,
          0.03205106034874916,
          -0.17327608168125153,
          -0.049553126096725464,
          -0.2413812130689621,
          -0.1688104122877121,
          0.019572729244828224,
          -0.04514569416642189,
          0.13734430074691772,
          -0.19849684834480286,
          -0.34250736236572266,
          0.0564531534910202,
          -0.0608099065721035,
          0.09451108425855637,
          -0.0206233449280262,
          0.030587295070290565,
          0.1137976422905922,
          -0.22510382533073425,
          0.06852127611637115,
          0.11864511668682098,
          0.01992730237543583,
          -0.29745960235595703,
          0.07822375744581223,
          -0.26994067430496216
        ],
        [
          0.053352754563093185,
          -0.040663931518793106,
          -0.06406331807374954,
          0.0010075914906337857,
          0.0904984101653099,
          -0.06954923272132874,
          -0.07271074503660202,
          0.12735222280025482,
          -0.14785781502723694,
          -0.032132524996995926,
          -0.05450443923473358,
          -0.0481274388730526,
          -0.3098528981208801,
          -0.20875471830368042,
          -0.2997530996799469,
          -0.20179955661296844,
          0.011907524429261684,
          0.19680926203727722,
          -0.4247799813747406,
          0.18153144419193268,
          0.12333004176616669,
          0.0647599920630455,
          -0.30423814058303833,
          -0.10112149268388748
        ],
        [
          -0.025787897408008575,
          0.0419495664536953,
          -0.008098638616502285,
          -0.005097827408462763,
          0.0070891790091991425,
          -0.0157757718116045,
          -0.02763224020600319,
          0.055708274245262146,
          -0.03008800372481346,
          0.055189523845911026,
          0.02561766467988491,
          0.01733025349676609,
          -0.6710045337677002,
          -0.14943048357963562,
          0.04877036437392235,
          0.02001570165157318,
          0.03352995961904526,
          0.020406682044267654,
          -0.0365741029381752,
          0.020482325926423073,
          -0.036228474229574203,
          0.6709944605827332,
          0.05423816293478012,
          0.018730219453573227
        ],
        [
          -0.2531072199344635,
          -0.10920573025941849,
          0.07957227528095245,
          0.00887329038232565,
          0.07808997482061386,
          0.07686138898134232,
          0.16770850121974945,
          0.13418477773666382,
          -0.8932186961174011,
          -0.1816914677619934,
          -0.10197018086910248,
          -0.11365852504968643,
          0.09904225915670395,
          0.032114624977111816,
          -0.4963873326778412,
          -0.0023896358907222748,
          -0.05293717235326767,
          -0.025542002171278,
          0.18864169716835022,
          0.06761930137872696,
          -0.3997413218021393,
          -0.015054321847856045,
          0.13570059835910797,
          -0.2839325964450836
        ],
        [
          -0.05911007523536682,
          0.02990736998617649,
          0.01583402417600155,
          -0.09357079863548279,
          0.015911858528852463,
          -0.10440241545438766,
          0.015603160485625267,
          0.061334025114774704,
          -0.05129598081111908,
          -0.028929058462381363,
          -0.06554851680994034,
          -0.005759911146014929,
          -0.11490990966558456,
          -0.006853879429399967,
          0.026483550667762756,
          -0.0033988167997449636,
          0.05804716795682907,
          -0.0015423597069457173,
          0.023779232054948807,
          -0.08592905104160309,
          0.0009311547037214041,
          -0.007554736919701099,
          -0.14731331169605255,
          -0.06870701164007187
        ],
        [
          0.23812846839427948,
          0.18389679491519928,
          -0.3052951693534851,
          0.15167441964149475,
          0.10625120997428894,
          -0.16408587992191315,
          0.116485096514225,
          0.14484967291355133,
          -0.13005430996418,
          0.04799060896039009,
          -0.02099471725523472,
          -0.018076268956065178,
          -0.620949923992157,
          -0.36755749583244324,
          0.4172142446041107,
          0.08633236587047577,
          0.02792864665389061,
          -0.033795252442359924,
          0.11035033315420151,
          -0.04169271141290665,
          0.11103788763284683,
          -0.014524323865771294,
          -0.061175111681222916,
          0.10367900133132935
        ],
        [
          -0.00395228574052453,
          -0.09411710500717163,
          0.09895960986614227,
          0.12103451788425446,
          0.011093786917626858,
          0.1541079878807068,
          0.13608179986476898,
          0.003832488786429167,
          0.05105751380324364,
          -0.12625795602798462,
          -0.09622660279273987,
          0.12144405394792557,
          0.25342440605163574,
          0.1188543513417244,
          -0.39366626739501953,
          -0.4285770356655121,
          0.137344628572464,
          -0.10181798785924911,
          -0.22679945826530457,
          -0.04014764353632927,
          0.18919183313846588,
          -0.313821405172348,
          -0.16026438772678375,
          -0.0493469312787056
        ],
        [
          -0.13017813861370087,
          0.02324039489030838,
          -0.06367902457714081,
          -0.029576115310192108,
          0.06957202404737473,
          -0.11301804333925247,
          -0.12447717040777206,
          -0.06089608743786812,
          0.0012973817065358162,
          -0.09213179349899292,
          0.03571970760822296,
          -0.06693117320537567,
          0.03460819646716118,
          -0.03402833640575409,
          -0.03192398324608803,
          -0.101315438747406,
          -0.09290607273578644,
          -0.08575060963630676,
          0.0678190067410469,
          -0.05008212476968765,
          -0.10600750148296356,
          -0.05479966476559639,
          -0.00679035997018218,
          -0.0627061203122139
        ],
        [
          -0.2980617880821228,
          0.2946758270263672,
          0.01621227152645588,
          -0.19892887771129608,
          0.22727099061012268,
          -0.002024753950536251,
          -0.24328576028347015,
          0.22822123765945435,
          0.0319749154150486,
          -0.022253230214118958,
          0.00305365608073771,
          0.02766117826104164,
          0.5511756539344788,
          -0.580377995967865,
          -0.056174229830503464,
          0.110541932284832,
          -0.10188459604978561,
          -0.0032956390641629696,
          0.04263432323932648,
          0.016922369599342346,
          0.0023506679572165012,
          0.064239501953125,
          -0.1001458391547203,
          0.008046220988035202
        ],
        [
          -0.08705439418554306,
          0.012210712768137455,
          0.010573426261544228,
          -0.08332110196352005,
          0.058163706213235855,
          0.012158885598182678,
          -0.05285421758890152,
          0.007137276232242584,
          -0.025306742638349533,
          0.036796342581510544,
          0.02811841480433941,
          0.031220000237226486,
          -0.26453539729118347,
          -0.5015565156936646,
          -0.25563034415245056,
          0.03259129449725151,
          0.06535737216472626,
          0.043283864855766296,
          0.4675721526145935,
          0.40054765343666077,
          0.14066757261753082,
          -0.1274016946554184,
          -0.02869238704442978,
          0.03336847573518753
        ],
        [
          -0.052817270159721375,
          -0.11920512467622757,
          0.2691901624202728,
          -0.07137761265039444,
          -0.16189885139465332,
          0.059197280555963516,
          0.14930786192417145,
          -0.02006557397544384,
          -0.028378013521432877,
          0.14739392697811127,
          0.010750147514045238,
          0.05354585498571396,
          -0.5732943415641785,
          0.1274077445268631,
          0.1165287047624588,
          0.14555080235004425,
          -0.061048805713653564,
          -0.4985978305339813,
          -0.028331127017736435,
          0.15347370505332947,
          -0.3080308735370636,
          0.18306170403957367,
          -0.022534186020493507,
          -0.13236258924007416
        ],
        [
          -0.08609060198068619,
          -0.1184900626540184,
          0.058139070868492126,
          -0.04893344268202782,
          0.05867588520050049,
          -0.05318949371576309,
          0.023790394887328148,
          0.03950080648064613,
          -0.0740073025226593,
          0.022967921569943428,
          -0.08188562095165253,
          -0.0774460956454277,
          0.05048771947622299,
          -0.11385338753461838,
          0.004914044868201017,
          -0.06104036420583725,
          -0.061777062714099884,
          -0.07917516678571701,
          -0.06718216836452484,
          0.009594484232366085,
          -0.052136603742837906,
          -0.0002343993983231485,
          -0.11706174910068512,
          -0.031887322664260864
        ],
        [
          0.0054982732981443405,
          -0.06419933587312698,
          0.0017489449819549918,
          0.06838072836399078,
          -0.14119984209537506,
          0.029133690521121025,
          0.0003146158123854548,
          -0.1566942185163498,
          0.09158165007829666,
          0.0009809507755562663,
          -0.0623854361474514,
          -0.024543752893805504,
          0.2322879433631897,
          0.028307147324085236,
          0.3688727021217346,
          -0.14678767323493958,
          0.23475895822048187,
          -0.22747576236724854,
          0.09254571050405502,
          0.14140541851520538,
          -0.48950663208961487,
          -0.33474650979042053,
          -0.1326916217803955,
          0.15762552618980408
        ],
        [
          0.07558444142341614,
          0.03927464783191681,
          0.025817260146141052,
          0.14558064937591553,
          -0.21924398839473724,
          0.13487590849399567,
          0.07302398234605789,
          -0.06701932847499847,
          0.001894274028018117,
          0.01457157451659441,
          -0.07398293167352676,
          -0.036324162036180496,
          0.03881007432937622,
          0.41988179087638855,
          0.24512390792369843,
          -0.1077704057097435,
          -0.14438316226005554,
          -0.16205087304115295,
          -0.32731667160987854,
          -0.28749510645866394,
          -0.1383095681667328,
          -0.15670299530029297,
          -0.23650826513767242,
          -0.16020876169204712
        ],
        [
          0.14232265949249268,
          0.15077124536037445,
          0.07087666541337967,
          -0.1915031373500824,
          -0.34620150923728943,
          -0.22371536493301392,
          -0.07996027171611786,
          0.051663145422935486,
          0.06472042948007584,
          0.18053604662418365,
          0.042413368821144104,
          0.21313053369522095,
          -0.053066737949848175,
          -0.2846924066543579,
          -0.12408463656902313,
          -0.013855637982487679,
          0.09328148514032364,
          0.028424520045518875,
          0.03268333151936531,
          -0.12679657340049744,
          -0.15659800171852112,
          -0.11008605360984802,
          -0.31162843108177185,
          -0.14081114530563354
        ],
        [
          0.15274786949157715,
          -0.42284095287323,
          -0.08218162506818771,
          -0.594727098941803,
          0.2931913137435913,
          -0.05939311906695366,
          0.14589820802211761,
          -0.3313063383102417,
          0.07668295502662659,
          0.08596711605787277,
          -0.0859530046582222,
          0.08129324018955231,
          0.05438867211341858,
          0.10287082195281982,
          -0.2466449737548828,
          0.09435167908668518,
          -0.03761826828122139,
          0.02623136155307293,
          -0.005050382576882839,
          0.03144073486328125,
          -0.1798250675201416,
          -0.012663481757044792,
          -0.03862140700221062,
          0.01597391441464424
        ],
        [
          0.24078074097633362,
          0.29594260454177856,
          -0.12017504870891571,
          -0.30143409967422485,
          -0.31713005900382996,
          0.2618233859539032,
          0.14121481776237488,
          0.15410813689231873,
          -0.2431611269712448,
          -0.0391390286386013,
          0.0954715758562088,
          -0.02967166341841221,
          -0.3211278021335602,
          -0.2955728769302368,
          0.08128800988197327,
          -0.18666861951351166,
          -0.05280522257089615,
          0.06306292861700058,
          -0.10702380537986755,
          -0.15413524210453033,
          0.12664009630680084,
          -0.1836123764514923,
          -0.25666674971580505,
          0.11097560822963715
        ],
        [
          0.02844936214387417,
          -0.09304799884557724,
          -0.021011946722865105,
          0.04093689098954201,
          -0.01760416105389595,
          -0.08354361355304718,
          0.056352123618125916,
          0.027739092707633972,
          -0.05921345576643944,
          -0.009138790890574455,
          0.006630212068557739,
          -0.07419460266828537,
          -0.1279841661453247,
          -0.10321886837482452,
          -0.1100272461771965,
          -0.012794606387615204,
          0.0054726074449718,
          0.023094594478607178,
          0.0003948519006371498,
          -0.10666924715042114,
          0.026960812509059906,
          0.03599077835679054,
          0.06945233047008514,
          -0.018262187018990517
        ],
        [
          -0.017028283327817917,
          -0.4553913176059723,
          0.31863290071487427,
          -0.06551720201969147,
          -0.09673698991537094,
          0.24779628217220306,
          0.08148948103189468,
          0.4681957960128784,
          -0.5654104351997375,
          0.03185515105724335,
          0.07092368602752686,
          0.001565436483360827,
          -0.012342465110123158,
          -0.071463942527771,
          0.006571116857230663,
          0.007830873131752014,
          -0.05006437376141548,
          0.05518355220556259,
          -0.1078856885433197,
          -0.0009037347626872361,
          0.015470278449356556,
          0.06994256377220154,
          -0.020064713433384895,
          0.020154623314738274
        ],
        [
          -0.01852300576865673,
          0.015930842608213425,
          -0.027358198538422585,
          -0.09490983188152313,
          0.06802637130022049,
          -0.0806490033864975,
          0.0032034346368163824,
          0.06945331394672394,
          0.0001875311863841489,
          -0.11560895293951035,
          -0.04011734202504158,
          0.011565381661057472,
          -0.08590514957904816,
          -0.03712715581059456,
          0.047608718276023865,
          -0.10490838438272476,
          -0.007927782833576202,
          0.05748797580599785,
          -0.013865379616618156,
          -0.0001927559351315722,
          -0.08867304027080536,
          -0.056467290967702866,
          -0.11346803605556488,
          0.015089021064341068
        ],
        [
          -0.24939918518066406,
          0.07681123167276382,
          0.10478544980287552,
          -0.3640868365764618,
          0.08143655210733414,
          0.10371608287096024,
          -0.23641590774059296,
          0.10815481096506119,
          0.05959634855389595,
          -0.027608836069703102,
          -0.030872272327542305,
          0.027373194694519043,
          0.5673552751541138,
          -0.3847583830356598,
          -0.4006806015968323,
          0.08113770186901093,
          -0.016890520229935646,
          -0.06161544844508171,
          0.1258372664451599,
          -0.01557073276489973,
          0.050018150359392166,
          0.07153207063674927,
          0.03518534079194069,
          0.09132125228643417
        ],
        [
          0.17117105424404144,
          0.21420489251613617,
          0.1823078989982605,
          0.303280234336853,
          0.24064873158931732,
          0.02240344136953354,
          -0.3447577655315399,
          -0.25368043780326843,
          -0.5702574849128723,
          -0.062239982187747955,
          -0.125985786318779,
          0.050296250730752945,
          -0.019320309162139893,
          0.009531526826322079,
          -0.23997768759727478,
          0.007595470640808344,
          -0.09426281601190567,
          -0.02303321287035942,
          0.0944991186261177,
          0.07032511383295059,
          -0.12934765219688416,
          -0.031318873167037964,
          0.03641221672296524,
          -0.15040157735347748
        ],
        [
          0.02996785193681717,
          0.008005770854651928,
          -0.022449729964137077,
          0.04645681381225586,
          0.03169931098818779,
          -0.025491580367088318,
          0.06372463703155518,
          0.024825265631079674,
          -0.030048450455069542,
          0.029590554535388947,
          -0.023030806332826614,
          -0.03806760162115097,
          0.058123234659433365,
          0.5194143652915955,
          0.288438618183136,
          0.09497082233428955,
          -0.06582468748092651,
          -0.016599450260400772,
          0.13511155545711517,
          0.04005342721939087,
          0.03594280034303665,
          -0.3392969071865082,
          -0.5123118162155151,
          -0.30565309524536133
        ],
        [
          0.13148707151412964,
          0.09867532551288605,
          -0.35110175609588623,
          0.2035946249961853,
          -0.2295304834842682,
          0.06177666410803795,
          -0.11338748037815094,
          0.31492048501968384,
          0.09443891793489456,
          -0.1462346464395523,
          -0.13161884248256683,
          -0.15636906027793884,
          0.062130317091941833,
          -0.012676117941737175,
          -0.04424600675702095,
          -0.0913277119398117,
          -0.0024567870423197746,
          -0.006524653639644384,
          0.13780397176742554,
          0.20199832320213318,
          -0.05588826909661293,
          0.27124089002609253,
          0.0611286386847496,
          -0.002169579267501831
        ],
        [
          0.0640767440199852,
          -0.2551744282245636,
          -0.04425913468003273,
          -0.013863719068467617,
          -0.02180972322821617,
          -0.17769567668437958,
          0.05624988302588463,
          0.028490692377090454,
          -0.15400764346122742,
          -0.051567040383815765,
          -0.11604555696249008,
          -0.09345366805791855,
          -0.0030703169759362936,
          -0.05803953483700752,
          -0.12768690288066864,
          -0.14253932237625122,
          0.009773082099854946,
          0.006697299890220165,
          0.044142190366983414,
          -0.04292549937963486,
          -0.1075495034456253,
          -0.024377672001719475,
          -0.14855118095874786,
          -0.14352469146251678
        ],
        [
          0.09496547281742096,
          -0.06580691039562225,
          -0.10809749364852905,
          0.017616555094718933,
          -0.06403958052396774,
          -0.20473802089691162,
          0.06340938061475754,
          0.11092151701450348,
          -0.12574630975723267,
          0.028344498947262764,
          -0.07066068798303604,
          -0.009091601707041264,
          0.08916288614273071,
          0.04948039725422859,
          0.1424681544303894,
          -0.05131136253476143,
          -0.11770506948232651,
          -0.21464234590530396,
          0.4161704480648041,
          -0.030260514467954636,
          0.16766750812530518,
          -0.6735273599624634,
          -0.0071921078488230705,
          -0.07998321950435638
        ],
        [
          -0.06453661620616913,
          -0.06859758496284485,
          0.07183851301670074,
          -0.13513073325157166,
          -0.05151045694947243,
          -0.07418647408485413,
          -0.11699991673231125,
          -0.07525521516799927,
          0.009720807895064354,
          -0.0722261518239975,
          -0.046571750193834305,
          0.02871982753276825,
          -0.0047965748235583305,
          0.008937296457588673,
          0.044160015881061554,
          0.08417034149169922,
          -0.056153833866119385,
          0.030824758112430573,
          0.10534612834453583,
          -0.0590500682592392,
          -0.09841535240411758,
          -0.04995971918106079,
          -0.12752076983451843,
          0.03506006672978401
        ],
        [
          0.08920992910861969,
          0.06415266543626785,
          0.09920654445886612,
          0.06283912807703018,
          0.13415002822875977,
          0.0011775685707107186,
          -0.3629913926124573,
          -0.26234549283981323,
          -0.22937828302383423,
          -0.11337271332740784,
          0.07078321278095245,
          -0.08621181547641754,
          -0.1708075851202011,
          -0.07426480203866959,
          -0.20782017707824707,
          -0.05551852658390999,
          0.07289160788059235,
          0.005101639311760664,
          0.1746111512184143,
          -0.170714870095253,
          0.17372570931911469,
          -0.21463683247566223,
          -0.33082470297813416,
          -0.17361323535442352
        ],
        [
          0.2734835743904114,
          -0.15751291811466217,
          -0.036545250564813614,
          -0.5431950092315674,
          0.031020157039165497,
          0.17183712124824524,
          -0.11264501512050629,
          -0.025286003947257996,
          -0.43969759345054626,
          0.2394532710313797,
          -0.2372485101222992,
          -0.11848495900630951,
          0.04664613679051399,
          -0.032861072570085526,
          -0.10778142511844635,
          -0.21083278954029083,
          -0.12461650371551514,
          0.10303269326686859,
          -0.31822845339775085,
          0.13202878832817078,
          0.11482366174459457,
          -0.12776005268096924,
          0.06021883711218834,
          0.1264980137348175
        ],
        [
          -0.21536138653755188,
          -0.07622937113046646,
          -0.033669717609882355,
          -0.06347998231649399,
          -0.06551987677812576,
          -0.24318304657936096,
          -0.11368804425001144,
          -0.08382147550582886,
          -0.019858190789818764,
          0.004362655803561211,
          0.010727201588451862,
          -0.092951700091362,
          0.021803662180900574,
          -0.10583522170782089,
          -0.13350273668766022,
          -0.021634742617607117,
          -0.016847915947437286,
          -0.1172163262963295,
          -0.09406058490276337,
          -0.22053581476211548,
          -0.06256723403930664,
          -0.023216402158141136,
          0.09225041419267654,
          -0.041959334164857864
        ],
        [
          -0.4210517704486847,
          -0.2522980868816376,
          0.15308529138565063,
          -0.12794946134090424,
          0.002358664060011506,
          0.042674850672483444,
          0.23754064738750458,
          0.17665407061576843,
          0.1073569804430008,
          0.1369239240884781,
          -0.0315108522772789,
          -0.09720797836780548,
          -0.14289043843746185,
          -0.15679708123207092,
          0.03264215216040611,
          0.03538038954138756,
          -0.08791770786046982,
          0.04643959924578667,
          -0.30315789580345154,
          -0.10473757982254028,
          0.16758312284946442,
          -0.19847527146339417,
          0.0037025597412139177,
          0.18955962359905243
        ]
      ],
      "bias": [
        0.22513505816459656,
        -0.031265731900930405,
        -0.11551032960414886,
        0.004922544118016958,
        0.034611303359270096,
        -0.10599695891141891,
        0.06042718514800072,
