{
  "shared_layers": [
    {
      "weight": [
        [
          -0.025250142058055043,
          -0.07165040702292727,
          -0.5147544396632299,
          -0.024851335617429558,
          -0.1650408289615956,
          0.1335089034013352,
          -0.0036525696378174265,
          0.2896754309831718,
          -0.2773440553153089,
          -0.0436133864539563,
          -0.055045211340563116,
          0.5932352948870045,
          -0.17187065551829178,
          -0.2793634906665577,
          0.019238109025242138,
          0.10972155039908348,
          -0.15081565799413896,
          0.3203622433260886,
          0.18188110534617855,
          -0.3377369304285662,
          0.2923280386444498,
          -0.02546899490976761,
          -0.07737065075427839,
          0.08693194663296401
        ],
        [
          0.10846163130691433,
          -0.1523570664128222,
          -0.6783678735070143,
          0.08966835109088127,
          -0.004126816775082796,
          0.24039078752043058,
          0.042818418700903915,
          0.06872526414843891,
          0.1737488076865464,
          -0.022847703567033976,
          0.09324889954213109,
          0.12694485372113115,
          0.3935394257051302,
          -0.327830978472008,
          -0.14468791184156798,
          -0.038364222569344006,
          -0.04780700692512533,
          0.16444182402680982,
          0.011673252603846962,
          -0.2768971193311241,
          0.012421917066275894,
          0.08821049169715409,
          -0.3114484883295409,
          -0.1643063801102734
        ],
        [
          -0.0038012318206632327,
          0.2272188876228337,
          0.504947598252569,
          0.12075005250934612,
          -0.043373803395995045,
          -0.7416795302607263,
          0.09371107881097612,
          -0.1564956800855794,
          -0.12438169645111931,
          -0.016809478226139506,
          -0.0672698915770734,
          0.5563369868159861,
          -0.23700017370826768,
          -0.4323423504975683,
          0.37080653641935574,
          -0.03106921350397501,
          0.13828762368180444,
          -0.28874717390507254,
          -0.4016949657370488,
          -0.2452061675191782,
          0.4611555177381752,
          0.2533220902634606,
          0.0555286747767858,
          -0.013437014838806062
        ],
        [
          0.08030389212247292,
          0.11225859270984512,
          -0.05475845329351316,
          0.015055485597467335,
          -0.2200075671754136,
          -0.42778831250838256,
          -0.023636257456682564,
          -0.1405137657674815,
          -0.08665526070627722,
          0.06731308892903314,
          -0.05950391243448015,
          0.3860776012782956,
          -0.012244588854750675,
          -0.25923076206767204,
          -0.006974666534449655,
          0.13553714313180676,
          -0.3643488356649672,
          0.24891137625836848,
          -0.23816878858791207,
          0.28981694355546217,
          0.03997468084304113,
          -0.16348365094801307,
          0.07300565412801958,
          0.07450102739655091
        ],
        [
          -0.03797691929307557,
          -0.13102859487285448,
          0.15106461602815374,
          -0.0771723898533777,
          -0.2783708986010303,
          -0.2666120277063544,
          -0.12467592707974127,
          0.15484606433386514,
          -0.13663567659461368,
          -0.1253638766703901,
          0.31154190694010675,
          0.14321934127867952,
          -0.06783972109448076,
          0.08371577144137565,
          0.021952899006324345,
          0.17492522039049585,
          0.023973605850641923,
          0.18123641960346998,
          0.1348691779194382,
          0.07948870352076993,
          0.26460377287600834,
          0.07929679566887043,
          0.19509109120250048,
          0.39591684954043277
        ],
        [
          -0.09854951583875014,
          -0.13465738730752227,
          0.21113838214904243,
          -0.036538437348318985,
          -0.19652361503321325,
          0.3109438616022166,
          -0.1348685246081883,
          0.020911966679484112,
          -0.06368550639888175,
          0.034736233690866355,
          0.18631304813368754,
          -0.46950364192925353,
          -0.0415372328655301,
          0.2768193004240926,
          0.44881783896112776,
          -0.09044584121980002,
          -0.14360263252239913,
          -0.12682724727832684,
          -0.17724221728963954,
          -0.2807613312767123,
          0.1402632845427899,
          -0.11144402859890727,
          0.31295898213974266,
          0.18114439040541025
        ],
        [
          -0.011609656313303966,
          -0.08359351074630267,
          0.1551096804027998,
          0.07744124155862898,
          -0.0468586752749051,
          -0.15543916478278666,
          0.04781221289160563,
          -0.27635471270879575,
          -0.2501819487437876,
          0.0831623151257255,
          0.29281314556713056,
          0.3878658145164736,
          0.05109436168644499,
          -0.2478474323775874,
          -0.3310302399415899,
          0.10459190078018478,
          -0.23011119468916413,
          -0.15795297701826358,
          0.19785112903616506,
          -0.33422950689530956,
          -0.35252280416468845,
          0.2605296670585713,
          -0.18951305323116158,
          -0.0230683335187089
        ],
        [
          0.09848536310274716,
          0.28150928971097683,
          0.30875965405681355,
          0.059911308264572194,
          0.08333483455199994,
          0.5378917815495217,
          0.1705566441818817,
          -0.17832893304406117,
          0.008780846325967482,
          0.01620857741043929,
          0.16764441497038238,
          -0.6419160868929357,
          -0.27776447481269906,
          -0.4260151007929916,
          -0.39669419439250797,
          0.14517630192638276,
          -0.2787895901796179,
          -0.07703856003470812,
          0.27230164079251523,
          -0.3523835974778459,
          -0.13668022966884183,
          0.14848189845193321,
          0.00041792645100775116,
          0.18086461446974278
        ],
        [
          -0.08087072053575564,
          0.1460406133251862,
          0.3583600087479969,
          -0.007148280505363562,
          0.05477646773468578,
          0.33418401568280126,
          -0.10681405682265598,
          0.43804556128097666,
          0.15229898600855893,
          0.1300540516721365,
          0.008178140539783758,
          -0.5924898404733839,
          0.38408647841532984,
          -0.12256646182962384,
          -0.183203551989544,
          0.23809444985409434,
          -0.00398194306380247,
          -0.14755984938506556,
          0.2740944327281923,
          -0.014181037756052003,
          0.03807755596444341,
          -0.13215994810527465,
          0.4808576567729631,
          0.26671792735862665
        ],
        [
          0.05362177121575024,
          0.06435803514810459,
          0.2558270519046617,
          0.04318717598919633,
          0.2463624551265586,
          0.1875537597166387,
          0.06939465490582929,
          0.23091521367283807,
          -0.19516513035133604,
          0.0528204292201118,
          -0.21427817852717004,
          -0.48348670464912735,
          0.20966591459424122,
          0.26378045930038624,
          0.3028010488329852,
          -0.14783881239797914,
          -0.13314273671759577,
          -0.23302957777879543,
          -0.3158896710351827,
          0.25357478515386317,
          -0.3937242167433119,
          0.17632089103122323,
          0.170508833983692,
          -0.15841379558807095
        ],
        [
          -0.08450766770216352,
          0.21140273487417127,
          0.2112328383999379,
          -0.13030236084712946,
          0.19148433491030994,
          -0.14062973972311416,
          -0.04520875545801442,
          -0.18426326114057343,
          -0.1733053989638424,
          0.09178169049844949,
          -0.20475617245903857,
          -0.06134648514659708,
          0.20668634064179817,
          0.2206519056633693,
          -0.38476018068137635,
          0.0429740384021199,
          0.10535629989063817,
          -0.13596411549346177,
          -0.26789615285432145,
          -0.38878359931958517,
          -0.4758736640976596,
          -0.029373499813450905,
          -0.26682700957165895,
          -0.16877883316289158
        ],
        [
          0.006384086693862785,
          -0.11654968172066076,
          0.07771584711941651,
          0.1284511771730622,
          0.20935063900859968,
          0.11524123077664068,
          0.10033416346378228,
          0.17156364290730441,
          0.18495463978306023,
          0.12103328119745337,
          0.019068972511750965,
          -0.1109644431583843,
          -0.015490149966423583,
          -0.35014229258236684,
          -0.006429453088553669,
          0.15844298318828068,
          -0.2528342530430397,
          -0.3019779096184161,
          0.38576836390091834,
          -0.37500960459648197,
          -0.37160208006537954,
          -0.13530323775242933,
          -0.20550400681349446,
          -0.1933837693032009
        ],
        [
          0.09186898364376503,
          0.22477250059556833,
          -0.3873186606919753,
          0.04674020132817025,
          0.11838989492792865,
          0.3932755223687398,
          0.09795872550258358,
          -0.23179447636611453,
          0.16252474460715371,
          0.12799297936511436,
          -0.18072430125723538,
          -0.3200817372540461,
          -0.24229852994203935,
          -0.36949359001473214,
          -0.3603770060050537,
          -0.02901154946880658,
          -0.12730514003748863,
          -0.19976004524689345,
          0.1931935820622423,
          0.10756468328863293,
          0.10422043110650414,
          -0.023536170565751892,
          -0.01768234257861945,
          -0.3171494482442119
        ],
        [
          0.04932414435142128,
          -0.6109668906059273,
          -0.27253730835751694,
          -0.13362401606449345,
          0.41510135021698485,
          0.20443406311093867,
          -0.08791379935632086,
          -0.25561677113606396,
          -0.1849436818835076,
          -0.08371807711495435,
          0.34282790846559114,
          0.1769284042249985,
          0.08753371780944032,
          -0.07607282316837012,
          0.7875079519049449,
          -0.07690792961659193,
          0.5010417519990172,
          0.22237658189795242,
          0.2424440004024333,
          0.35240156740615874,
          -0.2848826953117447,
          -0.2803597461018314,
          -0.23881284541465403,
          -0.2872419768449802
        ],
        [
          -0.03171257981516845,
          -0.25930586939217376,
          0.13211301801423664,
          -0.14778788929934447,
          -0.0027771913817036787,
          0.5228491489687606,
          -0.08462884634705663,
          -0.26667324828963945,
          -0.26069597866891525,
          0.11578137076130364,
          0.18541745508697127,
          -0.20477354359152616,
          -0.10108474979748724,
          -0.026563224598366093,
          0.23924321685781766,
          -0.11743187041379856,
          0.25084788082022247,
          0.25709028733835976,
          -0.059222099133813585,
          0.31357493688254545,
          0.413613967524288,
          -0.21779961926462518,
          0.2525356807568906,
          -0.10394620641556933
        ],
        [
          -0.033593393025470916,
          0.06206501286943852,
          -0.14031802486594733,
          -0.09827635282212713,
          0.2635460279276924,
          0.05353989645573883,
          0.03566190741526691,
          -0.19887705430307528,
          -0.001164902477092265,
          0.11852199168582196,
          -0.03218601061015535,
          -0.33415254042194914,
          -0.02497883996407557,
          0.09242091576574427,
          -0.001344138762775379,
          0.34003073079527957,
          -0.02597372041771598,
          0.3377534903010782,
          -0.17837633096412445,
          0.19106216865148434,
          0.1930696922132049,
          -0.20901173160432618,
          0.2616926113298141,
          0.45879095547680165
        ],
        [
          -0.12456445911798085,
          -0.00014174889752701503,
          -0.43507150268454264,
          -0.04937040851969949,
          -0.23975693946947801,
          -0.022518507145145295,
          -0.12158063791885944,
          -0.2675949353031168,
          0.30267472121157174,
          0.12727711520180296,
          0.3662504390222436,
          0.02674032037555431,
          0.07888014555007768,
          -0.09971917424328285,
          -0.20274458716451046,
          0.12141933010470975,
          0.055746227049452056,
          0.059354002090713745,
          0.011191065426591228,
          -0.30943171971308187,
          -0.030230594189173895,
          -0.3509502859075708,
          0.430144361172483,
          -0.3424951599672305
        ],
        [
          -0.10282922195411029,
          0.188251262741348,
          -0.16613730786281458,
          -0.08331105111290268,
          -0.14221506923477994,
          0.037869236206371545,
          -0.10116126843221235,
          -0.11196373332940111,
          -0.23153608084240831,
          -0.04305543975281159,
          -0.25081694437005364,
          -0.3428691776773889,
          -0.24133513159319525,
          0.14347382280372661,
          0.2045010975037363,
          -0.04807218546328737,
          -0.17915642678819974,
          0.49966748415534523,
          0.31613105180365936,
          -0.16020469222456885,
          0.4153779415877593,
          -0.2067889350074903,
          0.3205365417153912,
          -0.08167108346405913
        ],
        [
          0.11578558529654255,
          -0.20780997600794152,
          0.2858016894823788,
          0.012749942696739965,
          -0.00793005656677377,
          -0.23958059297157794,
          -0.005336044831614863,
          0.16177207463842064,
          -0.08017624142420081,
          -0.1766623348888582,
          -0.21834118045015338,
          -0.3674260762528568,
          -0.012676058168605927,
          -0.07184919890155679,
          0.03873886645166849,
          0.18013853645176955,
          -0.02761506808366929,
          -0.4276168921771709,
          -0.25524905941112436,
          0.1888865212815755,
          0.05838527394390891,
          -0.2883381877489067,
          -0.20737347058400368,
          -0.320263129801611
        ],
        [
          0.035641380138039795,
          -0.2509085011545818,
          0.38654234008176575,
          -0.13200134123710988,
          -0.15327885857645057,
          -0.3571855820240849,
          -0.11228901882198228,
          0.3021966919354211,
          0.31476972774008977,
          -0.10377185956988227,
          0.11173062212756986,
          -0.6311755662090807,
          -0.23752349133100847,
          -0.49971550839967416,
          0.39499374487177685,
          0.09134335275484276,
          -0.26245205375988606,
          -0.28624590008460316,
          0.11513123458979395,
          0.19844451915327135,
          -0.5429513903535068,
          0.2768094798458951,
          0.3173583943976096,
          -0.2210999434021694
        ],
        [
          0.16456530037068734,
          -0.10950276069064037,
          0.8207794674862052,
          0.13883888135260136,
          -0.22568465691564576,
          0.15026064756647411,
          0.17684415217344546,
          -0.3628205522189873,
          -0.675494122292431,
          -0.10671273163571471,
          0.492599710051016,
          -0.32355446755020006,
          0.07557843766919864,
          -0.18878316686731497,
          0.15471994155250804,
          0.0019814357952153408,
          0.31262642789198036,
          0.27829350351409,
          -0.45616910381397363,
          0.04812297579433386,
          0.06075081041813491,
          0.09301974832125179,
          -0.048599780067217685,
          0.09048002472338891
        ],
        [
          -0.04730322200676957,
          0.20296397091422613,
          0.5575868628209897,
          -0.027754207696265208,
          -0.02344188568269251,
          0.02504559031007902,
          0.06300849328847223,
          -0.06564359041431016,
          0.14053298017618743,
          -0.12369672769817482,
          -0.021066097063281216,
          -0.5707813581867309,
          0.19855570700363281,
          -0.24834207088580065,
          -0.09951612941054869,
          -0.1102934078045403,
          -0.2697763227325659,
          -0.32015594880293696,
          -0.15401022086031085,
          0.3474901366882448,
          0.039491942017857516,
          -0.152730865316136,
          -0.1577096700132768,
          -0.489701982684991
        ],
        [
          0.006759510952583966,
          -0.34365160503714176,
          0.42331736468091397,
          -0.03349305842682367,
          0.039558686428903894,
          -0.4968098730729969,
          0.0200132103726428,
          -0.0400193091608358,
          -0.537649456163053,
          -0.018565931257004224,
          0.045936686409088386,
          0.5926857037077359,
          0.004832266657401696,
          0.3067438944889473,
          0.3891576925379475,
          0.07235711102663167,
          -0.08562550228313308,
          0.07209117260375615,
          -0.0978668751996411,
          0.22449073162309993,
          0.1314006960125758,
          -0.016722582292390327,
          0.3138150017871101,
          0.0296021777170788
        ],
        [
          0.00857192734392701,
          0.13545878724267618,
          -0.05835388635134471,
          0.08305050651457896,
          -0.2098685942414246,
          0.34523602448243546,
          0.002783134298654584,
          -0.17986972276932062,
          -0.5857775801325495,
          0.08464020162689792,
          -0.13412250406746687,
          0.41769621722982664,
          -0.22395549809699725,
          -0.4227642035065264,
          0.47472381561459503,
          -0.10275955701157768,
          0.03522033385394127,
          0.046277682903007544,
          0.11552156436474656,
          -0.19630747338070106,
          -0.2262125368652846,
          -0.2113674377698703,
          0.034168997657659766,
          0.5706038272194481
        ],
        [
          0.05891246255481975,
          -0.2467335479712049,
          0.08747108134993871,
          0.01944699782738468,
          -0.2711333287294871,
          -0.5860843894034357,
          -0.001655677550101972,
          -0.0193352891397853,
          0.1954190463205504,
          0.18692086593772406,
          -0.11001510589779104,
          0.24870392938035263,
          0.009904959731675185,
          0.32631474728407356,
          0.5737862170999234,
          0.20870492048497397,
          -0.17128231607305752,
          0.034665711269191914,
          0.16237809192853822,
          0.1670247751435335,
          0.06288116510262665,
          -0.24478970316252005,
          -0.2819021997193494,
          -0.30202211948978164
        ],
        [
          0.037334731088111195,
          0.1912116615237841,
          -0.018631395209575668,
          -0.09372723034789003,
          0.09520084596897144,
          -0.3052624968668057,
          -0.09907157347448618,
          0.14450848838743638,
          0.34098148435462206,
          -0.17909796983674345,
          -0.30737520966760573,
          0.21643399408722525,
          -0.20773999877862911,
          0.16438305399733405,
          0.342355692295302,
          -0.24119339708980103,
          -0.04192052569210147,
          0.11207003286186262,
          -0.37529294818890596,
          -0.04608280217713915,
          -0.4957355160541454,
          -0.05226208716407039,
          0.2464926990395226,
          0.25711574419293
        ],
        [
          0.016963611946510943,
          0.07900752124897355,
          0.16673051330029032,
          -0.08468728659922924,
          -0.13474955056930688,
          -0.21431263134185322,
          0.0009370729862146208,
          0.06516681160798422,
          -0.11697829258918438,
          -0.11089000590732077,
          0.32867123196223824,
          0.36326494675055154,
          -0.3817578371627793,
          0.19236488690861972,
          -0.3639168460940231,
          -0.3898089570651281,
          -0.10515159385427215,
          -0.11652585704554204,
          -0.26149145920847433,
          0.02356222625794546,
          0.3756347598105575,
          -0.26268969874796916,
          0.01257216072106932,
          -0.38790249829104584
        ],
        [
          0.01812504582315212,
          -0.19544344958269338,
          -0.05656449595871339,
          -0.04642891736216175,
          0.28804504288117383,
          -0.33935894837607583,
          0.0022527254545916388,
          -0.2273892819006906,
          0.3611916989739157,
          0.26149265250762427,
          0.23776955331218946,
          0.06895712347331309,
          0.14224040110018435,
          0.07915794205306215,
          0.3146735689607234,
          0.016206386244661752,
          -0.445716619629033,
          -0.19295773302979746,
          -0.13246229583269978,
          -0.3477838973425669,
          -0.5892924824311041,
          0.16001984448954445,
          0.2376858644498767,
          -0.3782607463996755
        ],
        [
          -0.018717051959816485,
          0.2313806983726888,
          0.06664856918247858,
          -0.013616892429467982,
          -0.19296795818312612,
          -0.3350132318808264,
          -0.07917933691368102,
          0.16769471169575426,
          -0.6051905785792218,
          0.09573346533389696,
          -0.07737574226016126,
          0.6802577321863076,
          -0.003740315896038665,
          -0.02701644067007419,
          0.500551469840482,
          0.07837529322165004,
          0.07115798624296792,
          -0.08230386326949705,
          -0.13917520338665967,
          0.24504902682013982,
          0.05534491957247624,
          -0.2123642688716341,
          -0.07529490942579788,
          0.25213455684740743
        ],
        [
          -0.08831359432505406,
          0.07435226899620882,
          0.6059820185902853,
          0.011416193887060135,
          -0.22891272334758067,
          -0.6321912446659381,
          0.012377629015464577,
          -0.32220301254009526,
          -0.07312830528904035,
          0.0007821359500155302,
          0.40500821532155656,
          -0.35704714605062204,
          -0.0645094078740095,
          0.2762778476370679,
          0.0423385197330684,
          -0.44082287341380844,
          -0.06778897540952188,
          0.3812222888773618,
          0.008992511006583666,
          0.24754260431594144,
          -0.48545424149646305,
          -0.17123639612419578,
          -0.5102730831449716,
          0.4083939814975834
        ],
        [
          -0.0701414352413991,
          -0.23555202741214862,
          -0.021763641129369547,
          -0.08703115089182416,
          -0.07434643691590873,
          0.18396537230508636,
          -0.15010574796177636,
          0.30864037136767863,
          -0.3324138607246172,
          -0.07425484871472796,
          -0.32131474459419707,
          0.03517454272947214,
          -0.1515197638925464,
          -0.04887643385121818,
          -0.32495237692109624,
          -0.13833314358362211,
          0.2889156022021899,
          -0.25526717059007736,
          0.10460904996108265,
          0.00828224219836599,
          -0.30479313144787473,
          -0.06594811247633355,
          0.09788490006916813,
          -0.2542558793272444
        ],
        [
          0.1272248484970411,
          0.1483063993505509,
          0.014697661667885649,
          -0.0430142081720847,
          -0.20259572497980266,
          -0.23641059350135776,
          -0.033656898061461826,
          0.07579387294938476,
          0.31458394645290694,
          0.11484810379135175,
          0.15986285450591275,
          -0.017246395773382283,
          0.07520149093351321,
          0.3488783636985575,
          -0.5752070153905351,
          0.11541192800937419,
          0.1846481654366746,
          -0.09532447601129809,
          0.1580710915993197,
          -0.27301640359221646,
          -0.01656705615132585,
          -0.2718373116194176,
          0.00706136132485158,
          0.26511327877036145
        ],
        [
          0.02554771291184167,
          -0.03490705894360097,
          -0.04314681790412124,
          0.015432668685036538,
          -0.14313670950506507,
          -0.13735034423697493,
          0.03793537853710413,
          -0.14798603435978422,
          -0.3398418723478528,
          0.089865608899709,
          -0.12057044609674764,
          0.44513619644347524,
          0.008464643110706993,
          0.11175259993937901,
          0.13362372680180654,
          0.48327305123169906,
          -0.2343616212747967,
          0.16750646941525843,
          -0.03433374536267525,
          0.24615460833394692,
          -0.45386847254949625,
          0.1681492832618091,
          -0.04521000530146246,
          -0.38143086207650856
        ],
        [
          -0.0721982450464923,
          -0.11496324237054986,
          -0.2650359447085614,
          -0.0282175736512522,
          -0.0354484788648521,
          0.10037538752027252,
          0.016878026226917652,
          0.19930906126102776,
          0.12130192156265758,
          0.10324310374197561,
          -0.08963428363137248,
          0.22818669542370237,
          0.10482700599393496,
          -0.11295541038791956,
          -0.39782359382344035,
          0.26881007817503066,
          0.2237323902949018,
          0.30250533138775937,
          -0.17788447937090723,
          -0.05037108837692587,
          -0.3335321929341923,
          0.23431069095192736,
          -0.07993022341113376,
          -0.4122621437394632
        ],
        [
          -0.11352938343286101,
          -0.27681414340598703,
          0.43588813785546227,
          -0.05247154565269152,
          0.156103813505394,
          0.018053800573252163,
          -0.13228361340618586,
          -0.053576400547939294,
          -0.14890657102251134,
          0.08884453386085371,
          0.3065742371852971,
          -0.3897346266352058,
          -0.14046469596827107,
          0.00032116427029376586,
          0.12284372110790574,
          -0.13507581418888498,
          -0.04313706762940404,
          0.32189891538146537,
          0.2033194817918416,
          -0.07894486201661609,
          0.43072878165784806,
          0.32353420298552227,
          -0.12538997209513286,
          -0.1265886099429918
        ],
        [
          0.009591894371479733,
          -0.023133965200468832,
          0.30851086350218926,
          -0.06674088741238673,
          0.1819159666412186,
          -0.21470635738639987,
          -0.05000127601835079,
          -0.029427630262855563,
          -0.689045157991854,
          0.04592949186134173,
          -0.10621782560625047,
          0.6140211131515051,
          -0.4322904850927262,
          -0.03040434941276334,
          -0.23963409903470734,
          0.1096406394213887,
          0.05148805769550551,
          0.40616817721827136,
          -0.06496956657171596,
          0.415007506628767,
          -0.1398830322668351,
          0.04053698814337419,
          -0.3288788773009183,
          0.2884680213731899
        ],
        [
          -0.08428292064248243,
          0.23281555171352297,
          0.2708870300680025,
          -0.02873388798680579,
          -0.29527675884226606,
          0.3507816028853435,
          -0.07384722285689002,
          0.00882357964038936,
          -0.47894822175684826,
          0.07259524584456738,
          0.08542584183871094,
          0.005686869046755007,
          0.4503434416041611,
          -0.19941308831194432,
          -0.09968195259643528,
          0.13250727699842116,
          0.4080113267707353,
          -0.041778082541174176,
          -0.4881457319424726,
          0.026941018262446853,
          0.36623619809549524,
          -0.3673489811272016,
          -0.3464931312934285,
          -0.5270050001604544
        ],
        [
          -0.07241081575542366,
          -0.13945193680083057,
          0.2509234450366253,
          -0.030146512965736675,
          -0.3323084452134854,
          -0.07284057002374067,
          0.01555736427633892,
          0.336256304256772,
          0.12197112571983922,
          0.023717254241537446,
          -0.01969650388817426,
          -0.3301047276972504,
          -0.06739385188754614,
          0.13171073141350995,
          -0.30057550932935684,
          -0.157022614558322,
          0.3175758786613572,
          -0.45109534147765373,
          -0.04815924056070724,
          -0.037568892603533036,
          -0.20093644189730167,
          0.16950257335475968,
          -0.1578829767831911,
          0.47674352987549157
        ],
        [
          0.03854177201787982,
          0.00365496820132588,
          0.010097072303257584,
          -0.09390053798683776,
          -0.3176114651451796,
          0.01253271814265562,
          -0.13308676644619677,
          0.11203645466781295,
          -0.3513145858212433,
          0.12713084369965263,
          0.03507039698774869,
          0.22754211225316182,
          0.09172440936714199,
          -0.2948972775296999,
          -0.49286722142272027,
          -0.2775705901621125,
          -0.3914672289503886,
          -0.47361924307559905,
          -0.1424467854637775,
          0.0841146437342882,
          0.12424252858349989,
          0.0017587046095221945,
          -0.18180240052667498,
          -0.16913140582093744
        ],
        [
          0.08529720913896732,
          0.14029773415588745,
          0.37575006456692855,
          0.07099973807354718,
          -0.2423906143209537,
          -0.0510332259230742,
          0.07407945616509812,
          0.008452598455513074,
          0.5218005083669763,
          -0.11338683940316384,
          0.24064571369913146,
          -0.3277645018616663,
          -0.062253605159800815,
          0.2476400572300535,
          -0.41308098127886894,
          0.3612674847714519,
          0.2639778331047708,
          0.046819231936931355,
          -0.0977767322079464,
          0.3755098156869186,
          0.7537259962945984,
          0.4026923870629307,
          0.10462190581573877,
          0.310296375869777
        ],
        [
          -0.07955596255367141,
          0.08133052668266356,
          0.3142148177004968,
          0.007531718667818457,
          -0.20469943500367538,
          -0.7980422067185884,
          -0.0885520892797832,
          0.025799906593163693,
          -0.19626579532241167,
          0.11383802548133033,
          0.2714802297926385,
          0.5921924351124997,
          -0.07092012729254984,
          0.041379027081108334,
          -0.03832506978936571,
          0.1410985772200005,
          -0.13606928945845365,
          -0.3905479474682154,
          0.09296862878087962,
          0.10197554880181765,
          -0.21277100521773173,
          -0.1470376484156589,
          -0.36458126305386196,
          -0.07688961864862719
        ],
        [
          0.10049654989257946,
          -0.12802525342339596,
          0.07928088830751367,
          0.02734024740524389,
          0.19899369776182715,
          -0.4315108589123963,
          0.11070162743055836,
          0.16952566046766734,
          -0.1866352401214189,
          0.05769593995119625,
          -0.17558112160927472,
          0.1550222904347655,
          0.031157393501178198,
          0.12558249353682993,
          -0.058689356511481015,
          0.27116956411363907,
          0.38225832201368326,
          -0.05386242565419135,
          -0.1280010685273774,
          -0.254668723518444,
          0.5266777246318632,
          0.06293168051059822,
          -0.4225096696709073,
          0.33725162637739287
        ],
        [
          -0.10037026459956448,
          -0.17566973745762096,
          0.5316378501723487,
          -0.07004989018008641,
          0.23756315393854227,
          0.2757697029844929,
          -0.11875825874210272,
          -0.2066679920726567,
          0.24499861271954126,
          -0.1576167397719949,
          0.2610802243450392,
          -0.777790722728129,
          0.38113673387951724,
          -0.023271642466636808,
          -0.14589169486650297,
          0.051946962266775594,
          -0.23585931342250266,
          -0.1512344384942723,
          0.08284231646877294,
          -0.01426651681051097,
          -0.1575488245903263,
          -0.2744452724067483,
          -0.30394864492480467,
          0.4881603568799412
        ],
        [
          0.02046482669650724,
          -0.007019512713809181,
          0.5911684884420209,
          0.044538498274886866,
          0.22942322462438794,
          -0.04292423409980155,
          0.017594266338101214,
          -0.09006579997246754,
          0.2027882645131934,
          0.07837824782559914,
          -0.23468150183530195,
          -0.6145086773452645,
          -0.35983618758407143,
          -0.1253593989895479,
          -0.21378918191483,
          -0.05140030542106939,
          -0.18538027897535286,
          -0.19475832938842225,
          0.08816252872208082,
          0.2182683656660362,
          -0.05506035203680521,
          0.06243438064412017,
          0.15086161959527003,
          -0.23355829935509392
        ],
        [
          -0.045910760005897465,
          -0.21217212692743567,
          -0.16346254310800445,
          -0.051340432796284315,
          -0.04886360921588377,
          -0.5299486819487867,
          -0.021370193090713616,
          -0.01906744903859358,
          -0.10149674881394839,
          -0.11304016458841935,
          0.1316704718061581,
          0.4860425009736537,
          -0.10938673615608407,
          -0.38386909936227215,
          -0.4543403766709774,
          0.10434596698709812,
          0.07969474716654593,
          0.22084536028198845,
          0.10609667103271544,
          -0.48409737425047333,
          -0.005934434232510861,
          -0.10420163022143793,
          0.39061702679211635,
          0.21764097864795678
        ],
        [
          0.04801991287226599,
          -0.04802475480076627,
          0.2385280358547595,
          0.11970070899918135,
          -0.06460044130735307,
          -0.18434335179831307,
          -0.006403847506716948,
          0.02746692521984177,
          0.3610979485527084,
          -0.07992947603016307,
          0.2415187571072621,
          -0.21477060981321672,
          -0.4016856780661556,
          0.2962202209777721,
          0.17804800309389918,
          0.0544107277954586,
          0.3361351333264147,
          -0.46306479879641,
          -0.1987415132253754,
          -0.09192035766883465,
          0.18399940840868734,
          -0.09852135860576383,
          0.3183972998894235,
          -0.3280526785807609
        ],
        [
          0.08331542743968136,
          -0.12875839221273,
          -0.5529684557170675,
          -0.042796661134547526,
          0.2760578743543725,
          0.9252877157375674,
          0.05292900645005379,
          0.042322574982892304,
          -0.22133284881190904,
          -0.06973220238929127,
          -0.03263276337216421,
          -0.3609514821074404,
          0.021489304664385932,
          -0.17325751523528793,
          -0.3022648570941248,
          -0.07926193771954969,
          -0.31239604847545127,
          -0.13153706225810163,
          -0.11071441577821835,
          0.32094983728362575,
          0.06014218912354587,
          -0.10457353075544726,
          0.11474673703872501,
          -0.2257505493940419
        ],
        [
          0.13601442506367362,
          0.06431986974958022,
          -0.06564617110001772,
          0.17310239860292756,
          0.06182773625934669,
          0.32701956555694794,
          0.1466494623454979,
          3.1331771570971775e-05,
          0.19381673303672753,
          0.12635024976594916,
          -0.36118278325899134,
          -0.17950294091874608,
          -0.29132841902763895,
          0.0324707326782385,
          0.09774299671922573,
          -0.1999410114188494,
          0.3906397416954194,
          -0.35337180078249475,
          -0.2038478220189691,
          0.2508979627727677,
          -0.1180991392296901,
          0.06588369620762957,
          0.2883171945112679,
          0.5423932276437748
        ],
        [
          -0.06275094481381893,
          -0.07765151050527336,
          -0.340636540720476,
          -0.03239656468223844,
          -0.10480409909376949,
          0.5336785720578064,
          0.021472705135736056,
          0.05928709507317856,
          0.07419945788198094,
          -0.13087334832129138,
          0.10490001783300151,
          -0.41235735739142815,
          0.03264310456957726,
          0.0004335946809228607,
          0.14938542859854237,
          0.4064673541138043,
          -0.12063864175940388,
          0.3445510711087684,
          -0.3485878210480372,
          0.28348653355880477,
          0.2944284270207329,
          0.16464558713134078,
          -0.013121569849478812,
          -0.07361874359247483
        ],
        [
          0.10798789238707304,
          0.1391039404588902,
          0.4641838927453275,
          0.12808031285466578,
          -0.20658038738541634,
          -0.42604373106541704,
          0.09949620269944187,
          -0.17201516444898157,
          0.4749444802014716,
          -0.14528814922204916,
          -0.13687161826653987,
          -0.2936947565745096,
          -0.14381396893503254,
          0.038580057812154005,
          -0.22160325793898947,
          -0.07964071597948855,
          -0.3761917719637574,
          0.23837792554219323,
          -0.2674403261776089,
          -0.14726178157899503,
          0.37751215415001177,
          -0.14581052030436553,
          -0.3743078760183625,
          0.026315842910267107
        ],
        [
          0.11521321490588363,
          -0.19418096217801187,
          -0.23778197359866327,
          0.09929276302184,
          -0.04905307065450859,
          -0.619318300622614,
          0.0960725635177949,
          0.05360079730606382,
          0.545301352254541,
          -0.18721952477140474,
          0.014514238701378657,
          -0.02026085312396571,
          0.2515985203837535,
          0.25913963922843525,
          0.052501987013586264,
          -0.29960243604533343,
          -0.13456941663609756,
          -0.13476182421165406,
          0.30701320018980155,
          0.30729605573159496,
          -0.09533761353216808,
          -0.3149317617339322,
          -0.22577180508312128,
          0.5823108381818262
        ],
        [
          0.07655468832381118,
          -0.14419863519767034,
          -0.17007761271914063,
          -0.05195977308529155,
          0.17698090931864208,
          -0.264629312686446,
          0.010614331708796452,
          0.2639645106540706,
          0.31903311641525606,
          0.013713647837682988,
          -0.17439674101055094,
          0.11357837466103932,
          -0.28150716337197285,
          0.34725253094567154,
          -0.45933471278823773,
          0.3945079544864498,
          0.24915478086499862,
          -0.05244627975194401,
          -0.0047453184170194816,
          -0.13856787363897657,
          -0.24917406845686055,
          0.1619915173944745,
          -0.042543393336021154,
          -0.23383472563714156
        ],
        [
          0.10109359811836419,
          0.24811799272282717,
          -0.45895493174822866,
          0.018538613458377998,
          0.08378850719493351,
          0.20068302162290233,
          -0.02459977602443637,
          -0.15778646498190785,
          0.0016910521283731886,
          0.030520160592132615,
          0.10470032227089672,
          0.20934880132802947,
          0.12990157375144923,
          0.27313122260023337,
          -0.14816721432019975,
          -0.03341404193660709,
          0.21185861641548498,
          -0.5181675505047032,
          0.0011770905746469461,
          -0.09479562089556356,
          0.3688929128358109,
          0.32676071950104885,
          -0.3796985003507425,
          -0.33000051248849643
        ],
        [
          -0.033845509128092005,
          -0.006657625169230367,
          -0.34604107807017837,
          -0.11145643241722959,
          0.14625857644232734,
          -0.4384080483294983,
          -0.11440199096146214,
          0.08377260981312408,
          -0.30204603282464304,
          -0.07965781788957485,
          0.025880990873636527,
          0.7548399359867848,
          0.1782082822825147,
          -0.20028711956298623,
          0.06882363833261837,
          -0.029198944015240064,
          0.01079936099864585,
          -0.15316611791923723,
          0.0014689802778318926,
          -0.030643736657370742,
          0.06943231482383297,
          0.08302456371725941,
          -0.14155515471633504,
          0.25539021334572665
        ],
        [
          -0.13030021810501807,
          0.29141046155313743,
          0.7059806104469072,
          -0.18954780819092826,
          0.010433324529523075,
          -0.5229788433778906,
          -0.1305825333256262,
          0.12458038081351483,
          -0.6158776866506943,
          -0.13879144435490434,
          -0.2162518036725986,
          0.37614763525841266,
          0.24502051501143593,
          -0.12175941352812092,
          0.006307469847646498,
          0.18573970197147352,
          0.190513575659513,
          0.09476487302294533,
          0.15967825117545908,
          -0.28126390885989294,
          0.2930515847362045,
          -0.08419803586007239,
          0.06431193436749755,
          -0.21892538474286724
        ],
        [
          0.003105914665595906,
          0.13845395464034554,
          -0.017201372631919593,
          -0.06450545302453484,
          0.14534639659161847,
          -0.21187735668835112,
          0.09347687664914325,
          -0.16126863651011625,
          0.5619097134225416,
          -0.18647784578474424,
          -0.11041083335053917,
          -0.35488858691558733,
          0.12049519447734001,
          -0.22252190478262654,
          0.24452809247519922,
          -0.1464638802133698,
          0.025797640482281215,
          0.0648190923474298,
          0.08885614303307626,
          -0.12641415391216151,
          0.24795149275892148,
          -0.19238937235314532,
          0.07194827806315497,
          0.09612834715265954
        ],
        [
          -0.1236611749484898,
          -0.09655278342119678,
          0.6386069002640824,
          -0.1376364458515721,
          0.2716134162412474,
          -0.3268156526019046,
          -0.06468368696622556,
          -0.28050093842434853,
          -0.26779661556476697,
          -0.05615909637216558,
          0.003678349108379991,
          -0.05157081458957113,
          0.2565386327363801,
          0.1999631352384184,
          0.5859138989742882,
          -0.21356706173046403,
          0.15101490756006822,
          -0.1678442522891046,
          0.24397707091980517,
          -0.25491425060051637,
          0.4240960291453338,
          -0.31696997977331165,
          0.4259779642839401,
          -0.34592914675311826
        ],
        [
          0.011307837104429563,
          0.1705706308649757,
          0.243348900753387,
          0.0779748721187989,
          -0.0747927983636415,
          -0.771830999919249,
          -0.07827258546674985,
          0.29181580400245904,
          0.4346767038414923,
          0.028953903193541332,
          0.04499607434426962,
          0.019658651077599128,
          0.05986843335220322,
          -0.4548346722704702,
          -0.5153424235281215,
          0.11068152075025285,
          0.19819925135981445,
          0.5563220460359894,
          0.012253655791922299,
          0.1842724759292683,
          0.06891683699109415,
          -0.3357917857837496,
          -0.12614692741584183,
          -0.004596899112861287
        ],
        [
          0.04618733230981022,
          -0.15087254875210648,
          0.05573374104786044,
          0.05696730000404269,
          -0.053009159101705026,
          -0.24290941203616204,
          0.08113787960075432,
          0.024936967663786454,
          -0.5390359135918583,
          -0.12659921504452917,
          0.17869383766998118,
          0.6001784271697382,
          -0.22583468383032543,
          -0.004738226238998349,
          0.23087952942805823,
          -0.09353243781677965,
          -0.0547984615178956,
          -0.07850220498001109,
          -0.04462371421872797,
          0.3179001151676047,
          0.028050388725541615,
          -0.12859108991982496,
          0.02171540350775987,
          0.29831606400274097
        ],
        [
          0.014530493983465287,
          0.0671630144704327,
          0.20186093930173937,
          0.08991713971084256,
          0.2074376952318183,
          0.11659447447982708,
          0.03261621546814075,
          0.16909498419156235,
          0.18908750849111813,
          0.05362205344107641,
          0.10639931487893098,
          -0.5435315743660906,
          -0.16708860244459117,
          0.3224263345018584,
          0.19917962708835354,
          -0.07515245188538945,
          0.04942371846095881,
          0.1840910025002101,
          -0.04174150837291788,
          0.14814442937157649,
          0.027853772203733265,
          0.2104115922031937,
          -0.08339416878129115,
          0.16670791836785306
        ],
        [
          -0.002984337998800356,
          -0.13958127006567556,
          0.3888660295303556,
          -0.12320997674751817,
          0.269411427185148,
          -0.17407721762330652,
          -0.02126348507146152,
          -0.09168088676554625,
          0.1701400931282173,
          -0.10106409335285792,
          -0.2760043270657348,
          -0.25027949280772643,
          0.13099120335216308,
          -0.27745726332106735,
          -0.1588343290536297,
          0.08698313791414934,
          0.11273286951492012,
          -0.286026861947157,
          0.36023660522533807,
          0.06522491270252889,
          0.584639603703434,
          0.13700633671002432,
          -0.27192019879226215,
          -0.33002873893611945
        ],
        [
          0.08528095260568117,
          0.09636319559728747,
          -0.2862967053587454,
          0.008195359535287593,
          -0.006351257551883772,
          0.27833459262189625,
          0.02639857288427751,
          -0.10817140302732599,
          -0.37177105780385367,
          -0.0184879683272114,
          -0.003515324511752397,
          0.3101424427510514,
          -0.09031806371712199,
          0.5850432367500896,
          0.5115473464258081,
          0.05221402684739086,
          0.41347856048229314,
          -0.032675342945784884,
          0.10527836469018151,
          -0.36572478986545837,
          -0.09990936216713708,
          0.020091084851891292,
          -0.29237736167254114,
          -0.31207836144588047
        ],
        [
          0.05955992401983808,
          -0.1503824551597534,
          0.24798705309805436,
          -0.01774053616432739,
          -0.12751474413253552,
          0.29873074775815206,
          0.011062118279716694,
          0.050421427828828344,
          -0.5822133815822277,
          -0.20166375663086072,
          -0.025323914193551705,
          -0.09495660734066431,
          -0.04652898694601476,
          -0.3880918982969391,
          0.14509189831654673,
          0.27054882452391266,
          -0.3313828667784152,
          -0.1592898094505224,
          0.20686641795190563,
          -0.23638915389257592,
          -0.06321092934581352,
          -0.14201938654207066,
          -0.1936928896738929,
          -0.084522394334322
        ],
        [
          -0.09684881128697267,
          0.1495818267047651,
          -0.08158584809354166,
          -0.04110914278928351,
          -0.18851770532699436,
          -0.1314886829512055,
          -0.06107427049930269,
          0.23865851846757685,
          0.34474161777902557,
          0.10880004592364274,
          0.24124619144985207,
          -0.09462671728714665,
          -0.19224697112824976,
          0.3168904817538089,
          0.3389183274945519,
          -0.0981921086415665,
          0.1730022087670314,
          0.08272945485095298,
          0.1351427320004521,
          0.1270143751469155,
          0.38473580662385365,
          0.12436893155878653,
          0.3529532796676491,
          -0.1019807507245559
        ],
        [
          -0.06022733998520581,
          -0.24946420111832218,
          0.27458460435119736,
          0.036303606284694735,
          -0.09909560192493934,
          0.2969498745601868,
          0.022265842521025307,
          0.37465264011966565,
          -0.552143536208462,
          -0.032147902199960846,
          -0.11060195324064892,
          0.30194853525896265,
          0.1354224749108541,
          0.3399452395791878,
          -0.11982190989907629,
          0.049695109686197274,
          -0.21493823892587363,
          0.1647184287453041,
          -0.09195779124861855,
          -0.3138972056800099,
          0.03254139198594848,
          -0.23110970026445155,
          -0.26923443537806807,
          -0.22254395996240947
        ],
        [
          -0.024773090249176257,
          0.23043933728771707,
          -0.29869750231808334,
          0.008317280670673414,
          0.043586188594786524,
          0.47071809008917126,
          0.05340223097938035,
          0.2508435285812692,
          -0.4608208673846528,
          -0.16136418858908494,
          -0.24406921948660254,
          0.4963628913792381,
          0.2062300596266606,
          0.2027844880933993,
          0.04103631683423638,
          0.020007275621260912,
          -0.3405721872206696,
          0.5290433655625756,
          0.13758646742766667,
          -0.0309215500784057,
          -0.11697993988360025,
          0.0667285140825591,
          0.04184849071799067,
          -0.26320449111071104
        ],
        [
          -0.07989503552863046,
          -0.028651396434912296,
          -0.32260861259706003,
          0.08051444138044511,
          -0.06600401690058183,
          0.11674654146860548,
          0.06727897700752919,
          -0.13502184471483233,
          0.055967253563132896,
          -0.18549561363593536,
          0.015235302581132532,
          0.06691206238493838,
          0.06685072492457246,
          0.21134648461856842,
          0.06495629187045769,
          -0.18435866268713508,
          0.11360054647466021,
          0.17375080222465847,
          -0.40049665396410694,
          0.051450064993184025,
          -0.4461363038660585,
          -0.003976041208293203,
          0.24311520318319338,
          -0.6473120297807933
        ],
        [
          -0.03589933227575498,
          -0.3125793012875171,
          0.045787634819664955,
          -0.07940691098950933,
          -0.004984326467226406,
          0.361753141545262,
          -0.014971155032383837,
          -0.11662073678786691,
          -0.2544441429242388,
          0.1091838218942448,
          0.2982350037086656,
          -0.34235404761791915,
          0.2613588782517822,
          0.32932412148682483,
          0.3887593096295386,
          0.34421763505366837,
          -0.3607887458089326,
          -0.5507373016506535,
          -0.22543797727963855,
          -0.04014931470362476,
          -0.4021018644708898,
          -0.01267563398868701,
          0.28294615932904327,
          0.7124838981378367
        ],
        [
          0.06490478229309683,
          -0.09322066160884714,
          0.2422519094516327,
          0.029986284256871686,
          -0.21631377293835014,
          0.08985852318195989,
          0.09078680087626581,
          0.023264502468015768,
          -0.201183912324427,
          0.10840465932190509,
          -0.021396532977075194,
          -0.15603647239480312,
          0.0940489740346976,
          0.0499575691724344,
          -0.2734643238739478,
          0.24703761028336216,
          -0.11275349476814633,
          -0.1512988410985601,
          0.3175796717196956,
          0.130734777474295,
          0.18013273986419334,
          0.19541764705935352,
          0.38682002214696143,
          -0.042594702102091694
        ],
        [
          -0.10606350769181556,
          -0.047474201732581676,
          -0.3500255300621796,
          -0.0208696793675248,
          -0.19367082701362556,
          -0.08374484090548802,
          -0.008685030890640037,
          0.36600579191111665,
          0.2773781534758034,
          0.06822284983693724,
          0.12690898875798995,
          0.29056698978342377,
          0.16716027844469697,
          0.010695733358627137,
          0.3159838932882057,
          0.10723977601254685,
          -0.08330386296952898,
          -0.4208811286968208,
          -0.17643043973522163,
          0.2924494142714245,
          0.20753678075880821,
          -0.14671857442770192,
          -0.3284635749589786,
          0.4930759916449897
        ],
        [
          -0.08630904316146022,
          0.18470489604932128,
          0.6920520281862239,
          0.01295292537034954,
          -0.20620381665058587,
          0.23862556398933457,
          -0.03396420498924037,
          0.1384692633688589,
          -0.4882182827586665,
          0.1413181351559163,
          -0.1352473511002701,
          -0.5967834985975756,
          -0.2202718022896888,
          0.16005291779338598,
          0.3615119107929631,
          0.2415270041827761,
          0.24029860116841523,
          -0.19905759731681788,
          0.23204245573120302,
          0.043106065125404096,
          -0.09267160870814253,
          0.2740133827538252,
          -0.3891408694659949,
          -0.31149435509119217
        ],
        [
          -0.035708391200179754,
          -0.0219958326019543,
          0.3160200761484167,
          0.05842589592745764,
          -0.18760455912241314,
          -0.03741038729484707,
          -0.06576915788903624,
          -0.3214655902888694,
          -0.19929237685103887,
          -0.12467600630231696,
          0.3036719061636032,
          -0.06806001270411567,
          0.29324974212322735,
          0.30679591521854827,
          -0.45567354593924814,
          0.10448234419955703,
          0.08834471060910608,
          -0.5051690879997146,
          0.21463210568712568,
          -0.025533746152248446,
          -0.23060112377122208,
          0.24905988585010597,
          -0.12100631490655604,
          0.09754177158070221
        ],
        [
          -0.04392907940242465,
          -0.022838809240944932,
          -0.23406547139734135,
          -0.07585492389186269,
          -0.17616588034660033,
          -0.21213816419849388,
          -0.07491823625319406,
          0.07550604547063294,
          0.4200233364085072,
          -0.11634445750080535,
          0.19930826582518682,
          0.08622423856295158,
          0.04135234401719629,
          0.3411919504763924,
          -0.33981963987560554,
          0.21539731610507454,
          0.21616031292105242,
          0.5182796450335121,
          -0.06571823298568086,
          -0.22129412188164826,
          -0.7024296383001555,
          -0.37251195321588754,
          -0.22112961045841711,
          -0.20214566462735117
        ],
        [
          -0.12258715421921647,
          -0.17897277626538405,
          -0.6106297214516375,
          -0.05035334154419627,
          -0.12791572213373104,
          0.5145941392622829,
          -0.17206092084642927,
          0.059743343916305994,
          0.4927205679389368,
          -0.08663161150431464,
          0.14496468717653807,
          -0.35380736706203747,
          -0.33678791532498437,
          0.43169738567572413,
          -0.32276494924526605,
          0.021143386980924023,
          -0.4743367408321586,
          -0.13930745083840923,
          0.13580095899839204,
          -0.13013149765527893,
          0.33066560095402237,
          -0.08332101927328833,
          0.059856751554766593,
          -0.22292987245150622
        ],
        [
          -0.07831197033503216,
          -0.18310901554969164,
          0.38813037374309767,
          -0.08903435373366705,
          0.10911476199333156,
          -0.34267241738301024,
          -0.05876900295333074,
          0.20352689413442318,
          0.3044730197253744,
          0.01528837872924984,
          0.1295464003068014,
          -0.45792106019097245,
          -0.32629881828554197,
          -0.42534308158515355,
          0.26689068833829593,
          0.09673500596555189,
          -0.2860265738876126,
          -0.3683628316857454,
          -0.18538537541790423,
          -0.41222185175888854,
          0.019985870404588588,
          -0.342982703155633,
          0.37056841356135656,
          -0.20018712332901012
        ],
        [
          -0.05931195343941641,
          0.17466660709280007,
          0.6006943566883263,
          -0.05722785922231784,
          0.06928959406478005,
          -0.7222131740603998,
          -0.07372031077555709,
          0.029643294906435462,
          -0.24773815301694457,
          -0.10398970751613307,
          -0.246228012161104,
          0.2058855301924887,
          -0.4449251913928074,
          0.3459908353618038,
          -0.12382377654398741,
          -0.2628662874120978,
          0.018317923149100024,
          0.6035976497508373,
          0.2410784832277959,
          -0.17749579652308597,
          -0.2938676386566014,
          -0.2447569134769011,
          0.13248160176920407,
          0.20687009115281338
        ],
        [
          -0.052789228711609404,
          0.08016943930818239,
          -0.6602676647404301,
          -0.043584515221983915,
          -0.23325040050628842,
          -0.6346045628226191,
          0.11349361097816678,
          -0.25096747952836584,
          0.5800039942534264,
          0.11892035619729295,
          -0.16097669011318416,
          0.6552035016605846,
          -0.0207951193170636,
          0.08367683379898343,
          0.44221047940266245,
          -0.1528308909187311,
          -0.20308542721591577,
          -0.16601298368175685,
          -0.043948460523273856,
          0.2231639085371854,
          -0.07147821087518395,
          -0.19496686266810012,
          -0.4521437517402982,
          0.4097634646039528
        ],
        [
          -0.018936613672180094,
          0.3362346862753689,
          0.5195727900571357,
          -0.04814561394920841,
          -0.09392108285178269,
          0.2723206526016332,
          0.020727892840756233,
          0.026239640436683583,
          0.15730337587417903,
          0.07509134933538678,
          -0.1910501830221134,
          -0.6146364534307601,
          -0.18644142284252746,
          0.06306276416237679,
          0.15469148893307208,
          -0.36413573452253495,
          -0.21109817534030678,
          -0.17254596490067795,
          0.12296664636901532,
          -0.4057829486374593,
          0.3287346297231925,
          -0.1733328353859608,
          0.015748257121248766,
          0.2919252503823418
        ],
        [
          0.09279879855206037,
          0.01889448545019091,
          0.00044508809701775153,
          0.05680500788022282,
          0.05418641823051739,
          -0.021554488462620845,
          0.08370135642465965,
          -0.11392126409023026,
          0.007647638279440161,
          0.12115749869054,
          0.019034233145996747,
          -0.13956875608564695,
          0.03978122706001276,
          0.05608017425986747,
          -0.15206613043852527,
          -0.4371180511771919,
          0.28792069029680406,
          -0.587452828060644,
          0.2982390015109344,
          -0.26952671012087276,
          -0.44302990844734497,
          0.3233763589850647,
          0.22950911159924384,
          -0.03616731641444769
        ],
        [
          0.13342805301873453,
          -0.04248264942052037,
          0.060040302564952124,
          0.1233897782152944,
          0.10771610530450948,
          -0.5383760010235548,
          0.14086816695005488,
          0.040079786615914735,
          -0.07299312074997716,
          0.2264258527007834,
          0.020698063488180193,
          0.05334769592332561,
          0.2330592250288985,
          -0.19353483312800002,
          0.3670166382795933,
          -0.00300610707211563,
          -0.2821549167024061,
          0.5516697713459771,
          0.04302528189641881,
          -0.009291403094517042,
          0.11290173594095812,
          0.04915312359720776,
          -0.25089170816941203,
          -0.3940569118321432
        ],
        [
          0.057882102881802934,
          -0.19809970114061926,
          -0.19652395788967217,
          0.07518280856764949,
          0.015717792171597758,
          0.6755180006223381,
          0.0575659370108206,
          0.11841707206664766,
          -0.3241929087922377,
          0.18038455049153276,
          0.016160176526427063,
          -0.3471853358377489,
          0.2849115308275787,
          -0.42486130039948494,
          0.3362419376050135,
          0.16263489860970817,
          0.2522905554249206,
          0.24847824878731536,
          -0.08528725010508698,
          0.04800428019085994,
          0.3951432824620217,
          -0.07714568943271757,
          -0.2421975658962683,
          0.42077019711258495
        ],
        [
          0.0732746327605247,
          -0.27493965346153054,
          -0.40991716702000425,
          0.06440977406820436,
          -0.16018648113641565,
          0.39873341634524134,
          0.09759772720214599,
          0.09691242770982811,
          0.21459440892844023,
          0.07775926856200349,
          0.13611041754646763,
          0.1877171629941823,
          -0.18403516769980044,
          -0.16316457546125562,
          -0.49018053488510616,
          -0.16283869301845594,
          0.0890032337552339,
          -0.015409551345675648,
          -0.251504814780095,
          -0.25413044895681147,
          -0.16425817334325218,
          -0.11345730314580743,
          -0.3285793173375941,
          -0.16807843333902947
        ],
        [
          -0.0576739158538727,
          -0.04309806977912745,
          -0.5821035416889153,
          -0.03889333293632395,
          0.07869455552902606,
          -0.0559245471475129,
          0.06978499319208252,
          -0.016529179065250654,
          0.23257941251216876,
          -0.17422186795921138,
          -0.096311178358232,
          0.5037383735151557,
          -0.10048104038954585,
          0.030063644224377593,
          0.36604061303774527,
          -0.02653009925555152,
          -0.09805500327039375,
          -0.17297403936333988,
          0.1413322831130213,
          -0.30583122318801065,
          -0.15773704216971127,
          0.030022533901131986,
          -0.20847703398553766,
          -0.019383719990315244
        ],
        [
          0.008158592120287637,
          -0.07221093835128067,
          0.24330506546468708,
          0.08513735076683364,
          0.4108975429644306,
          0.14958570916916122,
          0.07127434970461093,
          0.09558149692460001,
          -0.8280371701289394,
          0.14404746070382562,
          -0.45161740341847717,
          0.6885547014161695,
          0.2375507643893805,
          0.39003993288700295,
          -0.12899276265446302,
          0.1921907385355678,
          0.1047023185361791,
          0.0886371655933511,
          0.23281938117747236,
          0.04792817902179362,
          0.061333736726890555,
          -0.1778945608621281,
          -0.07077367035924584,
          0.37868640166858575
        ],
        [
          0.03274584006548147,
          -0.13430629014686665,
          -0.5127683524722009,
          -0.0362622408337254,
          -0.014234003432186759,
          0.22503254183399543,
          -0.005666757106789143,
          -0.08731304244833352,
          -0.03053854278899611,
          -0.09720736781054556,
          0.12972666558085702,
          0.5886056333293849,
          -0.00370496930076724,
          0.24200901230515356,
          0.04561491587304165,
          0.17946670928010985,
          -0.33993753535477395,
          -0.006171358153623464,
          -0.2215103845227464,
          -0.3807056322096806,
          0.6189887406531295,
          -0.269868325928899,
          0.10232706893794744,
          0.07255001885847301
        ],
        [
          -0.010398954759328023,
          0.023940701477022285,
          -0.2841794631285351,
          0.02920365323017781,
          0.2408274671284147,
          0.44680203162589377,
          0.04205174410592383,
          -0.09185494366467647,
          -0.328359274991624,
          -0.09220300740074643,
          -0.21974504074732767,
          -0.034771933108212,
          -0.01769002791198998,
          -0.07863736926774134,
          -0.17490189607409007,
          -0.21206002622001727,
          -0.026627419973451732,
          -0.26368197843717556,
          -0.19668522063674201,
          -0.24714092794084636,
          0.009912183470090409,
          -0.14589216496703847,
          -0.05895058738121969,
          0.44935251739153864
        ],
        [
          -0.015588432101189695,
          0.25990966843275864,
          0.24331376499464222,
          -0.06407554780407757,
          -0.13632783173106358,
          -0.2443879333382041,
          0.03074521541893288,
          -0.05179707679048859,
          -0.04184647149697157,
          -0.06393113818024249,
          0.15127568619825627,
          -0.3913333577929091,
          0.3866794544230233,
          -0.13639503396712155,
          -0.38666672299794064,
          -0.035287188014486395,
          0.38988543490706473,
          -0.3974867172846648,
          0.26552369443772716,
          0.11947321694665737,
          -0.32870254925075054,
          0.003921396589603237,
          0.17315966302566302,
          0.40572972069078655
        ],
        [
          0.07925688191302976,
          0.264753434782809,
          -0.3375802725636306,
          0.09004693876370182,
          -0.2614018659369803,
          0.1803629698067417,
          0.07463468842463387,
          0.02021786488389276,
          0.23418247947965912,
          0.04157552571213284,
          -0.18728107698185573,
          0.29512547625387503,
          -0.015237395920100101,
          0.032623389145610256,
          0.5510386846658407,
          0.11542337452051522,
          0.12732388907488523,
          -0.11645524238672411,
          0.24126578931431567,
          0.41347478179916447,
          0.24202627157841836,
          0.2700895461040215,
          0.1732390974018587,
          -0.15356021470072545
        ],
        [
          0.006068713053899523,
          -0.22157787764528128,
          0.5451883273001293,
          0.13309922285373746,
          -0.1909674531258703,
          -0.5642251580560578,
          0.09420775148152671,
          -0.0037777622188304937,
          0.6723775185574123,
          0.04580223506083826,
          0.16420596221543832,
          -0.5721951575900994,
          0.05111278656429872,
          -0.02907309275555538,
          -0.3005888199551849,
          -0.22947706716852578,
          0.3075583526329081,
          -0.08150016895641274,
          0.1817327049115049,
          0.1477743295044751,
          -0.07109822685863228,
          0.06242823458723365,
          -0.2375619184174362,
          -0.36930792313590977
        ],
        [
          0.03645598849001823,
          0.300934010658964,
          -0.10576915730053574,
          0.03075073198459503,
          0.07194126584310767,
          0.032951369265065755,
          0.04700567651290014,
          -0.2288670349062387,
          0.43822181607639116,
          -0.03422577130624624,
          -0.2439017037032619,
          -0.24283503504100748,
          0.16370019273744466,
          -0.18238550088313799,
          0.578388780465246,
          0.18638705519780183,
          -0.07712825186696692,
          0.4836206421735127,
          -0.02504882846051195,
          -0.09513154987578747,
          -0.11785264270953716,
          0.2349223855509138,
          0.10275878702985715,
          -0.047249355470279635
        ],
        [
          0.14484795186301264,
          -0.22051813533816436,
          -0.11396655581992775,
          0.033313742079355675,
          0.03469134742877808,
          -0.205907170229348,
          0.14984895498461043,
          0.19014311984576526,
          0.19188491699150445,
          -0.050955654508289004,
          -0.1734986865636331,
          0.2378989271057859,
          0.07605466599293804,
          0.034511687913194505,
          -0.11794808182736072,
          -0.12796479874218603,
          0.08193421652700457,
          0.29584241324132565,
          0.0652542462137381,
          0.1138548166341109,
          0.40809035573545743,
          0.3120290903189265,
          0.23256519547750332,
          0.18124458445503652
        ],
        [
          0.01151817073946692,
          0.3213098967569162,
          0.06343142230849096,
          -0.0014234641898751871,
          0.11398504076273046,
          0.04508115575427559,
          -0.03743074103077492,
          -0.042792093114941504,
          -0.5604616901237773,
          -0.21626047753039496,
          -0.04219185622009402,
          0.43790778502418315,
          -0.03225150676698102,
          0.1653588284207817,
          -0.2751525941526418,
          -0.10283547979720206,
          -0.32932553638575784,
          -0.6841050914621887,
          0.3428601906387573,
          0.20468752980056967,
          0.4311095151907377,
          -0.09820723609655777,
          -0.10699934743486818,
          -0.05729600644653242
        ],
        [
          -0.0715616116185366,
          -0.11587987313275067,
          -0.34753570960946956,
          0.04903039700877008,
          -0.16056497478220536,
          -0.3169169065360366,
          -0.12554092084984622,
          0.15343667437354244,
          -0.2773994187583641,
          -0.03879717949949343,
          -0.20192071562431474,
          0.6949739951927069,
          -0.09079270019608734,
          -0.015286301724998072,
          0.15305195096535038,
          -0.20636006413024743,
          -0.043580559542711644,
          -0.3720095708658696,
          -0.16053125284885902,
          0.15153927400399883,
          -0.09231363657795458,
          0.105034313589883,
          0.146659637657827,
          -0.5938263526587213
        ],
        [
          0.18752928938480382,
          -0.22156408694714405,
          0.40609188554834896,
          -0.02698976966766472,
          -0.2188210262516528,
          0.5978229035085133,
          0.0960374688559309,
          0.09396069432119405,
          -0.3418136770640806,
          -0.11972068742230538,
          0.28507957251694904,
          -0.36732277265034835,
          -0.016892880988608618,
          0.372986951049471,
          0.23827447389518355,
          -0.11704947770417276,
          -0.07919990597911396,
          -0.10555745581355026,
          0.19848130351016938,
          0.00448664730050356,
          -0.15439250305877697,
          -0.028370902854258327,
          -0.10080833919782534,
          -0.2643168192901817
        ],
        [
          -0.03962834151060075,
          0.09512317911486778,
          0.21036620128420996,
          0.020070612911923438,
          -0.1565493174126432,
          0.26686915344297074,
          -0.11766180461250572,
          0.08949702398002392,
          0.29372618495730685,
          -0.028476230033149256,
          -0.06302917712121957,
          -0.6084296996283338,
          0.5015841053529896,
          0.06227736461608146,
          0.2507530943658665,
          0.1228967553144252,
          -0.2763736747342431,
          0.2631104865497728,
          0.10664017699918603,
          -0.3436013869767917,
          -0.35086672235742977,
          -0.10114547317891064,
          0.01669071828091427,
          -0.15829914046997004
        ],
        [
          -0.10865028241306524,
          -0.08764671743690161,
          -0.0683614914612322,
          -0.1523737498704321,
          0.07983472211610892,
          -0.46086618782556066,
          -0.12224652494210844,
          -0.17615966383702866,
          -0.0076096534178663475,
          0.014787675892968628,
          0.13407860620143075,
          0.5325360091579998,
          0.23301272428142328,
          -0.4752030441292098,
          0.5750312103314716,
          -0.2832183482760703,
          0.45058395338010476,
          -0.2839560986415711,
          0.01628931658638134,
          -0.08705936275442215,
          0.6395747292238507,
          0.26753855160281675,
          0.00017443899654814241,
          -0.06433442753985696
        ],
        [
          0.14673842090462041,
          0.22974950394737717,
          -0.1480526747220498,
          0.13800858703232288,
          -0.2832369435489829,
          0.22396197367716547,
          0.13902613754138507,
          0.23022066857427653,
          0.06215597806037308,
          -0.11219789525052856,
          -0.17140529502547586,
          -0.18911789240507534,
          0.3804067844801352,
          0.31711193290046424,
          -0.07606739935764163,
          0.07909621032777187,
          -0.35111559785222185,
          -0.19883673508024313,
          -0.05994932437368183,
          0.1606937091188198,
          -0.3120121590943967,
          -0.16873442129157798,
          0.16431431271284527,
          -0.13576487475934584
        ],
        [
          -0.09760198739498759,
          -0.07002433951600398,
          0.06407686481479977,
          -0.010116136200191984,
          0.09573776560836306,
          -0.6351766058637156,
          0.09117814707689181,
          -0.2559102923878792,
          0.42665578632869305,
          -0.11786095682611268,
          0.06315763980783638,
          0.3847298277460676,
          0.03391392318290653,
          0.36828215401710274,
          0.1776651661816124,
          0.3529134711704871,
          -0.0722775776514277,
          -0.41843722907046843,
          0.1716184106805841,
          0.01722107397464657,
          0.30330954830111423,
          -0.22596696451813086,
          0.1763320446669025,
          -0.516117854471168
        ],
        [
          -0.037771033964614474,
          0.15715944274401536,
          -0.17262369801277655,
          0.10582641634945074,
          0.2003373923641106,
          0.3562737532330582,
          0.10392449656625825,
          -0.3160299949786003,
          0.09284870558305469,
          0.06436633444426505,
          0.09280394631753933,
          -0.3032097702291068,
          -0.1004774686109509,
          -0.02152225050901064,
          -0.26535418017746487,
          0.11304895639962374,
          0.20544775151083708,
          -0.31033254858823284,
          -0.0038869970580280725,
          0.11550423638855362,
          0.09652011321715842,
          -0.0814971820737986,
          -0.26995075040324906,
          -0.42513507749401
        ],
        [
          0.05193063124173046,
          0.287904771180584,
          -0.22227043653216863,
          0.10341822971966873,
          -0.19276325408617795,
          -0.4996910244946741,
          0.16365907290347764,
          -0.0885761414468515,
          0.4745510037168552,
          -0.12671826386788618,
          -0.06156607498783371,
          0.3142365257372725,
          0.0376648956060487,
          -0.30551247691253075,
          0.4422357366117315,
          0.06651271414741092,
          -0.14022065375617004,
          0.1731334225067323,
          0.20607598082701087,
          -0.08756309676181787,
          -0.026349583194849986,
          -0.157659784748405,
          0.030406339509323716,
          -0.17630908706103315
        ],
        [
          0.012971550575441988,
          -0.23449015558854078,
          -0.49784031158527287,
          -0.024890839771614083,
          -0.07393012308289323,
          -0.6245417529893349,
          -0.0609477252454561,
          0.4080949363744791,
          0.46231080643153005,
          -0.023869453026097227,
          0.14591178881757674,
          0.4000639756446336,
          0.26531980513991177,
          -0.09038800770509263,
          0.44584886931593776,
          -0.07809214817651196,
          0.3705555275472065,
          -0.15487066231398924,
          0.2153238174498899,
          -0.18248762627681944,
          0.34571566035456847,
          -0.1633557404232991,
          0.20029921385285754,
          -0.09826931939218099
        ],
        [
          0.015565346096853517,
          0.21647109210688098,
          -0.33188846886304,
          0.02827681017001835,
          -0.3532772135057856,
          0.5426058337762036,
          0.029966583034358167,
          0.21947565025998858,
          -0.39771154462161623,
          0.025884397824257523,
          0.20780957412366496,
          0.1254282449141779,
          -0.031178172845426892,
          -0.21347650682470473,
          0.25564190291709776,
          -0.08268204500864464,
          0.13489266002102818,
          -0.05382202932442778,
          -0.1791042612493353,
          -0.2682272776005039,
          0.41144310002884577,
          0.1454827295568007,
          0.0025817815828440903,
          -0.12737950285742147
        ],
        [
          -0.13062029001696052,
          0.21935739601360052,
          0.06781700336560996,
          -0.17454544474589004,
          -0.2029356674937603,
          0.5250373708756517,
          -0.1557700393846867,
          0.10417111372097092,
          0.09661085659420322,
          0.14038526386865494,
          0.14922479371594646,
          -0.5106914149245804,
          0.3204888280053734,
          0.2089109293204124,
          0.6777348206125258,
          -0.2929987263468445,
          -0.3646774917321073,
          -0.2755968812246945,
          -0.0421325155693715,
          -0.03411321568985283,
          0.2714800266484684,
          0.34943490273985683,
          -0.29462440050501854,
          -0.43198876744863046
        ],
        [
          -0.04078043591000959,
          -0.2367479814373212,
          0.19385930567952497,
          0.05920066093318594,
          -0.01303617082220376,
          -0.3726149158646212,
          0.052802182561829725,
          -0.1199042294326018,
          0.38068892510602553,
          -0.15032641273686573,
          -0.06224482700212647,
          -0.09781829539732537,
          0.15438806511351044,
          0.10902149436089147,
          0.3570779929705842,
          0.3185885141006299,
          -0.3295602130060153,
          0.4346084018135148,
          -0.06493275875349443,
          -0.28938609030309637,
          0.3834234619925056,
          0.20283409238718805,
          0.12044115684620849,
          0.06127406039250027
        ],
        [
          -0.033593572092339076,
          0.04415179674650072,
          -0.2643854136948123,
          -0.07957421763404345,
          0.10956092513509186,
          0.014017446462616353,
          -0.12412704805113516,
          0.25906546707098893,
          0.8499775738924668,
          0.09013376203216077,
          -0.3097640959686875,
          -0.8596475000809325,
          -0.08533572667331488,
          -0.17001742315162988,
          0.17239006950292005,
          -0.0070994814744863724,
          0.2189898894589325,
          -0.2658528451151827,
          0.07893269020465178,
          0.4786486825236243,
          0.12716627855968113,
          -0.2982008668915846,
          -0.42562150569540336,
          -0.29583517081597455
        ],
        [
          -0.1277012385326981,
          0.05095714262698359,
          -0.5987680017547531,
          -0.10256879396273032,
          -0.10782897409318354,
          0.49844529838227275,
          -0.02710447931992703,
          -0.11803607731888255,
          -0.22523340151458715,
          -0.06467671314309378,
          0.3380421223184892,
          0.4926064981172438,
          -0.4293276432703725,
          0.19252205942183062,
          0.3564253096624489,
          0.31130821246339385,
          -0.5159669842340999,
          -0.8099470359263883,
          0.35400794495627075,
          0.27265803254645793,
          0.040800917795381385,
          -0.3495730354861757,
          -0.10480086130918645,
          0.14134421021589222
        ],
        [
          -0.04303170007968638,
          -0.142389662759213,
          0.2050843773567166,
          -0.05730054492260312,
          0.10969321454348734,
          -0.20670361224638592,
          0.028125535032239204,
          0.08351405701876438,
          0.35875055777948894,
          -0.02387831576896917,
          -0.01705296567634314,
          -0.34354309382835146,
          -0.3711099912595238,
          0.2784685892573809,
          0.4261186011409383,
          0.0831515913867364,
          0.0008453851481066641,
          0.29749991045268503,
          0.003858774581082711,
          -0.45236166851977144,
          0.3373797899231461,
          0.25328315142703584,
          -0.43374267058989197,
          -0.4576715881430351
        ],
        [
          -0.0825146188010079,
          -0.16705654224839311,
          0.4765052784997332,
          -0.12084444230043546,
          0.016108900201277948,
          -0.3349976526631143,
          -0.09211125340274298,
          -0.17728171300637635,
          -0.4244843939315636,
          -0.028148638144220736,
          0.24973442037459267,
          0.1809442295448761,
          0.01726968094537959,
          -0.1503254563575781,
          -0.034611838165042506,
          -0.31370374775946436,
          -0.3791690299818197,
          0.4231861744697578,
          -0.09746116117521629,
          0.0261460400158611,
          0.37976551936633635,
          -0.08188509335887913,
          -0.16696216678592524,
          -0.25736873622150824
        ],
        [
          -0.02299325896486712,
          -0.1079357230031237,
          0.6393708856376284,
          -0.0144127907553607,
          0.14605691266777093,
          -0.6984220682813201,
          -0.0002036860276084501,
          -0.12155656269234842,
          -0.5659415868981758,
          0.033789129638039886,
          -0.28087923147652993,
          0.6871038197948389,
          0.3718114846721313,
          0.12317560426126055,
          -0.23832741575696095,
          0.0013929326506402972,
          -0.24015265802361396,
          -0.3684933369488547,
          0.03200050226452164,
          0.1997972515508257,
          0.015400773753280438,
          0.07909879980046647,
          0.08127523531000534,
          0.15045258290003258
        ],
        [
          -0.07650485137699273,
          0.14150151402412345,
          -0.31698582533975966,
          -0.11457156346929596,
          -0.052586885989439815,
          0.24089132171264163,
          -0.0822025944121459,
          0.07303920564901324,
          0.43255868363874006,
          0.05638310527845079,
          0.1465999776563971,
          -0.24025231842579345,
          -0.15082490232591636,
          -0.27001341784726757,
          0.48618202429801055,
          0.08209851495052985,
          0.3325831539296321,
          0.4920267319061549,
          0.30985513331416226,
          0.3823026030954393,
          -0.6613855890217217,
          -0.03065062552471318,
          -0.36625082069738923,
          -0.013757724581031682
        ],
        [
          0.08049497332698484,
          -0.15259083553089886,
          0.16459674648480307,
          0.05806412219735463,
          0.0004606892420049307,
          -0.4599964302393632,
          -0.04635223018518198,
          0.0756942960581178,
          -0.13665377932186662,
          0.028003372227227725,
          0.09139935853681207,
          0.5653506340104212,
          -0.0914530338041051,
          -0.21552714974049492,
          -0.35276076497556635,
          0.19597805780722263,
          -0.3469387798830934,
          -0.17775006630726237,
          0.3613013023422044,
          0.13673472046715432,
          -0.16593141854307916,
          0.36523697640220354,
          0.13836457195452526,
          -0.3007238154254557
        ],
        [
          0.10427053933241098,
          0.16256527475941351,
          0.35159727530310253,
          0.06703483954796936,
          -0.014618313897971353,
          0.18089389476896237,
          0.0768339981602456,
          0.10853672435726365,
          -0.7970923483166041,
          0.09169762310390438,
          -0.15888639932538104,
          0.5898721776379391,
          -0.19703395190842982,
          -0.08551457904265411,
          0.41574119621592714,
          0.01880390885277265,
          0.08863030409253178,
          -0.34534484967028056,
          -0.023810903259245408,
          -0.461838165959075,
          -0.6196072675986131,
          0.1981266906570282,
          -0.1340416300297181,
          0.12137971337188301
        ],
        [
          -0.09041341149261488,
          0.21691366420178074,
          0.08920081987065696,
          -0.0647866674895527,
          0.09035033157426506,
          -0.17837749594286903,
          -0.05084886036465275,
          0.08798626594995938,
          -0.1748328743407954,
          -0.06994977676791117,
          0.1521475609950228,
          0.07176160067561702,
          0.38319308814987707,
          0.03432285040330765,
          -0.23792719526717634,
          0.0360737477365488,
          0.23786667137920023,
          0.23536702804022297,
          0.36805571824091393,
          0.30866363122214,
          0.16046425353903201,
          -0.28724558602593586,
          0.30027730770889915,
          -0.42350644183174896
        ],
        [
          -0.12864719583366044,
          -0.028382524789227332,
          -0.699104428072674,
          -0.14534293358315756,
          0.13422910663890683,
          -0.217687818271384,
          -0.13857345078300323,
          0.028431436888889997,
          0.2925120727788204,
          0.021234187778526276,
          0.07623726251587029,
          0.7297756312994321,
          0.24184017028953939,
          -0.11082328774016555,
          -0.5840782925013315,
          -0.3862033918816583,
          -0.5491629220837669,
          0.2893872274594208,
          -0.038020385616683146,
          0.0775073810764059,
          0.2354230030268839,
          0.35701783846643326,
          0.12319130995853153,
          0.17146550385288245
        ],
        [
          -0.05834817775968108,
          -0.3008538835910726,
          0.017032524137961424,
          -0.025989608282680886,
          0.0006908450794942638,
          0.01583765211557236,
          -0.03018456769702286,
          0.27745654122467384,
          0.13850429460455235,
          -0.10477102363524923,
          -0.04738951843931911,
          -0.10774493980727169,
          -0.2561752040572647,
          -0.5065525534513697,
          0.20541657120444437,
          -0.2056398409811256,
          -0.1978256124816994,
          -0.23205984625096857,
          0.09742310053254372,
          -0.07287710371691057,
          -0.12729563023867352,
          0.05208644059476634,
          -0.282063393189343,
          0.46742480065762515
        ],
        [
          0.012717267105608183,
          0.025040864956716306,
          0.5646143524311394,
          -0.005238635806449854,
          -0.19114396640350664,
          -0.529704922912476,
          -0.02765401603817196,
          0.33114268063096997,
          0.12405380223547642,
          -0.06086495763311674,
          -0.21518439611774115,
          -0.3361034279396472,
          0.11520882256337235,
          -0.40820445745474254,
          0.4323100517790318,
          -0.1652135004510964,
          -0.2714877629605532,
          0.5087949249321466,
          -0.1766642047797931,
          -0.20986146502287306,
          -0.22230336309945462,
          0.3082813411120173,
          0.24372298747231438,
          -0.0818227744883042
        ],
        [
          0.03291976507542742,
          0.17446962366827246,
          0.24336725975191734,
          -0.017999554558604483,
          0.16161220952325542,
          -0.47829944416110504,
          0.03956166659034045,
          0.16400262369680077,
          0.7406597331790548,
          0.053950629199436474,
          -0.14967873327032974,
          -0.6640079802592348,
          0.11583524938524464,
          -0.12757570181367192,
          -0.20980675361944004,
          0.30408265298441106,
          0.12231479734354102,
          -0.5117955155752617,
          -0.1920180344421695,
          -0.24506557722730785,
          -0.17971155694830063,
          -0.2849422330515846,
          -0.017099287721266128,
          0.22222783171061125
        ],
        [
          0.019244858897699082,
          -0.09723522059286928,
          -0.04114463102746745,
          0.11371482753225093,
          0.012471331811977751,
          0.3943705725778359,
          0.055863334344290444,
          0.2723133272736511,
          -0.550329580057397,
          -0.14480756640801118,
          -0.25694570474421036,
          0.024828482694244175,
          0.09444866344711388,
          -0.06988127220547653,
          0.6326596042994911,
          -0.08287396871856821,
          -0.06985583556428683,
          -0.013735174067901174,
          0.17821139097813543,
          -0.015464293099603087,
          0.2789834817226387,
          0.01752584251735758,
          -0.3166401365731309,
          0.07694340945577048
        ],
        [
          -0.10611432230284537,
          0.20821821240576344,
          -0.6086153732762192,
          -0.005997253068434931,
          -0.03913781928107665,
          0.29114922337732974,
          0.026333394364884927,
          -0.07093769349929929,
          -0.3322197930184094,
          0.11327813463338159,
          0.0659205217409888,
          0.6854457870301871,
          -0.05515575234548561,
          -0.1451927686313059,
          0.011282032499617829,
          0.047818415633480486,
          0.10193017164771254,
          0.31548052521002085,
          0.2543657899115634,
          0.3283879103436067,
          -0.2612129785893612,
          0.0031691888465772977,
          0.22273108134376973,
          0.13449878595944692
        ],
        [
          -0.08079121358677725,
          -0.03354714315254153,
          0.23909129434214824,
          -0.07825905281724861,
          -0.0166505815316238,
          0.13514918296408632,
          0.022484640678285685,
          0.110154647268779,
          -0.520500845102291,
          -0.0020728309600298706,
          0.07281758420537425,
          0.22415129245651338,
          0.2047351099538263,
          -0.29330258438245277,
          -0.2176577583902903,
          -0.3511535149324671,
          -0.03617073582450555,
          0.11484236757300129,
          0.021234424784013408,
          0.29996514972627897,
          -0.2774415900512734,
          -0.2227669317411548,
          0.3148080316931961,
          -0.5680410376476172
        ],
        [
          0.05787217405471578,
          -0.037909277021752924,
          0.12570848826453704,
          -0.00044841964181478185,
          -0.10854638659698847,
          0.40226977107390216,
          0.02000654960813052,
          -0.03325956756237689,
          -0.6401594075235658,
          -0.015859682693348844,
          -0.14247692933830153,
          0.1864552869182579,
          -0.12740511426692763,
          -0.20758741126393584,
          -0.1366531676371887,
          -0.05212743203178441,
          0.1453620027469379,
          0.3760905280341268,
          0.23173950639245877,
          -0.18269926673814646,
          0.12833187959854073,
          -0.4222849196635086,
          0.2226366073585975,
          -0.27404164368700545
        ],
        [
          -0.03640178978960588,
          -0.04064358338614161,
          0.19772055891538357,
          0.1134393220698333,
          -0.28888546390675696,
          0.38935829688166596,
          0.043690340606457226,
          0.19389519624810728,
          -0.13208567732541404,
          -0.014679956498501855,
          0.13105970366843375,
          -0.28808035216577904,
          0.15442530628117684,
          -0.3477902588546053,
          -0.23327308642818434,
          0.15478768080811817,
          0.23017579253455292,
          -0.5089196503699855,
          -0.12185863553540327,
          -0.14044755770297027,
          -0.24758394611721207,
          -0.3113141120951748,
          0.47200598840892244,
          -0.1298350841989682
        ],
        [
          -0.12616090517120865,
          -0.1534403841359089,
          0.8048041040930424,
          -0.10080774906677681,
          0.20609278082265903,
          -0.33043874465691814,
          -0.12763227978165403,
          0.3992347326185543,
          -0.4373663748747008,
          0.08962363160647409,
          -0.5253950188596784,
          -0.4253845370148627,
          -0.04726617694322026,
          0.2069788393763185,
          -0.18385417206854507,
          0.027274990822011715,
          -0.25923918464354034,
          -0.05683464127615058,
          -0.03922809811268464,
          0.0803057485909151,
          0.2278949848992415,
          -0.21687054949369072,
          -0.2986590042820094,
          -0.2691463845876352
        ],
        [
          -0.087148194263915,
          0.02340579911076484,
          0.257384869758732,
          -0.0670383982877995,
          -0.33734557643107993,
          0.3317316762591346,
          -0.11149093418572383,
          -0.07762667195018132,
          -0.022453192293515174,
          -0.023815484577282425,
          -0.001036716255631578,
          -0.31303336350509264,
          -0.08032447824042865,
          0.00970844950913392,
          -0.023376008961403193,
          0.3826336213659284,
          -0.04209873233021426,
          0.5313622166739554,
          0.3058579274033286,
          -0.016305214325376093,
          0.3050059787438547,
          0.13816858046776584,
          -0.22055213145040597,
          0.17521064078229415
        ],
        [
          -0.00988055007694464,
          -0.028726463057951325,
          -0.1707131061115834,
          0.013202395657896257,
          -0.03727126827875292,
          0.2762109367616869,
          -0.08559898453649971,
          0.13034059726943759,
          0.2467960775368652,
          -0.12606075886490437,
          -0.09536351132693141,
          -0.05021198745153898,
          0.31102881859829673,
          0.2476101293813836,
          0.21523671679513182,
          -0.3393625590811595,
          0.06775395222458468,
          0.3026407403165555,
          0.2495631244928291,
          -0.2409401283920215,
          0.08586426404531317,
          -0.2049268300579058,
          -0.149154840133273,
          0.01877779917901219
        ],
        [
          -0.12226442321795473,
          0.2461706972308252,
          -0.7223767164334799,
          -0.07721176426384174,
          0.09011497448034089,
          0.28227328666255047,
          -0.12311564613830354,
          0.2931044241281317,
          0.1614284389881681,
          0.1280081968861386,
          -0.3167929161360185,
          0.2578772021874902,
          0.06891512032922233,
          -0.10194883863534034,
          -0.2833373989342001,
          -0.18937547618641887,
          -0.1849553101692112,
          -0.15374565223007702,
          -0.10263777259401854,
          -0.3029468115364715,
          0.3606654549970607,
          0.10089657680663416,
          -0.2431729379476126,
          0.16835591338181471
        ],
        [
          0.09727534884384262,
          0.1692274325432391,
          -0.2570172867296371,
          0.05981892799967943,
          -0.17959709875821994,
          0.11936444069153807,
          0.11618139295813193,
          0.19288839766439334,
          0.09684010315753562,
          -0.05929199184612412,
          0.20042262520138462,
          0.2899451455733702,
          -0.1604366757073635,
          0.31446489878496625,
          -0.35004291417981964,
          -0.16941614820899642,
          0.22347806294759584,
          -0.20561662646167075,
          -0.01728445850921088,
          0.06767645961710353,
          -0.38864324668475825,
          0.21389564427327218,
          -0.17079424863356504,
          -0.3385332476321229
        ],
        [
          0.061525826924505096,
          0.1411004896268768,
          -0.5378535252492133,
          0.04224545773779343,
          0.3212991070122066,
          -0.16362720787249888,
          -0.0029579665707836914,
          -0.27015775356764693,
          0.2882254716968815,
          -0.05767488329443581,
          -0.09617076902566436,
          0.49460322815204005,
          0.007712283645854875,
          -0.2955505490170098,
          0.42283148696969636,
          0.45595394882717155,
          0.11564173242658385,
          -0.42273369696353114,
          -0.06184222998706978,
          -0.19378905114903833,
          -0.13709289904977423,
          -0.22200353758752292,
          0.018094538335368532,
          -0.23576686775803726
        ]
      ],
      "bias": [
        -0.036573024283104896,
        -0.0656024214684335,
        0.013947425857867983,
        0.05645990650523428,
        -0.027712832039470513,
        0.10487164186902129,
        0.01581439565937565,
        0.03338550243901227,
        0.043369518930333265,
        0.05100599543685027,
        0.058499567789149026,
        -0.02881641291451547,
        -0.024894817475448017,
        0.02741888562353469,
        -0.041127438008182964,
        -0.002617540055928887,
        0.06412308111949525,
        0.004428252933015241,
        -0.03843476580720297,
        -0.021485306600739162,
        -0.017820631040073764,
        0.03566302414002097,
        -0.08895140990211223,
        0.037956694703590206,
        0.04355963366507408,
        0.0705121849969324,
        -0.07910474390727311,
        0.02080739365610409,
        0.03441103668873776,
        0.06479782041513928,
        0.10689652434754228,
        0.08421782166089181,
        -0.048631492329180855,
        -0.08442163771141031,
        0.04590510239091833,
        0.036709906454653524,
        -0.024798674251030068,
        -0.07011601105145268,
        -0.04814608276112251,
        -0.03030752516372749,
