{
  "shared_layers": [
    {
      "weight": [
        [
          -0.022459592670202255,
          -0.18075785040855408,
          -0.13785280287265778,
          -0.12892349064350128,
          -0.08648867160081863,
          -0.01673562079668045,
          0.04076635092496872,
          -0.137532040476799,
          -0.09976252168416977,
          -0.1051163449883461,
          -0.02068406715989113,
          -0.12994371354579926,
          -0.14716999232769012,
          -0.11086907982826233,
          -0.10326259583234787,
          -0.1103634163737297,
          -0.14368288218975067,
          -0.02520720660686493,
          -0.06451836228370667,
          -0.013944282196462154,
          0.026414304971694946,
          -0.11618097871541977,
          -0.10841935127973557,
          -0.048049554228782654
        ],
        [
          -0.14044953882694244,
          -0.18341012299060822,
          0.01613573729991913,
          -0.139726921916008,
          -0.00848357006907463,
          0.07169471681118011,
          0.125800222158432,
          -0.04652901366353035,
          -0.2982913553714752,
          0.12007270753383636,
          -0.0247814878821373,
          0.11810936778783798,
          0.2350551187992096,
          -0.3282892405986786,
          -0.06169775873422623,
          -0.18088695406913757,
          -0.03333549574017525,
          -0.1662253439426422,
          -0.2856532037258148,
          -0.15099658071994781,
          0.04697193577885628,
          0.10797154158353806,
          0.26461705565452576,
          -0.1418249011039734
        ],
        [
          -0.22744719684123993,
          -0.03381586819887161,
          -0.11867870390415192,
          0.15496203303337097,
          0.09218820184469223,
          0.21146361529827118,
          0.4632163345813751,
          0.13844835758209229,
          0.3096756339073181,
          -0.6531016826629639,
          -0.17200732231140137,
          -0.34889739751815796,
          0.22589243948459625,
          -0.03769255802035332,
          -0.1701170653104782,
          -0.023307349532842636,
          0.0272543802857399,
          0.011280686594545841,
          -0.12319590151309967,
          0.020774662494659424,
          0.056308310478925705,
          0.06417084485292435,
          -0.06377655267715454,
          0.05822601169347763
        ],
        [
          -0.2133663296699524,
          0.3729160726070404,
          -0.08392564952373505,
          -0.18786199390888214,
          0.2141329050064087,
          -0.022739067673683167,
          0.43059441447257996,
          -0.8126324415206909,
          0.1140584945678711,
          -0.2806496322154999,
          0.20435169339179993,
          -0.07799968868494034,
          -0.03967423737049103,
          -0.018561482429504395,
          0.04073172062635422,
          0.023818766698241234,
          -0.17587028443813324,
          0.0542181022465229,
          0.183016836643219,
          0.08824802935123444,
          0.04022848233580589,
          -0.027597928419709206,
          0.037541165947914124,
          -0.02264021895825863
        ],
        [
          0.15179240703582764,
          0.1031314805150032,
          -0.07774671912193298,
          -0.013697536662220955,
          0.06643021106719971,
          -0.4409789443016052,
          0.036837100982666016,
          0.07886657118797302,
          0.12909775972366333,
          -0.16208484768867493,
          -0.28709545731544495,
          0.3497975766658783,
          -0.3151355981826782,
          0.30442261695861816,
          -0.25272223353385925,
          0.04203351214528084,
          -0.37441062927246094,
          -0.08447423577308655,
          0.07850521802902222,
          -0.05796101689338684,
          0.072957344353199,
          0.12992830574512482,
          -0.006649299059063196,
          0.09097134321928024
        ],
        [
          0.015884529799222946,
          0.14142552018165588,
          0.08238237351179123,
          -0.007061817217618227,
          0.038124553859233856,
          0.06410069763660431,
          -0.12227252870798111,
          0.014580445364117622,
          -0.05247681960463524,
          0.07262446731328964,
          -0.04605359956622124,
          -0.025370944291353226,
          0.042271289974451065,
          -0.05046787112951279,
          -0.08119378983974457,
          -0.05040030926465988,
          -0.08858411759138107,
          0.21224765479564667,
          -0.1782526969909668,
          -0.4467869997024536,
          0.5405759215354919,
          0.08658242970705032,
          0.38251057267189026,
          -0.793109655380249
        ],
        [
          0.05722897872328758,
          0.30715855956077576,
          -0.32310691475868225,
          -0.022279834374785423,
          -0.5604029893875122,
          -0.4092913568019867,
          -0.05966624990105629,
          -0.4309302866458893,
          0.0756961852312088,
          0.054953377693891525,
          0.06446055322885513,
          0.1938912272453308,
          0.07445798814296722,
          -0.020018834620714188,
          0.20286177098751068,
          -0.2642163038253784,
          -0.023448020219802856,
          -0.06022174283862114,
          -0.018864406272768974,
          0.11892201751470566,
          -0.20052315294742584,
          0.07110635191202164,
          -0.035129450261592865,
          0.050651367753744125
        ],
        [
          -0.25434648990631104,
          0.14431464672088623,
          -0.16120944917201996,
          -0.03680907562375069,
          -0.22034230828285217,
          0.16192331910133362,
          0.35716691613197327,
          -0.20097309350967407,
          0.3319737911224365,
          -0.12219999730587006,
          0.12499033659696579,
          -0.169084832072258,
          -0.008972092531621456,
          -0.38668176531791687,
          0.24259081482887268,
          -0.04049752280116081,
          0.17595240473747253,
          -0.16190388798713684,
          0.18093279004096985,
          -0.24754659831523895,
          -0.04638485610485077,
          -0.19388729333877563,
          0.32338228821754456,
          -0.22236961126327515
        ],
        [
          0.2899699807167053,
          -0.03297910466790199,
          0.23868846893310547,
          -0.06674586981534958,
          -0.10163898766040802,
          0.046205416321754456,
          -0.0884322077035904,
          -0.2397468090057373,
          -0.037671636790037155,
          -0.33732128143310547,
          0.26325124502182007,
          -0.18881617486476898,
          0.17622767388820648,
          -0.17325623333454132,
          -0.5196595788002014,
          -0.10248439759016037,
          -0.004022614099085331,
          0.08862762898206711,
          -0.2682250738143921,
          0.2045927494764328,
          0.3588472008705139,
          0.03900311142206192,
          -0.1953529715538025,
          -0.1290300190448761
        ],
        [
          -0.3145720660686493,
          -0.3561396598815918,
          0.18876665830612183,
          -0.3399009704589844,
          -0.36922746896743774,
          0.2086467444896698,
          -0.3002170920372009,
          -0.3647930324077606,
          0.23640023171901703,
          -0.3606529235839844,
          -0.3838396966457367,
          0.22932380437850952,
          0.2617431581020355,
          0.33330899477005005,
          -0.30372151732444763,
          0.2636100947856903,
          0.3258856534957886,
          -0.2736052870750427,
          0.3150186836719513,
          0.30702003836631775,
          -0.2915479838848114,
          0.2814009487628937,
          0.3321632444858551,
          -0.2496960461139679
        ],
        [
          -0.0018464067252352834,
          -0.04833625257015228,
          0.02490914985537529,
          -0.4177803099155426,
          -0.6535452008247375,
          0.2894923985004425,
          0.11076834052801132,
          0.1617591381072998,
          -0.13530443608760834,
          0.39076632261276245,
          0.5417881011962891,
          -0.3036697506904602,
          0.005253976210951805,
          -0.0820007473230362,
          0.08642642945051193,
          0.006684173364192247,
          0.0611150898039341,
          -0.036400362849235535,
          -0.033446572721004486,
          -0.010462121106684208,
          -0.00022635952336713672,
          0.004532137420028448,
          0.04790093004703522,
          0.06165245175361633
        ],
        [
          -0.010232044383883476,
          -0.18356788158416748,
          -0.09495222568511963,
          -0.12330319732427597,
          -0.21892064809799194,
          -0.15234144032001495,
          -0.14066891372203827,
          -0.15973778069019318,
          -0.039744917303323746,
          0.1691817194223404,
          0.038624271750450134,
          0.07992789149284363,
          -0.13428807258605957,
          0.36801964044570923,
          -0.4086257517337799,
          0.06183554604649544,
          0.08139223605394363,
          0.3519214391708374,
          0.18427321314811707,
          -0.318515807390213,
          -0.4570609927177429,
          -0.18195989727973938,
          -0.32485145330429077,
          -0.023978164419531822
        ],
        [
          -0.17466433346271515,
          -0.07682458311319351,
          0.13251617550849915,
          -0.009257751516997814,
          -0.21075700223445892,
          -0.01729891262948513,
          0.19198733568191528,
          0.008351946249604225,
          0.0028309477493166924,
          -0.256142258644104,
          0.2299114167690277,
          -0.23704837262630463,
          0.07585956156253815,
          0.025483883917331696,
          -0.36909422278404236,
          -0.31008970737457275,
          -0.11854103952646255,
          0.012843415141105652,
          0.15399913489818573,
          -0.5085011124610901,
          -0.08541487902402878,
          -0.02762284316122532,
          0.18621382117271423,
          0.027813127264380455
        ],
        [
          -0.2858281135559082,
          -0.006561205256730318,
          -0.26894286274909973,
          -0.23352354764938354,
          -0.1132671907544136,
          -0.2544521987438202,
          0.037745218724012375,
          0.018227852880954742,
          -0.0003038091817870736,
          0.4018486738204956,
          0.029376287013292313,
          0.3563961088657379,
          0.07028322666883469,
          6.048725026630564e-06,
          -0.04642222449183464,
          0.15905854105949402,
          -0.0973631888628006,
          -0.056350599974393845,
          -0.2776848375797272,
          0.23479518294334412,
          0.23042988777160645,
          0.1083093211054802,
          -0.3165839612483978,
          -0.11838717013597488
        ],
        [
          0.04314897954463959,
          -0.5157001614570618,
          -0.15112526714801788,
          0.08962346613407135,
          0.35133302211761475,
          0.010461485013365746,
          -0.3319929838180542,
          0.1777282953262329,
          -0.06652700155973434,
          0.05442916601896286,
          -0.17295300960540771,
          0.19464588165283203,
          0.15241342782974243,
          -0.07242177426815033,
          -0.13843949139118195,
          0.15228129923343658,
          -0.27153515815734863,
          0.2269715964794159,
          -0.3448323905467987,
          0.1564081907272339,
          -0.11567133665084839,
          0.14998672902584076,
          -0.12832236289978027,
          -0.13369499146938324
        ],
        [
          0.01614975370466709,
          0.4749487042427063,
          0.027582315728068352,
          -0.05174248665571213,
          0.4401737153530121,
          0.014214606955647469,
          0.006678901147097349,
          0.42675483226776123,
          0.08934154361486435,
          -0.03780815377831459,
          0.41603344678878784,
          0.029459554702043533,
          -0.007349529303610325,
          -0.421008437871933,
          -0.08187007904052734,
          0.015178249217569828,
          -0.4885534346103668,
          -0.11989966034889221,
          0.0032794345170259476,
          -0.45650845766067505,
          -0.09314171969890594,
          0.028894664719700813,
          -0.4393698573112488,
          -0.08132487535476685
        ],
        [
          0.26476702094078064,
          -0.42962875962257385,
          -0.2544797956943512,
          0.25822389125823975,
          -0.34551599621772766,
          -0.23338885605335236,
          -0.23716764152050018,
          0.2939774990081787,
          0.2743152379989624,
          -0.3479246497154236,
          0.4857797920703888,
          0.36329615116119385,
          -0.011339069344103336,
          -0.14359956979751587,
          0.03973934426903725,
          0.09528820216655731,
          0.14173738658428192,
          -0.05066966637969017,
          0.06135268881917,
          -0.058791112154722214,
          -0.0798201635479927,
          0.0367484986782074,
          0.01158066000789404,
          0.04801153391599655
        ],
        [
          -0.05612823739647865,
          -0.18454667925834656,
          -0.16564089059829712,
          -0.025060025975108147,
          -0.041715461760759354,
          -0.2291189581155777,
          -0.01999819278717041,
          -0.04907935857772827,
          -0.037281375378370285,
          -0.16406625509262085,
          -0.1465931534767151,
          -0.09765911102294922,
          -0.039797890931367874,
          -0.03703349828720093,
          -0.13155148923397064,
          0.05380435287952423,
          0.060884762555360794,
          0.04988569766283035,
          -0.10792563110589981,
          0.07863076776266098,
          0.061135414987802505,
          0.07645665854215622,
          0.03219176456332207,
          0.04793514683842659
        ],
        [
          0.23786161839962006,
          -0.12365684658288956,
          -0.3208630681037903,
          0.19326311349868774,
          -0.11311978101730347,
          -0.2262989580631256,
          0.23065140843391418,
          -0.1489378958940506,
          -0.22872816026210785,
          0.24815116822719574,
          -0.17857596278190613,
          -0.3062727153301239,
          -0.2838231325149536,
          0.07821352034807205,
          0.18155743181705475,
          -0.27176398038864136,
          0.04435507953166962,
          0.22633673250675201,
          -0.24364039301872253,
          0.026659347116947174,
          0.19091294705867767,
          -0.22496376931667328,
          -0.015169317834079266,
          0.15507186949253082
        ],
        [
          -0.25195401906967163,
          0.1983714997768402,
          -0.2941499948501587,
          -0.21869531273841858,
          0.1522107720375061,
          -0.2892068028450012,
          -0.2303498387336731,
          0.18428757786750793,
          -0.2836032807826996,
          -0.21236394345760345,
          0.13760755956172943,
          -0.28161007165908813,
          0.14115913212299347,
          -0.23713308572769165,
          0.3024943172931671,
          0.14815853536128998,
          -0.20052313804626465,
          0.2531377971172333,
          0.1893613487482071,
          -0.22861918807029724,
          0.3127495348453522,
          0.1692994236946106,
          -0.16076569259166718,
          0.263886034488678
        ],
        [
          -0.35139337182044983,
          0.09259543567895889,
          0.29754701256752014,
          -0.4656961262226105,
          0.15847457945346832,
          0.45963579416275024,
          0.36653006076812744,
          -0.059319883584976196,
          -0.32253673672676086,
          0.43372562527656555,
          -0.08121240884065628,
          -0.39620471000671387,
          -0.006818901747465134,
          -0.14392128586769104,
          0.06824740767478943,
          0.03791408985853195,
          0.0400531180202961,
          0.06453925371170044,
          -0.030173391103744507,
          0.0638529434800148,
          -0.1605488657951355,
          0.06294500082731247,
          -0.03772558271884918,
          0.03181026130914688
        ],
        [
          0.08098341524600983,
          -0.47347816824913025,
          0.3682623505592346,
          -0.02201794646680355,
          0.061250802129507065,
          0.21888597309589386,
          -0.0733942985534668,
          0.41618093848228455,
          -0.41019177436828613,
          -0.042285751551389694,
          0.12666833400726318,
          -0.2667437195777893,
          0.08479657024145126,
          0.12474469095468521,
          0.022011172026395798,
          -0.14532852172851562,
          -0.19216831028461456,
          0.12314286828041077,
          -0.05451903119683266,
          -0.18579059839248657,
          -0.02324770577251911,
          0.09962550550699234,
          0.11066678166389465,
          -0.13149528205394745
        ],
        [
          -0.29741236567497253,
          -0.23564991354942322,
          0.1552121639251709,
          0.21470952033996582,
          0.2417868971824646,
          -0.1003851518034935,
          0.32340580224990845,
          0.2459971308708191,
          -0.2311781942844391,
          -0.24671635031700134,
          -0.2608357071876526,
          0.2266780287027359,
          0.04817023500800133,
          0.12150079011917114,
          -0.31396403908729553,
          -0.20635689795017242,
          -0.10538531839847565,
          -0.004550117067992687,
          -0.015369616448879242,
          0.0944896712899208,
          0.33701202273368835,
          0.07422331720590591,
          -0.322465181350708,
          -0.057719871401786804
        ],
        [
          -0.060956183820962906,
          -0.06220324710011482,
          -0.15883900225162506,
          -0.11713787168264389,
          0.01804446429014206,
          -0.09464848041534424,
          -0.0026680761948227882,
          -0.19517694413661957,
          -0.0558326430618763,
          -0.15807092189788818,
          0.0033667567186057568,
          -0.21640770137310028,
          -0.1516859233379364,
          -0.05837899073958397,
          -0.12888358533382416,
          -0.17877072095870972,
          -0.08124164491891861,
          -0.038269199430942535,
          -0.06602178514003754,
          -0.10978882014751434,
          0.03424464911222458,
          -0.0988190695643425,
          -0.04241853579878807,
          -0.07783164083957672
        ],
        [
          -0.3002098798751831,
          -0.36254528164863586,
          -0.1766570508480072,
          -0.21088659763336182,
          -0.21331904828548431,
          -0.08977696299552917,
          -0.2553577721118927,
          -0.23839473724365234,
          -0.17002661526203156,
          -0.16955888271331787,
          -0.22423827648162842,
          -0.18191230297088623,
          0.06965654343366623,
          0.2128133475780487,
          0.15729902684688568,
          0.0687190443277359,
          0.14531771838665009,
          0.13089686632156372,
          0.16680607199668884,
          0.23554329574108124,
          0.16648639738559723,
          0.1536182016134262,
          0.21975703537464142,
          0.1576831042766571
        ],
        [
          -0.08768155425786972,
          -0.10842776298522949,
          -0.09498070925474167,
          -0.02693108469247818,
          -0.09942393749952316,
          -0.10874322056770325,
          0.025881171226501465,
          -0.16023419797420502,
          -0.1903151124715805,
          -0.1420847773551941,
          -0.07228109985589981,
          -0.15670929849147797,
          -0.11002156883478165,
          -0.01643930934369564,
          -0.12127245217561722,
          -0.18410718441009521,
          -0.07895786315202713,
          -0.04098152741789818,
          -0.15343549847602844,
          -0.003270886605605483,
          0.06287537515163422,
          -0.029983781278133392,
          -0.08237892389297485,
          0.054930973798036575
        ],
        [
          0.032940611243247986,
          -0.05178789049386978,
          -0.058097340166568756,
          -0.14324244856834412,
          0.11075816303491592,
          0.12381623685359955,
          0.061110761016607285,
          -0.15384383499622345,
          0.02322823368012905,
          -0.08022505044937134,
          0.1592835932970047,
          0.04634147882461548,
          0.0540204718708992,
          0.004677437245845795,
          -0.02409985288977623,
          -0.661940336227417,
          -0.3388447165489197,
          0.2157946527004242,
          0.46453577280044556,
          0.337321937084198,
          -0.262017160654068,
          0.21761128306388855,
          0.22172203660011292,
          -0.09096474945545197
        ],
        [
          -0.0648413598537445,
          -0.17015640437602997,
          -0.07201162725687027,
          -0.012767172418534756,
          -0.17657352983951569,
          0.04890209808945656,
          0.008536416105926037,
          -0.10449501127004623,
          0.023046864196658134,
          -0.14965508878231049,
          -0.16917744278907776,
          -0.10494822263717651,
          -0.16890321671962738,
          -0.05052720010280609,
          -0.1366656869649887,
          -0.16736473143100739,
          -0.0014814314199611545,
          -0.0905277356505394,
          0.009760938584804535,
          -0.11703162640333176,
          -0.00770646333694458,
          -0.04826812818646431,
          -0.07178635150194168,
          -0.16092608869075775
        ],
        [
          -0.138747900724411,
          -0.03032115288078785,
          0.04275984689593315,
          0.03918996453285217,
          0.07389761507511139,
          -0.02226782962679863,
          0.03296535834670067,
          0.0629381537437439,
          0.0440993532538414,
          0.043591469526290894,
          0.06432044506072998,
          -0.028774041682481766,
          0.3681870698928833,
          -0.700043797492981,
          -0.30001917481422424,
          -0.17555451393127441,
          0.2974820137023926,
          0.2541428208351135,
          -0.2577177882194519,
          0.3708254098892212,
          0.22467759251594543,
          -0.0590011291205883,
          -0.007898174226284027,
          0.004641205538064241
        ],
        [
          -0.26005685329437256,
          -0.21526415646076202,
          0.07534623146057129,
          -0.08686132729053497,
          0.046266596764326096,
          -0.2827436029911041,
          -0.1759352833032608,
          0.056861620396375656,
          0.14660732448101044,
          0.25230756402015686,
          0.013661614619195461,
          -0.03218255937099457,
          -0.04844310134649277,
          -0.4806492030620575,
          -0.08455850929021835,
          0.11552254855632782,
          -0.00867084227502346,
          0.3473314940929413,
          -0.2827845513820648,
          -0.030901087448000908,
          0.05375934764742851,
          -0.07833711802959442,
          0.1934913694858551,
          -0.46537038683891296
        ],
        [
          0.21438829600811005,
          0.21144811809062958,
          -0.14041000604629517,
          -0.1726730763912201,
          0.1349342316389084,
          0.08919220417737961,
          -0.0313388854265213,
          -0.16724634170532227,
          -0.24683669209480286,
          -0.26733675599098206,
          0.061170026659965515,
          0.15615686774253845,
          -0.6345696449279785,
          -0.06320848315954208,
          -0.15855364501476288,
          -0.23346294462680817,
          0.01919560134410858,
          0.24867261946201324,
          0.056385431438684464,
          -0.1307096779346466,
          0.16002584993839264,
          0.2192603349685669,
          0.11541111767292023,
          -0.3126644194126129
        ],
        [
          -0.08777227252721786,
          0.26932448148727417,
          0.10355785489082336,
          0.10385186225175858,
          -0.3286483585834503,
          -0.08761127293109894,
          -0.22967953979969025,
          0.15236137807369232,
          -0.021614840254187584,
          0.13469743728637695,
          0.0310690738260746,
          0.06991709023714066,
          0.37105539441108704,
          0.3714756369590759,
          -0.30172199010849,
          -0.4707794785499573,
          -0.332506388425827,
          0.3803724944591522,
          0.22460582852363586,
          0.2247828245162964,
          -0.3627559244632721,
          -0.14493663609027863,
          -0.17571277916431427,
          0.14997567236423492
        ],
        [
          0.016268910840153694,
          0.10367134213447571,
          -0.0704478845000267,
          -0.042075615376234055,
          -0.0029242136515676975,
          -0.027090473100543022,
          0.021917428821325302,
          -0.10865470767021179,
          -0.015920668840408325,
          -0.020967477932572365,
          0.07913216203451157,
          0.06853615492582321,
          0.6182287931442261,
          0.5017681121826172,
          0.07157108187675476,
          -0.09356538206338882,
          -0.08418460935354233,
          -0.03750305622816086,
          -0.7548628449440002,
          -0.6052185893058777,
          -0.08025800436735153,
          0.2367350161075592,
          0.17820388078689575,
          0.08906514942646027
        ],
        [
          0.08792276680469513,
          -0.006611126009374857,
          -0.06479174643754959,
          -0.060150470584630966,
          0.011702747084200382,
          0.01898106373846531,
          -0.12528280913829803,
          0.035978253930807114,
          0.06852707266807556,
          0.16611072421073914,
          0.05086064711213112,
          -0.05747257545590401,
          0.2676481604576111,
          -0.41053497791290283,
          0.3735670745372772,
          -0.16263075172901154,
          0.2096404880285263,
          -0.20576168596744537,
          0.25624141097068787,
          -0.3003304898738861,
          0.27212122082710266,
          -0.36700335144996643,
          0.3482525944709778,
          -0.5791205763816833
        ],
        [
          0.021182864904403687,
          0.017463283613324165,
          -0.07509072870016098,
          -0.06880026310682297,
          0.15064233541488647,
          -0.05947978422045708,
          0.09602818638086319,
          -0.017505845054984093,
          0.08425997197628021,
          -0.1463179737329483,
          0.09370271861553192,
          -0.042629651725292206,
          -0.027127722278237343,
          -0.0013686972670257092,
          -0.033048924058675766,
          0.07557258009910583,
          -0.06409231573343277,
          -0.13386563956737518,
          -0.18710608780384064,
          -0.0825241282582283,
          -0.03655257076025009,
          0.074395090341568,
          0.08504962176084518,
          -0.13121820986270905
        ],
        [
          -0.4178408086299896,
          0.18693862855434418,
          -0.1341930627822876,
          -0.39612576365470886,
          0.14032261073589325,
          -0.08621254563331604,
          -0.29019853472709656,
          0.20928619801998138,
          -0.17201220989227295,
          -0.34740200638771057,
          0.168622225522995,
          -0.11964140087366104,
          0.28418099880218506,
          -0.1126699149608612,
          -0.042303942143917084,
          0.22755217552185059,
          -0.1429957002401352,
          0.024012688547372818,
          0.25361114740371704,
          -0.08576766401529312,
          -0.014541085809469223,
          0.2554578185081482,
          -0.057397328317165375,
          0.01884017512202263
        ],
        [
          -0.002855520462617278,
          -0.28305989503860474,
          0.35028138756752014,
          0.04467368125915527,
          0.3093925714492798,
          -0.17027781903743744,
          -0.3325940668582916,
          -0.12092838436365128,
          -0.20453758537769318,
          0.07690082490444183,
          0.16294610500335693,
          0.061151258647441864,
          0.04808957502245903,
          -0.3632471263408661,
          0.05198630690574646,
          0.06605042517185211,
          -0.03699420392513275,
          0.20969846844673157,
          -0.05173047259449959,
          0.17445014417171478,
          -0.4418855905532837,
          -0.21425841748714447,
          0.03868477791547775,
          -0.24310556054115295
        ],
        [
          0.22085338830947876,
          0.486552357673645,
          -0.31664347648620605,
          -0.0766734778881073,
          0.053119905292987823,
          0.003258565440773964,
          -0.21699555218219757,
          -0.39966708421707153,
          0.30005398392677307,
          -0.057007960975170135,
          -0.10261353850364685,
          0.26396235823631287,
          -0.025073761120438576,
          -0.029877549037337303,
          -0.010793873108923435,
          -0.05663808062672615,
          0.2721980810165405,
          0.3081038296222687,
          0.0901387482881546,
          -0.13161614537239075,
          -0.29952380061149597,
          0.09085844457149506,
          -0.17436084151268005,
          -0.07410845160484314
        ],
        [
          -0.056409768760204315,
          -0.04259940981864929,
          0.02743179351091385,
          -0.07978072017431259,
          -0.11270303279161453,
          0.04213891550898552,
          0.2529755234718323,
          0.017679709941148758,
          -0.05710214376449585,
          -0.008406677283346653,
          0.14197871088981628,
          -0.03133505955338478,
          -0.1920498013496399,
          0.3250616192817688,
          -0.2924893796443939,
          0.19014914333820343,
          -0.43636852502822876,
          0.443173885345459,
          0.14413666725158691,
          -0.18188616633415222,
          0.17820800840854645,
          -0.2603113055229187,
          0.27740728855133057,
          -0.36269423365592957
        ],
        [
          -0.09071537852287292,
          -0.34281957149505615,
          0.02476310171186924,
          0.14233297109603882,
          0.10315003246068954,
          -0.23312465846538544,
          0.04779605194926262,
          -0.1126861497759819,
          -0.23925921320915222,
          -0.2059403657913208,
          0.2299184799194336,
          0.21934618055820465,
          0.08005066215991974,
          0.10577689111232758,
          -0.30467382073402405,
          0.0008854205370880663,
          -0.09806989133358002,
          0.14948353171348572,
          -0.36330899596214294,
          0.11698665469884872,
          -0.12167635560035706,
          0.1186898723244667,
          -0.15451940894126892,
          -0.08391661942005157
        ],
        [
          0.026164477691054344,
          0.022735629230737686,
          -0.030205214396119118,
          0.026716792955994606,
          0.003418219042941928,
          -0.06759337335824966,
          -0.07833310961723328,
          0.018044549971818924,
          0.05169050395488739,
          -0.044819463044404984,
          0.005428553558886051,
          0.1254371553659439,
          0.298129141330719,
          -0.3821246325969696,
          -0.3394388258457184,
          0.26804253458976746,
          -0.44182243943214417,
          -0.41409972310066223,
          -0.21225544810295105,
          0.2258920669555664,
          0.18330739438533783,
          -0.3390534222126007,
          0.5430499911308289,
          0.42618241906166077
        ],
        [
          0.030075157061219215,
          -0.15357378125190735,
          -0.20564177632331848,
          -0.07409067451953888,
          -0.17013613879680634,
          0.10105817764997482,
          -0.06765846163034439,
          0.1990511119365692,
          -0.3080791234970093,
          -0.17474758625030518,
          0.12505361437797546,
          0.0387473925948143,
          -0.4795193672180176,
          0.09632093459367752,
          -0.08417771011590958,
          0.12053722888231277,
          -0.44229835271835327,
          -0.24920302629470825,
          0.10791100561618805,
          0.18542888760566711,
          -0.42638805508613586,
          0.10077761113643646,
          -0.06145884096622467,
          0.23809407651424408
        ],
        [
          -0.2563329041004181,
          -0.34237799048423767,
          0.328086256980896,
          0.23368605971336365,
          0.4901427924633026,
          -0.336103230714798,
          0.2264566421508789,
          0.33085086941719055,
          -0.28997084498405457,
          -0.3168506622314453,
          -0.3782615065574646,
          0.4251513183116913,
          -0.003716113045811653,
          0.00016388093354180455,
          0.030815161764621735,
          0.0225501861423254,
          0.033583786338567734,
          -0.02497483789920807,
          0.0688389241695404,
          -0.06208041310310364,
          -0.1811736524105072,
          -0.0017253556288778782,
          -0.02330065704882145,
          0.006611099932342768
        ],
        [
          0.04013557732105255,
          -0.21016386151313782,
          -0.27540579438209534,
          -0.024683142080903053,
          -0.09522588551044464,
          -0.21120019257068634,
          0.06876986473798752,
          -0.17867901921272278,
          -0.11537384986877441,
          0.02326400950551033,
          -0.21463970839977264,
          -0.2679611146450043,
          -0.16855953633785248,
          0.07847500592470169,
          0.14569883048534393,
          -0.25111183524131775,
          0.16386349499225616,
          0.26528841257095337,
          -0.17304612696170807,
          0.13914914429187775,
          0.22366242110729218,
          -0.15150251984596252,
          0.09104309976100922,
          0.22516554594039917
        ],
        [
          -0.02945333905518055,
          -0.09775519371032715,
          -0.06734023243188858,
          -0.16294114291667938,
          -0.11029323935508728,
          -0.06265859305858612,
          0.06455528736114502,
          0.02685091644525528,
          0.04410042241215706,
          -0.12943916022777557,
          -0.16372466087341309,
          -0.06793027371168137,
          -0.0437118262052536,
          -0.209188774228096,
          -0.10746172070503235,
          -0.08534166216850281,
          -0.0855816900730133,
          -0.053569093346595764,
          0.004889546427875757,
          -0.01683896593749523,
          0.054561566561460495,
          0.06411559879779816,
          -0.12064821273088455,
          -0.1859196126461029
        ],
        [
          0.0253902580589056,
          0.008228844031691551,
          0.047376856207847595,
          -0.059219181537628174,
          -0.04891505092382431,
          -0.06920334696769714,
          0.03852019086480141,
          0.09164130687713623,
          0.044247474521398544,
          0.0455268956720829,
          0.07657000422477722,
          0.04505176097154617,
          -0.4784165024757385,
          0.31552740931510925,
          0.3717162311077118,
          0.456298828125,
          -0.29648545384407043,
          -0.3553043007850647,
          -0.3629612326622009,
          0.2622179090976715,
          0.27830371260643005,
          0.3736949861049652,
          -0.34510794281959534,
          -0.347012996673584
        ],
        [
          -0.09456148743629456,
          -0.04846828058362007,
          -0.1086263433098793,
          -0.045008961111307144,
          -0.035303544253110886,
          -0.08360835164785385,
          -0.08733309805393219,
          -0.044676896184682846,
          -0.06835851073265076,
          -0.06763741374015808,
          -0.12718282639980316,
          0.06375836580991745,
          -0.05390942096710205,
          -0.08227548748254776,
          -0.12701581418514252,
          0.00887729600071907,
          -0.0493302047252655,
          -0.10304014384746552,
          0.09191084653139114,
          0.08622489124536514,
          -0.054207272827625275,
          -0.11127738654613495,
          0.053053975105285645,
          0.0006837763939984143
        ],
        [
          -0.36923399567604065,
          0.2768475413322449,
          -0.318848192691803,
          0.4293871819972992,
          -0.30262652039527893,
          0.46344202756881714,
          -0.4018303453922272,
          0.2727043628692627,
          -0.4079967141151428,
          0.2838103771209717,
          -0.23612220585346222,
          0.26445361971855164,
          0.04795755818486214,
          0.0025923503562808037,
          -0.03820256516337395,
          0.015271090902388096,
          -0.030278800055384636,
          0.022904960438609123,
          0.009003991261124611,
          -0.01152799092233181,
          0.023287290707230568,
          -0.01766555942595005,
          0.1155027374625206,
          -0.0558461956679821
        ],
        [
          0.0742948055267334,
          -0.011921287514269352,
          0.00940562691539526,
          0.04807135462760925,
          -0.09072335809469223,
          -0.18507622182369232,
          -0.05630900338292122,
          0.13500717282295227,
          -0.2264164686203003,
          -0.11727718263864517,
          -0.09810983389616013,
          0.13771480321884155,
          -0.12565156817436218,
          0.046614911407232285,
          -0.6264231204986572,
          0.04463548585772514,
          0.08294925838708878,
          0.26867395639419556,
          -0.2842060327529907,
          0.2832030653953552,
          0.2279142141342163,
          0.12058020383119583,
          -0.5436727404594421,
          0.09366872161626816
        ],
        [
          -0.12388694286346436,
          -0.1487591564655304,
          -0.14299345016479492,
          0.04807768389582634,
          0.09968442469835281,
          -0.0677519217133522,
          -0.0459379181265831,
          -0.12505772709846497,
          -0.09913183748722076,
          -0.07718340307474136,
          -0.10014072805643082,
          -0.1446874588727951,
          -0.13985970616340637,
          0.014313423074781895,
          -0.09083329886198044,
          -0.013700188137590885,
          0.09327826648950577,
          -0.020251523703336716,
          0.033699262887239456,
          0.04323744773864746,
          0.11579863727092743,
          0.13652990758419037,
          0.00038965436397120357,
          0.04778134450316429
        ],
        [
          -0.012838788330554962,
          -0.050972677767276764,
          0.06570451706647873,
          0.015734583139419556,
          0.0009515257552266121,
          0.11880626529455185,
          -0.1001289114356041,
          -0.03875534236431122,
          -0.08307994157075882,
          0.07412587851285934,
          0.08458316326141357,
          0.024216586723923683,
          -0.17370641231536865,
          0.2533583641052246,
          -0.22733643651008606,
          -0.31077003479003906,
          0.42412546277046204,
          -0.46030452847480774,
          0.15847092866897583,
          -0.2739904820919037,
          0.1765432059764862,
          0.28915128111839294,
          -0.4826449155807495,
          0.47229453921318054
        ],
        [
          0.4193580150604248,
          0.15852811932563782,
          0.5267378687858582,
          -0.3617962598800659,
          -0.07636314630508423,
          -0.5001426935195923,
          -0.3360799252986908,
          -0.10193239897489548,
          -0.38804852962493896,
          0.15921805799007416,
          0.07266224920749664,
          0.32554513216018677,
          0.003154863603413105,
          0.012060827575623989,
          0.020322183147072792,
          0.03991074115037918,
          -0.02262774482369423,
          0.035130575299263,
          -0.05750095844268799,
          0.11024407297372818,
          -0.04214682802557945,
          0.04832964017987251,
          -0.1417648196220398,
          -0.0016690094489604235
        ],
        [
          -0.08409827202558517,
          0.0008872721227817237,
          -0.04342033341526985,
          0.008606424555182457,
          0.04221298173069954,
          0.02720874920487404,
          0.051796600222587585,
          0.020390504971146584,
          0.017876412719488144,
          -0.009797388687729836,
          -0.029132608324289322,
          0.028524495661258698,
          0.3388627767562866,
          -0.4031218886375427,
          -0.26508787274360657,
          -0.3884810209274292,
          0.4373748004436493,
          0.2805013656616211,
          -0.3332708179950714,
          0.35702070593833923,
          0.21752546727657318,
          0.40072736144065857,
          -0.48683640360832214,
          -0.3452201783657074
        ],
        [
          0.0521320179104805,
          -0.04141974821686745,
          0.09698336571455002,
          -0.08952614665031433,
          0.049353182315826416,
          0.0819007083773613,
          -0.045580778270959854,
          0.01866379752755165,
          -0.07738123834133148,
          -0.01851675473153591,
          -0.0853060632944107,
          0.007668499834835529,
          0.01791490614414215,
          0.03754659369587898,
          -0.06789743155241013,
          0.5865451097488403,
          0.4496832489967346,
          -0.170121431350708,
          0.18584781885147095,
          0.0927586480975151,
          -0.13288666307926178,
          -0.86957186460495,
          -0.5005342960357666,
          0.0651567280292511
        ],
        [
          0.09876512736082077,
          0.013218028470873833,
          -0.11041125655174255,
          -0.08415350317955017,
          0.09481587260961533,
          0.02998211234807968,
          -0.04365778714418411,
          -0.06522399932146072,
          0.06427507847547531,
          -0.05034453794360161,
          -0.039099909365177155,
          0.06736098974943161,
          0.1914772242307663,
          0.16735289990901947,
          0.19946373999118805,
          -0.3640381693840027,
          -0.49869632720947266,
          -0.49558109045028687,
          0.31835097074508667,
          0.38710370659828186,
          0.438336044549942,
          -0.1331762671470642,
          -0.21867810189723969,
          -0.20087848603725433
        ],
        [
          -0.007433160208165646,
          0.04436925798654556,
          -0.013109111227095127,
          0.053282156586647034,
          0.016814233735203743,
          0.059659041464328766,
          0.008776502683758736,
          -0.058342188596725464,
          6.416697578970343e-05,
          -0.039134059101343155,
          -0.026621844619512558,
          0.07007073611021042,
          -0.3319799602031708,
          0.4238198697566986,
          -0.5658751726150513,
          0.1479969620704651,
          -0.2447679042816162,
          0.29291844367980957,
          0.3633019030094147,
          -0.4178176522254944,
          0.4729568362236023,
          -0.2002221941947937,
          0.1921323835849762,
          -0.28700506687164307
        ],
        [
          -0.027434278279542923,
          0.08150769025087357,
          0.13977237045764923,
          -0.3042657673358917,
          -0.05991276353597641,
          -0.15370185673236847,
          0.06275378167629242,
          0.17152972519397736,
          -0.14729145169258118,
          0.20069563388824463,
          0.009856097400188446,
          0.2674106955528259,
          0.039826810359954834,
          -0.13914993405342102,
          0.2284092754125595,
          0.3121892511844635,
          -0.350234717130661,
          0.16839297115802765,
          -0.23994770646095276,
          0.24297372996807098,
          -0.32533133029937744,
          -0.18493309617042542,
          0.11258950084447861,
          -0.1426677256822586
        ],
        [
          0.12777619063854218,
          0.04351562261581421,
          -0.03667658939957619,
          -0.042137280106544495,
          -0.027264893054962158,
          0.16711831092834473,
          -0.051934290677309036,
          -0.1287994235754013,
          -0.4133897125720978,
          -0.4311105012893677,
          0.14898422360420227,
          0.018404681235551834,
          -0.29930785298347473,
          0.004875062499195337,
          -0.11318274587392807,
          -0.10270431637763977,
          -0.23991096019744873,
          -0.1509867161512375,
          0.15545231103897095,
          0.20824609696865082,
          -0.30739688873291016,
          0.2291775941848755,
          -0.033263955265283585,
          0.34722277522087097
        ],
        [
          0.06625275313854218,
          -0.14148294925689697,
          -0.004858802072703838,
          -0.2996572256088257,
          -0.13496893644332886,
          -0.29413625597953796,
          0.17688891291618347,
          0.14047524333000183,
          -0.05491962656378746,
          -0.28225943446159363,
          -0.05859989672899246,
          0.21671296656131744,
          -0.2722626030445099,
          -0.1123863011598587,
          -0.1291780024766922,
          0.13987183570861816,
          -0.24312405288219452,
          -0.07281575351953506,
          -0.13672682642936707,
          0.0145820127800107,
          0.09167787432670593,
          -0.010722204111516476,
          -0.02516440860927105,
          -0.289904922246933
        ],
        [
          -0.44872280955314636,
          0.28952938318252563,
          -0.2616040110588074,
          -0.3032536804676056,
          0.2096966654062271,
          -0.23951251804828644,
          0.18946297466754913,
          -0.06599807739257812,
          0.0902014672756195,
          0.4449978172779083,
          -0.35559070110321045,
          0.39544951915740967,
          -0.03610629588365555,
          -0.0541837215423584,
          -0.00344567047432065,
          -0.0162205807864666,
          0.1297902911901474,
          -0.08067496120929718,
          0.14759120345115662,
          -0.15484251081943512,
          -0.0919557586312294,
          -0.07164748758077621,
          0.043694883584976196,
          0.14542876183986664
        ],
        [
          -0.1609257310628891,
          -0.0536554753780365,
          0.013670474290847778,
          0.006438464391976595,
          -0.01055690087378025,
          0.09214583784341812,
          0.09027031064033508,
          -0.02430439367890358,
          0.010770149528980255,
          0.12038946896791458,
          0.026316160336136818,
          0.0005715165170840919,
          0.10429371148347855,
          0.29697903990745544,
          0.481406569480896,
          -0.0944967120885849,
          -0.13586124777793884,
          -0.2136034071445465,
          -0.08544164150953293,
          -0.44850805401802063,
          -0.6784750819206238,
          0.06754134595394135,
          0.15954793989658356,
          0.33151209354400635
        ],
        [
          0.06104674190282822,
          0.09215464442968369,
          -0.05537094175815582,
          -0.11593163013458252,
          -0.0302601158618927,
          -0.09195368736982346,
          0.07326816767454147,
          0.037527624517679214,
          0.002811374608427286,
          0.014893144369125366,
          -0.006699834950268269,
          0.11696025729179382,
          -0.1803748607635498,
          0.21304070949554443,
          -0.16730685532093048,
          -0.29658979177474976,
          0.4632432460784912,
          -0.3368202745914459,
          0.42162325978279114,
          -0.600261390209198,
          0.3299700617790222,
          0.03819097951054573,
          -0.10236386209726334,
          0.034320980310440063
        ],
        [
          0.09005650877952576,
          -0.20631353557109833,
          -0.28090932965278625,
          -0.12273672223091125,
          -0.14987917244434357,
          -0.13968925178050995,
          0.04540327936410904,
          -0.05291353911161423,
          0.004940393380820751,
          0.01911877654492855,
          -0.2932351529598236,
          -0.14550377428531647,
          -0.06363164633512497,
          -0.018355323001742363,
          0.08687259256839752,
          -0.306248277425766,
          0.23034827411174774,
          0.2357373833656311,
          -0.18394708633422852,
          0.16764314472675323,
          0.08209160715341568,
          -0.21758320927619934,
          0.2540093660354614,
          0.1573176234960556
        ],
        [
          -0.15314117074012756,
          -0.002642599632963538,
          -0.18751923739910126,
          -0.17771528661251068,
          -0.00778310326859355,
          -0.16380788385868073,
          -0.03351016715168953,
          -0.14541716873645782,
          -0.03216410428285599,
          -0.012978212907910347,
          -0.031528349965810776,
          -0.07304023206233978,
          -0.1436692476272583,
          -0.17056046426296234,
          -0.06904774159193039,
          -0.20136132836341858,
          -0.14499135315418243,
          0.0700564906001091,
          -0.1640697717666626,
          -0.15136080980300903,
          0.13373957574367523,
          -0.012325885705649853,
          -0.05521222949028015,
          -0.09408118575811386
        ],
        [
          0.21356718242168427,
          -0.042016975581645966,
          0.1204291358590126,
          -0.02849562279880047,
          -0.0971766784787178,
          -0.10716674476861954,
          -0.14315204322338104,
          0.1041911318898201,
          -0.03482405096292496,
          -0.06709260493516922,
          0.1045832633972168,
          0.1242683008313179,
          -0.4236399233341217,
          -0.24063150584697723,
          0.43145719170570374,
          -0.2097962647676468,
          -0.12315791100263596,
          0.2735424339771271,
          0.3004508316516876,
          0.16433833539485931,
          -0.4628506004810333,
          0.29330742359161377,
          0.13233426213264465,
          -0.39753609895706177
        ],
        [
          0.013970566913485527,
          -0.01814069040119648,
          0.02502872794866562,
          -0.0705610141158104,
          -0.006096180062741041,
          0.0492170974612236,
          0.01190319936722517,
          -0.017010759562253952,
          -0.06152445077896118,
          0.029496047645807266,
          0.009263378567993641,
          -0.016618983820080757,
          -0.3025434911251068,
          -0.24940599501132965,
          -0.267154723405838,
          -0.4203818738460541,
          -0.41815128922462463,
          -0.4353462755680084,
          0.32674941420555115,
          0.24542301893234253,
          0.2263675481081009,
          0.34220409393310547,
          0.3528687357902527,
          0.32582491636276245
        ],
        [
          0.2937665581703186,
          0.17927029728889465,
          0.12584373354911804,
          0.06818046420812607,
          0.21046964824199677,
          0.25953179597854614,
          0.2958591878414154,
          0.05849955976009369,
          0.0551283098757267,
          0.11557558178901672,
          -0.05054763704538345,
          0.14011943340301514,
          0.006018531043082476,
          0.10820544511079788,
          -0.020969819277524948,
          0.2596415877342224,
          0.19933271408081055,
          0.14505533874034882,
          0.14421533048152924,
          0.06629597395658493,
          0.24027009308338165,
          0.24581624567508698,
          0.2630332112312317,
          0.23918670415878296
        ],
        [
          0.01295175775885582,
          -0.37663733959198,
          0.20549872517585754,
          -0.19244228303432465,
          0.01176722627133131,
          0.10303013026714325,
          0.467495858669281,
          -0.0006100096506997943,
          -0.5464891791343689,
          -0.2585214674472809,
          0.3360310196876526,
          0.18011759221553802,
          0.26012468338012695,
          -0.11696536093950272,
          0.3330419063568115,
          -0.17542409896850586,
          0.20887000858783722,
          -0.21486008167266846,
          0.026778755709528923,
          -0.01926737278699875,
          -0.013545334339141846,
          -0.18287043273448944,
          0.04978228732943535,
          -0.1365910768508911
        ],
        [
          -0.1759619414806366,
          -0.13037200272083282,
          -0.22989121079444885,
          0.343193918466568,
          0.31265711784362793,
          0.30264270305633545,
          0.17971208691596985,
          0.15454106032848358,
          0.11309190839529037,
          -0.4715731739997864,
          -0.26820045709609985,
          -0.2573690116405487,
          -0.21129439771175385,
          -0.035464927554130554,
          0.24823959171772003,
          -0.10509265214204788,
          -0.15753786265850067,
          0.020715629681944847,
          0.22683365643024445,
          -0.016232281923294067,
          -0.32288527488708496,
          0.12104044109582901,
          0.12084626406431198,
          -0.09373413771390915
        ],
        [
          -0.06064044311642647,
          -0.17918087542057037,
          -0.06922660768032074,
          0.00613922206684947,
          0.09645422548055649,
          0.06732094287872314,
          -0.11084812879562378,
          0.06973709911108017,
          0.20404265820980072,
          0.040738578885793686,
          -0.23474207520484924,
          -0.2205006331205368,
          0.23413197696208954,
          -0.06001356244087219,
          -0.26000112295150757,
          0.1709267497062683,
          0.05739995464682579,
          0.5991321802139282,
          -0.09608075022697449,
          -0.03180865943431854,
          -0.16184571385383606,
          -0.25947046279907227,
          -0.1414501965045929,
          -0.26690348982810974
        ],
        [
          0.4554237425327301,
          0.4176934063434601,
          0.1896391212940216,
          0.3641757369041443,
          0.3475981652736664,
          0.18663381040096283,
          -0.24802131950855255,
          -0.17789119482040405,
          -0.05216262862086296,
          -0.5904979109764099,
          -0.4648455083370209,
          -0.17735913395881653,
          0.028090862557291985,
          0.07365069538354874,
          -0.0005635652923956513,
          -0.07687005400657654,
          0.06507638841867447,
          -0.002420771401375532,
          0.029673459008336067,
          -0.15207044780254364,
          -0.10353346168994904,
          -0.04286818578839302,
          -0.0036268681287765503,
          -0.018565915524959564
        ],
        [
          -0.0513114258646965,
          0.0841764584183693,
          -0.013855012133717537,
          -0.047652628272771835,
          0.06535282731056213,
          0.02217991277575493,
          -0.060561101883649826,
          0.008563253097236156,
          0.04828835651278496,
          0.06728566437959671,
          -0.0477188304066658,
          0.05766259878873825,
          -0.08316670358181,
          0.03775317221879959,
          -0.10799867659807205,
          -0.47325602173805237,
          0.16667287051677704,
          -0.5836392045021057,
          0.35282352566719055,
          -0.15875932574272156,
          0.3027215301990509,
          0.3247588872909546,
          -0.1497884839773178,
          0.30897054076194763
        ],
        [
          -0.04413409158587456,
          0.003607524558901787,
          -0.14304566383361816,
          -0.12464706599712372,
          -0.05233016982674599,
          -0.01995876617729664,
          -0.03159543499350548,
          -0.07839039713144302,
          -0.140719935297966,
          -0.11185286939144135,
          -0.052773766219615936,
          -0.09239295870065689,
          0.04227197542786598,
          -0.05750231072306633,
          -0.10513856261968613,
          -0.1012052446603775,
          0.0361328162252903,
          0.05343159660696983,
          0.02844621054828167,
          -0.14209440350532532,
          -0.08039417117834091,
          -0.08156044036149979,
          0.030699601396918297,
          -0.10428358614444733
        ],
        [
          0.25344014167785645,
          -0.18696866929531097,
          0.09200750291347504,
          -0.3746902346611023,
          0.13388925790786743,
          -0.15519040822982788,
          0.5226531624794006,
          -0.20456542074680328,
          0.20541737973690033,
          -0.4916406571865082,
          0.2900494635105133,
          -0.13095688819885254,
          0.05146045237779617,
          0.02323201857507229,
          -0.14724576473236084,
          -0.0802433118224144,
          -0.03217523545026779,
          -0.005968136712908745,
          0.02175220102071762,
          -0.06156497821211815,
          -0.05810927972197533,
          -0.0036959063727408648,
          -0.045445896685123444,
          0.08943288028240204
        ],
        [
          -0.08799315989017487,
          -0.09061896055936813,
          -0.05610457435250282,
          -0.029075460508465767,
          -0.0403723418712616,
          0.07263270020484924,
          -0.013571010902523994,
          -0.14863023161888123,
          -0.05379042774438858,
          -0.09013515710830688,
          0.06331446766853333,
          -0.06678623706102371,
          -0.15173549950122833,
          -0.07901577651500702,
          -0.15381428599357605,
          0.02374442107975483,
          -0.048789966851472855,
          -0.06936630606651306,
          -0.12255264073610306,
          -0.0006138742319308221,
          -0.07023175805807114,
          0.11080734431743622,
          -0.1274699866771698,
          -0.03426389396190643
        ],
        [
          -0.14491546154022217,
          0.26839905977249146,
          -0.17378340661525726,
          -0.0318249948322773,
          0.040478289127349854,
          -0.20685230195522308,
          -0.11054269969463348,
          -0.15678876638412476,
          0.240203395485878,
          -0.09864391386508942,
          -0.46181702613830566,
          -0.2812311351299286,
          -0.2451617419719696,
          -0.028901929035782814,
          -0.3324514329433441,
          -0.12730558216571808,
          -0.14304476976394653,
          0.09477216750383377,
          -0.17275160551071167,
          0.16152776777744293,
          0.14751332998275757,
          0.17860060930252075,
          -0.028790166601538658,
          0.003456552280113101
        ],
        [
          -0.28621307015419006,
          0.179153710603714,
          -0.27458497881889343,
          -0.2721923589706421,
          0.21652443706989288,
          -0.24492086470127106,
          -0.21548067033290863,
          0.21669942140579224,
          -0.2179873287677765,
          -0.26312968134880066,
          0.21499007940292358,
          -0.25503551959991455,
          0.2585920989513397,
          -0.27067261934280396,
          0.20849457383155823,
          0.21806639432907104,
          -0.21926304697990417,
          0.19825635850429535,
          0.2112583965063095,
          -0.25513818860054016,
          0.23059283196926117,
          0.2596682608127594,
          -0.25480616092681885,
          0.19900615513324738
        ],
        [
          -0.1779252141714096,
          -0.13617704808712006,
          -0.31555259227752686,
          0.019092794507741928,
          0.2716176211833954,
          0.3154963552951813,
          -0.005069573875516653,
          -0.07582487165927887,
          -0.1257684826850891,
          0.0607244111597538,
          -0.30423590540885925,
          0.02065552957355976,
          -0.011892721988260746,
          0.17752046883106232,
          -0.04471619799733162,
          0.06627609580755234,
          -0.3936549127101898,
          -0.2078961431980133,
          -0.1398085057735443,
          0.03926343843340874,
          -0.024766188114881516,
          -0.03891729936003685,
          -0.19474834203720093,
          -0.20955093204975128
        ],
        [
          -0.2360423058271408,
          -0.09108781069517136,
          -0.12209300696849823,
          -0.07443421334028244,
          -0.0015905536711215973,
          0.07370024174451828,
          0.300590455532074,
          0.17387832701206207,
          0.048847995698451996,
          0.08322753012180328,
          0.00871081743389368,
          0.008134346455335617,
          -0.0437629297375679,
          0.3936609923839569,
          -0.3035941421985626,
          0.06085922196507454,
          -0.5888949632644653,
          0.3327133059501648,
          0.05704125389456749,
          0.0596386194229126,
          -0.022400135174393654,
          -0.013881385326385498,
          0.07937759906053543,
          -0.11939743161201477
        ],
        [
          0.02449568547308445,
          0.1745585799217224,
          0.04308243468403816,
          0.1304846554994583,
          0.19903486967086792,
          0.1778622418642044,
          -0.04343092441558838,
          -0.09142647683620453,
          -0.10645824670791626,
          -0.02081913687288761,
          -0.10684620589017868,
          -0.07488871365785599,
          -0.3047533631324768,
          0.2158835232257843,
          0.06142183020710945,
          0.35417115688323975,
          -0.41503584384918213,
          -0.14940643310546875,
          -0.44345754384994507,
          0.3700494170188904,
          0.048761170357465744,
          0.2802579402923584,
          -0.34449559450149536,
          -0.09501466155052185
        ],
        [
          -0.15586335957050323,
          0.30130085349082947,
          -0.37624481320381165,
          -0.12988334894180298,
          0.22468064725399017,
          -0.34801197052001953,
          -0.00714417127892375,
          -0.10755401849746704,
          0.14634621143341064,
          0.18469856679439545,
          -0.4059460163116455,
          0.5759322047233582,
          -0.14612452685832977,
          -0.14913786947727203,
          0.15543092787265778,
          -0.01280493289232254,
          -0.012818878516554832,
          -0.11294864118099213,
          0.12972457706928253,
          0.09859692305326462,
          -0.06801525503396988,
          0.049116335809230804,
          0.16566917300224304,
          -0.06856689602136612
        ],
        [
          -0.15423819422721863,
          -0.09967774152755737,
          -0.15237604081630707,
          -0.21800674498081207,
          -0.10368593782186508,
          -0.19918113946914673,
          -0.09931105375289917,
          -0.001032564090564847,
          -0.05639427527785301,
          -0.01178490836173296,
          -0.13111288845539093,
          -0.2275514453649521,
          -0.12528443336486816,
          -0.11833607405424118,
          -0.008590723387897015,
          -0.018945159390568733,
          0.06502718478441238,
          -0.006682698614895344,
          0.025680426508188248,
          -0.03132755681872368,
          -0.06578726321458817,
          -0.06744223833084106,
          -0.04817945882678032,
          -0.05584795027971268
        ],
        [
          -0.032682064920663834,
          0.05646935850381851,
          0.09112398326396942,
          -0.003672571387141943,
          0.02474059723317623,
          0.004093866795301437,
          -0.026542117819190025,
          0.06152721866965294,
          0.0637349933385849,
          0.033440399914979935,
          -0.07529761642217636,
          -0.02910689264535904,
          -0.5963272452354431,
          -0.3846384584903717,
          -0.3544415533542633,
          0.31080272793769836,
          0.15638688206672668,
          0.12248013913631439,
          -0.22162248194217682,
          -0.1619659662246704,
          -0.18510323762893677,
          0.48099851608276367,
          0.3017369508743286,
          0.3047301471233368
        ],
        [
          0.3988499641418457,
          -0.3177783489227295,
          -0.38119783997535706,
          -0.3200059235095978,
          0.29642483592033386,
          0.30913588404655457,
          -0.43483972549438477,
          0.2837035655975342,
          0.39610782265663147,
          0.2914232611656189,
          -0.23216716945171356,
          -0.30736371874809265,
          -0.02448112890124321,
          0.025624243542551994,
          0.0024400390684604645,
          0.07318617403507233,
          0.0631701871752739,
          0.08303138613700867,
          0.04786188527941704,
          0.04547036811709404,
          -0.018179966136813164,
          -0.009474394842982292,
          -0.03068285807967186,
          -0.028607120737433434
        ],
        [
          -0.06318550556898117,
          -0.07018210738897324,
          -0.0005933567299507558,
          -0.10016791522502899,
          -0.0013329734792932868,
          0.05875493958592415,
          0.09982244670391083,
          -0.06838127970695496,
          -0.10124177485704422,
          -0.10226172208786011,
          -0.01541077345609665,
          -0.04373857378959656,
          -0.09698913991451263,
          -0.013375381007790565,
          0.05322669446468353,
          -0.019096242263913155,
          -0.0261229258030653,
          0.034329384565353394,
          -0.07587576657533646,
          -0.03806691616773605,
          -0.005766348447650671,
          -0.012372699566185474,
          -0.015890462324023247,
          -0.10319121927022934
        ],
        [
          -0.5483081936836243,
          -0.08621226251125336,
          -0.4364127218723297,
          -0.12692712247371674,
          -0.015176723711192608,
          -0.11459314823150635,
          0.5893299579620361,
          0.19557155668735504,
          0.5648394227027893,
          -0.04889716953039169,
          0.0331377275288105,
          0.00010486091196071357,
          0.04000701755285263,
          0.006476054899394512,
          -0.049324337393045425,
          -0.021080411970615387,
          -0.057488638907670975,
          0.02330402284860611,
          -0.02064088173210621,
          0.050822142511606216,
          -0.016747841611504555,
          0.008119859732687473,
          -0.08924073725938797,
          0.028775755316019058
        ],
        [
          -0.36058759689331055,
          -0.21598096191883087,
          -0.10018790513277054,
          0.1905762255191803,
          -0.17141549289226532,
          0.051056597381830215,
          -0.06706660985946655,
          0.3856140673160553,
          -0.03130647540092468,
          -0.03258824720978737,
          -0.15083837509155273,
          -0.2333075851202011,
          -0.21631132066249847,
          -0.43034258484840393,
          0.1508694738149643,
          -0.4364902973175049,
          0.10835491120815277,
          -0.33074721693992615,
          0.2449483573436737,
          0.02275438979268074,
          -0.11648217588663101,
          0.01879187300801277,
          0.05588018521666527,
          -0.01776331663131714
        ],
        [
          -0.09794753044843674,
          0.3015356659889221,
          0.41219431161880493,
          0.14215712249279022,
          -0.36666083335876465,
          -0.40563488006591797,
          -0.12944218516349792,
          0.3635388910770416,
          0.3516489863395691,
          0.07782020419836044,
          -0.32864251732826233,
          -0.40720948576927185,
          -0.006864788010716438,
          -0.15433157980442047,
          0.06112990155816078,
          0.029254531487822533,
          0.045391157269477844,
          0.028142882511019707,
          0.046783652156591415,
          -0.1042833998799324,
          -0.0861085057258606,
          -0.07588615268468857,
          0.008181744255125523,
          -0.013772187754511833
        ],
        [
          0.07687399536371231,
          -0.11000537127256393,
          -0.1869872808456421,
          -0.16267797350883484,
          0.05108146369457245,
          -0.09075496345758438,
          -0.141720712184906,
          0.1326916664838791,
          0.042749639600515366,
          0.11554207652807236,
          -0.21508339047431946,
          0.05089070647954941,
          0.07871140539646149,
          0.3079811632633209,
          -0.07633768767118454,
          -0.044366225600242615,
          0.03435606136918068,
          0.18949122726917267,
          -0.06308050453662872,
          -0.25825586915016174,
          0.45619386434555054,
          -0.05861089006066322,
          -0.4930212199687958,
          -0.5532371401786804
        ],
        [
          -0.055870626121759415,
          -0.02256988175213337,
          -0.001855908427387476,
          0.042524319142103195,
          -0.10154600441455841,
          -0.04765871912240982,
          -0.05025363713502884,
          0.05416322499513626,
          -0.0017528135795146227,
          -0.025748929008841515,
          0.039522573351860046,
          -0.07245812565088272,
          -0.08415361493825912,
          -0.09838534891605377,
          0.011707495898008347,
          -0.10916371643543243,
          -0.02746533788740635,
          -0.04913237690925598,
          -0.08372785151004791,
          -0.050673045217990875,
          0.10747335106134415,
          -0.10751040279865265,
          0.01799941249191761,
          0.005386278964579105
        ],
        [
          -0.1768317073583603,
          -0.022607281804084778,
          0.1568160206079483,
          0.06481552124023438,
          0.022154556587338448,
          -0.3196569085121155,
          0.43804115056991577,
          -0.1578771471977234,
          -0.06405080854892731,
          -0.4201187789440155,
          0.054822806268930435,
          0.039275798946619034,
          0.1748248189687729,
          -0.03514639660716057,
          0.1444491595029831,
          -0.09956930577754974,
          -0.15745407342910767,
          -0.016177451238036156,
          -0.23086977005004883,
          0.14680850505828857,
          -0.015732478350400925,
          -0.14132057130336761,
          0.0026375618763267994,
          -0.28147751092910767
        ],
        [
          0.1372038871049881,
          -0.2514394521713257,
          -0.21491999924182892,
          0.15237347781658173,
          -0.2366107851266861,
          -0.19620227813720703,
          0.2055852860212326,
          -0.3220953047275543,
          -0.15732310712337494,
          0.11845232546329498,
          -0.2224632203578949,
          -0.19726403057575226,
          -0.1551649421453476,
          0.08457081019878387,
          0.11911274492740631,
          -0.23604580760002136,
          0.055144745856523514,
          0.1918153166770935,
          -0.28685635328292847,
          0.20781156420707703,
          0.23446595668792725,
          -0.17772814631462097,
          0.1389254480600357,
          0.19157305359840393
        ],
        [
          -0.4021511971950531,
          -0.14813654124736786,
          -0.46117186546325684,
          -0.2719924747943878,
          0.006638494320213795,
          -0.23301157355308533,
          0.19149743020534515,
          0.31136518716812134,
          0.22436906397342682,
          0.3682332932949066,
          0.10929293185472488,
          0.35543936491012573,
          -0.06611810624599457,
          0.04172850400209427,
          0.03613639622926712,
          -0.03613114729523659,
          0.13977523148059845,
          0.10599107295274734,
          0.12136210501194,
          -0.23657606542110443,
          -0.22144299745559692,
          0.022529492154717445,
          0.01966118812561035,
          -0.1050243154168129
        ],
        [
          -0.3477779030799866,
          0.32973483204841614,
          -0.16716882586479187,
          0.6368526220321655,
          -0.478485107421875,
          0.26899048686027527,
          -0.03337405249476433,
          -0.07834509760141373,
          0.02035130187869072,
          -0.3031104803085327,
          0.3245289921760559,
          -0.11159854382276535,
          -0.09973977506160736,
          -0.013832003809511662,
          0.11968664079904556,
          0.1584213674068451,
          0.029457421973347664,
          -0.041566502302885056,
          -0.03541556000709534,
          0.16993513703346252,
          -0.08083917945623398,
          -0.0626828595995903,
          -0.21488027274608612,
          -0.036696046590805054
        ],
        [
          -0.17410509288311005,
          -0.2555796504020691,
          0.44258973002433777,
          -0.09353282302618027,
          -0.12912651896476746,
          0.38045939803123474,
          0.2047698199748993,
          0.3206474184989929,
          -0.7072060108184814,
          0.015542037785053253,
          0.12443003058433533,
          -0.23015104234218597,
          -0.03051222302019596,
          0.04499632865190506,
          0.030537161976099014,
          0.013547900132834911,
          -0.048524752259254456,
          0.022734904661774635,
          0.09388359636068344,
          -0.023862695321440697,
          -0.031086193397641182,
          0.017210163176059723,
          0.01618184894323349,
          0.025946738198399544
        ],
        [
          0.04458289220929146,
          0.015901988372206688,
          -0.05301564559340477,
          0.01805865578353405,
          -0.04333730787038803,
          -0.0513240285217762,
          -0.07650959491729736,
          0.0029629513155668974,
          -0.09719664603471756,
          -0.0941789522767067,
          -0.043142348527908325,
          -0.02881232462823391,
          -0.007099388167262077,
          0.07524111866950989,
          0.10015324503183365,
          -0.10241977125406265,
          -0.13165082037448883,
          -0.13448156416416168,
          -0.010027454234659672,
          0.02485225349664688,
          0.04852499067783356,
          -0.04171932488679886,
          -0.06615900993347168,
          -0.06749393045902252
        ],
        [
          0.3412681221961975,
          0.3071623146533966,
          0.2466585785150528,
          -0.39346349239349365,
          -0.36351704597473145,
          -0.35072091221809387,
          0.4580640494823456,
          0.4125891327857971,
          0.3439022898674011,
          -0.2986029088497162,
          -0.24592874944210052,
          -0.21638953685760498,
          -0.014077477157115936,
          0.006552358157932758,
          -0.0015553345438092947,
          -0.02827391028404236,
          -0.04007844999432564,
          -0.026883570477366447,
          0.016711901873350143,
          0.023224152624607086,
          -0.04868745058774948,
          -0.018573153764009476,
          0.018705833703279495,
          -0.0031945975497365
        ],
        [
          -0.02085653319954872,
          0.15183715522289276,
          0.12676255404949188,
          0.149098202586174,
          -0.035549525171518326,
          0.14523515105247498,
          0.007309406995773315,
          0.005417457316070795,
          -0.09847503900527954,
          -0.09090791642665863,
          0.05159944295883179,
          0.021445002406835556,
          -0.17512349784374237,
          -0.4366582930088043,
          0.269420325756073,
          0.19915176928043365,
          0.4327300786972046,
          -0.38075223565101624,
          -0.1931856870651245,
          -0.4465215504169464,
          0.24577757716178894,
          0.15365546941757202,
          0.2936919629573822,
          -0.17687173187732697
        ],
        [
          -0.08926892280578613,
          -0.040793243795633316,
          -0.30418550968170166,
          -0.010895470157265663,
          0.04945920407772064,
          -0.28312957286834717,
          -0.015387882478535175,
          -0.04350467771291733,
          -0.25584957003593445,
          -0.06342504173517227,
          -0.08969591557979584,
          -0.23216955363750458,
          -0.19286991655826569,
          0.009206394664943218,
          0.049663759768009186,
          -0.1670427918434143,
          -0.03601423650979996,
          0.08593986928462982,
          -0.1535779982805252,
          -0.006324251182377338,
          0.09784989804029465,
          -0.15583260357379913,
          0.014741268940269947,
          -0.055173881351947784
        ],
        [
          -0.22765494883060455,
          0.04036928340792656,
          -0.054661769419908524,
          -0.11658155173063278,
          -0.1514960080385208,
          -0.05819406732916832,
          0.07144055515527725,
          0.01007263083010912,
          -0.006741008255630732,
          -0.06346231698989868,
          -0.25077953934669495,
          -0.030184760689735413,
          -0.1337597668170929,
          -0.11442892998456955,
          -0.09501902759075165,
          -0.11977826803922653,
          0.04149967432022095,
          -0.14468690752983093,
          -0.10415417701005936,
          -0.17333202064037323,
          0.06594666093587875,
          -0.013597139157354832,
          -0.046298038214445114,
          -0.18022362887859344
        ],
        [
          0.303708016872406,
          0.11125851422548294,
          -0.09596256166696548,
          -0.4062890410423279,
          -0.046591851860284805,
          0.05026177316904068,
          0.10965961962938309,
          -0.20159929990768433,
          -0.005913854576647282,
          -0.1849297285079956,
          0.06852599233388901,
          0.2896469831466675,
          -0.0489707849919796,
          0.2644886076450348,
          -0.1899450272321701,
          -0.03191360458731651,
          0.10477911680936813,
          -0.3553861677646637,
          -0.056232091039419174,
          0.12367095053195953,
          -0.04868927597999573,
          0.04056170582771301,
          -0.33446282148361206,
          0.32395297288894653
        ],
        [
          -0.12944576144218445,
          -0.06586376577615738,
          -0.16839490830898285,
          -0.18471723794937134,
          0.061411742120981216,
          -0.10081414133310318,
          -0.06270213425159454,
          -0.02267473377287388,
          0.03245323896408081,
          0.012128490023314953,
          -0.09069474786520004,
          -0.04175300896167755,
          -0.20032095909118652,
          -0.0410236231982708,
          -0.1534678190946579,
          -0.09319841861724854,
          0.045339323580265045,
          -0.05141596123576164,
          -0.08289864659309387,
          -0.14854854345321655,
          -0.006432969588786364,
          0.10518147796392441,
          -0.10537576675415039,
          -0.18128161132335663
        ],
        [
          0.4088285267353058,
          -0.09674722701311111,
          -0.0343199223279953,
          0.44002845883369446,
          -0.08490323275327682,
          -0.07429776340723038,
          0.45499441027641296,
          -0.07028016448020935,
          -0.07010013610124588,
          0.4462888240814209,
          -0.08138339966535568,
          -0.06986736506223679,
          -0.52494215965271,
          0.06667961925268173,
          -0.03250548243522644,
          -0.5074120759963989,
          0.07270622998476028,
          -0.06470946967601776,
          -0.48449066281318665,
          0.10628059506416321,
          -0.013799024745821953,
          -0.48920199275016785,
          0.1293092668056488,
          -0.019827544689178467
        ],
        [
          -0.03774115815758705,
          -0.018573718145489693,
          -0.10514654219150543,
          -0.05433342233300209,
          0.04099121689796448,
          0.004484093748033047,
          -0.02084113284945488,
          -0.07501766085624695,
          0.05680146440863609,
          -0.010816720314323902,
          -0.07907023280858994,
          -0.1184229701757431,
          -0.09678052365779877,
          0.10085788369178772,
          -0.008160772733390331,
          -0.0361938513815403,
          0.08120545744895935,
          0.07710329443216324,
          -0.05785691738128662,
          0.06975390017032623,
          0.17231416702270508,
          0.10843296349048615,
          0.1643039435148239,
          -0.011604302562773228
        ],
        [
          0.14528505504131317,
          -0.7025116682052612,
          -0.40243032574653625,
          -0.06475012749433517,
          0.4424532651901245,
          0.359663724899292,
          0.10636520385742188,
          -0.19233953952789307,
          -0.0858503058552742,
          -0.17214226722717285,
          0.28622281551361084,
          0.24361717700958252,
          -0.0055890376679599285,
          -0.0046680583618581295,
          -0.022093353793025017,
          0.0589640811085701,
          -0.07061702013015747,
          0.06820471584796906,
          0.04865560680627823,
          -0.0007467711693607271,
          -0.1220610961318016,
          -0.017333192750811577,
          -0.03627621755003929,
          -0.035946235060691833
        ],
        [
          -0.15088404715061188,
          -0.3732382655143738,
          -0.03081095777451992,
          0.02815461903810501,
          0.0067308442667126656,
          -0.06416227668523788,
          0.3041520118713379,
          -0.030971119180321693,
          0.0705581083893776,
          -0.37131279706954956,
          0.2299249768257141,
          0.004117023199796677,
          -0.27650171518325806,
          -0.08868670463562012,
          -0.13627491891384125,
          0.054364562034606934,
          0.20608308911323547,
          -0.05543534457683563,
          0.08810486644506454,
          -0.07117816805839539,
          0.11350835114717484,
          0.06291677057743073,
          -0.04371584951877594,
          -0.25475770235061646
        ],
        [
          0.03626525029540062,
          -0.019711578264832497,
          0.027242310345172882,
          -0.006097219418734312,
          0.37402206659317017,
          0.42334023118019104,
          -0.09610437601804733,
          0.2711048424243927,
          0.260903000831604,
          0.0071071903221309185,
          -0.5373120307922363,
          -0.5581217408180237,
          0.08174017071723938,
          -0.035999346524477005,
          0.06501878052949905,
          -0.05864802002906799,
          -0.030671263113617897,
          -0.14903044700622559,
          -0.054186780005693436,
          0.07221400737762451,
          -0.18499211966991425,
          0.007248218171298504,
          -0.12715491652488708,
          0.08892364054918289
        ],
        [
          0.04789202660322189,
          -0.16219353675842285,
          0.16498036682605743,
          0.2505505383014679,
          0.10123033821582794,
          0.20621129870414734,
          -0.030761199072003365,
          0.2701556980609894,
          -0.09945354610681534,
          -0.38871803879737854,
          -0.12269658595323563,
          -0.6139079928398132,
          0.07957663387060165,
          0.15502232313156128,
          -0.09906604886054993,
          -0.09029189497232437,
          -0.2088031768798828,
          0.00241933879442513,
          -0.14725276827812195,
          -0.24328716099262238,
          0.1523255705833435,
          0.0846460610628128,
          0.21136754751205444,
          -0.09528809040784836
        ],
        [
          -0.0839390903711319,
          -0.12150803953409195,
          -0.08031927049160004,
          0.07278959453105927,
          -0.1061411127448082,
          0.0380878672003746,
          -0.06038790941238403,
          -0.08429556339979172,
          -0.039098095148801804,
          0.019097747281193733,
          -0.021756824105978012,
          -0.006299249827861786,
          -0.1109498143196106,
          -0.08599504828453064,
          -0.041987888514995575,
          -0.061382927000522614,
          0.002192242071032524,
          -0.016116123646497726,
          -0.0002883905253838748,
          0.05590616539120674,
          0.056134626269340515,
          -0.08775455504655838,
          -0.10697591304779053,
          -0.049518655985593796
        ],
        [
          0.27041810750961304,
          0.09119555354118347,
          0.21625766158103943,
          0.021597838029265404,
          0.14250817894935608,
          0.18811041116714478,
          0.40555232763290405,
          0.2642650604248047,
          0.17665371298789978,
          0.12290441244840622,
          0.06257826089859009,
          0.08136846125125885,
          0.14100614190101624,
          0.2070675641298294,
          0.21097128093242645,
          0.2396049052476883,
          0.027009818702936172,
          0.10262686759233475,
          0.05813691020011902,
          0.05896487087011337,
          0.22573399543762207,
          0.29180723428726196,
          0.32379207015037537,
          0.15654300153255463
        ],
        [
          -0.0044339243322610855,
          0.15690842270851135,
          0.43864816427230835,
          0.04982529953122139,
          0.24906107783317566,
          0.480523943901062,
          0.04305410012602806,
          0.1946600079536438,
          0.4534851610660553,
          0.020350396633148193,
          0.19658496975898743,
          0.43788692355155945,
          -0.09995457530021667,
          -0.2877492606639862,
          -0.4955785274505615,
          -0.09062384814023972,
          -0.2427871823310852,
          -0.4723403751850128,
          -0.07110697031021118,
          -0.2725386917591095,
          -0.4143557846546173,
          -0.08036267012357712,
          -0.2702028155326843,
          -0.5042781829833984
        ],
        [
          -0.023987220600247383,
          -0.0022077958565205336,
          -0.19736412167549133,
          -0.14223796129226685,
          -0.012212151661515236,
          -0.06817980855703354,
          0.0033467996399849653,
          -0.135906383395195,
          0.011553933843970299,
          -0.1136644184589386,
          -0.0664021223783493,
          0.035869162529706955,
          -0.3348073959350586,
          -0.037767618894577026,
          -0.06165213882923126,
          0.009012486785650253,
          -0.09701064974069595,
          0.022684695199131966,
          -0.006903273519128561,
          -0.15546248853206635,
          -0.042264409363269806,
          0.055617596954107285,
          0.04090021550655365,
          -0.08954408764839172
        ],
        [
          -0.12573941051959991,
          -0.041683848947286606,
          -0.26716116070747375,
          -0.03966037556529045,
          -0.034761782735586166,
          -0.18132472038269043,
          -0.008988723158836365,
          -0.01841449737548828,
          0.05864487960934639,
          -0.2083614021539688,
          -0.1068723201751709,
          0.0625251978635788,
          -0.3043123483657837,
          -0.07307304441928864,
          -0.15744861960411072,
          -0.08819536119699478,
          -0.25190824270248413,
          -0.03833495080471039,
          -0.004126156680285931,
          -0.05924209579825401,
          -0.08066678792238235,
          0.10313409566879272,
          0.031103264540433884,
          -0.1825067102909088
        ],
        [
          -0.0325247161090374,
          0.012842852622270584,
          -0.06397426873445511,
          -0.13050401210784912,
          -0.13559897243976593,
          -0.05193079635500908,
          0.06810567528009415,
          0.04557624086737633,
          -0.01851324364542961,
          0.07364875078201294,
          0.1865999698638916,
          0.05703218653798103,
          -0.3449094295501709,
          -0.19065110385417938,
          -0.6637691855430603,
          0.34618961811065674,
          0.15753042697906494,
          0.45774227380752563,
          0.12938614189624786,
          0.02405417338013649,
          0.15031003952026367,
          0.0627782866358757,
          -0.11844943463802338,
          -0.04552818089723587
        ],
        [
          -0.12870627641677856,
          0.10461760312318802,
          -0.3112426698207855,
          -0.07915110141038895,
          0.07937362790107727,
          -0.31961590051651,
          -0.12162666767835617,
          0.05714983865618706,
          -0.26725244522094727,
          -0.12237420678138733,
          0.12175621092319489,
          -0.406593918800354,
          0.0371670164167881,
          -0.1217908188700676,
          0.2637270390987396,
          0.07772170752286911,
          -0.1639706939458847,
          0.2998964190483093,
          0.07393594831228256,
          -0.15278169512748718,
          0.36369988322257996,
          0.019364027306437492,
          -0.15004141628742218,
          0.2666570544242859
        ],
        [
          0.4159659445285797,
          -0.19575057923793793,
          0.021568574011325836,
          0.10199566185474396,
          0.13768234848976135,
          -0.04850072041153908,
          -0.09745649993419647,
          0.0845712423324585,
          0.055460937321186066,
          -0.43248653411865234,
          0.1735943704843521,
          -0.15761326253414154,
          0.2409466803073883,
          0.0888495072722435,
          -0.025401365011930466,
          -0.4384475350379944,
          -0.061936765909194946,
          0.19565913081169128,
          0.20873412489891052,
          0.0035710998345166445,
          -0.0485512837767601,
          0.1396089345216751,
          0.06670472025871277,
          -0.2502228915691376
        ],
        [
          0.04592922702431679,
          0.034358229488134384,
          -0.11404621601104736,
          -0.09481285512447357,
          -0.06620459258556366,
          -0.04593336582183838,
          -0.08168814331293106,
          -0.019146477803587914,
          -0.10479231923818588,
          0.07998330146074295,
          -0.006157057825475931,
          -0.05959048122167587,
          0.021706750616431236,
          -0.07642842084169388,
          -0.038696303963661194,
          0.08941041678190231,
          -0.054344676434993744,
          -0.11939769238233566,
          0.047267694026231766,
          -0.10924896597862244,
          -0.029835954308509827,
          -0.053051698952913284,
          -0.06059810519218445,
          -0.04431317374110222
        ],
        [
          -0.30518895387649536,
          -0.36154410243034363,
          0.40079429745674133,
          0.34783366322517395,
          0.3747168779373169,
          -0.3853011727333069,
          -0.3743484616279602,
          -0.31346431374549866,
          0.49336978793144226,
          0.33794471621513367,
          0.38192540407180786,
          -0.4189148545265198,
          -0.06156909838318825,
          0.053930461406707764,
          -0.013534748926758766,
          0.02045528218150139,
          -0.049735236912965775,
          -0.037039391696453094,
          -0.004382641054689884,
          -0.031344398856163025,
          -0.027442721650004387,
          -0.014809561893343925,
          -0.009358292445540428,
          -0.014280695468187332
        ],
        [
          -0.19376876950263977,
          0.10649098455905914,
          0.21109077334403992,
          -0.1779005378484726,
          0.2929513156414032,
          0.042969960719347,
          -0.39201706647872925,
          -0.31306901574134827,
          -0.42031216621398926,
          0.31305721402168274,
          -0.2754625082015991,
          0.1515299677848816,
          -0.3573829233646393,
          -0.18988434970378876,
          -0.0012779359240084887,
          -0.08058928698301315,
          0.025483326986432076,
          -0.03329397737979889,
          -0.1516416370868683,
          0.029370764270424843,
          -0.11308001726865768,
          0.22079595923423767,
          0.03321259468793869,
          -0.15985225141048431
        ],
        [
          -0.066977359354496,
          -0.19823120534420013,
          0.06999439001083374,
          0.2440991997718811,
          0.16645334661006927,
          0.181818425655365,
          0.07786121219396591,
          -0.05519240349531174,
          -0.3675982356071472,
          -0.20025932788848877,
          0.06114022806286812,
          0.180708646774292,
          -0.20922623574733734,
          -0.20360703766345978,
          0.1561594009399414,
          -0.04207589104771614,
          0.05273979902267456,
          0.18437974154949188,
          0.20438188314437866,
          -0.015348943881690502,
          -0.5519020557403564,
          0.09797798097133636,
          0.03702908381819725,
          0.12308090180158615
        ],
        [
          0.6008114814758301,
          0.004801847506314516,
          -0.49732640385627747,
          -0.4693221151828766,
          0.04992734268307686,
          0.3979397118091583,
          -0.0765131413936615,
          -0.12212961167097092,
          0.027125265449285507,
          -0.14935706555843353,
          0.076803058385849,
          0.11691354960203171,
          0.024231864139437675,
          -0.057654835283756256,
          0.08916805684566498,
          0.12464851886034012,
          -0.08632679283618927,
          0.012371466495096684,
          -0.03391806408762932,
          0.00645617488771677,
          -0.1474568396806717,
          0.01729786954820156,
          0.048414576798677444,
          -0.06766456365585327
        ],
        [
          -0.05128270387649536,
          0.22275638580322266,
          -0.42732977867126465,
          0.2255343347787857,
          0.10178593546152115,
          0.1977514624595642,
          0.03775515407323837,
          -0.4925293028354645,
          -0.16949595510959625,
          -0.23181360960006714,
          0.059303607791662216,
          0.10316453129053116,
          -0.07771142572164536,
          -0.36239179968833923,
          0.12151806056499481,
          -0.04793896526098251,
          0.04847748950123787,
          -0.06880522519350052,
          0.028163645416498184,
          0.026395726948976517,
          -0.523500919342041,
          0.055697694420814514,
          0.19560615718364716,
          0.016022203490138054
        ],
        [
          0.11088836938142776,
          0.1499897986650467,
          0.07828884571790695,
          -0.1740497350692749,
          0.11754762381315231,
          0.30995237827301025,
          -0.03516106680035591,
          -0.4833928644657135,
          -0.08458837121725082,
          0.07427804172039032,
          0.15298672020435333,
          -0.4266723394393921,
          0.06938420981168747,
          -0.006799928843975067,
          -0.04607885703444481,
          -0.12143994867801666,
          -0.2946455776691437,
          0.10540911555290222,
          0.04069175571203232,
          -0.08925748616456985,
          0.05007065832614899,
          -0.09858416765928268,
          0.21466559171676636,
          -0.24787408113479614
        ],
        [
          0.13109387457370758,
          0.013536665588617325,
          -0.06430350989103317,
          -0.09592471271753311,
          -0.03422171249985695,
          0.008310040459036827,
          -0.08797627687454224,
          -0.037588927894830704,
          0.011531726457178593,
          -0.019753115251660347,
          0.044408153742551804,
          0.0739549845457077,
          -0.29011133313179016,
          -0.23793703317642212,
          -0.4185549020767212,
          0.23781272768974304,
          0.1685347557067871,
          0.30768653750419617,
          -0.19639940559864044,
          -0.20080125331878662,
          -0.3805810809135437,
          0.3610844016075134,
          0.2238643914461136,
          0.42085006833076477
        ],
        [
          -0.05450694262981415,
          0.5164616107940674,
          0.14593595266342163,
          0.04790240153670311,
          0.2450769543647766,
          0.07136918604373932,
          0.04520907253026962,
          -0.8804647922515869,
          -0.12494262307882309,
          -0.05527649074792862,
          0.13721750676631927,
          0.050602152943611145,
          6.577020394615829e-05,
          -0.14155758917331696,
          0.10119757056236267,
          0.09609164297580719,
          -0.012894841842353344,
          0.12949725985527039,
          0.04975335672497749,
          0.008544182404875755,
          -0.12273851782083511,
          -0.06365854293107986,
          0.04969664290547371,
          -0.14327162504196167
        ],
        [
          -0.1158951073884964,
          -0.08937332779169083,
          -0.023309532552957535,
          -0.0312541127204895,
          0.037133097648620605,
          0.0059066275134682655,
          0.09814562648534775,
          0.07189804315567017,
          -0.03722521290183067,
          -0.10657302290201187,
          -0.07044222950935364,
          -0.016869233921170235,
          -0.09340076148509979,
          -0.04326247051358223,
          0.0054246545769274235,
          0.0359010249376297,
          -0.10082592815160751,
          -0.041655030101537704,
          -0.0016107818810269237,
          -0.006683994084596634,
          -0.06392491608858109,
          -0.08431927859783173,
          0.07081200927495956,
          -0.035351503640413284
        ],
        [
          -0.11691948026418686,
          -0.03988376259803772,
          0.02309178002178669,
          -0.07799369841814041,
          0.006818189285695553,
          0.03815097361803055,
          0.026613624766469002,
          0.13019229471683502,
          0.16643553972244263,
          0.04755695164203644,
          -0.06478442996740341,
          0.07478973269462585,
          0.054986048489809036,
          0.08735787868499756,
          0.054051585495471954,
          0.20086409151554108,
          0.18427465856075287,
          0.1597617268562317,
          0.0771399736404419,
          0.1418488323688507,
          0.25756797194480896,
          0.21777042746543884,
          0.0934070572257042,
          -0.0013040632475167513
        ],
        [
          -0.007847516797482967,
          -0.01873229630291462,
          0.07901756465435028,
          0.14980418980121613,
          0.07324855774641037,
          -0.2998146414756775,
          0.05840984731912613,
          0.15552538633346558,
          -0.11946200579404831,
          -0.11398378014564514,
          -0.14858485758304596,
          0.3121269643306732,
          -0.07939215749502182,
          -0.38240331411361694,
          0.25810912251472473,
          -0.08969671279191971,
          0.03349689394235611,
          0.09534764289855957,
          0.09200379997491837,
          -0.011809272691607475,
          0.18299339711666107,
          -0.14430925250053406,
          0.04798772186040878,
          -0.7540563941001892
        ]
      ],
      "bias": [
        0.4091426432132721,
        0.12967288494110107,
        0.06796383112668991,
        -0.02985350415110588,
        -0.002744177123531699,
        0.0504487119615078,
        -0.01568957231938839,
        0.10352807492017746,
        0.06017417088150978,
        0.30849385261535645,
        0.02076154388487339,
        0.0884748175740242,
        -0.020055297762155533,
        0.10191561281681061,
        -0.01088183093816042,
        0.13738782703876495,
        -0.08369416743516922,
        0.423152893781662,
        0.31701865792274475,
        0.1649782508611679,
        -0.07661904394626617,
