{
  "shared_layers": [
    {
      "weight": [
        [
          0.23682506034330641,
          0.0566094512815513,
          0.4955260182564468,
          -0.09006764331951726,
          -0.10002573408125907,
          0.03720571940814808,
          0.304219770378281,
          0.39398906320091825,
          0.43832195146420433,
          0.13797727178970434,
          -0.0739886769117765,
          -0.03415568364147173
        ],
        [
          -0.4215330193027076,
          -0.3179201085363333,
          -0.3838169193802211,
          0.08252123641966087,
          0.153823953310766,
          -0.04949375630238881,
          -0.048366419686762155,
          -0.040632239893391965,
          0.27818544945284623,
          -0.04491926700097858,
          -0.06707490751728888,
          -0.1832096091132717
        ],
        [
          0.3547709471526078,
          0.4298952420704926,
          0.532478002194027,
          0.11591276475352662,
          0.0323682623621497,
          -0.21301545329183647,
          -0.2718554602941942,
          -0.24015630634165827,
          -0.11390963919565744,
          0.19260067939837056,
          0.068721126276753,
          0.07478189107897455
        ],
        [
          -0.06474626288035995,
          -0.04492201650114194,
          0.18101265027894747,
          -0.08348589379303967,
          0.2223243397390682,
          0.2504444896095949,
          0.00665904635106251,
          -0.08172588229386614,
          0.0743268086466093,
          -0.17921752803544,
          0.19373160310959867,
          -0.18241299639324454
        ],
        [
          0.3378277259398179,
          0.10782089112495102,
          -0.013265962490995636,
          -0.1131854397153998,
          0.25279884886937076,
          -0.06990159025872748,
          0.10619687497774621,
          -0.25143328217468625,
          0.40949146146815835,
          0.20905730848686657,
          -0.011232430538586476,
          -0.39058627923248185
        ],
        [
          0.21024507740400966,
          -0.1691772666352675,
          -0.3744219257324271,
          -0.1457079400304405,
          -0.16913355540402886,
          0.1886927041015446,
          -0.006761489379938841,
          -0.08983122538257875,
          -0.18206293712882424,
          -0.22080314468389944,
          0.12289850402115768,
          0.23438960446629153
        ],
        [
          0.4142663521932956,
          0.1913095377305444,
          0.1820259349638772,
          -0.0975947188866218,
          0.24110185448413166,
          0.0881550856025402,
          -0.1832270305657793,
          0.029754255175144063,
          -0.10283573878103719,
          -0.063761430699726,
          0.0358567092559934,
          0.18015765001946657
        ],
        [
          -0.2572576719849713,
          -0.030120605930868224,
          -0.08416386403302525,
          -0.2216552483707202,
          -0.0861884440657274,
          0.09487141460233507,
          0.049172437333764675,
          0.04250086921303362,
          0.013482639335923544,
          0.04917535295194432,
          0.10859191535980252,
          0.0954015781211262
        ],
        [
          -0.6992345718185594,
          -0.29153995471173194,
          -0.33875005297740207,
          -0.23304889044204824,
          -0.19577474238563408,
          -0.05268893144416983,
          -0.12787538710773355,
          0.08263165184338181,
          -0.03946988717949773,
          0.1889821805574563,
          -0.05573174885353228,
          0.08081298869125988
        ],
        [
          -0.11595481918240302,
          0.05666011008983482,
          -0.3351646612715914,
          -0.08917782369803665,
          0.20078843242152938,
          -0.31577964793028845,
          0.2749113694479224,
          0.20452564631533324,
          0.16901273911093004,
          0.0976019463178754,
          -0.08980838571075946,
          0.2088530213115709
        ],
        [
          0.08330750913103914,
          -0.09773850783433692,
          -0.30417977149560305,
          -0.17794882189357736,
          -0.15388273353940848,
          -0.14395614753939978,
          -0.12528146022948483,
          0.004800084655044607,
          0.04249545935693889,
          0.054149777700203704,
          -0.0913978321816244,
          -0.35350241056641873
        ],
        [
          0.27002149862249597,
          0.12188275032980703,
          0.5594917165040394,
          -0.01899840502158703,
          -0.20388771350427426,
          -0.338351180701173,
          0.05006953558915636,
          0.025736177983382184,
          0.033562267282855794,
          -0.15867435297021956,
          -0.1693126382714537,
          -0.04324869629255307
        ],
        [
          0.23791016284463126,
          -0.026573039023581563,
          0.13731960139124627,
          -0.1830353617666766,
          -0.2707835962030592,
          0.08790095406568602,
          -0.24923224875581126,
          0.004649702254039324,
          -0.23838752964158988,
          0.004888693538351737,
          -0.2456468176573272,
          -0.10364878519578853
        ],
        [
          -0.16992512563264098,
          0.2111507215192934,
          -0.3387364954379902,
          -0.10461960412534907,
          -0.121296470448697,
          0.23546339932316276,
          -0.13515073995555393,
          0.0056640767383298535,
          -0.22332550743692892,
          -0.12729925688980076,
          -0.14917928345501516,
          -0.46279625815326
        ],
        [
          0.23049745629420393,
          0.08972715736410343,
          0.160880828962604,
          0.18374602705776402,
          0.11800123097188106,
          0.16777449207952497,
          0.08896007480852129,
          0.06922575040164658,
          0.2601253941287455,
          -0.24845777091150398,
          -0.01660081518271967,
          -0.2402995052322511
        ],
        [
          -0.1313845957879083,
          0.18606217454756724,
          0.09989993765465593,
          0.20994760600043574,
          -0.07112003497278668,
          -0.03951659886228747,
          0.0466507509158722,
          0.2491123975880223,
          0.18561577482437402,
          0.11612872118620227,
          0.13064343417404822,
          0.18016005688800668
        ],
        [
          -0.37776849818419,
          -0.0534692141553517,
          -0.07164390653882387,
          -0.019215411543828637,
          -0.117689692302777,
          -0.0803005566958524,
          -0.14720558046415727,
          0.023369245181071762,
          0.30871200026125195,
          -0.07775138604520054,
          -0.04720064119257725,
          -0.09488328127312595
        ],
        [
          0.02832438709491199,
          -0.026401405300071342,
          -0.6180133330021271,
          -0.26088389049072713,
          -0.24753002328311727,
          -0.2815934531301717,
          -0.1156095912675264,
          -0.11075134416833309,
          -0.2842799568578904,
          -0.04987474925860786,
          0.10345404146040377,
          0.24713093493031874
        ],
        [
          -0.33113069446608545,
          0.12578995574773622,
          -0.3641396722463813,
          -0.1920644726486036,
          0.05083730652795305,
          -0.05328934807155345,
          0.006521434819264952,
          -0.07724325892231104,
          0.05929418847219856,
          0.11480810708661682,
          0.2047040610362207,
          0.2659302940217485
        ],
        [
          -0.050530508145120084,
          0.2839728949374778,
          -0.49211286359605017,
          0.2066789658353665,
          0.3566001212380166,
          0.40015585551540517,
          0.22316108195359777,
          -0.1145623380005569,
          0.06999530133603336,
          -0.05111496020959462,
          -0.1761337689667823,
          0.00027494892295202054
        ],
        [
          -0.19435587859387643,
          -0.1348595209543283,
          0.3943462661130532,
          -0.16961131159035575,
          -0.0866708278337077,
          -0.2964218429387081,
          0.03539983038230976,
          -0.02087129537233975,
          0.0766598961992735,
          -0.059178262186329086,
          0.14278516821818352,
          -0.10578288232856885
        ],
        [
          -0.45537121757671256,
          -0.35845994001179626,
          -0.48842653739976105,
          -0.2065114543412811,
          0.22719431685265898,
          0.025499919891362785,
          -0.1765902570132236,
          -0.3860463299340706,
          -0.15616074083768394,
          0.2124707247085607,
          0.01911714211758423,
          -0.2722701789158314
        ],
        [
          -0.36290669388997554,
          0.13116596149710452,
          -0.6525255818511471,
          0.05442062873291117,
          -0.043811062864852236,
          0.09422727504593632,
          -0.01461811227637385,
          0.037222417430866656,
          0.01863194630772036,
          -0.19201388903354605,
          0.05783777499561251,
          -0.003003438062166511
        ],
        [
          -0.1023030622833086,
          -0.34768064070907334,
          0.023998395130892317,
          0.3352203666867505,
          0.47870715045029777,
          0.2937630088007296,
          -0.033199214764663025,
          -0.04774722517940788,
          -0.019025887825577393,
          -0.13689181484316015,
          -0.2428595630640695,
          0.10105519624708602
        ],
        [
          0.07773552213111277,
          -0.046364001304065004,
          -0.003369482801382343,
          -0.10883382292667225,
          -0.11999605097312553,
          0.1795927169617936,
          0.1611025246269253,
          0.19721297984842867,
          -0.09055746851446023,
          0.24510628627190273,
          0.2598878623545762,
          0.18258338492274048
        ],
        [
          -0.2125733535020469,
          -0.40998258044172176,
          -0.5656357363475613,
          -0.22462806626474827,
          -0.21810334755707228,
          0.11792333998266442,
          0.22735216123606136,
          0.22335497595946177,
          0.03992086367290008,
          0.095041519530559,
          0.0032695440103678707,
          0.2410107557918055
        ],
        [
          0.1390486422926033,
          -0.30294922495313925,
          -0.25505035733759374,
          -0.1314265065854479,
          -0.008527142807724389,
          0.17316044219242832,
          0.11374439670340131,
          0.11938652703504812,
          0.13377578572703536,
          -0.06808162630899876,
          -0.1318833417320728,
          -0.12307777758496909
        ],
        [
          0.22239983973024072,
          0.1495155595353004,
          0.08042279259168615,
          0.26088033040624886,
          0.08974071545880746,
          0.24843387190468066,
          -0.06681693531297593,
          -0.0005069113120184606,
          -0.04356724074269562,
          -0.135372535298835,
          -0.19620083614782902,
          -0.09396627493100161
        ],
        [
          0.1227804815637359,
          0.12144674397020513,
          0.16985066304688193,
          -0.12030548524228477,
          -0.2003688855092187,
          -0.34941970078968015,
          -0.07763454907937356,
          0.11036390953744579,
          -0.0213845394170078,
          -0.10775754990974762,
          -0.14762637275575333,
          -0.06932805630328438
        ],
        [
          0.43402951023392605,
          0.05678026930862271,
          -0.0847369391229588,
          -0.13341012030769642,
          -0.08598029645513613,
          -0.010149743371137287,
          0.006333152393082835,
          0.10879684120181175,
          -0.12608463964893,
          0.12013692505582496,
          0.1174852293621561,
          -0.10657672149560711
        ],
        [
          0.07658387979525108,
          0.25258792108154066,
          0.015947270099071993,
          -0.139222476464444,
          0.16859319830523187,
          -0.25258982931652796,
          0.058679568229962856,
          0.15811766259045132,
          0.16560870568812808,
          0.2095287927069245,
          -0.0037335754819678288,
          0.08181993665525264
        ],
        [
          0.18007085830389885,
          0.20836547248017892,
          0.21149983710263326,
          -0.031096447953417986,
          -0.07484771368256632,
          -0.03501149563815094,
          -0.3005352271040214,
          -0.31799350223795786,
          -0.15961260243383685,
          -0.24716585220006396,
          -0.16683661142137443,
          -0.22987879861956848
        ],
        [
          -0.2925724335424464,
          0.2598606661682362,
          -0.5039087855112867,
          0.1416003853108104,
          0.05200949306877597,
          -0.020018246747948776,
          -0.2079450168195994,
          0.16239528336422504,
          -0.24330587763053227,
          0.1419598237807668,
          -0.06623143729848704,
          0.24367662600380036
        ],
        [
          -0.15788655131549356,
          0.26054035794777725,
          0.410296759677429,
          -0.4142196750747588,
          -0.10267574521412211,
          -0.21461641082611146,
          0.15019455816383528,
          0.0045261241038265934,
          0.0932672252282978,
          0.08928750392054348,
          0.14127577543742642,
          0.15296563874712507
        ],
        [
          0.11503930487678235,
          0.2798478868949765,
          0.24141914663399194,
          0.0049055234606873695,
          -0.2715352436325225,
          -0.05037463116643903,
          0.2073382911396849,
          0.31193434046413665,
          0.2551557345986541,
          0.18926489796887103,
          0.0035094608206297853,
          0.1302280084194314
        ],
        [
          -0.13300054865409858,
          -0.08950101891570207,
          0.1688907431877023,
          -0.22927641164861132,
          -0.09477271395546762,
          0.27168082181404624,
          -0.0062888196439190355,
          -0.1875511569264684,
          0.10788995849261848,
          -0.002190367331840825,
          -0.19819438892548982,
          0.05231727723986286
        ],
        [
          0.37768933491806506,
          -0.015195194644599043,
          -0.30978674158224934,
          -0.15236104426446007,
          -0.21602014302493855,
          0.01936829142731304,
          -0.034330147198191795,
          0.053649379919535924,
          -0.07567665537626457,
          -0.21252298668458855,
          -0.14585567836501187,
          -0.1675527932415282
        ],
        [
          -0.2999327242506442,
          0.08040508850103444,
          0.028928228311554442,
          -0.057267188570060315,
          -0.04738204541008106,
          0.025385733875201134,
          0.3426200509385053,
          0.1563080482585941,
          0.2837586157166152,
          -0.3389015884314509,
          -0.17066547406183274,
          -0.2064266194465447
        ],
        [
          0.15758078081775923,
          0.5050352471295326,
          0.4398131697727849,
          0.17079794603129828,
          0.011874179418360229,
          0.1683387486569906,
          -0.1771418411121541,
          0.08722055913280412,
          -0.07001992948546082,
          0.13589910826840534,
          0.03436838695311129,
          0.26672705031030103
        ],
        [
          -0.2398491590199785,
          0.3111192654265141,
          0.4290000501859422,
          -0.15287442124185446,
          -0.11959265504963833,
          0.13576696638905905,
          -0.045016391486898163,
          0.12434542796397823,
          -0.15542768709073326,
          -0.01996694788097829,
          -0.07309142916053396,
          0.0338174820561472
        ],
        [
          -0.06270226920126913,
          -0.11242108080046698,
          -0.15243838000613955,
          -0.043162010291425315,
          -0.1117349513064912,
          0.12711984830157969,
          -0.02779023835480037,
          -0.07654087457992137,
          -0.29020179985519423,
          0.1691835754772716,
          0.03302745717885009,
          -0.11766686606194057
        ],
        [
          0.4114466844450631,
          0.297506674184666,
          -0.10645017620151502,
          0.18411846817037783,
          0.05398976627762848,
          -0.31296534514786234,
          -0.1160828323693361,
          -0.017804099520098923,
          -0.13557821494838032,
          -0.09087264764137366,
          -0.05795450716596751,
          -0.04887203264445295
        ],
        [
          -0.2820572438206684,
          0.4955737549639867,
          0.5322123780849488,
          0.13951302487077538,
          0.01807149514780042,
          -0.054156615136049,
          0.18736283140574408,
          0.013431981054859212,
          0.1426253049664849,
          0.17372303564306316,
          0.0791517275662435,
          -0.11158774189798741
        ],
        [
          0.006566524376456841,
          0.26781659607869607,
          -0.3107317007720499,
          -0.19842813273722168,
          0.13902178321480027,
          -0.28538677870178947,
          -0.2885196428981655,
          0.05372217963956161,
          0.019282029565477272,
          0.07300262517379984,
          0.16938428508366654,
          0.28300998809553124
        ],
        [
          0.1344466679850432,
          0.2866754045290182,
          -0.01767142106052702,
          0.1698654515656056,
          0.03703963842850427,
          0.22812048313415126,
          -0.021155237337422465,
          0.21825286487747472,
          0.41097484147715513,
          0.08259452832555401,
          -0.18059585034241193,
          0.08699830699444812
        ],
        [
          0.26731549384031583,
          0.059568765968033746,
          0.2878995869975564,
          0.024722756048267184,
          0.14461220735010152,
          -0.21259793612803213,
          -0.1930036867037855,
          0.06803958303366894,
          0.33241790765206464,
          -0.06215213667818647,
          -0.051588795861378184,
          0.13240391237486362
        ],
        [
          0.04012996196040881,
          0.18568286332227296,
          -0.9129319426551601,
          0.051963635622818874,
          0.048243345161815804,
          0.23972185364525994,
          -0.1810448344447301,
          -0.03988179859543961,
          0.027572776354680462,
          -0.3053130582952444,
          -0.4074022580769873,
          -0.22127863628021102
        ],
        [
          0.22957853919328938,
          0.1009290623932667,
          -0.2050194859733677,
          0.08864721302980916,
          0.32503214225113314,
          0.24103191784505568,
          -0.07573852957313912,
          0.1849095634389084,
          0.11351340945770767,
          -0.11031742520527013,
          -0.02437425422225295,
          0.08079394059783283
        ],
        [
          -0.06375922064391083,
          -0.34021389264544144,
          0.5074279944292558,
          -0.009378401830273556,
          0.2181219836233284,
          0.06884061482950249,
          -0.15528173067104575,
          -0.10434082108540074,
          0.143922393463921,
          0.16279633040764038,
          0.24866969672398842,
          -0.009144775325093002
        ],
        [
          -0.00031781476795335193,
          0.058030174920960874,
          0.015951353291065583,
          0.1808394953328858,
          -0.2819568228606579,
          -0.12706349519405108,
          0.29798657028679904,
          -0.08750674846962334,
          0.05220681930093138,
          0.039425395578660524,
          0.06168973937791116,
          -0.03594713279813488
        ],
        [
          -0.1867019577058693,
          0.17955026983015557,
          0.36831812797669755,
          0.23949384799647053,
          -0.02583008988630332,
          -0.31892734570423337,
          -0.16029165890312058,
          0.10719725618654283,
          0.12708841458225079,
          -0.12690185789831696,
          -0.07743299393884437,
          -0.0968989904169579
        ],
        [
          -0.27779113973062947,
          -0.30032975999429073,
          -0.32459084754479656,
          -0.05264754961514137,
          0.18740249685187263,
          -0.06364396065131894,
          -0.11817655540900142,
          0.03248357817015241,
          -0.13362452706913447,
          -0.2233697683195147,
          -0.14546403792059034,
          0.06093341729193809
        ],
        [
          0.07017349381380501,
          -0.32127420430683984,
          -0.446007803428021,
          -0.3146077710036511,
          -0.1557471178096701,
          -0.11001017882250753,
          0.031670964815337925,
          -0.195198004997537,
          -0.002981938771163732,
          0.126256772254441,
          0.14577657423498083,
          -0.19096449031247256
        ],
        [
          0.11726596838423134,
          0.10167436687233943,
          -0.32564095385077785,
          0.16202635377302868,
          0.33291111219106434,
          0.39966501161944407,
          -0.0553997120672264,
          0.19591422328035502,
          -0.12742613864646898,
          -0.27564235078721355,
          -0.20511859007249725,
          0.0030656574887806395
        ],
        [
          0.13174514588402303,
          0.17344622053533307,
          0.380682798224991,
          -0.002971950685977965,
          0.18683619612727922,
          0.37135253652548217,
          0.18449920937581546,
          0.012988757088897553,
          0.2139917768423596,
          0.09002581465287265,
          -0.10510307884479955,
          0.013737182656429045
        ],
        [
          -0.22443386750224278,
          -0.24585648515400194,
          0.228713793040956,
          -0.031131095382900494,
          0.03346370457697296,
          -0.16965644102443153,
          0.19263700264167063,
          0.047526519133888216,
          0.013201947256600809,
          -0.1285958685900766,
          0.014366271700638786,
          -0.11321968379746322
        ],
        [
          -0.3766150021028442,
          -0.3035962382117088,
          -0.30372227267782337,
          -0.2300036061824242,
          -0.2802657170945139,
          0.11884715448323248,
          -0.23227628338577558,
          0.014846711242562458,
          0.20118553184726032,
          -0.2639160512041698,
          -0.1219652374915259,
          -0.07654230261988919
        ],
        [
          0.005482514532968959,
          0.2813893613671808,
          0.7242554556701455,
          -0.013697299401678888,
          0.1981359934989589,
          -0.09542768878867176,
          -0.07583005807937608,
          -0.03445753460346343,
          0.014657021502119559,
          -0.1309081812526953,
          -0.20726686048290602,
          0.04871132525440046
        ],
        [
          -0.21249479325163276,
          -0.19615067121142934,
          0.18796799339436351,
          -0.10426436975069119,
          -0.3272147925902963,
          -0.048477728088572446,
          0.0561208441348862,
          -0.13221445781463728,
          -0.29842124272880705,
          -0.3325509596810465,
          -0.2695569382478874,
          0.00871685174872663
        ],
        [
          0.28576334025034655,
          0.14063121568254455,
          -0.2582572803923655,
          0.1383589289349177,
          0.09421139157738316,
          0.3961935227117711,
          0.18180547179316853,
          0.23747388763371235,
          0.14797686638092078,
          0.13813282625083853,
          0.1991344364580897,
          0.2659282439791459
        ],
        [
          -0.18189618786242667,
          -0.03958323112661277,
          -0.31322366032003945,
          0.28615331777562447,
          0.19003213936046115,
          0.043949127926264354,
          -0.1960581265469924,
          -0.0475213612331168,
          0.13746611674712478,
          0.10517516549133601,
          0.19151254806960918,
          -0.024024881615505835
        ],
        [
          0.14823805597189108,
          0.028005494338502163,
          -0.06867881364672625,
          0.11541097916835198,
          -0.038086087015911936,
          0.38918989357687955,
          0.16896957428055648,
          -0.0890657846812551,
          -0.008099066159206823,
          0.03160152281271205,
          0.045884846365329204,
          0.1123369560303231
        ],
        [
          0.2992530069377017,
          -0.19054739632640808,
          0.19113670754053527,
          -0.08911560562214889,
          0.009312404047749323,
          -0.25826612890644235,
          -0.23510243589065807,
          0.1670496971260634,
          0.0810426186844566,
          0.2900774132737451,
          -0.02756910718690112,
          0.10926861116526114
        ],
        [
          0.0716044268679139,
          -0.23361654276691432,
          0.07986760334197855,
          0.2270818594703999,
          0.0483768327729073,
          0.3584168553918496,
          -0.21787499645784264,
          0.0631642899612038,
          0.15044152288380994,
          0.0469034568073454,
          0.10899319850328194,
          -0.2692701300680297
        ],
        [
          -0.2667475205001554,
          0.037681965480254695,
          -0.28662650439004944,
          -0.13140482958207755,
          -0.05089541805675228,
          0.10360541752803601,
          0.08712923878331948,
          0.02642737106676534,
          -0.12994453991386518,
          0.04189619950595775,
          0.05679161532507866,
          -0.27463466309999585
        ],
        [
          -0.2406981891360911,
          0.011540653657527834,
          0.7590497583961646,
          -0.31713578341074955,
          0.23738632464393034,
          0.16577336547968055,
          -0.2353846144850916,
          -0.04271131771282252,
          -0.199737489555682,
          0.03746207797016132,
          0.16596894737597226,
          -0.15027719500557812
        ],
        [
          -0.3252583771534144,
          -0.22126284553401593,
          0.31850161621358336,
          -0.07808896757096734,
          -0.1777151723491755,
          -0.22365040212305812,
          0.08011868594527238,
          0.03394018899165649,
          -0.10978998566228958,
          -0.31131029964154056,
          -0.12663940737452392,
          0.0970903607137954
        ],
        [
          0.008749386438823887,
          -0.3090648622732975,
          -0.22686381910173828,
          0.16694389158783457,
          0.26980137832684614,
          -0.24061339171826823,
          -0.009578354436267424,
          0.16698140617839757,
          0.34129444433899125,
          -0.08232529686796075,
          -0.08766844803460919,
          0.2316912487759155
        ],
        [
          -0.4105529722472285,
          -0.10982018575856374,
          0.23934293717929972,
          0.054171060341122186,
          -0.02436090322716628,
          0.12227084673479677,
          0.3038714827444109,
          -0.009868281193573077,
          -0.2623967900664259,
          0.15927553736786818,
          0.07610334808018569,
          0.10860861588318957
        ],
        [
          -0.04823819109963924,
          -0.16209764018774966,
          0.40925966576948464,
          -0.08003962941221185,
          -0.16185213728814157,
          0.12638506556107545,
          -0.0654202335601042,
          -0.21344092204023893,
          -0.18018218773042194,
          0.061665597881469095,
          -0.030679161619108428,
          0.2305473913835593
        ],
        [
          -0.3880921941695352,
          -0.09881370934302838,
          -0.0087728044452426,
          0.02779197120216206,
          -0.07784350239513778,
          0.38912016708629277,
          -0.018018997743107352,
          0.3489390562480206,
          0.28981667680575574,
          -0.07905978802785994,
          -0.01239685028951436,
          -0.2241098493034038
        ],
        [
          0.01741270941814272,
          -0.18525418731162888,
          0.08641662316544302,
          0.10912930601005337,
          0.22499917345472653,
          0.31621117830287765,
          -0.11409050301916869,
          -0.07907185265387992,
          -0.05449000768470626,
          0.0144987617449325,
          0.2855886415527271,
          -0.01601640287676255
        ],
        [
          -0.37673324773470107,
          -0.22951077500897496,
          0.5625009650662283,
          0.005529172917576883,
          0.17244225430251786,
          0.45623270037572544,
          -0.15754089681261957,
          -0.10015509415622517,
          0.18514521668930872,
          0.025242354610504596,
          -0.015124791825910306,
          0.031015114998248355
        ],
        [
          0.04486131202888362,
          -0.2804033318743866,
          -0.7611208801860253,
          0.1625133344011447,
          0.1918657487023568,
          -0.07402937167154135,
          0.23045264201400262,
          -0.13300594200360633,
          0.05494264144761653,
          -0.11807568054679292,
          -0.07224861058987965,
          -0.03765013634731105
        ],
        [
          0.13662842175114961,
          -0.23464110704464392,
          0.24303846773342605,
          0.21874348132553662,
          0.20860099161013823,
          0.38847805396362856,
          0.18628815704958335,
          -0.000795725257392634,
          0.04162047283386513,
          0.08192503081619998,
          -0.042246338443747276,
          0.22076057127457635
        ],
        [
          -0.13018829422391898,
          0.4375329978494243,
          0.2771669776772287,
          0.039329116016573094,
          -0.1151287526447709,
          -0.052714881197818,
          0.15364706457958205,
          0.13783578163448273,
          0.04602586895586102,
          -0.08404071383314488,
          0.23848598804502025,
          0.2604863257388603
        ],
        [
          0.3648136398359983,
          0.1497448759474203,
          0.07570267396177612,
          -0.31552393285158303,
          -0.19347580569894537,
          0.1791941530576313,
          0.17686115724814064,
          0.20090555167871038,
          0.23323756350859032,
          -0.2218733647287706,
          -0.25076208212672557,
          -0.24190607247338639
        ],
        [
          -0.07328661406744813,
          -0.291477344345841,
          0.11037244776614324,
          -0.2655682462242109,
          -0.12606228448079648,
          0.008834482221695092,
          -0.16691962446205702,
          0.11067750969574586,
          0.22415595854218331,
          0.146901959666045,
          -0.08203329651422597,
          0.13143415961995267
        ],
        [
          -0.029429097808958485,
          -0.5030047592242233,
          -0.018523475533759482,
          -0.008157584528868495,
          -0.3356428832105706,
          -0.2183435454618068,
          0.0027228476233253935,
          0.04471378569084708,
          0.21113699769277208,
          0.05777055247656941,
          0.14244864230464915,
          -0.04284801614950439
        ],
        [
          -0.05262574219151702,
          -0.19100532876024565,
          0.19383239745424002,
          -0.08291026450762591,
          0.31661620041418354,
          0.13385921914355964,
          -0.1791813229627917,
          -0.05494731123944044,
          -0.10371997238181206,
          0.07873019192502548,
          -0.13495273027821764,
          -0.04820792855923171
        ],
        [
          -0.20391060243526965,
          -0.25064108347385383,
          -0.3514910418526467,
          -0.13514157387461365,
          0.13003177363788018,
          -0.31905878956443634,
          0.28744121720692006,
          -0.19407190851119807,
          0.24560870439109384,
          -0.14440769704712939,
          0.2826818959443037,
          0.16030596239351635
        ],
        [
          0.16969603273726647,
          -0.036048745084555085,
          0.042727234467573094,
          0.08572243119457117,
          -0.06495547118325848,
          0.15422193114905602,
          -0.14663795255526899,
          -0.23539206877108376,
          -0.2755023357085149,
          -0.20864538755212966,
          0.15931473435661547,
          0.21881775440886247
        ],
        [
          0.038375598834428426,
          0.381663685696972,
          0.06242608398870182,
          -0.11811491688414605,
          0.1112651553365401,
          0.5018982804460638,
          -0.2040394882439996,
          -0.1829290516789288,
          -0.021068936557907526,
          0.22864149106509257,
          0.27487344212328174,
          0.15444090241665787
        ],
        [
          0.07736023513070815,
          0.18804153466348195,
          -0.2511791908983999,
          -0.2079449466548384,
          0.09633012834039717,
          -0.23806153099209662,
          -0.04625368350949391,
          0.013480265540081105,
          0.2081677274488672,
          -0.12138219796108357,
          -0.2208344131360992,
          -0.1263308552343248
        ],
        [
          -0.0289511126494162,
          -0.13733239183670018,
          0.09577102523882143,
          -0.08983376672501754,
          -0.13465348324807574,
          -0.26672798131102327,
          -0.012873452925493009,
          -0.18698207764280259,
          -0.15922132275946502,
          0.08537043492615014,
          0.28588194986345794,
          -0.13617918462438405
        ],
        [
          0.03635707609051113,
          -0.07667729396427156,
          0.08024126417074771,
          0.17056203166639453,
          -0.14710240639177186,
          -0.1435102874710331,
          -0.1820698453803561,
          -0.15547509459776618,
          0.1153576008967561,
          0.08668892276926708,
          -0.14588014085115694,
          0.2900182929684201
        ],
        [
          0.21077508349764887,
          0.27337129869893384,
          -0.2349486377084675,
          0.06501250865698496,
          -0.14870483026575967,
          0.13863671035403735,
          -0.13320728328570275,
          0.09009940646198594,
          0.15916927437865888,
          0.07480064484512203,
          0.10381603329854029,
          0.04042931476026485
        ],
        [
          -0.06610094067211124,
          -0.2913749959353599,
          -0.2320563237876583,
          0.11315753765797226,
          -0.2567767731133631,
          0.17922870263271387,
          -0.030311182193072626,
          -0.11118360085716884,
          -0.040623448927614395,
          -0.3409338410377666,
          0.1340929531697263,
          -0.023552761086193866
        ],
        [
          0.022366573430111968,
          0.39696006192059596,
          0.3650800616325811,
          -0.0853233951941749,
          0.25602379880416126,
          0.10559126150057045,
          0.30302418707587864,
          0.10850205011074233,
          -0.12034535473944422,
          -0.3562672057856989,
          -0.21244635647515184,
          -0.008395178574716958
        ],
        [
          0.021169843392587595,
          -0.38602870383427096,
          0.49614333820713713,
          0.2883490629120593,
          0.17265530598541057,
          -0.10911439731800253,
          0.22520212107630516,
          0.22390978055472396,
          -0.027144687389897375,
          0.02625566809232052,
          -0.04473934962962686,
          0.09120630211985528
        ],
        [
          0.48279233722302917,
          -0.10747670814476287,
          0.09213822205440847,
          -0.3150845607392875,
          -0.431415955324827,
          -0.3380349229799295,
          0.19147680690316,
          -0.06780679744787808,
          0.3045608914524042,
          -0.08637924459589766,
          0.06171258270932676,
          0.13540106315762704
        ],
        [
          -0.13549266337141513,
          0.10492091158530116,
          0.16919359513244966,
          0.06294493659745555,
          0.07389676573721819,
          0.1720192258002896,
          -0.2567274613805725,
          0.2411594466343286,
          -0.12191019937077183,
          -0.1301455702474136,
          0.22895159639929352,
          0.016177474098531784
        ],
        [
          -0.22062437511157432,
          0.17377323459171323,
          -0.0514428171374753,
          -0.030586114978526306,
          -0.23683493720404364,
          -0.21955719002443727,
          0.01158337257889997,
          0.29731969564486743,
          0.35519247736414555,
          -0.32019751294764837,
          -0.026915295051918222,
          -0.16334092542074125
        ],
        [
          0.4214966736505465,
          -0.27363366165617875,
          0.15929626119595655,
          -0.025368831649738736,
          -0.14351199422593924,
          0.12192029058720853,
          -0.0585460200411594,
          -0.14903712492570387,
          -0.11482234472070164,
          0.08941996638010072,
          0.230631417411905,
          0.2610805453694486
        ],
        [
          -0.16021257997435928,
          -0.39263111315197763,
          0.40099382283665264,
          -0.20791364825883613,
          -0.09696266153989501,
          -0.24081194676726939,
          0.004584873072834575,
          -0.13887107558245754,
          0.20047133076598322,
          -0.143544184022542,
          -0.025979844267592568,
          -0.12500719578904107
        ],
        [
          -0.0018933310933484445,
          -0.3011495575360814,
          0.44779927138548625,
          0.24137991905399964,
          0.12233033183776094,
          0.33250249353221406,
          -0.09922587578191903,
          0.21893735526215055,
          -0.3213676820216705,
          0.18841945141253927,
          -0.22653620374060654,
          -0.17979309869948154
        ],
        [
          -0.22520039839234213,
          0.0651082379051196,
          -0.07366852038247106,
          -0.22369435294142348,
          0.3095670640027804,
          -0.32263656259600987,
          0.19746419358181663,
          0.2427604261595757,
          0.05374285739686917,
          0.24327875726502338,
          0.11389947218039069,
          0.1572433294336392
        ],
        [
          -0.15740965034485024,
          -0.0772296595229422,
          0.07422852673505417,
          -0.18199147748492017,
          -0.09554408910418628,
          -0.19596160985035224,
          0.004740634019538004,
          0.024944553565917633,
          -0.027944345177353135,
          -0.1231097483267164,
          0.159554489712154,
          0.034487751371958066
        ],
        [
          -0.09900492219602078,
          -0.1867418002337498,
          0.016753331188291927,
          0.16265728855560505,
          -0.17518932882096297,
          -0.018791976319210427,
          -0.05806476138013123,
          -0.04148688359568175,
          -0.013084005522754232,
          0.23415872565409304,
          0.12634066268382083,
          0.35103682685731974
        ],
        [
          0.13478225858155266,
          0.30412715614296404,
          -0.28369034190580456,
          -0.2644927183319304,
          -0.09347979201425352,
          -0.37756461120624085,
          0.12005684005549429,
          -0.07900586764045965,
          0.27631884475489815,
          0.2787618334498129,
          0.1632804126571965,
          0.24699142518672795
        ],
        [
          0.1568869991798644,
          0.1728365923208162,
          0.27736587658916406,
          0.1570800499087731,
          0.1902184784735017,
          0.014591936325846658,
          0.24288407580336774,
          0.22956771787652325,
          -0.05911632485061222,
          -0.01148048519983385,
          0.41953340207842316,
          -0.09690364059509828
        ],
        [
          0.3161798035386316,
          0.34793385547781325,
          0.6252511684573776,
          -0.003856151953535737,
          0.22577243582198187,
          0.1850407748236613,
          0.23151868308313633,
          -0.08534696367680247,
          -0.11119654209815263,
          -0.1428407166588207,
          -0.01912665725608014,
          -0.002499988290849363
        ],
        [
          -0.2865497559315838,
          0.15640696731523904,
          0.3077557850901203,
          -0.26605210407608754,
          -0.00018294158722670544,
          0.12797349691646723,
          -0.23876420676139526,
          -0.18610994835529363,
          0.09513769109743385,
          0.07425009609697986,
          0.08080337540130565,
          0.1752746102723754
        ],
        [
          -0.27623638086753627,
          -0.10455075552485044,
          -0.4661514357922089,
          0.27179574244025295,
          -0.0272144249191705,
          -0.16786188414325942,
          -0.19371642398661773,
          -0.09788788867329075,
          0.4316390517819022,
          -0.2473944532885496,
          0.2398432471103506,
          0.1157270186708402
        ],
        [
          -0.08599490402970278,
          0.13877274993368696,
          -0.3108926918181001,
          -0.021899237917469557,
          0.08153960342458029,
          0.1192191168877848,
          0.12739462357196157,
          -0.09963528228363504,
          -0.04409092098004356,
          -0.1821610786259647,
          0.139215516859015,
          0.03054435870716163
        ],
        [
          -0.05219795489890626,
          0.16831366710461226,
          0.7398756119287422,
          0.15598134176505174,
          0.011245627918247328,
          -0.40504632460725604,
          -0.2311914529306231,
          -0.3602706971040313,
          -0.43599281707231174,
          -0.1926784510649503,
          -0.00438230884753656,
          -0.12660777424176
        ],
        [
          0.1715248557175766,
          0.3539983289375013,
          0.44120621150372846,
          -0.008252334204207195,
          -0.05800532165239828,
          0.27399721158123985,
          0.002123083194170034,
          -0.06059784633354033,
          0.11864603304622141,
          -0.016435662669393863,
          0.22525971279494914,
          0.2518316507652221
        ],
        [
          -0.2730580692943943,
          0.06460384531818536,
          -0.04668937520903133,
          0.06551450786586047,
          0.12536075594763704,
          0.03748528130601711,
          -0.18154191709329126,
          0.05045416905886114,
          -0.32099989680245666,
          0.31871996762813937,
          0.2305950156859239,
          -0.04233171037818277
        ],
        [
          0.0856910134752519,
          -0.039838070388992744,
          -0.06658647639319457,
          0.23597933127866436,
          -0.22429285171152252,
          0.024047824408155456,
          0.12333982262082324,
          -0.09221691917372737,
          0.20854403642227762,
          -0.10091095740651994,
          0.05870060654343345,
          0.045137122020082326
        ],
        [
          -0.15855772353181796,
          -0.32283985896863665,
          -0.43001858586609887,
          0.21616561086574013,
          0.10815526331452861,
          0.29073509692425203,
          -0.15414350567038204,
          -0.2778402809576844,
          -0.22815452086425003,
          0.09563488271914425,
          -0.17581614257243278,
          0.20339733705351326
        ],
        [
          -0.17018248229420868,
          0.289369774796664,
          0.49713561634961495,
          -0.10157766350964197,
          0.030847477718924456,
          -0.18319796401420668,
          0.25030610796700414,
          -0.023683039715499236,
          -0.10150656713786241,
          -0.14161878594789173,
          -0.12764536924962006,
          -0.037032474467971
        ],
        [
          -0.17510429700771765,
          -0.22824806377433088,
          0.565867872059373,
          0.12790940756173544,
          -0.13728693505314193,
          -0.11897347381094867,
          0.15362610613724192,
          0.036263665117791236,
          -0.19045952910878894,
          -0.2726691021232491,
          -0.1342423175843447,
          -0.35630454906267817
        ],
        [
          -0.3844858688672821,
          -0.2547664448506205,
          -0.21918519530457053,
          -0.16400006134464226,
          0.2483692367301065,
          0.16246754757775758,
          -0.015866316209283627,
          0.11304201521961511,
          -0.17494153939302748,
          0.09405678794723274,
          -0.03649989762973326,
          -0.04718659041529686
        ],
        [
          0.12183738174480342,
          -0.04850439141512394,
          -0.20128991936827498,
          -0.23401820523045266,
          0.08928329014167818,
          -0.11175828609176727,
          -0.052232041745793954,
          0.16912848681138784,
          -0.006133380257858793,
          -0.2004710976437306,
          -0.006034780595071119,
          0.2016311727510383
        ],
        [
          -0.07537724934922602,
          0.014491519814793982,
          0.11140172684762231,
          -0.2623492365679042,
          -0.08291024131534216,
          -0.29415932129565636,
          -0.25130430900460576,
          0.0852487687932426,
          -0.3434632326316194,
          -0.2674147888617917,
          0.21270693328561635,
          0.018063725093480143
        ],
        [
          0.4116478933125615,
          0.3479994824758537,
          0.05869937765377353,
          -0.03687395743724492,
          0.18162397076820283,
          0.23716859259266396,
          -0.06315874830604729,
          -0.1688943836575347,
          -0.09711739675231047,
          0.103593246030933,
          0.18663309416310156,
          0.16568709123704542
        ],
        [
          0.08314680451865264,
          0.21268387507116715,
          -0.27673299412270497,
          -0.3838602622097,
          -0.2440340271740167,
          -0.1024655902168886,
          -0.03720656005733501,
          0.14646750359807018,
          0.06389321453200067,
          -0.06603056802166063,
          -0.26291056307966687,
          -0.08260834711681424
        ],
        [
          -0.06238507580916021,
          -0.2502021726781519,
          -0.013558788043340694,
          0.40443521590671305,
          0.16045406532675388,
          0.4030790332734178,
          0.36003431312163264,
          0.09326778981758028,
          0.3279694773385356,
          0.15800973472334665,
          0.25560268639552514,
          -0.01572238002589152
        ],
        [
          0.21150418445358746,
          0.2396237627197806,
          0.11393692807482,
          -0.10097365727872232,
          -0.05244209969214913,
          0.070659940659348,
          -0.015081710235626909,
          -0.08879884367291517,
          -0.17585085132006054,
          -0.038497141809007124,
          -0.03266136325242212,
          0.1491197565520015
        ],
        [
          0.008687115542384013,
          -0.07287687178599755,
          -0.06138238018111031,
          0.1312228009722922,
          -0.07433665614364414,
          -0.21921497112583818,
          -0.03012221285328971,
          -0.14473385494906796,
          0.11472078381033858,
          0.10628955551801075,
          0.031335854618807536,
          -0.2669825993477186
        ],
        [
          -0.01430029189807812,
          -0.07342972842316217,
          0.21522479873873607,
          -0.12322294908440755,
          0.11384863533628928,
          -0.3597676809347316,
          -0.0025486192334661763,
          0.05629896718065193,
          0.07091898047070677,
          -0.025115920919754814,
          0.11686641512807104,
          -0.23788874426386028
        ],
        [
          -0.01702341340523681,
          -0.23146714770296736,
          0.08370408307432453,
          -0.11565974215148561,
          0.16781487556673066,
          -0.04485678181466044,
          0.20996505586550807,
          -0.17186756526015853,
          -0.09164892196225956,
          0.1529324734575727,
          0.18074970864791573,
          0.23015520027243197
        ],
        [
          0.1630220428619798,
          -0.3080961658579827,
          -0.21381159512107892,
          -0.06915776856821451,
          0.10427033544417547,
          -0.3426942975933161,
          0.16157877711382554,
          0.15621043403122753,
          0.2884956081533215,
          -0.2604414027385664,
          -0.18199943197018936,
          -0.12412125011387418
        ],
        [
          -0.058231960195465914,
          -0.06647621486926097,
          0.3243679469852899,
          -0.02730326575638563,
          0.021095245282657746,
          0.06154404228760208,
          -0.132699406571718,
          0.13900644684066218,
          -0.13518703006734253,
          -0.1880902372521563,
          -0.09414440140490084,
          0.03906010400366127
        ],
        [
          -0.17474627871897044,
          -0.23313227423621588,
          0.3077508064557918,
          -0.18427929438804005,
          -0.18933165828806353,
          -0.36077761673340963,
          -0.18478730298237367,
          -0.16681524269819625,
          0.02045797441752905,
          0.1451266703457217,
          -0.16404183323968355,
          0.11872350283568368
        ],
        [
          -0.015109415277462084,
          -0.36408454981992194,
          -0.18673223433306865,
          -0.09804766568226858,
          -0.11286210267691074,
          0.026995803632425482,
          -0.3717931624950258,
          -0.173627545802204,
          -0.2467290318104945,
          0.020968847990148216,
          0.22806752702456817,
          0.328662791730105
        ],
        [
          0.37340514395276153,
          0.01979771296260928,
          0.7248518914003678,
          -0.10089254715764531,
          0.02474357157430995,
          0.4645378818157125,
          0.27247067130506464,
          0.15277274684905445,
          0.3185845563054858,
          0.02633786758630247,
          0.12165740300980679,
          -0.2615421786106303
        ],
        [
          0.18747351545149302,
          0.24326792248278223,
          -0.3362169991766724,
          0.044027280418633075,
          0.030415753499027948,
          -0.18212500371482304,
          -0.11071426391488394,
          -0.19201300247306635,
          -0.10889108366268309,
          0.07495704443571817,
          -0.06066554708148586,
          -0.08367913756975794
        ]
      ],
      "bias": [
        -0.5492142866033722,
        0.22985460869545496,
        -0.5409209788373163,
        -0.31678944905341955,
        -0.21052511237322447,
        -0.1078709344841627,
        -0.25685504108214363,
        0.1839015983807391,
        0.02957740299029746,
        -0.06734834199463595,
        0.06951936058741497,
        0.1131081287046057,
        0.3523685035998927,
        0.17804035486451544,
        -0.39616300595575415,
        -0.3719862681768465,
        -0.07384949642559684,
        0.1303293138674295,
        -0.09828749646708164,
        -0.540557917683194,
        0.33099332449249536,
        0.19378542688382477,
        0.36170021540691616,
        0.18985033914422908,
        -0.44535833735929614,
        0.35685405746789967,
        -0.1287715607977344,
        -0.2039171775117865,
        -0.17086239857291152,
        0.21109919681156933,
        -0.06200482785214676,
        0.2442858002687513,
        0.2242124917956164,
        -0.10931352486498477,
        -0.2346866046678161,
        -0.011802111846335318,
        -0.20220788096869016,
        0.4931327281512836,
        -0.21396486700851053,
        0.2630123208429744,
        0.06402497318710142,
        -0.39007914957630857,
        -0.341226532623812,
        -0.24357830209653575,
        -0.4439476709366764,
        0.33983719989388267,
        0.34517612289678984,
        -0.5354764593330305,
        -0.3359988341080556,
        0.14647712912754168,
        -0.07354480234913695,
        0.08223785997662815,
        -0.10820941876154508,
        0.1505092261153338,
        -0.028214397485988477,
        0.2761709626795566,
        0.4916560060729841,
        -0.12643404404080907,
        0.4303325502651952,
        -0.29049202449125333,
        0.38378560890870445,
        0.2897342512818954,
        0.007001634720249993,
        0.2767135475051086,
        -0.29604491911318126,
        -0.044266435093487044,
        0.3600598379099351,
        -0.10909072627131303,
        -0.2502522098756317,
        0.1072487228639956,
        0.17450769791128828,
        0.03981055791730453,
        0.032317669433194536,
        -0.47877766415751116,
        0.190261525602461,
        -0.35025755350320625,
        -0.19830118365718474,
        0.05611297207909244,
        -0.0009088699164280456,
        0.20263773690941397,
        -0.21733600988062107,
        0.3347631018923846,
        0.11293304425675114,
        0.4243931576844881,
        -0.023794893985834162,
        -0.26342699282582815,
        0.3130419502226785,
        0.3917120719568152,
        -0.08343932606981119,
        -0.01617156302564913,
        0.5241332675286129,
        -0.37193651247315723,
        -0.16141451029220208,
        -0.2742682918314731,
        0.35280877962863094,
        -0.373218378809925,
        -0.4442515861004188,
        -0.11422151421706782,
        -0.312314289375901,
        0.14832331428319365,
        -0.5000647691945536,
        0.07109385348162942,
        -0.1743002463372108,
        -0.12684758744300598,
        0.22736324805544209,
        0.019962112262366445,
        -0.5118278631312293,
        -0.1079538497216404,
        0.16394709505373822,
        0.218783128483356,
        -0.3465030831879256,
        0.28320376520540863,
        0.07869399342301824,
        0.039829151989084176,
        0.53515027436195,
        -0.18245565248917883,
        0.14694437809784164,
        -0.4529628814502167,
        -0.09539317557084949,
        0.21357042295192116,
        0.3998498867405827,
        -0.29304343237862246,
        0.5602770162147622,
        0.2168218534019139,
        0.4875880854464364,
        0.37479565716454,
        -0.473490410596906,
        -0.09605575959734215
      ]
    }
  ]
}