{
  "shared_layers": [
    {
      "weight": [
        [
          0.21554510295391083,
          -0.36523565649986267,
          -0.40410128235816956,
          -0.10508395731449127,
          0.23426242172718048,
          0.2411017268896103,
          0.16583696007728577,
          -0.266301691532135,
          -0.2835477888584137,
          -0.1693067103624344,
          0.3337342441082001,
          0.3981950581073761,
          0.05081583559513092,
          -0.05561598017811775,
          -0.15106385946273804,
          -0.10148658603429794,
          -0.08235917240381241,
          -0.08070942759513855,
          -0.05225463956594467,
          -0.013846177607774734,
          0.04482608288526535,
          -0.04232056811451912,
          0.18503634631633759,
          0.1699354350566864
        ],
        [
          0.15989287197589874,
          -0.11391057074069977,
          -0.10731098055839539,
          0.13406720757484436,
          -0.30844610929489136,
          -0.24332593381404877,
          -0.14301057159900665,
          0.010194063186645508,
          0.05596187338232994,
          -0.1974208801984787,
          0.09368261694908142,
          -0.18267911672592163,
          0.024727504700422287,
          -0.09248415380716324,
          0.2117747813463211,
          0.1530366986989975,
          0.0069154915399849415,
          -0.2038993388414383,
          0.06212789565324783,
          -0.31373968720436096,
          -0.07626085728406906,
          -0.006570227909833193,
          0.01165405847132206,
          -0.1587497442960739
        ],
        [
          -0.1709727644920349,
          0.18291603028774261,
          0.16576212644577026,
          -0.40144893527030945,
          0.4185850918292999,
          0.25773805379867554,
          0.3797270953655243,
          -0.33937907218933105,
          -0.27547696232795715,
          0.25277259945869446,
          -0.22686022520065308,
          -0.2237698882818222,
          -0.03185141831636429,
          0.011033900082111359,
          0.011114723049104214,
          0.11345414072275162,
          -0.041990458965301514,
          0.0034740318078547716,
          0.044250886887311935,
          -0.045157480984926224,
          0.0021804228890687227,
          -0.052115943282842636,
          0.020832311362028122,
          0.06378026306629181
        ],
        [
          -0.6335802674293518,
          0.20466886460781097,
          -0.2607989013195038,
          0.26728710532188416,
          -0.20766420662403107,
          0.14752508699893951,
          0.21222436428070068,
          -0.1341198831796646,
          -0.038759663701057434,
          0.021158548071980476,
          -0.017032604664564133,
          0.04057655856013298,
          0.29620301723480225,
          -0.1952112764120102,
          0.2585414946079254,
          -0.08418188244104385,
          0.1269645094871521,
          -0.0472676046192646,
          0.019662460312247276,
          0.01878916472196579,
          -0.10550864040851593,
          -0.1966717541217804,
          0.03039298765361309,
          -0.07331313192844391
        ],
        [
          0.361045777797699,
          -0.5383409857749939,
          -0.06335274875164032,
          0.058558229357004166,
          -0.15590474009513855,
          -0.028177162632346153,
          -0.12085628509521484,
          0.09517032653093338,
          0.0039132689125835896,
          -0.5012842416763306,
          0.4370059669017792,
          0.024292772635817528,
          0.12204936891794205,
          -0.05858442187309265,
          -0.0016174050979316235,
          -0.02844652533531189,
          0.059473082423210144,
          0.10332364588975906,
          -0.07680155336856842,
          0.13997279107570648,
          0.06520668417215347,
          0.023220263421535492,
          -0.12650606036186218,
          0.05578620359301567
        ],
        [
          0.03460485860705376,
          0.033049631863832474,
          -0.015161680988967419,
          0.23502177000045776,
          -0.21442417800426483,
          -0.1339786946773529,
          -0.08970560133457184,
          0.2449111044406891,
          0.02937082014977932,
          0.21487665176391602,
          -0.02040858380496502,
          -0.09086029976606369,
          -0.1163056492805481,
          -0.31043189764022827,
          -0.11674480885267258,
          -0.09932750463485718,
          0.006038533989340067,
          0.09046342223882675,
          -0.3889909088611603,
          -0.058688774704933167,
          -0.022673780098557472,
          -0.0721442699432373,
          -0.31989598274230957,
          -0.034085046499967575
        ],
        [
          -0.3120649456977844,
          -0.33834943175315857,
          0.4646224081516266,
          -0.01323933806270361,
          0.0032653186935931444,
          -0.031740374863147736,
          0.2977786958217621,
          0.3232218027114868,
          -0.4194043278694153,
          0.07207711040973663,
          0.06090729683637619,
          -0.08410099148750305,
          0.11075172573328018,
          0.023608556017279625,
          -0.10411892086267471,
          -0.08052391558885574,
          -0.04401697218418121,
          0.08619256317615509,
          -0.05780607461929321,
          -0.058141931891441345,
          0.020997032523155212,
          0.10165029764175415,
          0.034283220767974854,
          -0.07085181027650833
        ],
        [
          0.16106176376342773,
          0.27035900950431824,
          0.11096281558275223,
          0.18790189921855927,
          0.12067633122205734,
          0.19089503586292267,
          0.16981174051761627,
          0.06886748969554901,
          0.1812615841627121,
          0.16415411233901978,
          0.26923128962516785,
          0.24114541709423065,
          -0.2644314169883728,
          -0.18243874609470367,
          -0.19252656400203705,
          -0.0046716067008674145,
          -0.05619313567876816,
          0.05316271632909775,
          -0.1001758947968483,
          -0.05790117383003235,
          -0.0793214663863182,
          -0.2630418837070465,
          -0.2932935059070587,
          -0.29086625576019287
        ],
        [
          -0.07158777862787247,
          0.062357835471630096,
          -0.06517016887664795,
          0.025685789063572884,
          -0.006156055256724358,
          -0.10337129980325699,
          -0.09692899882793427,
          0.0743468627333641,
          -0.03814186155796051,
          -0.056446947157382965,
          -0.06708530336618423,
          -0.10293588787317276,
          0.04283047839999199,
          0.04393821954727173,
          -0.043603260070085526,
          -0.07863861322402954,
          0.017783721908926964,
          0.036076728254556656,
          -0.08950881659984589,
          0.06075593829154968,
          0.03695032745599747,
          -0.10490650683641434,
          -0.011168048717081547,
          -0.04780696704983711
        ],
        [
          0.14258374273777008,
          -0.1434791535139084,
          -0.20059923827648163,
          -0.555091917514801,
          -0.05126997455954552,
          -0.08847112953662872,
          0.0929117500782013,
          -0.2154814749956131,
          -0.15158692002296448,
          0.10219167172908783,
          -0.0038707766216248274,
          -0.23002567887306213,
          -0.20103411376476288,
          0.21039815247058868,
          0.103718101978302,
          0.28288888931274414,
          0.07304161041975021,
          0.04481140524148941,
          0.017622463405132294,
          0.12166145443916321,
          0.07501175999641418,
          0.07706600427627563,
          0.17182552814483643,
          0.12822706997394562
        ],
        [
          -0.070432148873806,
          -0.06704474240541458,
          0.06484109908342361,
          -0.07771315425634384,
          0.04360256716609001,
          -0.029894009232521057,
          -0.033309709280729294,
          0.11259124428033829,
          -0.1148933544754982,
          0.007024438586086035,
          0.04229409620165825,
          -0.0427999310195446,
          0.022616343572735786,
          -0.040327493101358414,
          0.03024086356163025,
          0.03826040402054787,
          0.0294264554977417,
          -0.07208501547574997,
          0.24858026206493378,
          0.43981078267097473,
          -0.3944242000579834,
          -0.23551778495311737,
          -0.46480903029441833,
          0.48376932740211487
        ],
        [
          0.011869288980960846,
          -0.10399109125137329,
          -0.029582705348730087,
          -0.022194072604179382,
          0.01213491428643465,
          -0.043171416968107224,
          -0.030866360291838646,
          0.014649143442511559,
          -0.028891878202557564,
          -0.07312942296266556,
          0.040351707488298416,
          0.053403377532958984,
          -0.33161744475364685,
          0.4079921543598175,
          0.28425753116607666,
          0.27298250794410706,
          -0.3025802671909332,
          -0.1987772136926651,
          0.3017262816429138,
          -0.3552302122116089,
          -0.2150856852531433,
          -0.18171483278274536,
          0.24681369960308075,
          0.1538589596748352
        ],
        [
          -0.11143013834953308,
          0.05612190440297127,
          0.10585202276706696,
          0.13809853792190552,
          -0.10662130266427994,
          -0.1694279909133911,
          -0.12377607077360153,
          0.10369057953357697,
          0.04665092006325722,
          -0.004938897211104631,
          -0.04288414120674133,
          -0.019452985376119614,
          0.06064152717590332,
          -0.06454183161258698,
          -0.12319497764110565,
          -0.23664355278015137,
          0.19927626848220825,
          0.2583242952823639,
          0.3989032804965973,
          -0.3756895065307617,
          -0.37995052337646484,
          -0.24403610825538635,
          0.257541686296463,
          0.3125855624675751
        ],
        [
          -0.21170373260974884,
          -0.2118731588125229,
          -0.12804831564426422,
          -0.03101365827023983,
          0.027336223050951958,
          -0.008850804530084133,
          0.024169711396098137,
          -0.048014674335718155,
          -0.09138268232345581,
          -0.24349330365657806,
          -0.45091375708580017,
          -0.3458387553691864,
          0.16460742056369781,
          0.21092268824577332,
          0.13538578152656555,
          0.048082903027534485,
          0.08795984089374542,
          0.13767610490322113,
          0.16522549092769623,
          0.19693176448345184,
          0.18055273592472076,
          0.09904848039150238,
          0.27392157912254333,
          0.22746585309505463
        ],
        [
          0.218355193734169,
          -0.0971786305308342,
          -0.11383120715618134,
          0.2881649434566498,
          -0.24631091952323914,
          -0.2729335129261017,
          0.05615440383553505,
          -0.1695413887500763,
          -0.11634121090173721,
          0.09421901404857635,
          -0.06887627393007278,
          -0.07052601873874664,
          -0.13552536070346832,
          0.2190762758255005,
          0.1897127777338028,
          -0.2502920627593994,
          0.2897379398345947,
          0.24674564599990845,
          -0.05309438705444336,
          0.1921091228723526,
          0.050267294049263,
          -0.02537052519619465,
          0.05907405912876129,
          0.011641704477369785
        ],
        [
          -0.17304939031600952,
          -0.18959085643291473,
          0.034103550016880035,
          -0.08943728357553482,
          -0.1484946757555008,
          0.009388701990246773,
          0.06281586736440659,
          0.02166673168540001,
          0.13749387860298157,
          -0.02643776126205921,
          0.3037545084953308,
          -0.30781155824661255,
          -0.3858044743537903,
          0.0607047975063324,
          0.20066611468791962,
          0.0038219820708036423,
          -0.3910771906375885,
          -0.216407909989357,
          0.12410304695367813,
          0.10300999134778976,
          0.238657608628273,
          0.08472031354904175,
          0.11486662179231644,
          -0.31841757893562317
        ],
        [
          -0.15081003308296204,
          0.07647019624710083,
          -0.006075451150536537,
          -0.059991028159856796,
          -0.035055793821811676,
          -0.17581719160079956,
          -0.08466750383377075,
          0.0036777176428586245,
          -0.049459587782621384,
          0.010981844738125801,
          -0.12411906570196152,
          0.026195475831627846,
          -0.04793309420347214,
          -0.04641512408852577,
          -0.06881225854158401,
          0.01360089797526598,
          0.015741268172860146,
          0.009220238775014877,
          -0.06308547407388687,
          -0.01759691722691059,
          -0.17774677276611328,
          -0.05856636166572571,
          0.06510043889284134,
          -0.032482024282217026
        ],
        [
          -0.07924254238605499,
          0.0879487693309784,
          -0.009226909838616848,
          0.2884875237941742,
          -0.17626570165157318,
          0.15451134741306305,
          -0.0026500667445361614,
          -0.07362313568592072,
          -0.010768626816570759,
          -0.3027189373970032,
          0.1944800764322281,
          -0.2429015189409256,
          -0.12322808802127838,
          0.15524759888648987,
          -0.0338054783642292,
          -0.3018641173839569,
          0.1919356882572174,
          -0.2666570246219635,
          0.3344421684741974,
          -0.2543904185295105,
          0.3437550663948059,
          0.02184773050248623,
          -0.04862569272518158,
          -0.0003075013228226453
        ],
        [
          -0.1304045021533966,
          -0.12296278029680252,
          -0.08565166592597961,
          -0.2704533636569977,
          -0.2400992214679718,
          -0.11294814944267273,
          -0.28969573974609375,
          -0.2632330060005188,
          -0.18386632204055786,
          -0.1676802635192871,
          -0.11584275215864182,
          -0.0006942484760656953,
          0.4130166172981262,
          0.32525667548179626,
          0.1284770965576172,
          0.24287258088588715,
          0.23107248544692993,
          0.14119099080562592,
          0.2910982370376587,
          0.15732520818710327,
          0.11925648152828217,
          0.13011598587036133,
          0.12117938697338104,
          0.11605627834796906
        ],
        [
          -0.1297537237405777,
          0.04516361653804779,
          0.08239955455064774,
          0.21311964094638824,
          -0.31877443194389343,
          -0.23658864200115204,
          -0.44335681200027466,
          0.2913668751716614,
          0.1357233077287674,
          0.02202026918530464,
          -0.24957682192325592,
          -0.07302524149417877,
          -0.05512610077857971,
          0.11227042973041534,
          0.0034541720524430275,
          0.24797746539115906,
          -0.17710942029953003,
          -0.1086757704615593,
          -0.15504813194274902,
          0.23372581601142883,
          0.160882830619812,
          0.1904877871274948,
          -0.08660100400447845,
          -0.03571944311261177
        ],
        [
          -0.008647146634757519,
          0.040784597396850586,
          -0.3051068186759949,
          0.05089697614312172,
          -0.4259899854660034,
          -0.3710698187351227,
          -0.06253483891487122,
          0.06524214893579483,
          0.018650522455573082,
          -0.2387695163488388,
          -0.16004672646522522,
          0.1762329488992691,
          0.09332238882780075,
          0.09999711066484451,
          -0.14451679587364197,
          0.09887722879648209,
          0.0978560820221901,
          -0.23088780045509338,
          -0.08521401882171631,
          0.10272984951734543,
          0.21794486045837402,
          -0.002468334510922432,
          -0.3282432556152344,
          0.14053857326507568
        ],
        [
          0.09082638472318649,
          0.011472856625914574,
          -0.025196485221385956,
          0.13897059857845306,
          -0.065575011074543,
          -0.00017884507542476058,
          -0.0728074312210083,
          0.08622515946626663,
          0.09253444522619247,
          -0.02363017573952675,
          0.004467060323804617,
          0.014561060816049576,
          0.14472442865371704,
          0.006535249762237072,
          -0.21713683009147644,
          -0.38540077209472656,
          0.052585702389478683,
          0.4669255018234253,
          -0.21005235612392426,
          0.04563511908054352,
          0.12066033482551575,
          0.34891706705093384,
          -0.04173436388373375,
          -0.5177631974220276
        ],
        [
          -0.13483768701553345,
          0.35778912901878357,
          -0.416970819234848,
          0.17927280068397522,
          -0.4963342845439911,
          0.2397608608007431,
          -0.11090484261512756,
          -0.13100840151309967,
          -0.04056552052497864,
          0.009203223511576653,
          0.0230830367654562,
          -0.17881348729133606,
          0.11808231472969055,
          -0.08545301854610443,
          0.08524823188781738,
          -0.01706198789179325,
          0.15062446892261505,
          -0.04390806332230568,
          -0.11403348296880722,
          0.07097247242927551,
          0.03935590758919716,
          0.0777033120393753,
          0.07141314446926117,
          0.1149507611989975
        ],
        [
          -0.0723002552986145,
          -0.11823511868715286,
          0.20261922478675842,
          0.030597791075706482,
          0.046386223286390305,
          0.04842793941497803,
          0.019085945561528206,
          0.13674412667751312,
          -0.10820040106773376,
          -0.04709397256374359,
          0.020595945417881012,
          -0.042244311422109604,
          -0.6632548570632935,
          -0.2948910892009735,
          0.24842886626720428,
          0.13717257976531982,
          0.247203066945076,
          -0.22770842909812927,
          0.28566843271255493,
          -0.04266650229692459,
          -0.013179242610931396,
          0.09232278168201447,
          0.12575262784957886,
          -0.19110950827598572
        ],
        [
          0.04594402760267258,
          -0.016580799594521523,
          -0.02390151098370552,
          0.14706605672836304,
          0.026450786739587784,
          0.082844078540802,
          -0.0003339304239489138,
          -0.08375030010938644,
          -0.032162781804800034,
          0.0034772437065839767,
          -0.05158627778291702,
          -0.14812934398651123,
          0.22388918697834015,
          0.19035618007183075,
          0.10436620563268661,
          0.13003024458885193,
          0.04034728929400444,
          0.12628594040870667,
          -0.7925960421562195,
          -0.26738888025283813,
          -0.3423633277416229,
          0.2211214005947113,
          0.15811564028263092,
          0.16541467607021332
        ],
        [
          -0.036718420684337616,
          0.10194650292396545,
          0.002966920845210552,
          0.4022778570652008,
          -0.14919845759868622,
          -0.4364668130874634,
          0.08686766028404236,
          -0.30161988735198975,
          0.19306226074695587,
          -0.4203106164932251,
          0.14484480023384094,
          -0.16064755618572235,
          -0.03358900919556618,
          -0.07756317406892776,
          0.2688823342323303,
          -0.11763034760951996,
          -0.12789860367774963,
          -0.030102020129561424,
          -0.11651886254549026,
          0.04081770032644272,
          -0.27003201842308044,
          0.06007301062345505,
          0.05131588503718376,
          0.0034188772551715374
        ],
        [
          -0.0724920704960823,
          0.23451292514801025,
          0.25074663758277893,
          0.07124610990285873,
          0.3898453116416931,
          0.38924649357795715,
          -0.11167041957378387,
          -0.2478366643190384,
          -0.3465052843093872,
          -0.07425153255462646,
          -0.428268700838089,
          -0.37982118129730225,
          0.036385949701070786,
          0.027148686349391937,
          0.1370183229446411,
          0.03703685477375984,
          0.012635787948966026,
          -0.08442318439483643,
          0.013698654249310493,
          0.06749921292066574,
          0.01992395520210266,
          0.029314197599887848,
          -0.06212177127599716,
          -0.0466984286904335
        ],
        [
          0.33322572708129883,
          0.2985239326953888,
          -0.07273182272911072,
          -0.11903494596481323,
          0.18071147799491882,
          -0.22023001313209534,
          -0.20574070513248444,
          -0.2877904772758484,
          0.04058884456753731,
          0.048827070742845535,
          -0.09641920030117035,
          -0.03306683897972107,
          -0.0006395435193553567,
          -0.24943383038043976,
          0.30112501978874207,
          0.034920547157526016,
          0.21753539144992828,
          -0.20338837802410126,
          -0.04782255366444588,
          0.059542957693338394,
          0.017313718795776367,
          -0.25731492042541504,
          0.16466696560382843,
          -0.23746249079704285
        ],
        [
          -0.1915815770626068,
          0.22520042955875397,
          -0.22464188933372498,
          -0.16608044505119324,
          0.1694587767124176,
          -0.15450653433799744,
          -0.24873889982700348,
          0.23928888142108917,
          -0.24226222932338715,
          -0.18987271189689636,
          0.23221227526664734,
          -0.2513722777366638,
          0.14586417376995087,
          -0.1893560141324997,
          0.15833482146263123,
          0.19504551589488983,
          -0.263352632522583,
          0.22383983433246613,
          0.16829366981983185,
          -0.25606051087379456,
          0.23460210859775543,
          0.16205336153507233,
          -0.23706147074699402,
          0.22788944840431213
        ],
        [
          -0.1273449957370758,
          -0.04602666571736336,
          0.0603410042822361,
          -0.030092105269432068,
          -0.09102987498044968,
          -0.029825469478964806,
          0.06206787750124931,
          -0.10716657340526581,
          -0.014912018552422523,
          -0.10897432267665863,
          -0.1592552661895752,
          -0.06017317995429039,
          0.01962425373494625,
          -0.18275833129882812,
          -0.032947659492492676,
          0.04481707885861397,
          0.05014480650424957,
          0.004425662104040384,
          -0.10454896837472916,
          -0.11330991983413696,
          -0.0670597031712532,
          -0.015279503539204597,
          -0.09343920648097992,
          0.02310812659561634
        ],
        [
          -0.2022768259048462,
          -0.16498778760433197,
          0.2551562190055847,
          0.4076569974422455,
          0.2934054136276245,
          -0.5782718062400818,
          -0.12702429294586182,
          -0.07182276248931885,
          0.0929277241230011,
          -0.14808420836925507,
          -0.071452796459198,
          0.11888891458511353,
          -0.012189352884888649,
          -0.036458179354667664,
          0.06580941379070282,
          0.16642536222934723,
          0.08945254236459732,
          -0.24098815023899078,
          -0.14262917637825012,
          -0.04976789280772209,
          0.10946260392665863,
          0.04203859344124794,
          -0.04772580787539482,
          0.057632047683000565
        ],
        [
          0.10637487471103668,
          0.21560128033161163,
          -0.22455808520317078,
          -0.15181554853916168,
          -0.11322182416915894,
          0.1294143944978714,
          -0.13927267491817474,
          -0.17270030081272125,
          0.2198297083377838,
          0.07779679447412491,
          0.1269458830356598,
          -0.10942375659942627,
          0.306204617023468,
          0.25325971841812134,
          -0.466853529214859,
          0.03977859765291214,
          0.009027629159390926,
          -0.013728611171245575,
          -0.09563685208559036,
          -0.20697154104709625,
          0.22350521385669708,
          -0.1351228505373001,
          -0.20409411191940308,
          0.20560751855373383
        ],
        [
          -0.02872874215245247,
          -0.06007282808423042,
          -0.2842462956905365,
          -0.05382450297474861,
          -0.003669414669275284,
          -0.22858422994613647,
          0.05160899460315704,
          -0.019085269421339035,
          -0.03931022807955742,
          -0.13066396117210388,
          -0.08995617181062698,
          0.2867431342601776,
          -0.04050057753920555,
          -0.18827113509178162,
          0.13011126220226288,
          -0.01856902241706848,
          0.1461666226387024,
          0.04471562057733536,
          -0.11076250672340393,
          0.19614477455615997,
          -0.18403470516204834,
          0.1007380411028862,
          -0.24860528111457825,
          -0.035611264407634735
        ],
        [
          -0.24860598146915436,
          -0.07333429902791977,
          -0.18582136929035187,
          0.255903959274292,
          0.3583952784538269,
          0.3129107654094696,
          -0.06906493008136749,
          -0.024621551856398582,
          -0.030236322432756424,
          -0.1848745197057724,
          -0.07003049552440643,
          0.12732043862342834,
          0.19559253752231598,
          -0.06160029396414757,
          -0.030794918537139893,
          -0.06464922428131104,
          -0.21166178584098816,
          -0.2424006313085556,
          0.31930360198020935,
          -0.10065261274576187,
          -0.10696851462125778,
          0.014619549736380577,
          -0.01099163107573986,
          -0.13529333472251892
        ],
        [
          -0.12934739887714386,
          -0.2865884602069855,
          0.26458659768104553,
          -0.14396485686302185,
          -0.27882227301597595,
          0.27131712436676025,
          -0.09910967946052551,
          -0.2516728639602661,
          0.27430394291877747,
          -0.14628943800926208,
          -0.2633102238178253,
          0.28298714756965637,
          0.14101210236549377,
          0.2524206340312958,
          -0.2998844385147095,
          0.16010278463363647,
          0.2604322135448456,
          -0.30313146114349365,
          0.14047212898731232,
          0.28126832842826843,
          -0.26883015036582947,
          0.13501179218292236,
          0.2504040598869324,
          -0.2623642086982727
        ],
        [
          -0.3185172379016876,
          0.20150506496429443,
          0.13456742465496063,
          -0.342641681432724,
          0.21764370799064636,
          0.1526721566915512,
          -0.30508503317832947,
          0.22673620283603668,
          0.11518339067697525,
          -0.2953644394874573,
          0.19726213812828064,
          0.0983601063489914,
          0.2599206864833832,
          -0.19576674699783325,
          -0.14188216626644135,
          0.2787753641605377,
          -0.25239112973213196,
          -0.10995090007781982,
          0.2687939405441284,
          -0.2132982760667801,
          -0.14099526405334473,
          0.2563312351703644,
          -0.22802428901195526,
          -0.15369486808776855
        ],
        [
          0.039632610976696014,
          0.13311073184013367,
          0.19015677273273468,
          0.07594457268714905,
          0.12972860038280487,
          0.18566642701625824,
          0.03220261633396149,
          0.2607981264591217,
          0.2506767809391022,
          0.011337201111018658,
          0.2584078311920166,
          0.2595405578613281,
          -0.04261413961648941,
          -0.06547325104475021,
          -0.01613609492778778,
          -0.090445876121521,
          0.0875287801027298,
          -0.00018825077859219164,
          0.019361179322004318,
          -0.27759096026420593,
          -0.2955508232116699,
          0.02521870844066143,
          -0.49790388345718384,
          -0.3846358060836792
        ],
        [
          -0.13829602301120758,
          -0.24055097997188568,
          -0.1784149557352066,
          0.0052397665567696095,
          0.023911841213703156,
          -0.10002433508634567,
          0.0739964172244072,
          0.2285354882478714,
          0.2200469672679901,
          -0.021428143605589867,
          0.08869610726833344,
          0.03303280100226402,
          -0.20380671322345734,
          -0.3600483536720276,
          -0.32674917578697205,
          0.12516555190086365,
          0.11862897127866745,
          0.15657207369804382,
          0.16537541151046753,
          0.40686893463134766,
          0.35794687271118164,
          -0.19958467781543732,
          -0.1982085257768631,
          -0.19184277951717377
        ],
        [
          -0.08247964829206467,
          -0.0005970342899672687,
          0.07474382221698761,
          -0.11437875777482986,
          0.11257869750261307,
          0.0069776070304214954,
          -0.24100318551063538,
          0.21020808815956116,
          0.20481686294078827,
          -0.12843288481235504,
          0.19645144045352936,
          0.20654338598251343,
          0.3212478756904602,
          -0.2958463430404663,
          -0.3087783753871918,
          0.05971468240022659,
          0.10196036100387573,
          -0.042063482105731964,
          0.12028611451387405,
          0.03669317811727524,
          -0.046727873384952545,
          0.2188306599855423,
          -0.11312596499919891,
          -0.1364571452140808
        ],
        [
          -0.0651489868760109,
          0.22172127664089203,
          0.11484877020120621,
          0.1557055413722992,
          -0.2883701026439667,
          -0.11079584062099457,
          0.3698570728302002,
          -0.24903318285942078,
          -0.157487154006958,
          -0.5296546816825867,
          0.3543732166290283,
          0.12008733302354813,
          0.14415134489536285,
          -0.12299677729606628,
          -0.009155605919659138,
          0.10532768815755844,
          -0.2406807243824005,
          -0.06939071416854858,
          -0.1534995436668396,
          0.08118511736392975,
          0.06535536795854568,
          -0.1353323608636856,
          0.07749603688716888,
          0.015315479598939419
        ],
        [
          -0.0302585456520319,
          -0.1000935286283493,
          -0.0038435147143900394,
          0.2447495311498642,
          0.4447270929813385,
          -0.44316205382347107,
          -0.03422277420759201,
          -0.027350405231118202,
          0.013295721262693405,
          -0.19712914526462555,
          -0.30887681245803833,
          0.3526678681373596,
          -0.042727429419755936,
          -0.1879785656929016,
          0.19032180309295654,
          -0.023061607033014297,
          -0.16467125713825226,
          0.08241179585456848,
          0.029228029772639275,
          0.04616153985261917,
          -0.07639126479625702,
          0.05728926509618759,
          0.10337968170642853,
          -0.13251961767673492
        ],
        [
          -0.15601947903633118,
          -0.0478254035115242,
          -0.016140419989824295,
          -0.15878047049045563,
          -0.2584336996078491,
          0.08856014907360077,
          0.01834159530699253,
          -0.007210024166852236,
          0.053028155118227005,
          -0.04427488148212433,
          0.1145201250910759,
          -0.06029189005494118,
          0.03710077330470085,
          -0.04393989220261574,
          0.29916316270828247,
          0.25754475593566895,
          0.3565719723701477,
          -0.024875162169337273,
          0.014581134542822838,
          -0.18292750418186188,
          -0.4918901026248932,
          -0.09300770610570908,
          -0.3552135229110718,
          -0.06357157230377197
        ],
        [
          -0.08596447110176086,
          -0.013785314746201038,
          0.1418406069278717,
          -0.17146654427051544,
          -0.14076070487499237,
          0.0871160477399826,
          -0.04387440159916878,
          0.009771239943802357,
          0.08177851885557175,
          -0.0749492272734642,
          0.2585183382034302,
          0.01662755198776722,
          0.21286852657794952,
          -0.09008337557315826,
          -0.5078042149543762,
          -0.052596867084503174,
          0.16052070260047913,
          -0.4622640311717987,
          0.07412812858819962,
          -0.06620023399591446,
          -0.2978850305080414,
          -0.026258176192641258,
          0.1454232633113861,
          -0.5232886075973511
        ],
        [
          -0.014634923078119755,
          -0.16225780546665192,
          -0.050750602036714554,
          -0.05520482361316681,
          -0.05436505004763603,
          0.017600230872631073,
          0.09507299214601517,
          0.27981796860694885,
          0.2460949420928955,
          -0.04359794780611992,
          -0.02468842640519142,
          -0.062185704708099365,
          -0.008406923152506351,
          0.17832185328006744,
          0.1762871891260147,
          0.051005780696868896,
          0.05483106151223183,
          0.0898168608546257,
          -0.17807500064373016,
          -0.567387580871582,
          -0.5257138609886169,
          0.08412963896989822,
          0.31420934200286865,
          0.18295688927173615
        ],
        [
          -0.2734166085720062,
          -0.14229461550712585,
          0.09593226760625839,
          -0.09454060345888138,
          0.10140076279640198,
          0.2700917720794678,
          -0.1332501322031021,
          0.002067091641947627,
          0.05405212193727493,
          -0.27172017097473145,
          -0.0051961783319711685,
          0.06461499631404877,
          0.04678286239504814,
          0.0032363852951675653,
          -0.022057531401515007,
          -0.21399639546871185,
          -0.039277464151382446,
          -0.7171469926834106,
          0.10097840428352356,
          0.12722346186637878,
          -0.23504316806793213,
          0.25945091247558594,
          0.14416591823101044,
          0.2844778299331665
        ],
        [
          0.3450160622596741,
          0.3757600486278534,
          0.27223318815231323,
          -0.21540702879428864,
          -0.20919564366340637,
          -0.21225978434085846,
          0.2133525013923645,
          0.23575624823570251,
          0.23921021819114685,
          -0.4822499752044678,
          -0.36919480562210083,
          -0.29873326420783997,
          0.08419464528560638,
          0.03565699979662895,
          -0.04922052100300789,
          -0.003495481563732028,
          0.08609190583229065,
          -0.0047812494449317455,
          0.0739421471953392,
          0.0002756588510237634,
          0.02814849093556404,
          -0.03590928390622139,
          -0.12052682042121887,
          -0.10469292104244232
        ],
        [
          -0.2983257472515106,
          -0.14214058220386505,
          -0.29088956117630005,
          -0.41976287961006165,
          -0.2599870264530182,
          -0.2454824000597,
          0.30678632855415344,
          0.1434478759765625,
          0.18508192896842957,
          0.42979246377944946,
          0.12284434586763382,
          0.29944851994514465,
          0.09291154146194458,
          0.08922749757766724,
          0.037465620785951614,
          -0.1445797085762024,
          -0.09436318278312683,
          -0.055221255868673325,
          -0.0236421599984169,
          0.009100157767534256,
          0.0075788055546581745,
          -0.03210972622036934,
          0.05049876123666763,
          0.029713070020079613
        ],
        [
          0.16509193181991577,
          -0.06376971304416656,
          -0.03589259460568428,
          0.20798467099666595,
          0.10379397124052048,
          -0.2857802212238312,
          -0.23906058073043823,
          -0.2805323302745819,
          0.2959109842777252,
          -0.12949059903621674,
          0.10342041403055191,
          0.025650419294834137,
          0.3078063428401947,
          0.34292036294937134,
          -0.37813740968704224,
          -0.08711191266775131,
          -0.1353359818458557,
          0.02619357220828533,
          0.00235097692348063,
          -0.23142322897911072,
          0.1415570229291916,
          -0.08489874005317688,
          -0.09915263950824738,
          0.01374138705432415
        ],
        [
          0.113568976521492,
          -0.07120773941278458,
          0.014134221710264683,
          0.018632816150784492,
          0.08592753112316132,
          -0.059818584471940994,
          0.11778783798217773,
          -0.02795920893549919,
          -0.03741132467985153,
          -0.14953665435314178,
          0.07995618134737015,
          -0.029734451323747635,
          0.030172079801559448,
          0.0060126506723463535,
          -0.020702654495835304,
          0.48859938979148865,
          -0.27595555782318115,
          0.15065614879131317,
          0.09708942472934723,
          -0.07483172416687012,
          0.0697680339217186,
          -0.6807864308357239,
          0.3348294496536255,
          -0.19451496005058289
        ],
        [
          0.2163274884223938,
          -0.01819516345858574,
          0.007865479215979576,
          -0.011942732147872448,
          0.06877465546131134,
          -0.12448184192180634,
          -0.03508133441209793,
          0.09553442895412445,
          -0.11568327248096466,
          -0.08871147781610489,
          -0.16117586195468903,
          0.0329175628721714,
          0.2606183886528015,
          0.2049955129623413,
          -0.02044554427266121,
          -0.4206039309501648,
          -0.184795543551445,
          -0.08043745160102844,
          -0.12413247674703598,
          -0.3105820417404175,
          0.03921249136328697,
          0.35224953293800354,
          0.28734585642814636,
          -0.011302041821181774
        ],
        [
          0.031900931149721146,
          -0.09029360115528107,
          -0.040582459419965744,
          -0.053655363619327545,
          -0.09281069040298462,
          0.040095265954732895,
          0.03453473374247551,
          -0.0347331278026104,
          0.06402908265590668,
          -0.031072989106178284,
          -0.11218784004449844,
          -0.10156066715717316,
          0.03298872709274292,
          -0.07449471950531006,
          -0.09445146471261978,
          -0.058594219386577606,
          -0.08494967967271805,
          -0.09018414467573166,
          -0.10194174945354462,
          -0.12425557523965836,
          0.042928192764520645,
          0.05794673413038254,
          0.004658599849790335,
          -0.13023817539215088
        ],
        [
          -0.09126298129558563,
          0.03023565374314785,
          0.06890837103128433,
          -0.08243308216333389,
          -0.092865951359272,
          -0.09781421720981598,
          0.03468763455748558,
          0.00637179845944047,
          -0.02285083755850792,
          -0.10516471415758133,
          -0.04305092990398407,
          -0.10171123594045639,
          -0.1158207505941391,
          0.06159336864948273,
          0.009213995188474655,
          -0.09730750322341919,
          0.004982995335012674,
          -0.04426857829093933,
          -0.04795725271105766,
          0.0627213791012764,
          -0.05617978423833847,
          -0.07089563459157944,
          0.0385957770049572,
          -0.03033646009862423
        ],
        [
          -0.22408108413219452,
          0.17362001538276672,
          0.05533220246434212,
          0.038391537964344025,
          -0.10969536006450653,
          0.048357196152210236,
          -0.11900287121534348,
          0.16681700944900513,
          0.01676969602704048,
          0.2542324960231781,
          -0.1353328675031662,
          -0.32030633091926575,
          -0.17821453511714935,
          0.12639214098453522,
          0.14030708372592926,
          -0.25903597474098206,
          0.2175048440694809,
          0.12286447733640671,
          0.24171693623065948,
          -0.14476770162582397,
          -0.2792946398258209,
          -0.14038494229316711,
          0.0008277398301288486,
          -0.20619699358940125
        ],
        [
          0.24801649153232574,
          -0.23333433270454407,
          -0.18246661126613617,
          -0.21788820624351501,
          0.21208877861499786,
          0.2065974920988083,
          -0.3143737316131592,
          0.28310108184814453,
          0.2815593183040619,
          0.30250340700149536,
          -0.29022395610809326,
          -0.3620151877403259,
          0.07728074491024017,
          -0.03622526302933693,
          0.013828263618052006,
          -0.15418516099452972,
          0.05634010583162308,
          0.1576777547597885,
          0.02730199508368969,
          -0.0010283298324793577,
          -0.05101444944739342,
          0.032067641615867615,
          -0.05093399062752724,
          -0.0036622395273298025
        ],
        [
          -0.02318538911640644,
          -0.09203971922397614,
          0.16072098910808563,
          -0.13920331001281738,
          -0.18488582968711853,
          0.10706642270088196,
          0.4006030559539795,
          0.21840079128742218,
          -0.5055086016654968,
          -0.14304479956626892,
          -0.16477081179618835,
          0.22402498126029968,
          0.1886177659034729,
          0.18180207908153534,
          -0.25386911630630493,
          0.12085186690092087,
          0.06464086472988129,
          -0.045918259769678116,
          -0.18301431834697723,
          0.009066237136721611,
          0.21353191137313843,
          -0.21870020031929016,
          -0.11687875539064407,
          0.1362217664718628
        ],
        [
          0.020073669031262398,
          -0.024968823418021202,
          0.14239926636219025,
          0.026901300996541977,
          0.0564369261264801,
          -0.11883321404457092,
          0.0026554386131465435,
          0.05251707509160042,
          -0.03855075314640999,
          -0.028124140575528145,
          -0.017135372385382652,
          0.08893947303295135,
          0.41833406686782837,
          -0.3226655423641205,
          0.34190434217453003,
          -0.2493516504764557,
          0.13366854190826416,
          -0.20909497141838074,
          -0.300772100687027,
          0.24898071587085724,
          -0.30817747116088867,
          0.1521894335746765,
          -0.06008530408143997,
          0.018365878611803055
        ],
        [
          0.20644688606262207,
          -0.2048613727092743,
          -0.2402784824371338,
          0.16953228414058685,
          -0.1715780347585678,
          -0.23543603718280792,
          0.21189086139202118,
          -0.2134295105934143,
          -0.2972266674041748,
          0.23265136778354645,
          -0.1958819478750229,
          -0.26612383127212524,
          -0.18926703929901123,
          0.1933688223361969,
          0.22245721518993378,
          -0.19719058275222778,
          0.16127493977546692,
          0.22362208366394043,
          -0.22390630841255188,
          0.1829555630683899,
          0.24875237047672272,
          -0.23315535485744476,
          0.14354519546031952,
          0.23998844623565674
        ],
        [
          0.17464859783649445,
          -0.1581621915102005,
          -0.2759108245372772,
          -0.14468269050121307,
          0.13444875180721283,
          0.1421445608139038,
          -0.12470991164445877,
          0.11402911692857742,
          0.1700345277786255,
          0.06499852240085602,
          -0.14438362419605255,
          -0.16203729808330536,
          -0.10610606521368027,
          0.3339344561100006,
          0.4509538412094116,
          0.027545157819986343,
          0.009891889058053493,
          -0.12154985219240189,
          -0.012015512213110924,
          0.03011721558868885,
          0.04556644335389137,
          0.15071478486061096,
          -0.309480756521225,
          -0.32300788164138794
        ],
        [
          -0.10599208623170853,
          -0.09610483795404434,
          0.06511709839105606,
          0.05402113497257233,
          -0.021617412567138672,
          0.05839981138706207,
          -0.11958308517932892,
          -0.015542798675596714,
          -0.057460080832242966,
          -0.052419696003198624,
          -0.07890226691961288,
          -0.04716137796640396,
          -0.03290630504488945,
          0.06838244199752808,
          -0.10174278169870377,
          -0.03372616693377495,
          -0.015495086088776588,
          0.0593164823949337,
          -0.08873648941516876,
          -0.06668470799922943,
          -0.12430192530155182,
          -0.10589874535799026,
          -0.0752241387963295,
          -0.043852243572473526
        ],
        [
          0.2609063684940338,
          0.10643257945775986,
          0.05050995945930481,
          0.4114381670951843,
          0.020958587527275085,
          0.24083416163921356,
          -0.21055766940116882,
          -0.0576191283762455,
          -0.009963000193238258,
          -0.4869225025177002,
          -0.11603942513465881,
          -0.3038480579853058,
          0.12923569977283478,
          0.007522946689277887,
          0.10373210906982422,
          0.00199067872017622,
          0.010752462781965733,
          -0.10327286273241043,
          -0.08997027575969696,
          0.1450040191411972,
          -0.12399325519800186,
          -0.04944948852062225,
          -0.14986932277679443,
          0.08442578464746475
        ],
        [
          -0.030733397230505943,
          0.3959575593471527,
          -0.18070964515209198,
          0.04557180032134056,
          0.3077762722969055,
          -0.30153176188468933,
          0.18541988730430603,
          0.15282928943634033,
          -0.12019376456737518,
          0.26388975977897644,
          0.06309004873037338,
          -0.022040000185370445,
          -0.08985552191734314,
          -0.0474453866481781,
          0.0771094262599945,
          -0.0833408534526825,
          -0.05195307731628418,
          -0.028294283896684647,
          -0.07827027887105942,
          -0.27339601516723633,
          -0.29794707894325256,
          -0.13152945041656494,
          -0.08243319392204285,
          -0.17317631840705872
        ],
        [
          -0.5620015263557434,
          0.441255122423172,
          0.31600499153137207,
          0.13507281243801117,
          -0.18128925561904907,
          -0.16227516531944275,
          0.15672734379768372,
          -0.29739758372306824,
          -0.20619191229343414,
          0.08615412563085556,
          0.025774549692869186,
          -0.12323981523513794,
          0.23140521347522736,
          -0.06646964699029922,
          -0.09413518756628036,
          -0.18523931503295898,
          0.12342026829719543,
          0.057336676865816116,
          -0.020824382081627846,
          0.061434779316186905,
          0.01717028208076954,
          0.0988752692937851,
          -0.07963256537914276,
          -0.007890642620623112
        ],
        [
          -0.3602045178413391,
          -0.2897152006626129,
          0.0642041265964508,
          0.2772774398326874,
          0.29881274700164795,
          -0.030196312814950943,
          0.30122247338294983,
          0.24245695769786835,
          -0.10265025496482849,
          -0.3058512806892395,
          -0.2705857753753662,
          0.16665995121002197,
          -0.027081547304987907,
          -0.10735365748405457,
          -0.009238275699317455,
          0.10666114836931229,
          0.09879256039857864,
          -0.04920177534222603,
          0.04046134650707245,
          -0.06611917167901993,
          -0.00014325180382002145,
          -0.07457006722688675,
          -0.05766427889466286,
          -0.007468343712389469
        ],
        [
          -0.10478377342224121,
          -0.0024779329542070627,
          0.13022659718990326,
          -0.033281110227108,
          0.14991872012615204,
          -0.12313726544380188,
          0.1478869467973709,
          -0.05817442014813423,
          -0.020530665293335915,
          -0.019192859530448914,
          -0.03103286400437355,
          -0.007192772813141346,
          -0.572422981262207,
          0.20059581100940704,
          0.052550822496414185,
          0.004952442832291126,
          0.024758176878094673,
          0.04919493570923805,
          0.18505319952964783,
          0.14173810184001923,
          0.031495094299316406,
          0.4297007918357849,
          -0.4325597584247589,
          -0.04510433226823807
        ],
        [
          -0.015852009877562523,
          -0.16825446486473083,
          -0.006865090224891901,
          0.09340126812458038,
          -0.034704212099313736,
          -0.34821808338165283,
          0.016102012246847153,
          -0.015196378342807293,
          0.11193300038576126,
          -0.36208847165107727,
          -0.007692334242165089,
          -0.036096490919589996,
          0.24132435023784637,
          0.016831515356898308,
          0.046418800950050354,
          0.1882723867893219,
          0.01803095079958439,
          -0.339693546295166,
          0.10396255552768707,
          -0.3494977355003357,
          0.2627190947532654,
          -0.31466707587242126,
          -0.29181531071662903,
          -0.29902806878089905
        ],
        [
          0.06722759455442429,
          0.003228492336347699,
          0.04877251386642456,
          0.28351470828056335,
          0.35941818356513977,
          0.21720032393932343,
          0.26245996356010437,
          0.3331068754196167,
          0.1352004110813141,
          -0.017687706276774406,
          -0.09458549320697784,
          -0.0019975074101239443,
          -0.17604944109916687,
          -0.2584705352783203,
          -0.11387369781732559,
          -0.07774635404348373,
          -0.11629937589168549,
          -0.1324823945760727,
          -0.11475354433059692,
          -0.15908847749233246,
          0.014074533246457577,
          -0.13730350136756897,
          -0.07025502622127533,
          -0.06450024247169495
        ],
        [
          0.05794132128357887,
          -0.006706193555146456,
          0.12890511751174927,
          -0.08285161852836609,
          0.05071386322379112,
          0.014185719192028046,
          -0.06126732379198074,
          0.0008853314211592078,
          -0.11742068082094193,
          -0.0451396182179451,
          0.010579768568277359,
          0.04274697229266167,
          0.07733756303787231,
          -0.2166403979063034,
          -0.0774085596203804,
          -0.09646570682525635,
          -0.013005885295569897,
          -0.04348266124725342,
          -0.10657789558172226,
          -0.031059887260198593,
          -0.19271481037139893,
          -0.09079555422067642,
          -0.1495005339384079,
          0.03303208202123642
        ],
        [
          -0.15738660097122192,
          0.2043430507183075,
          -0.24112427234649658,
          -0.22414623200893402,
          0.31736788153648376,
          -0.3444015681743622,
          0.22001957893371582,
          -0.39133208990097046,
          0.3634171485900879,
          0.21547874808311462,
          -0.2124118208885193,
          0.23218832910060883,
          -0.058844100683927536,
          0.09449094533920288,
          -0.03813359886407852,
          -0.008545417338609695,
          0.03427370265126228,
          0.041210390627384186,
          0.13262782990932465,
          -0.13003815710544586,
          0.2018420696258545,
          -0.02867741510272026,
          0.09477446228265762,
          -0.11518847197294235
        ],
        [
          0.08067641407251358,
          0.10166487097740173,
          0.08272569626569748,
          -0.3899614214897156,
          -0.45459434390068054,
          -0.16741493344306946,
          -0.07121121883392334,
          -0.04825940355658531,
          -0.1033947765827179,
          0.27868661284446716,
          0.32662317156791687,
          0.10407420247793198,
          -0.1099659726023674,
          -0.199964702129364,
          -0.06680323928594589,
          0.004792207386344671,
          0.013235043734312057,
          -0.058468591421842575,
          -0.06892671436071396,
          -0.10872916132211685,
          -0.015751030296087265,
          0.3804757297039032,
          0.20425613224506378,
          0.14646461606025696
        ],
        [
          -0.007258716505020857,
          0.0073164235800504684,
          -0.026073720306158066,
          0.05102621018886566,
          0.010088689625263214,
          -0.03559093922376633,
          -0.08235142379999161,
          0.06678715348243713,
          -0.060295477509498596,
          0.08205512911081314,
          -0.09464775770902634,
          0.04492064192891121,
          -0.2270335555076599,
          0.3878273069858551,
          -0.4810768663883209,
          0.11301493644714355,
          -0.22235287725925446,
          0.3097425103187561,
          -0.12377212941646576,
          0.14337320625782013,
          -0.20203740894794464,
          0.16739273071289062,
          -0.276470810174942,
          0.3457389771938324
        ],
        [
          0.45292750000953674,
          0.3779272139072418,
          -0.3611341118812561,
          -0.05451572313904762,
          -0.09864947199821472,
          0.07024356722831726,
          0.057088300585746765,
          0.05104553699493408,
          -0.02109307423233986,
          -0.41623547673225403,
          -0.30233174562454224,
          0.40591809153556824,
          -0.14063046872615814,
          -0.1283867508172989,
          0.10678649693727493,
          0.04943804442882538,
          0.08298720419406891,
          -0.08692679554224014,
          0.010782147757709026,
          0.0768718346953392,
          -0.12486892938613892,
          0.05350012704730034,
          0.019686207175254822,
          -0.0523904487490654
        ],
        [
          0.1316538155078888,
          0.17407679557800293,
          0.10801128298044205,
          -0.11886977404356003,
          -0.14236576855182648,
          -0.1752055287361145,
          -0.18673816323280334,
          -0.1788484901189804,
          -0.14860378205776215,
          0.1427452564239502,
          0.19272111356258392,
          0.13925284147262573,
          -0.07748763263225555,
          -0.1793273240327835,
          -0.16240045428276062,
          -0.24896061420440674,
          -0.4433845281600952,
          -0.25432124733924866,
          0.20268845558166504,
          0.24379757046699524,
          0.23035337030887604,
          0.18283917009830475,
          0.09674536436796188,
          0.2665325403213501
        ],
        [
          -0.2799126207828522,
          0.1988036036491394,
          -0.005488677881658077,
          0.3603711426258087,
          -0.21442005038261414,
          -0.023216022178530693,
          -0.4677077829837799,
          0.31324318051338196,
          -0.05710575357079506,
          0.35826197266578674,
          -0.11209873855113983,
          0.06781626492738724,
          -0.1302095204591751,
          0.03100009262561798,
          -0.009743225760757923,
          0.1294020116329193,
          -0.006651013623923063,
          -0.030933761969208717,
          0.013299345970153809,
          -0.1476677656173706,
          0.06832868605852127,
          -0.06458956003189087,
          -0.05423522740602493,
          0.10489369928836823
        ],
        [
          0.11693126708269119,
          0.14971143007278442,
          -0.012749631889164448,
          -0.052901990711688995,
          0.05627717077732086,
          0.17405319213867188,
          -0.33781883120536804,
          -0.28761640191078186,
          0.19182881712913513,
          -0.0005497834645211697,
          0.07431862503290176,
          -0.09742185473442078,
          -0.037208784371614456,
          0.20119716227054596,
          0.21105563640594482,
          -0.18850630521774292,
          -0.15953858196735382,
          0.19136497378349304,
          -0.12060607969760895,
          -0.16157306730747223,
          -0.1781042367219925,
          0.12452399730682373,
          0.15022113919258118,
          -0.40317025780677795
        ],
        [
          -0.18288017809391022,
          -0.19523291289806366,
          0.05601712688803673,
          0.18714915215969086,
          0.2109803855419159,
          -0.09212252497673035,
          -0.41627609729766846,
          -0.34312963485717773,
          0.1271844506263733,
          0.3671872913837433,
          0.2709544599056244,
          -0.22976304590702057,
          0.018548494204878807,
          0.07216529548168182,
          0.1451718807220459,
          0.2112165242433548,
          0.1782073974609375,
          -0.1096719279885292,
          -0.09798969328403473,
          -0.10484324395656586,
          0.12799429893493652,
          -0.14482341706752777,
          -0.10286055505275726,
          0.0956406518816948
        ],
        [
          -0.042269010096788406,
          -0.32689234614372253,
          -0.31504717469215393,
          -0.1578233391046524,
          0.25182464718818665,
          0.3280443251132965,
          -0.1935143619775772,
          0.1804812252521515,
          -0.21157342195510864,
          0.20886631309986115,
          -0.059232551604509354,
          0.11750483512878418,
          -0.29839685559272766,
          -0.37915509939193726,
          0.03356235846877098,
          -0.1473706066608429,
          0.09194094687700272,
          -0.03958526626229286,
          0.033529553562402725,
          -0.04730365425348282,
          -0.10061214864253998,
          0.13118326663970947,
          0.051990095525979996,
          0.12607243657112122
        ],
        [
          -0.059912849217653275,
          0.130512073636055,
          0.16375043988227844,
          -0.0723147839307785,
          0.1792772114276886,
          0.27125224471092224,
          0.09364970773458481,
          -0.1462511271238327,
          -0.24828480184078217,
          0.061948180198669434,
          -0.09710801392793655,
          -0.11635632812976837,
          -0.16369451582431793,
          -0.05671565607190132,
          -0.011321915313601494,
          0.1585213989019394,
          -0.34147319197654724,
          -0.3717472553253174,
          -0.1809244155883789,
          0.16441769897937775,
          0.0772046223282814,
          -0.043764133006334305,
          0.1864825338125229,
          0.2461768090724945
        ],
        [
          -0.07512546330690384,
          -0.08049789816141129,
          -0.0533721037209034,
          0.010505917482078075,
          0.08684773743152618,
          0.020518841221928596,
          0.03274279460310936,
          -0.015655675902962685,
          -0.06756222993135452,
          -0.07426523417234421,
          0.06762028485536575,
          -0.02405707910656929,
          -0.0998353436589241,
          0.001631491701118648,
          -0.11924999207258224,
          -0.07105638831853867,
          -0.1138448417186737,
          -0.10225167870521545,
          0.06296642124652863,
          -0.11136066168546677,
          -0.013175408355891705,
          -0.09143444150686264,
          -0.025115111842751503,
          -0.002543049631640315
        ],
        [
          0.012559913098812103,
          -0.05026155710220337,
          -0.022055374458432198,
          0.009606532752513885,
          -0.045218292623758316,
          0.000283790344838053,
          -0.052369486540555954,
          -0.11429015547037125,
          0.01760026067495346,
          -0.034412093460559845,
          -0.08110753446817398,
          -0.0523865781724453,
          -0.1517472118139267,
          -0.12049224972724915,
          -0.1042107418179512,
          -0.024820709601044655,
          -0.09021089971065521,
          -0.04530276358127594,
          0.008324189111590385,
          -0.030528469011187553,
          0.06683298945426941,
          -0.029386840760707855,
          -0.02463594637811184,
          0.008382827043533325
        ],
        [
          0.28465110063552856,
          -0.2860959768295288,
          0.0799974799156189,
          0.19285257160663605,
          0.2148575484752655,
          -0.14492303133010864,
          0.20387694239616394,
          0.14254158735275269,
          -0.14412252604961395,
          0.07925324141979218,
          -0.05622890591621399,
          -0.4037691056728363,
          -0.21938197314739227,
          -0.12375753372907639,
          0.037749484181404114,
          -0.3738476037979126,
          0.014998884871602058,
          -0.022652367129921913,
          -0.23940303921699524,
          0.07844753563404083,
          0.011549102142453194,
          -0.14772608876228333,
          -0.021497061476111412,
          0.16742351651191711
        ],
        [
          0.2113196849822998,
          0.051695264875888824,
          0.03982357680797577,
          0.19596990942955017,
          0.058864425867795944,
          0.02603992260992527,
          0.27864623069763184,
          0.12426343560218811,
          0.080282062292099,
          0.23894505202770233,
          0.10993794351816177,
          0.032257210463285446,
          0.12321756035089493,
          0.03202293813228607,
          -0.002295609563589096,
          -0.16171860694885254,
          -0.06448177993297577,
          -0.04801568016409874,
          -0.14141295850276947,
          -0.0931636393070221,
          0.028419995680451393,
          -0.6420091986656189,
          -0.3560371696949005,
          -0.052236754447221756
        ],
        [
          0.017969949170947075,
          -0.022220315411686897,
          -0.08094528317451477,
          0.1904858648777008,
          -0.1449873000383377,
          -0.18758580088615417,
          -0.27548521757125854,
          0.25393733382225037,
          0.3004991114139557,
          0.06996823847293854,
          -0.024846553802490234,
          -0.043129242956638336,
          0.21114994585514069,
          -0.27214133739471436,
          -0.19956520199775696,
          0.19482320547103882,
          -0.21615830063819885,
          -0.14807210862636566,
          -0.09490551799535751,
          0.1918141096830368,
          0.022334903478622437,
          -0.29313862323760986,
          0.18272241950035095,
          0.29529666900634766
        ],
        [
          0.257057785987854,
          -0.21396584808826447,
          0.047944001853466034,
          0.2845619022846222,
          -0.2515464425086975,
          0.09443376958370209,
          0.2938586175441742,
          -0.24113968014717102,
          0.08375852555036545,
          0.243618443608284,
          -0.2574270963668823,
          0.07886511832475662,
          -0.29888495802879333,
          0.2393467128276825,
          -0.05175614729523659,
          -0.29518336057662964,
          0.170210599899292,
          -0.048733968287706375,
          -0.24487318098545074,
          0.1689019501209259,
          -0.022021880373358727,
          -0.3089126646518707,
          0.28090959787368774,
          -0.02966577373445034
        ],
        [
          -0.07454493641853333,
          -0.04585447534918785,
          0.06545936316251755,
          -0.2829829752445221,
          -0.25545039772987366,
          -0.18495462834835052,
          0.18367138504981995,
          0.13241952657699585,
          0.0030947031918913126,
          0.1783093810081482,
          0.13781023025512695,
          0.060587916523218155,
          0.03573665767908096,
          0.069761261343956,
          0.1608089655637741,
          0.26600560545921326,
          0.29636022448539734,
          0.1515149623155594,
          0.00016813806723803282,
          0.05802890285849571,
          0.09854935854673386,
          -0.3873811364173889,
          -0.37698906660079956,
          -0.3139866292476654
        ],
        [
          0.08133694529533386,
          0.07719963788986206,
          -0.0785592719912529,
          0.0019871387630701065,
          -0.15711018443107605,
          0.04902943596243858,
          -0.044652584940195084,
          -0.010285587050020695,
          -0.12688347697257996,
          0.009605920873582363,
          0.02930174581706524,
          -0.00652602082118392,
          -0.46858298778533936,
          -0.1441020965576172,
          -0.4521498680114746,
          0.008901814930140972,
          -0.1566094607114792,
          0.021550104022026062,
          0.23092184960842133,
          -0.09883134067058563,
          0.3453115224838257,
          -0.07308149337768555,
          0.22196832299232483,
          0.14257507026195526
        ],
        [
          0.0036700284108519554,
          0.06602096557617188,
          0.12406069040298462,
          0.11806928366422653,
          -0.263711154460907,
          -0.2909335792064667,
          0.004159748088568449,
          -0.07232961058616638,
          -0.113060861825943,
          -0.044756144285202026,
          0.14487026631832123,
          0.3130502998828888,
          -0.0514710359275341,
          0.2621324062347412,
          0.36780187487602234,
          -0.0029939566738903522,
          -0.3573611378669739,
          -0.350911945104599,
          -0.05749388784170151,
          0.20978116989135742,
          0.25123751163482666,
          -0.016959277912974358,
          -0.13124173879623413,
          -0.19562385976314545
        ],
        [
          0.08713048696517944,
          -0.07521306723356247,
          -0.03941058740019798,
          0.06480627506971359,
          -0.10119976103305817,
          0.25116658210754395,
          0.1336481273174286,
          0.17552845180034637,
          0.1862073689699173,
          0.3034377098083496,
          0.1980237513780594,
          0.12700773775577545,
          -0.16330298781394958,
          0.014070027507841587,
          -0.2322121560573578,
          -0.04939895495772362,
          -0.022764330729842186,
          -0.2706535756587982,
          -0.20552267134189606,
          -0.15122997760772705,
          -0.1130720004439354,
          -0.27524784207344055,
          0.08229228109121323,
          -0.085947684943676
        ],
        [
          0.1611124724149704,
          -0.08246313035488129,
          0.049266837537288666,
          0.22878605127334595,
          -0.17594078183174133,
          0.13568268716335297,
          0.25240352749824524,
          -0.1558680385351181,
          0.14801251888275146,
          0.19569818675518036,
          -0.14040736854076385,
          0.08734098076820374,
          -0.3151731789112091,
          0.25244420766830444,
          -0.16557395458221436,
          -0.32442304491996765,
          0.22260735929012299,
          -0.19499845802783966,
          -0.26975947618484497,
          0.20584207773208618,
          -0.1995856910943985,
          -0.23528820276260376,
          0.22820599377155304,
          -0.18045221269130707
        ],
        [
          0.06045190244913101,
          -0.1318633258342743,
          0.19965602457523346,
          0.0035898250062018633,
          -0.20673660933971405,
          0.18024878203868866,
          0.005019980948418379,
          -0.027707209810614586,
          -0.039708226919174194,
          -0.09976579993963242,
          0.3477709889411926,
          -0.39036956429481506,
          -0.0703539103269577,
          0.214686319231987,
          -0.304752916097641,
          0.045865464955568314,
          -0.31293538212776184,
          0.2946333885192871,
          0.0701894536614418,
          -0.1852535605430603,
          0.1927826702594757,
          -0.040384333580732346,
          0.19522657990455627,
          -0.19126594066619873
        ],
        [
          0.1386336237192154,
          -0.2331298142671585,
          -0.5241944193840027,
          -0.02865833044052124,
          0.15771524608135223,
          0.32259538769721985,
          0.06375417113304138,
          0.04800756275653839,
          0.011495515704154968,
          -0.02639250084757805,
          -0.18414545059204102,
          -0.13337573409080505,
          -0.007253868505358696,
          -0.22238077223300934,
          -0.2995450794696808,
          -0.027905428782105446,
          -0.2147073894739151,
          0.26890599727630615,
          -0.2411065697669983,
          -0.07110821455717087,
          0.24168986082077026,
          -0.10423731803894043,
          -0.0818130224943161,
          0.1478164792060852
        ],
        [
          0.01888328418135643,
          -0.09659741073846817,
          0.04926362261176109,
          -0.055467937141656876,
          -0.0952107310295105,
          -0.06520095467567444,
          0.04084882140159607,
          -0.30302146077156067,
          0.2586739957332611,
          0.05930611118674278,
          0.3820419907569885,
          -0.44750866293907166,
          0.017593028023838997,
          -0.1973864883184433,
          0.22831009328365326,
          0.01880606822669506,
          -0.10548249632120132,
          0.16716428101062775,
          -0.08914881199598312,
          0.35504448413848877,
          -0.26753485202789307,
          0.07788068801164627,
          0.1668836921453476,
          -0.070195272564888
        ],
        [
          0.10852430015802383,
          0.052957791835069656,
          0.04741206765174866,
          0.08713141828775406,
          0.23138628900051117,
          0.02555825188755989,
          -0.2523852586746216,
          -0.22633014619350433,
          -0.10932901501655579,
          0.13048994541168213,
          0.016733167693018913,
          -0.12011512368917465,
          -0.3296113610267639,
          -0.20705078542232513,
          -0.00774384755641222,
          -0.24202844500541687,
          -0.12086920440196991,
          -0.054880816489458084,
          0.433512806892395,
          0.28954607248306274,
          0.1550159901380539,
          -0.046962007880210876,
          -0.0667296051979065,
          -0.16356725990772247
        ],
        [
          0.06276722997426987,
          -0.008451655507087708,
          -0.022733530029654503,
          -0.020365754142403603,
          0.14106665551662445,
          0.05256844311952591,
          0.07778200507164001,
          -0.05042245239019394,
          -0.0440390519797802,
          0.007822348736226559,
          0.06527664512395859,
          -0.0033135777339339256,
          -0.24370761215686798,
          0.11691540479660034,
          -0.01792909950017929,
          0.3864932656288147,
          -0.3308993875980377,
          0.0409385971724987,
          -0.516815721988678,
          0.4054914116859436,
          -0.08788596093654633,
          0.286612331867218,
          -0.23501132428646088,
          -0.05743107199668884
        ],
        [
          0.2268829047679901,
          -0.26445719599723816,
          0.18856634199619293,
          -0.04256894811987877,
          0.07769181579351425,
          -0.12726803123950958,
          -0.31058382987976074,
          0.4700028598308563,
          -0.4401828944683075,
          0.2373090535402298,
          -0.3396054804325104,
          0.17369450628757477,
          -0.008970353752374649,
          -0.020532844588160515,
          0.06835341453552246,
          -0.07981260865926743,
          0.14592701196670532,
          -0.049373939633369446,
          0.11628276109695435,
          -0.10670532286167145,
          0.16141477227210999,
          -0.06124356761574745,
          0.0769619569182396,
          -0.037371676415205
        ],
        [
          0.06093490496277809,
          0.04595731198787689,
          0.014694101177155972,
          0.01623675972223282,
          -0.09183215349912643,
          -0.10735933482646942,
          0.017503848299384117,
          0.04575289413332939,
          0.07512558996677399,
          -0.11290790885686874,
          0.0931558683514595,
          -0.12325404584407806,
          -0.09810695052146912,
          -0.04455102980136871,
          -0.06893054395914078,
          -0.055542271584272385,
          0.019734099507331848,
          -0.10777294635772705,
          -0.01155001763254404,
          -0.023346908390522003,
          -0.1046571135520935,
          -0.10542760044336319,
          -0.11301779747009277,
          -0.11858208477497101
        ],
        [
          -0.016242995858192444,
          0.0662684291601181,
          -0.0967893898487091,
          -0.07354148477315903,
          -0.09380211681127548,
          0.055676475167274475,
          -0.06556955724954605,
          -0.03212107717990875,
          -0.09134542942047119,
          -0.02101426012814045,
          -0.030166545882821083,
          -0.10282384604215622,
          0.002100023441016674,
          -0.05741874501109123,
          0.0729631632566452,
          -0.11072741448879242,
          0.023264143615961075,
          0.0573204830288887,
          -0.07582010328769684,
          -0.009178447537124157,
          -0.0011378189083188772,
          -0.11762907356023788,
          0.014259290881454945,
          -0.06904283165931702
        ],
        [
          -0.3652344048023224,
          0.10335006564855576,
          -0.29184508323669434,
          -0.20783646404743195,
          0.026508480310440063,
          -0.20975975692272186,
          -0.17987966537475586,
          0.04915434494614601,
          -0.18716222047805786,
          -0.34288087487220764,
          0.08289160579442978,
          -0.2085036188364029,
          0.2840002179145813,
          -0.03896978124976158,
          0.24110627174377441,
          0.21935461461544037,
          -0.00016708701150491834,
          0.1502770185470581,
          0.3291788399219513,
          -0.02849077247083187,
          0.23454998433589935,
          0.2336433082818985,
          -0.016875233501195908,
          0.2278139293193817
        ],
        [
          -0.19119031727313995,
          0.0766143798828125,
          -0.1727108508348465,
          -0.3073425590991974,
          0.03386679291725159,
          -0.05814443156123161,
          -0.18578454852104187,
          -0.049769360572099686,
          -0.06955594569444656,
          -0.1357213854789734,
          0.04645854979753494,
          -0.10169310867786407,
          0.24311116337776184,
          -0.12582369148731232,
          0.17630158364772797,
          0.16686159372329712,
          -0.14986009895801544,
          0.2109287530183792,
          0.26520606875419617,
          -0.16346198320388794,
          0.2448526918888092,
          0.21083761751651764,
          -0.10945896059274673,
          0.2794399559497833
        ],
        [
          -0.009239811450242996,
          -0.03153550252318382,
          0.02619943767786026,
          -0.06962559372186661,
          -0.010324099101126194,
          0.06468988209962845,
          -0.11148747056722641,
          -0.0229561198502779,
          -0.05871836096048355,
          0.03319723159074783,
          0.06484822928905487,
          -0.11849267780780792,
          -0.06359837204217911,
          -0.11980443447828293,
          -0.018411556258797646,
          -0.12160960584878922,
          0.037320155650377274,
          0.008630954660475254,
          -0.09135916084051132,
          -0.07587800920009613,
          0.07536060363054276,
          0.017037179321050644,
          -0.0701003447175026,
          -0.07643634080886841
        ],
        [
          0.2674218416213989,
          0.21130302548408508,
          0.19558830559253693,
          0.0018855218077078462,
          0.09830838441848755,
          0.06104373559355736,
          0.25518783926963806,
          0.16895624995231628,
          0.1763353794813156,
          0.27217909693717957,
          0.20469792187213898,
          0.13454745709896088,
          -0.34523600339889526,
          -0.19002491235733032,
          -0.11947102844715118,
          -0.30149778723716736,
          -0.06648753583431244,
          -0.14310814440250397,
          -0.30538859963417053,
          -0.1580236554145813,
          -0.22072522342205048,
          0.04164128750562668,
          -0.07193309813737869,
          -0.017815830186009407
        ],
        [
          0.2924436926841736,
          -0.3259603679180145,
          0.15137624740600586,
          -0.2861327826976776,
          0.1765572726726532,
          -0.12224391847848892,
          0.009706268087029457,
          -0.08262566477060318,
          0.053279295563697815,
          -0.08701039850711823,
          0.07928133755922318,
          -0.08468350023031235,
          0.03870134800672531,
          -0.011875604279339314,
          -0.008561581373214722,
          -0.45992499589920044,
          0.26840299367904663,
          0.1849648505449295,
          0.2522992491722107,
          -0.24073979258537292,
          -0.09493571519851685,
          0.13148139417171478,
          -0.06554411351680756,
          -0.0663893073797226
        ],
        [
          0.13303138315677643,
          0.27519360184669495,
          0.19418062269687653,
          0.168227419257164,
          0.10302095860242844,
          0.16442792117595673,
          0.04831404238939285,
          0.13114236295223236,
          0.09022284299135208,
          0.14373081922531128,
          0.2208336591720581,
          0.2482314556837082,
          -0.028468966484069824,
          -0.2141161859035492,
          -0.22882966697216034,
          -0.2921724021434784,
          -0.411786824464798,
          -0.4486294984817505,
          -0.03632510080933571,
          -0.13821673393249512,
          -0.11034420132637024,
          0.06327271461486816,
          0.040432244539260864,
          0.0418701171875
        ],
        [
          -0.031470220535993576,
          -0.007780441548675299,
          -0.009153456427156925,
          0.0175918061286211,
          0.056841298937797546,
          0.0052352785132825375,
          -0.06481272727251053,
          -0.06385785341262817,
          0.0021793514024466276,
          0.02764379046857357,
          -0.031976569443941116,
          0.022269343957304955,
          -0.5525113344192505,
          -0.3567194640636444,
          -0.38665416836738586,
          0.21938207745552063,
          0.20357674360275269,
          0.19827137887477875,
          -0.08067517727613449,
          -0.03268545866012573,
          -0.07535280287265778,
          0.35925033688545227,
          0.31908443570137024,
          0.2940588891506195
        ],
        [
          -0.19023790955543518,
          -0.019463298842310905,
          -0.10994020849466324,
          -0.09169545769691467,
          -0.079982228577137,
          -0.12734657526016235,
          0.07040572911500931,
          -0.20283620059490204,
          -0.09159630537033081,
          0.11098817735910416,
          -0.387442022562027,
          0.09285691380500793,
          0.4127354323863983,
          -0.04068891331553459,
          0.18588872253894806,
          -0.30202484130859375,
          0.19653461873531342,
          0.015956329181790352,
          -0.08052857220172882,
          0.1411411613225937,
          0.12628866732120514,
          -0.015981344506144524,
          0.07922343909740448,
          0.014550051651895046
        ],
        [
          0.23256847262382507,
          -0.2199721783399582,
          -0.03596346452832222,
          -0.12100891768932343,
          -0.061301399022340775,
          -0.015364527702331543,
          -0.1924811750650406,
          0.13037435710430145,
          -0.07117105275392532,
          0.03495492413640022,
          0.023294394835829735,
          0.15882083773612976,
          0.15350815653800964,
          0.021707937121391296,
          0.1295645833015442,
          -0.21953973174095154,
          0.12237062305212021,
          -0.42250144481658936,
          -0.38205721974372864,
          0.10473212599754333,
          0.3501923680305481,
          0.1676485240459442,
          -0.22833722829818726,
          0.0018100904999300838
        ],
        [
          -0.05536684766411781,
          0.08690354973077774,
          0.047604069113731384,
          -0.1122085452079773,
          -0.1649741679430008,
          0.3414594531059265,
          -0.029816854745149612,
          0.106609046459198,
          -0.08253124356269836,
          0.11751384288072586,
          0.20560322701931,
          -0.03633942827582359,
          -0.2381390929222107,
          -0.5716540217399597,
          0.27158811688423157,
          0.06308106333017349,
          0.15969441831111908,
          -0.3097170889377594,
          0.07270253449678421,
          0.04654159024357796,
          -0.20720115303993225,
          0.028775958344340324,
          0.18208393454551697,
          -0.1687873750925064
        ],
        [
          0.12885667383670807,
          0.20366187393665314,
          0.1946416199207306,
          0.13295644521713257,
          0.1641206443309784,
          0.2546692192554474,
          0.15855595469474792,
          0.13477939367294312,
          0.2235211879014969,
          0.20223590731620789,
          0.20047815144062042,
          0.1964467465877533,
          -0.21094630658626556,
          -0.23122122883796692,
          -0.22855694591999054,
          -0.18836520612239838,
          -0.24284487962722778,
          -0.2635982930660248,
          -0.1614701896905899,
          -0.20562005043029785,
          -0.2540375590324402,
          -0.13865059614181519,
          -0.20233416557312012,
          -0.18601764738559723
        ],
        [
          -0.2639538049697876,
          -0.1694571077823639,
          -0.1172361746430397,
          -0.22620940208435059,
          -0.18104715645313263,
          -0.1356721818447113,
          -0.030729854479432106,
          -0.07138232886791229,
          -0.09429438412189484,
          -0.19622066617012024,
          -0.15068133175373077,
          -0.06327086687088013,
          -0.06850602477788925,
          -0.03750887140631676,
          0.14076481759548187,
          0.2916989326477051,
          0.23405209183692932,
          0.055681124329566956,
          0.2414184957742691,
          0.16707684099674225,
          0.09590352326631546,
          0.3972896933555603,
          0.17993248999118805,
          0.014921024441719055
        ],
        [
          -0.03603320196270943,
          -0.05432169884443283,
          0.08335227519273758,
          -0.11088202893733978,
          -0.014057915657758713,
          0.10956370830535889,
          -0.022260166704654694,
          0.04242956265807152,
          0.07152041047811508,
          0.12005531787872314,
          0.12288308143615723,
          -0.06426583975553513,
          -0.022649001330137253,
          0.0087169473990798,
          0.0073815202340483665,
          -0.3803616464138031,
          -0.43530648946762085,
          0.4012439250946045,
          0.33997881412506104,
          0.3111197054386139,
          -0.45513585209846497,
          -0.0019274135120213032,
          0.06465915590524673,
          -0.06675925105810165
        ],
        [
          -0.08525090664625168,
          0.04600010812282562,
          -0.1370464265346527,
          0.42943453788757324,
          0.042547598481178284,
          0.30004557967185974,
          -0.49325427412986755,
          0.003295865608379245,
          -0.39713600277900696,
          0.21655714511871338,
          -0.03426450863480568,
          0.13936661183834076,
          0.10362282395362854,
          0.03769003599882126,
          0.022543566301465034,
          -0.04236241430044174,
          -0.08083236962556839,
          -0.021758193150162697,
          0.1111140102148056,
          0.00016170591698028147,
          0.07684225589036942,
          -0.20467177033424377,
          0.007866949774324894,
          -0.17437054216861725
        ],
        [
          0.15206852555274963,
          0.28996041417121887,
          0.2224617451429367,
          -0.0017345761880278587,
          0.030421258881688118,
          -0.049504365772008896,
          -0.1924552023410797,
          -0.3730548024177551,
          -0.38018038868904114,
          0.05133890360593796,
          0.11138640344142914,
          0.1170266717672348,
          0.010057574138045311,
          -0.1308092474937439,
          -0.0963083952665329,
          0.193953737616539,
          0.40930765867233276,
          0.34801509976387024,
          -0.030071552842855453,
          -0.1681630164384842,
          -0.05551967769861221,
          -0.11117395758628845,
          -0.11017204821109772,
          -0.12123541533946991
        ],
        [
          0.09433374553918839,
          0.13790425658226013,
          -0.260771781206131,
          0.10178513824939728,
          0.18778622150421143,
          -0.2967306077480316,
          0.14104068279266357,
          0.16456739604473114,
          -0.34503087401390076,
          0.12686578929424286,
          0.188461035490036,
          -0.248406320810318,
          -0.10354200750589371,
          -0.17641451954841614,
          0.26576948165893555,
          -0.09967363625764847,
          -0.18979129195213318,
          0.2820498049259186,
          -0.10969351977109909,
          -0.16952165961265564,
          0.28729337453842163,
          -0.13840655982494354,
          -0.20419247448444366,
          0.3448137640953064
        ],
        [
          -0.01690874807536602,
          -0.013964620418846607,
          0.04506133124232292,
          0.014814912341535091,
          0.038980815559625626,
          -0.030762549489736557,
          -0.1815345138311386,
          -0.058812763541936874,
          -0.06118074432015419,
          -0.12202868610620499,
          -0.10451900959014893,
          -0.015193149447441101,
          0.057186059653759,
          0.026732750236988068,
          0.005638191010802984,
          0.02071366272866726,
          -0.10239927470684052,
          0.03610842674970627,
          -0.01788845658302307,
          -0.14599010348320007,
          -0.023015810176730156,
          0.038843560963869095,
          -0.07604189217090607,
          -0.018236353993415833
        ],
        [
          -0.08740372210741043,
          0.2671102285385132,
          0.28079214692115784,
          -0.08543330430984497,
          0.29100388288497925,
          0.25924691557884216,
          -0.17591166496276855,
          0.175138920545578,
          0.23240584135055542,
          -0.06897717714309692,
          0.016447128728032112,
          0.0022521691862493753,
          0.16255316138267517,
          -0.11229069530963898,
          -0.04520339146256447,
          0.17943167686462402,
          -0.3485712707042694,
          -0.3480435907840729,
          0.18857204914093018,
          -0.2586108148097992,
          -0.18760742247104645,
          0.042615875601768494,
          0.03298065811395645,
          -0.14064857363700867
        ],
        [
          0.034151237457990646,
          0.0977322980761528,
          0.03381292149424553,
          -0.09497667849063873,
          -0.10360820591449738,
          -0.27888813614845276,
          -0.06195129081606865,
          -0.025036843493580818,
          -0.01401664037257433,
          0.13437899947166443,
          0.127197727560997,
          0.10752098262310028,
          0.318138062953949,
          0.4153427481651306,
          0.4593609571456909,
          -0.06973983347415924,
          -0.24028055369853973,
          -0.1615999937057495,
          -0.2783909738063812,
          -0.26504606008529663,
          -0.1985408365726471,
          -0.019679373130202293,
          -0.03589246794581413,
          -0.03240407630801201
        ],
        [
          -0.026784490793943405,
          -0.12688136100769043,
          -0.012792603112757206,
          -0.17063966393470764,
          -0.2286374866962433,
          0.11627135425806046,
          0.08661165088415146,
          0.046437010169029236,
          -0.13738010823726654,
          0.08442433923482895,
          0.09152087569236755,
          -0.07274653762578964,
          -0.14578095078468323,
          -0.07569120824337006,
          0.1656966507434845,
          0.12235520035028458,
          0.07915017753839493,
          -0.09028282761573792,
          -0.2616081237792969,
          -0.28791379928588867,
          0.32821980118751526,
          0.30833345651626587,
          0.418030321598053,
          -0.417802095413208
        ],
        [
          -0.0027423028368502855,
          -0.06544768810272217,
          0.00961893517524004,
          -0.0048004197888076305,
          0.0022742492146790028,
          0.11027636379003525,
          -0.0024768952280282974,
          0.06299807131290436,
          0.24743689596652985,
          0.3137173354625702,
          -0.13532209396362305,
          -0.45018360018730164,
          0.17408670485019684,
          -0.036687422543764114,
          -0.3731466233730316,
          0.14970490336418152,
          -0.05566427484154701,
          -0.2619111239910126,
          -0.1848023682832718,
          0.11305782198905945,
          0.2954937517642975,
          -0.08435384184122086,
          0.13757382333278656,
          0.2654906213283539
        ],
        [
          -0.02543642558157444,
          0.028874844312667847,
          -0.04567290097475052,
          -0.15599612891674042,
          -0.09613554179668427,
          0.149372398853302,
          -0.06060419976711273,
          -0.03381418064236641,
          0.16619426012039185,
          0.028031805530190468,
          0.20418661832809448,
          -0.17492926120758057,
          -0.049091778695583344,
          -0.1636052280664444,
          0.13507568836212158,
          0.24891288578510284,
          0.46024131774902344,
          -0.5210010409355164,
          -0.03316580504179001,
          -0.15323558449745178,
          0.03701084852218628,
          -0.02961883880198002,
          -0.3444046974182129,
          0.24923913180828094
        ],
        [
          -0.07838328927755356,
          0.09968272596597672,
          -0.028593875467777252,
          0.04708576202392578,
          -0.18422621488571167,
          -0.1255285143852234,
          0.02475917711853981,
          -0.058400146663188934,
          -0.04705556109547615,
          -0.20469097793102264,
          0.08198081701993942,
          0.16510634124279022,
          -0.21108779311180115,
          0.2103751003742218,
          0.16733455657958984,
          -0.23588250577449799,
          0.33679816126823425,
          0.24044649302959442,
          0.10412600636482239,
          -0.17028726637363434,
          -0.11748600006103516,
          0.3442869484424591,
          -0.41588181257247925,
          -0.29020076990127563
        ],
        [
          -0.470119833946228,
          -0.05877917259931564,
          -0.4119051992893219,
          0.28359824419021606,
          0.07145742326974869,
          0.29894328117370605,
          0.35739269852638245,
          0.14084987342357635,
          0.3109947144985199,
          -0.26495561003685,
          -0.07661420851945877,
          -0.2650401294231415,
          0.0038131214678287506,
          0.017139596864581108,
          -0.054350968450307846,
          -0.004533753730356693,
          -0.05485287681221962,
          -0.06567738950252533,
          -0.02266693115234375,
          -0.004816264379769564,
          0.004504858050495386,
          0.12520895898342133,
          0.0073188068345189095,
          0.10201595723628998
        ],
        [
          -0.22223959863185883,
          -0.4506494700908661,
          -0.30272141098976135,
          0.2133907675743103,
          -0.00494243111461401,
          -0.01090590376406908,
          0.034745704382658005,
          0.18045192956924438,
          0.2791061997413635,
          -0.009235061705112457,
          -0.052624814212322235,
          -0.007439496461302042,
          -0.04422635957598686,
          -0.006952453404664993,
          0.14162792265415192,
          -0.1532476544380188,
          -0.1366761326789856,
          -0.04569117724895477,
          -0.04910171031951904,
          -0.11850682646036148,
          -0.24087293446063995,
          0.17947138845920563,
          0.26915425062179565,
          -0.12745073437690735
        ],
        [
          0.07809478044509888,
          0.25668805837631226,
          -0.20862989127635956,
          0.14189866185188293,
          0.313385546207428,
          -0.2419327199459076,
          0.13317807018756866,
          0.3214983642101288,
          -0.2293192744255066,
          0.08612483739852905,
          0.27950671315193176,
          -0.1823102980852127,
          -0.08920527249574661,
          -0.34275102615356445,
          0.15535245835781097,
          -0.10044468939304352,
          -0.248588427901268,
          0.16672217845916748,
          -0.10324903577566147,
          -0.23317387700080872,
          0.15220747888088226,
          -0.08810116350650787,
          -0.2578463852405548,
          0.1445056051015854
        ],
        [
          -0.29373741149902344,
          -0.06806166470050812,
          0.28216931223869324,
          -0.13145782053470612,
          -0.04881594330072403,
          0.11879177391529083,
          -0.06734268367290497,
          0.16288794577121735,
          0.12676750123500824,
          0.21156364679336548,
          0.21263635158538818,
          -0.2605963349342346,
          -0.04250252619385719,
          -0.018114076927304268,
          -0.20618806779384613,
          -0.2556471526622772,
          0.025552287697792053,
          -0.038899827748537064,
          -0.0034425717312842607,
          -0.1063082367181778,
          -0.12859196960926056,
          -0.15931451320648193,
          -0.10451310873031616,
          -0.04525425657629967
        ],
        [
          -0.12419040501117706,
          0.3966927230358124,
          -0.4601322412490845,
          0.030809376388788223,
          -0.3232332468032837,
          0.3197742998600006,
          -0.0888390764594078,
          0.225247323513031,
          -0.18007323145866394,
          0.06445171684026718,
          -0.2040712982416153,
          0.2707515060901642,
          -0.02673126384615898,
          0.041126515716314316,
          0.08391013741493225,
          0.028650062158703804,
          -0.279171347618103,
          0.2105712592601776,
          -0.030372215434908867,
          0.11589257419109344,
          -0.064326710999012,
          -0.03228766471147537,
          0.05775182321667671,
          -0.162352055311203
        ],
        [
          0.08283542096614838,
          0.04905078187584877,
          0.10370366275310516,
          -0.1619381457567215,
          0.05679166316986084,
          -0.05333801731467247,
          0.10071036219596863,
          0.010014906525611877,
          0.05977140739560127,
          -0.05332229658961296,
          -0.039012908935546875,
          -0.0865936353802681,
          0.09890730679035187,
          0.09183487296104431,
          0.09798028320074081,
          -0.6345994472503662,
          -0.33626168966293335,
          -0.28493404388427734,
          0.38429489731788635,
          0.2635401487350464,
          0.27313315868377686,
          -0.04748569428920746,
          -0.0003478352737147361,
          0.0468825064599514
        ],
        [
          -0.2532295286655426,
          -0.2684667706489563,
          -0.37272003293037415,
          0.24637964367866516,
          0.2487170398235321,
          0.25410062074661255,
          -0.05739453062415123,
          -0.19186124205589294,
          -0.19387710094451904,
          0.13824976980686188,
          0.20125387609004974,
          0.20098821818828583,
          0.1136825680732727,
          0.23808784782886505,
          0.10690631717443466,
          -0.018496260046958923,
          0.1448042243719101,
          0.007342538330703974,
          0.009537545964121819,
          -0.08558448404073715,
          -0.00975106842815876,
          -0.10473285615444183,
          -0.2828402817249298,
          -0.21253401041030884
        ],
        [
          0.1241937205195427,
          -0.0020520517136901617,
          -0.009922616183757782,
          -0.27586546540260315,
          0.15491251647472382,
          0.03299572691321373,
          -0.006750857457518578,
          0.03762345388531685,
          -0.017374837771058083,
          0.03577163442969322,
          -0.10739343613386154,
          -0.05103466287255287,
          0.5331763029098511,
          -0.4527420997619629,
          -0.08530682325363159,
          -0.12361261993646622,
          0.05298624932765961,
          -0.01415706891566515,
          -0.19535808265209198,
          0.12720628082752228,
          0.142831951379776,
          -0.3019319176673889,
          0.21840915083885193,
          0.08072096109390259
        ],
        [
          -0.07208745181560516,
          0.2552979588508606,
          -0.23263639211654663,
          -0.04809408634901047,
          0.031323909759521484,
          0.057200971990823746,
          0.1609329730272293,
          -0.21509426832199097,
          0.022073501721024513,
          0.07082723081111908,
          -0.09428824484348297,
          0.14426687359809875,
          -0.16649626195430756,
          0.17127428948879242,
          -0.19863925874233246,
          -0.28929784893989563,
          0.2105768918991089,
          -0.2413400411605835,
          -0.018461143597960472,
          -0.08691439777612686,
          0.08978056162595749,
          0.2545967996120453,
          -0.26845747232437134,
          0.355781614780426
        ]
      ],
      "bias": [
        -0.05475867539644241,
        0.012933666817843914,
        -0.0604623407125473,
        -0.04319663718342781,
        -0.022808397188782692,
        0.06642679870128632,
        -0.05330929160118103,
        0.04093075171113014,
        -0.07009606063365936,
        0.08066993951797485,
        -0.06502533704042435,
        -0.0038575143553316593,
        0.004580976441502571,
        0.10947707295417786,
        -0.04001503065228462,
        -0.07461587339639664,
        0.03615478798747063,
        -0.036400482058525085,
        0.14612701535224915,
        -0.0010067636612802744,
        -0.1412932276725769,
        -0.08372290432453156,
        0.01650754176080227,
        -0.15345044434070587,
