{
  "shared_layers": [
    {
      "weight": [
        [
          0.29077574610710144,
          -0.2551308274269104,
          0.3303817808628082,
          0.2083035707473755,
          -0.20859120786190033,
          0.2437364161014557,
          -0.24135443568229675,
          0.2691560387611389,
          -0.2681771516799927,
          -0.2488202005624771,
          0.21236355602741241,
          -0.2863484025001526,
          -0.014482803642749786,
          -0.00674826605245471,
          0.01957065798342228,
          0.043865710496902466,
          0.00626017339527607,
          -0.044381849467754364,
          0.09226467460393906,
          0.024047859013080597,
          0.056611958891153336,
          -0.005503824446350336,
          -0.050891511142253876,
          -0.04349818825721741
        ],
        [
          0.2907000482082367,
          -0.4697249233722687,
          -0.24390144646167755,
          -0.2575586438179016,
          0.31929150223731995,
          0.22662700712680817,
          -0.13330233097076416,
          0.2117006480693817,
          0.17602448165416718,
          -0.04376784712076187,
          0.015220271423459053,
          -0.04883908852934837,
          -0.03380183130502701,
          0.03640700504183769,
          -0.017081839963793755,
          0.02318929135799408,
          0.008904308080673218,
          0.026452623307704926,
          0.047617290169000626,
          -0.03273134306073189,
          0.09605550765991211,
          -0.036904945969581604,
          -0.032679155468940735,
          -0.11168812960386276
        ],
        [
          -0.1720144897699356,
          -0.10591327399015427,
          -0.1766425371170044,
          -0.2269367128610611,
          0.0364161878824234,
          0.11552073806524277,
          -0.027917001396417618,
          0.001165441470220685,
          0.036273494362831116,
          -0.016326570883393288,
          0.2095189392566681,
          -0.14705321192741394,
          0.17135301232337952,
          -0.12148464471101761,
          -0.38036176562309265,
          0.09745709598064423,
          -0.16996754705905914,
          0.13395075500011444,
          -0.283143550157547,
          0.21704594790935516,
          -0.13066478073596954,
          -0.08846180886030197,
          -0.1495097130537033,
          0.3163398802280426
        ],
        [
          -0.07951612770557404,
          0.14403992891311646,
          -0.29756560921669006,
          -0.2852441966533661,
          -0.08170643448829651,
          0.10074090212583542,
          -0.14588101208209991,
          -0.1701338142156601,
          0.1308377981185913,
          0.18733280897140503,
          -0.12406974285840988,
          -0.1917755901813507,
          0.07008609920740128,
          -0.15919269621372223,
          -0.11084737628698349,
          0.15724144876003265,
          -0.03502175584435463,
          0.02218560501933098,
          -0.3880271017551422,
          -0.09917173534631729,
          -0.20798666775226593,
          0.12757126986980438,
          0.043272603303194046,
          0.07567901909351349
        ],
        [
          -0.10864664614200592,
          -0.10007685422897339,
          -0.08720318228006363,
          0.06551051139831543,
          -0.09397109597921371,
          -0.019060127437114716,
          -0.050219010561704636,
          -0.051037516444921494,
          -0.10203426331281662,
          -0.005956750363111496,
          0.017252463847398758,
          -0.10254315286874771,
          -0.08441109210252762,
          0.031705860048532486,
          -0.013928104192018509,
          -0.060940492898225784,
          0.03599369525909424,
          0.058033738285303116,
          -0.08123225718736649,
          0.059001289308071136,
          0.09363880753517151,
          -0.0491393618285656,
          -0.08868735283613205,
          0.04040113836526871
        ],
        [
          0.006267678923904896,
          0.020649608224630356,
          0.03727993741631508,
          0.013083551079034805,
          -0.008433336392045021,
          0.03610743209719658,
          -0.028150271624326706,
          0.0036919491831213236,
          0.03433320298790932,
          -0.028145037591457367,
          -0.02159314602613449,
          -0.011796990409493446,
          0.3025278151035309,
          -0.31840524077415466,
          0.18134234845638275,
          -0.334675669670105,
          0.3173914849758148,
          -0.19231925904750824,
          -0.21236155927181244,
          0.2062319815158844,
          -0.1798490732908249,
          0.31259027123451233,
          -0.3261331617832184,
          0.1961151510477066
        ],
        [
          -0.03926222398877144,
          0.07013329863548279,
          0.06750668585300446,
          -0.19970294833183289,
          -0.13383443653583527,
          -0.21167953312397003,
          -0.2627326548099518,
          0.23927094042301178,
          0.1265154778957367,
          0.2921622097492218,
          0.22718872129917145,
          -0.17868366837501526,
          0.04581939056515694,
          0.1421184539794922,
          0.13784804940223694,
          -0.010483112186193466,
          0.27138665318489075,
          -0.4344218075275421,
          -0.1295325607061386,
          -0.013910194858908653,
          -0.04354248195886612,
          0.1610346883535385,
          -0.12577278912067413,
          -0.15507234632968903
        ],
        [
          -0.3582596778869629,
          -0.04426950216293335,
          -0.04832698032259941,
          0.010539374314248562,
          -0.04259874299168587,
          -0.1329880803823471,
          0.055024806410074234,
          0.007768204901367426,
          0.15213732421398163,
          0.0617380291223526,
          0.33951324224472046,
          -0.15514451265335083,
          -0.31907919049263,
          0.05091013014316559,
          0.2089495062828064,
          0.16357778012752533,
          0.25985804200172424,
          -0.08637703955173492,
          -0.17584086954593658,
          -0.12407448142766953,
          -0.08513069897890091,
          0.05932805314660072,
          -0.177068293094635,
          -0.3301001787185669
        ],
        [
          -0.03881619870662689,
          0.02788027748465538,
          0.006084197200834751,
          0.007551819086074829,
          -0.05157560482621193,
          -0.048444364219903946,
          -0.034567877650260925,
          0.030441369861364365,
          0.10220210999250412,
          0.03094947338104248,
          0.028111573308706284,
          -0.06320998072624207,
          -0.11078155040740967,
          0.08124399185180664,
          -0.06771163642406464,
          0.3364865183830261,
          -0.3270038664340973,
          0.311321884393692,
          -0.37727320194244385,
          0.34605929255485535,
          -0.30320626497268677,
          0.17876915633678436,
          -0.23153474926948547,
          0.16904550790786743
        ],
        [
          -0.12151608616113663,
          -0.14328213036060333,
          -0.2286057323217392,
          -0.14156922698020935,
          -0.04025764390826225,
          -0.30618545413017273,
          -0.05493604764342308,
          0.43572190403938293,
          0.15537254512310028,
          0.12540456652641296,
          -0.35672855377197266,
          0.27466636896133423,
          -0.16446860134601593,
          -0.08165432512760162,
          0.12025759369134903,
          -0.029625050723552704,
          0.03024287335574627,
          0.05601773411035538,
          0.02482171542942524,
          0.03983604535460472,
          -0.021997274830937386,
          0.041605234146118164,
          -0.03626229986548424,
          -0.1841372847557068
        ],
        [
          -0.13323679566383362,
          0.23389339447021484,
          -0.02965484745800495,
          -0.05348214879631996,
          -0.02021336741745472,
          0.10863583534955978,
          0.2071385383605957,
          0.0005165769252926111,
          -0.3339803218841553,
          -0.15395529568195343,
          -0.3168866038322449,
          0.09372658282518387,
          -0.0742405354976654,
          -0.34377825260162354,
          -0.0204793531447649,
          -0.004264682065695524,
          0.0032094991765916348,
          -0.04431688413023949,
          0.001520967693068087,
          0.0867713913321495,
          -0.3383520245552063,
          -0.32649436593055725,
          -0.010944611392915249,
          0.09567011147737503
        ],
        [
          -0.06810341775417328,
          -0.014890440739691257,
          0.06543202698230743,
          -0.06987309455871582,
          0.06753867864608765,
          0.04938958212733269,
          -0.12395554780960083,
          -0.01573951169848442,
          -0.03997719660401344,
          -0.010852929204702377,
          -0.027505949139595032,
          0.03696935623884201,
          0.056203752756118774,
          -0.12532643973827362,
          -0.05921337008476257,
          -0.0689835473895073,
          0.02320222556591034,
          -0.028848940506577492,
          -0.03137635439634323,
          -0.07760202884674072,
          -0.10126744210720062,
          -0.06019780784845352,
          0.050024569034576416,
          -0.02716379426419735
        ],
        [
          -0.16411729156970978,
          0.10798073559999466,
          -0.16875867545604706,
          -0.006900729611515999,
          -0.3557417392730713,
          -0.017714640125632286,
          -0.14494609832763672,
          -0.08217204362154007,
          0.015086950734257698,
          0.12729652225971222,
          -0.11800820380449295,
          -0.1310097575187683,
          -0.3551040291786194,
          0.07141029834747314,
          -0.12993845343589783,
          -0.08161601424217224,
          -0.11705967038869858,
          0.20386762917041779,
          0.18066422641277313,
          0.1055055633187294,
          -0.21500679850578308,
          -0.08953017741441727,
          -0.13174086809158325,
          0.08211410790681839
        ],
        [
          -0.031217247247695923,
          0.03525484725832939,
          -0.09014073759317398,
          -0.0676814615726471,
          -0.024476857855916023,
          -0.037916697561740875,
          -0.07283101975917816,
          -0.14408501982688904,
          -0.11494386941194534,
          -0.0337139330804348,
          -0.05569988861680031,
          0.028271494433283806,
          -0.025502970442175865,
          -0.06727207452058792,
          -0.10027210414409637,
          0.004781123250722885,
          0.060666926205158234,
          -0.09971048682928085,
          0.034077033400535583,
          -0.005586565006524324,
          -0.025924012064933777,
          -0.08554260432720184,
          -0.001881537027657032,
          -0.015445447526872158
        ],
        [
          0.026820410043001175,
          0.06228077411651611,
          -0.36500588059425354,
          0.02905217558145523,
          0.10176566988229752,
          -0.3700329661369324,
          0.0006291294703260064,
          0.08019167184829712,
          -0.3704206645488739,
          0.0006298133521340787,
          0.0738135501742363,
          -0.34536024928092957,
          -0.042675867676734924,
          -0.09443119168281555,
          0.35547369718551636,
          -0.04179571941494942,
          -0.08729617297649384,
          0.3389808237552643,
          -0.037445880472660065,
          -0.07552403211593628,
          0.3669688105583191,
          -0.049943387508392334,
          -0.07978072762489319,
          0.3533458411693573
        ],
        [
          0.11731133610010147,
          -0.16110210120677948,
          -0.17519663274288177,
          0.05584119260311127,
          -0.028820553794503212,
          -0.17085878551006317,
          0.2327548861503601,
          -0.03225727379322052,
          -0.21797747910022736,
          -0.34178727865219116,
          0.11222998797893524,
          0.31491249799728394,
          -0.0039018301758915186,
          0.06153590604662895,
          0.1098444014787674,
          -0.12725917994976044,
          0.0005776996840722859,
          -0.31009170413017273,
          0.2575989365577698,
          -0.06556561589241028,
          0.1886679083108902,
          -0.07629180699586868,
          -0.07515760511159897,
          -0.09018322825431824
        ],
        [
          -0.022757653146982193,
          -0.07819532603025436,
          0.030830882489681244,
          -0.09853381663560867,
          0.0017168679041787982,
          -0.03855418413877487,
          -0.06968609243631363,
          -0.12800458073616028,
          -0.08487293124198914,
          -0.04079630598425865,
          -0.033991310745477676,
          -0.130288228392601,
          -0.04067983850836754,
          0.0034057041630148888,
          0.026775408536195755,
          -0.00017421675147488713,
          -0.12642928957939148,
          0.04789257049560547,
          -0.002957801101729274,
          -0.06920404732227325,
          -0.08980999886989594,
          0.05244848132133484,
          -0.035030581057071686,
          -0.0061839669942855835
        ],
        [
          -0.013401130214333534,
          0.01911642961204052,
          -0.015277491882443428,
          -0.06837259978055954,
          0.06336240470409393,
          0.005043246317654848,
          0.0495891235768795,
          0.037383027374744415,
          0.07490511983633041,
          0.008993335999548435,
          0.019249066710472107,
          -0.049349334090948105,
          0.291577011346817,
          -0.23309600353240967,
          -0.29472118616104126,
          0.30711472034454346,
          -0.23849886655807495,
          -0.3088037371635437,
          -0.28045159578323364,
          0.22767683863639832,
          0.2964842617511749,
          -0.3057456910610199,
          0.1775595247745514,
          0.3068811595439911
        ],
        [
          0.0069503141567111015,
          -0.05582299828529358,
          0.0200534388422966,
          -0.03858957067131996,
          0.0816480964422226,
          0.12768292427062988,
          -0.26842498779296875,
          -0.029121458530426025,
          0.02683590166270733,
          -0.15147779881954193,
          0.06982626020908356,
          -0.17043639719486237,
          -0.6115649342536926,
          -0.2752152681350708,
          0.25805720686912537,
          0.18773828446865082,
          -0.3245227634906769,
          -0.09512228518724442,
          -0.20991364121437073,
          0.03201303258538246,
          -0.25391027331352234,
          -0.1690691113471985,
          0.29187285900115967,
          0.14174747467041016
        ],
        [
          -0.21418993175029755,
          -0.19816721975803375,
          -0.07338261604309082,
          -0.17856991291046143,
          -0.1628652811050415,
          -0.19072040915489197,
          0.1333417147397995,
          0.11669984459877014,
          -0.007545823231339455,
          0.004391862079501152,
          0.025032496079802513,
          0.056362517178058624,
          -0.15304435789585114,
          -0.14241261780261993,
          -0.22545583546161652,
          0.060265716165304184,
          0.17201972007751465,
          0.1836450845003128,
          -0.2764554023742676,
          -0.27207672595977783,
          -0.18943661451339722,
          0.22109949588775635,
          0.03527117520570755,
          -0.07401420921087265
        ],
        [
          -0.06699087470769882,
          0.02420731447637081,
          0.05344889312982559,
          -0.002933686366304755,
          -0.1209951862692833,
          0.07917769998311996,
          -0.0002996394468937069,
          -0.010934755206108093,
          -0.018670128658413887,
          0.03270221874117851,
          0.052423328161239624,
          -0.06835222989320755,
          -0.1015636995434761,
          0.17931778728961945,
          0.1174980029463768,
          0.2950219511985779,
          -0.3502117395401001,
          -0.3120485246181488,
          0.19482183456420898,
          -0.2128824144601822,
          -0.1517469882965088,
          -0.2805671691894531,
          0.3107462525367737,
          0.33241507411003113
        ],
        [
          -0.18462498486042023,
          -0.1452431082725525,
          -0.12617820501327515,
          0.025367729365825653,
          0.16061480343341827,
          -0.1201111301779747,
          -0.015420330688357353,
          0.07163643091917038,
          -0.03911356255412102,
          0.07293922454118729,
          -0.06030082702636719,
          0.12254305183887482,
          -0.09358853846788406,
          -0.3797155022621155,
          -0.4492124021053314,
          0.06317494809627533,
          0.013429312035441399,
          -0.012908291071653366,
          -0.09517265111207962,
          0.2593061923980713,
          -0.12245453894138336,
          -0.25664404034614563,
          -0.2537861168384552,
          0.10317041724920273
        ],
        [
          -0.20736399292945862,
          -0.04091174528002739,
          0.08564463257789612,
          -0.05997132137417793,
          -0.018430324271321297,
          -0.11194296181201935,
          0.1258120983839035,
          0.050045814365148544,
          -0.045145995914936066,
          -0.05597871541976929,
          0.016155647113919258,
          0.025340087711811066,
          -0.08877088874578476,
          -0.19259914755821228,
          -0.13083964586257935,
          -0.04284016788005829,
          0.14952757954597473,
          0.04215741530060768,
          -0.044067736715078354,
          0.43152740597724915,
          0.19366231560707092,
          0.07365479320287704,
          -0.4852653443813324,
          -0.21726584434509277
        ],
        [
          -0.08087316155433655,
          -0.1257917732000351,
          -0.34576430916786194,
          -0.008460473269224167,
          -0.021250782534480095,
          0.2034323513507843,
          0.2279597669839859,
          0.04162757843732834,
          -0.010163840837776661,
          -0.1256188005208969,
          -0.026912031695246696,
          0.031020155176520348,
          0.08691250532865524,
          0.11529932171106339,
          0.07572530955076218,
          -0.012762733735144138,
          0.16784968972206116,
          0.022150591015815735,
          -0.40271157026290894,
          -0.18425330519676208,
          -0.2198103368282318,
          0.3279399871826172,
          -0.4780486822128296,
          -0.19465695321559906
        ],
        [
          -0.27091673016548157,
          0.14559005200862885,
          0.06444014608860016,
          -0.09548357874155045,
          -0.18318763375282288,
          0.1073622852563858,
          0.04247971624135971,
          0.2986201047897339,
          0.1485971361398697,
          0.09718891233205795,
          -0.15773284435272217,
          -0.15882262587547302,
          0.01627151295542717,
          0.004995782393962145,
          -0.038100432604551315,
          -0.21917612850666046,
          -0.39735323190689087,
          0.2745398283004761,
          0.07703948020935059,
          0.05719869211316109,
          -0.3876166045665741,
          0.030811399221420288,
          0.12851637601852417,
          0.03982565551996231
        ],
        [
          0.04318017512559891,
          -0.10084067285060883,
          0.0447060726583004,
          0.06962302327156067,
          -0.07363181561231613,
          0.050056517124176025,
          -0.023669688031077385,
          -0.031274210661649704,
          -0.020565195009112358,
          -0.038414932787418365,
          -0.00918615236878395,
          -0.12905161082744598,
          -0.025492394343018532,
          -0.05535653978586197,
          -0.07521409541368484,
          -0.012369479984045029,
          -0.09387987107038498,
          -0.06598013639450073,
          -0.022930890321731567,
          -0.028251497074961662,
          -0.11594048142433167,
          -0.0740390196442604,
          -0.01603584922850132,
          -0.055041052401065826
        ],
        [
          0.17254896461963654,
          0.009363041259348392,
          0.2398272305727005,
          0.022251838818192482,
          -0.19307783246040344,
          -0.371322363615036,
          -0.004274382255971432,
          0.3294387757778168,
          -0.0876806378364563,
          -0.5168126821517944,
          -0.1385665237903595,
          0.14008936285972595,
          -0.1782991737127304,
          0.07698506116867065,
          -0.02469734661281109,
          -0.015459105372428894,
          0.06693179160356522,
          -0.11034237593412399,
          -0.38447993993759155,
          -0.21141129732131958,
          -0.04819528013467789,
          0.16684941947460175,
          -0.24931272864341736,
          -0.08009771257638931
        ],
        [
          -0.040360044687986374,
          -0.05032522976398468,
          -0.010665271431207657,
          0.031797029078006744,
          -0.14307084679603577,
          -0.09722834080457687,
          -0.03323756158351898,
          -0.002682311460375786,
          0.07619639486074448,
          0.05195070058107376,
          0.09920667856931686,
          0.038961511105298996,
          -0.03679288923740387,
          0.010760580189526081,
          -0.09795688092708588,
          -0.07311178743839264,
          -0.07892614603042603,
          -0.06973142921924591,
          0.02444806508719921,
          -0.13360853493213654,
          0.008747943677008152,
          -0.09732389450073242,
          0.0036871309857815504,
          -0.07820159941911697
        ],
        [
          -0.2313051074743271,
          0.06352592259645462,
          -0.06272272020578384,
          0.06058419123291969,
          -0.21641772985458374,
          0.18008022010326385,
          -0.09916164726018906,
          -0.12744630873203278,
          0.19658145308494568,
          0.0040246895514428616,
          0.068030945956707,
          -0.22574926912784576,
          0.00782474409788847,
          0.026210354641079903,
          0.06854666024446487,
          0.22930818796157837,
          0.11623389273881912,
          -0.11783929914236069,
          0.004700254648923874,
          -0.6405872702598572,
          0.06461933255195618,
          -0.4251744747161865,
          0.042550086975097656,
          0.12485191226005554
        ],
        [
          -0.06243373081088066,
          0.22034579515457153,
          0.09274379909038544,
          -0.014537871815264225,
          -0.1926957070827484,
          0.16231444478034973,
          -0.09441791474819183,
          -0.050882332026958466,
          -0.09029349684715271,
          0.11560333520174026,
          0.22628217935562134,
          -0.11280680447816849,
          0.07355080544948578,
          -0.12697865068912506,
          -0.3211030066013336,
          -0.06628627330064774,
          0.1276417374610901,
          0.27298492193222046,
          -0.1544850617647171,
          0.11172806471586227,
          0.28244009613990784,
          0.09126253426074982,
          -0.1384209394454956,
          -0.3757086396217346
        ],
        [
          -0.17141804099082947,
          0.1352047324180603,
          0.07232482731342316,
          0.02505987137556076,
          -0.019982006400823593,
          0.10628347098827362,
          0.049565523862838745,
          0.033323824405670166,
          -0.21992185711860657,
          -0.2804087698459625,
          -0.28726884722709656,
          -0.3052380084991455,
          -0.10992895811796188,
          -0.07551342993974686,
          -0.3530611991882324,
          -0.11922737210988998,
          0.012959507293999195,
          -0.10589005798101425,
          0.020958049222826958,
          -0.02653910592198372,
          0.05787407234311104,
          -0.046207692474126816,
          -0.056031156331300735,
          0.05684305354952812
        ],
        [
          0.020195404067635536,
          8.120297570712864e-05,
          -0.07992926239967346,
          0.07535770535469055,
          -0.08809570223093033,
          0.01313425600528717,
          0.010297013446688652,
          0.05721912905573845,
          0.015880495309829712,
          -0.08384011685848236,
          -0.13470666110515594,
          0.02037712186574936,
          -0.015239515341818333,
          -0.1361028552055359,
          0.02287561073899269,
          -0.01989017054438591,
          0.07295145839452744,
          -0.11934077739715576,
          0.04191695153713226,
          0.03515779227018356,
          -0.0314774326980114,
          -0.03034372813999653,
          -0.10990387946367264,
          -0.037518762052059174
        ],
        [
          0.028831489384174347,
          0.07962514460086823,
          0.08936906605958939,
          0.04407297074794769,
          0.07095462083816528,
          0.06893613189458847,
          -0.08195376396179199,
          -0.0013851163676008582,
          -0.034904055297374725,
          -0.04124196991324425,
          -0.027921181172132492,
          -0.043515872210264206,
          -0.26642200350761414,
          0.14393487572669983,
          0.1800665259361267,
          0.17597919702529907,
          -0.12269248068332672,
          -0.1678161919116974,
          -0.32602277398109436,
          0.14766067266464233,
          0.3367343246936798,
          0.3403471112251282,
          -0.22482511401176453,
          -0.3982906937599182
        ],
        [
          0.10365814715623856,
          -0.2639233469963074,
          0.030606357380747795,
          -0.09139332175254822,
          0.26271629333496094,
          0.01263102050870657,
          0.01356457732617855,
          -0.18639974296092987,
          0.08747242391109467,
          0.001691663172096014,
          0.09414247423410416,
          -0.11738783121109009,
          -0.06218602880835533,
          0.0912652313709259,
          0.1261695921421051,
          -0.2340884655714035,
          -0.1317054182291031,
          -0.1299707442522049,
          0.38109076023101807,
          0.04194394499063492,
          0.1063256487250328,
          -0.10436048358678818,
          -0.1740245670080185,
          -0.18718959391117096
        ],
        [
          0.014120345935225487,
          -0.016275042667984962,
          0.045013245195150375,
          -0.01364118605852127,
          -0.08975306898355484,
          0.08035026490688324,
          -0.03618498519062996,
          0.005966763943433762,
          0.009788996540009975,
          0.04158715158700943,
          0.08696214854717255,
          -0.07695846259593964,
          0.26187485456466675,
          0.38938838243484497,
          0.10607179254293442,
          -0.3692922592163086,
          -0.41411885619163513,
          -0.10195506364107132,
          0.20334377884864807,
          0.22364293038845062,
          0.14001283049583435,
          -0.11812248080968857,
          -0.2240440994501114,
          -0.05710397660732269
        ],
        [
          0.22106432914733887,
          0.046394262462854385,
          -0.21064448356628418,
          -0.30213606357574463,
          -0.0038794991560280323,
          0.09500588476657867,
          -0.10892890393733978,
          0.05144520476460457,
          0.07497797906398773,
          -0.10316719859838486,
          -0.0857326090335846,
          -0.10178900510072708,
          -0.14390629529953003,
          -0.20520395040512085,
          0.041728582233190536,
          0.11582658439874649,
          0.03856172040104866,
          -0.03199120610952377,
          0.09785888344049454,
          0.2215341180562973,
          -0.23750710487365723,
          -0.23115603625774384,
          -0.18296289443969727,
          -0.08556723594665527
        ],
        [
          -0.05334377661347389,
          -0.3070521354675293,
          -0.06891949474811554,
          -0.1424536406993866,
          -0.24889180064201355,
          -0.10500197112560272,
          -0.06896687299013138,
          0.11457344144582748,
          -0.040181562304496765,
          -0.1578490138053894,
          0.15966564416885376,
          -0.032211270183324814,
          -0.08297724276781082,
          -0.24044494330883026,
          -0.08130138367414474,
          0.04205399751663208,
          0.05777795985341072,
          -0.2418416291475296,
          -0.4175332486629486,
          0.16600391268730164,
          0.045490752905607224,
          0.11032162606716156,
          -0.24670830368995667,
          -0.06473873555660248
        ],
        [
          0.0049943686462938786,
          0.02379968762397766,
          -0.030232375487685204,
          -0.08471448719501495,
          -0.06627801805734634,
          0.016604481264948845,
          0.07490014284849167,
          0.103915274143219,
          0.1679246574640274,
          0.004732135217636824,
          0.01958049088716507,
          -0.05412888526916504,
          0.06770379841327667,
          -0.10510863363742828,
          -0.0864020437002182,
          -0.41864991188049316,
          0.29692941904067993,
          0.4112493693828583,
          0.006624538917094469,
          0.025139357894659042,
          -0.0193644966930151,
          0.32317477464675903,
          -0.27207186818122864,
          -0.38317611813545227
        ],
        [
          0.1778891533613205,
          -0.31003326177597046,
          0.4354037046432495,
          0.01257314719259739,
          -0.0813421681523323,
          0.15987010300159454,
          -0.1413823813199997,
          0.2241746336221695,
          -0.3383234441280365,
          -0.10836236923933029,
          0.2737243175506592,
          -0.30296581983566284,
          -0.05186465382575989,
          0.08220084011554718,
          0.02538849227130413,
          -0.0039301044307649136,
          0.023700974881649017,
          0.0665123239159584,
          0.024380963295698166,
          -0.019270725548267365,
          -0.04823768138885498,
          -0.006901607848703861,
          -0.0034766891039907932,
          -0.013412561267614365
        ],
        [
          -0.010796106420457363,
          -0.004442675970494747,
          0.0201189573854208,
          -0.024856703355908394,
          -0.008149011991918087,
          0.010109133087098598,
          0.01337653212249279,
          0.052071768790483475,
          0.002466474426910281,
          -0.027336841449141502,
          0.03368286415934563,
          -0.02732635848224163,
          0.19462347030639648,
          -0.34003984928131104,
          0.31188124418258667,
          0.17185604572296143,
          -0.26983633637428284,
          0.24895919859409332,
          -0.17010153830051422,
          0.3001401722431183,
          -0.3114636540412903,
          -0.1541178673505783,
          0.2792836129665375,
          -0.3138357102870941
        ],
        [
          -0.05973546579480171,
          -0.11306877434253693,
          0.04466291144490242,
          -0.014908225275576115,
          -0.06629125028848648,
          -0.048946503549814224,
          0.08680471777915955,
          0.10726754367351532,
          0.10313796997070312,
          0.03331882134079933,
          0.05600762739777565,
          -0.039919715374708176,
          -0.38458505272865295,
          0.13641852140426636,
          0.3584754467010498,
          0.014323771931231022,
          -0.030181609094142914,
          0.016225650906562805,
          0.4329492747783661,
          -0.12191165238618851,
          -0.48812711238861084,
          -0.15517739951610565,
          -0.013449390418827534,
          0.104718416929245
        ],
        [
          -0.3658910095691681,
          0.35906362533569336,
          0.126857727766037,
          -0.31514275074005127,
          0.31297844648361206,
          0.10182444751262665,
          0.2676317095756531,
          -0.3003911077976227,
          -0.09725143760442734,
          0.3076847195625305,
          -0.3400923013687134,
          -0.11286719888448715,
          -0.006748153828084469,
          0.023812824860215187,
          -0.0039846766740083694,
          0.0007737283012829721,
          0.021147899329662323,
          -0.011185670271515846,
          0.08449770510196686,
          -0.017705893144011497,
          0.021854812279343605,
          0.01308775320649147,
          -0.04181124269962311,
          -0.03876177594065666
        ],
        [
          -0.01705259084701538,
          -0.07247698307037354,
          0.03587398678064346,
          -0.006098114885389805,
          -0.00825605820864439,
          0.019012266770005226,
          0.029669348150491714,
          0.004951144568622112,
          0.004171682521700859,
          -0.048729296773672104,
          0.10703597962856293,
          -0.07602764666080475,
          -0.0696052834391594,
          -0.048653505742549896,
          0.015177140012383461,
          0.35788795351982117,
          -0.34786561131477356,
          -0.18152156472206116,
          -0.37087762355804443,
          0.325233519077301,
          0.29791730642318726,
          0.10934478044509888,
          -0.16837720572948456,
          -0.07075002044439316
        ],
        [
          -0.11120230704545975,
          -0.008907631039619446,
          -0.017150208353996277,
          -0.12577103078365326,
          -0.11674670875072479,
          -0.10836445540189743,
          -0.04807659983634949,
          0.022641554474830627,
          -0.12801940739154816,
          -0.10345683246850967,
          0.07926256209611893,
          0.06711867451667786,
          0.019208762794733047,
          -0.08689460903406143,
          -0.05411718413233757,
          -0.10172995179891586,
          -0.07905206829309464,
          -0.08833271265029907,
          0.06269682943820953,
          -0.0002672337868716568,
          -0.016760889440774918,
          -0.04994351416826248,
          0.04611821845173836,
          -0.04946798086166382
        ],
        [
          0.12669096887111664,
          0.10931390523910522,
          0.17970502376556396,
          0.2237330824136734,
          -0.03992827981710434,
          0.1337747871875763,
          -0.22705136239528656,
          -0.029906801879405975,
          -0.2860359847545624,
          -0.1313687413930893,
          0.05833973363041878,
          -0.20192588865756989,
          -0.016718866303563118,
          -0.349461168050766,
          -0.047384005039930344,
          -0.01387977134436369,
          0.21126550436019897,
          -0.20975327491760254,
          -0.04256097972393036,
          -0.1917538195848465,
          0.09093035012483597,
          0.08033602684736252,
          0.200628861784935,
          -0.06263341009616852
        ],
        [
          0.08053545653820038,
          0.058502040803432465,
          -0.007314575370401144,
          0.15239588916301727,
          0.12967683374881744,
          -0.15239344537258148,
          0.24087664484977722,
          0.22931595146656036,
          0.013598518446087837,
          -0.3697833716869354,
          -0.3911864757537842,
          0.10780255496501923,
          -0.27176496386528015,
          0.2624203562736511,
          0.03647163510322571,
          0.11425857990980148,
          -0.2598830759525299,
          0.02209610305726528,
          0.04530977085232735,
          -0.11328208446502686,
          -0.11895353347063065,
          0.06188991293311119,
          -0.03776443749666214,
          0.016934985294938087
        ],
        [
          -0.3421482443809509,
          -0.11986885219812393,
          0.022552549839019775,
          -0.35957571864128113,
          -0.10124795883893967,
          0.02611003816127777,
          -0.35473695397377014,
          -0.10894878953695297,
          -0.004993411712348461,
          -0.3381030261516571,
          -0.11275455355644226,
          0.03818012401461601,
          0.3305533528327942,
          0.10395745187997818,
          -0.027160806581377983,
          0.332029789686203,
          0.0963805541396141,
          -0.01283804140985012,
          0.35988330841064453,
          0.11658462882041931,
          -0.022719960659742355,
          0.31290262937545776,
          0.08604077994823456,
          -0.022222599014639854
        ],
        [
          0.13532230257987976,
          -0.1497892141342163,
          0.021563896909356117,
          -0.11566827446222305,
          0.22550758719444275,
          -0.08196462690830231,
          0.04425689950585365,
          0.19569647312164307,
          -0.042538728564977646,
          -0.1680385321378708,
          -0.10692360252141953,
          0.07970921695232391,
          -0.04202358424663544,
          -0.03832258656620979,
          0.06023867055773735,
          -0.017937209457159042,
          -0.5137539505958557,
          -0.40316054224967957,
          -0.023692507296800613,
          0.3495510518550873,
          -0.42825737595558167,
          -0.07213050127029419,
          -0.0660671591758728,
          0.20583173632621765
        ],
        [
          -0.4004479944705963,
          -0.3850877583026886,
          -0.36014673113822937,
          0.043523404747247696,
          0.0262686125934124,
          0.04162824898958206,
          0.32919570803642273,
          0.3839350640773773,
          0.3573872148990631,
          0.05369199439883232,
          0.037366654723882675,
          -0.013436651788651943,
          -0.044891610741615295,
          -0.024106839671730995,
          0.07300001382827759,
          -0.011439456604421139,
          -0.009307759813964367,
          -0.024623703211545944,
          0.0030349427834153175,
          0.016913698986172676,
          0.029704680666327477,
          0.03511407971382141,
          -0.02400997094810009,
          -0.00419107498601079
        ],
        [
          -0.23430751264095306,
          -0.11186515539884567,
          -0.25728780031204224,
          -0.3715132772922516,
          -0.16215239465236664,
          -0.3775447607040405,
          0.28149449825286865,
          0.1498437374830246,
          0.3142489492893219,
          0.34173285961151123,
          0.17946894466876984,
          0.31506890058517456,
          -0.0017825671238824725,
          0.045359205454587936,
          -0.03974951431155205,
          -0.0008859705412760377,
          -0.028752153739333153,
          0.004188094288110733,
          0.042181678116321564,
          -0.0013397654984146357,
          0.006405368447303772,
          -0.00838934350758791,
          -0.06621324270963669,
          -0.0003338089445605874
        ],
        [
          0.01971125416457653,
          0.002360311336815357,
          -0.03855026140809059,
          -0.02312391810119152,
          -0.055633217096328735,
          0.10436218231916428,
          0.04649394005537033,
          -0.0431184247136116,
          -0.03407713398337364,
          -0.06891626119613647,
          -0.0190761499106884,
          -0.053096968680620193,
          -0.0844493955373764,
          -0.006803620606660843,
          -0.04292742535471916,
          -0.033341147005558014,
          0.040987979620695114,
          -0.06994400173425674,
          0.025105468928813934,
          -0.03496754541993141,
          -0.024276509881019592,
          0.016129665076732635,
          -0.01051460299640894,
          0.011324411258101463
        ],
        [
          -0.15529553592205048,
          -0.04306100308895111,
          0.041963279247283936,
          -0.041212886571884155,
          0.037136148661375046,
          -0.132517009973526,
          -0.028820978477597237,
          -0.10215672105550766,
          0.0502782016992569,
          0.03743096441030502,
          0.02011210471391678,
          -0.011626698076725006,
          0.004050995223224163,
          -0.20865286886692047,
          0.036530911922454834,
          -0.08126305788755417,
          -0.07809997349977493,
          -0.004589804448187351,
          -0.17013178765773773,
          -0.016389604657888412,
          -0.10632824152708054,
          -0.008402534760534763,
          -0.054219312965869904,
          -0.15840908885002136
        ],
        [
          -0.04772305116057396,
          0.0028854107949882746,
          0.03498063236474991,
          0.051107339560985565,
          -0.006320861168205738,
          0.004940170329064131,
          -0.04310743883252144,
          -0.09692741930484772,
          0.0026301657781004906,
          0.015908988192677498,
          0.03025820478796959,
          -0.007339081261307001,
          0.21776360273361206,
          -0.13524124026298523,
          0.17849905788898468,
          0.3250209093093872,
          -0.24505415558815002,
          0.33914151787757874,
          -0.07221800833940506,
          0.011536899022758007,
          -0.028825916349887848,
          -0.43616074323654175,
          0.2824465036392212,
          -0.43457135558128357
        ],
        [
          -0.12603126466274261,
          0.05105165019631386,
          -0.11350822448730469,
          -0.055139217525720596,
          -0.049748633056879044,
          -0.10339052230119705,
          0.00011005508713424206,
          -0.07832071185112,
          0.07494189590215683,
          -0.023577185347676277,
          -0.019879912957549095,
          -0.049916014075279236,
          0.04698147252202034,
          0.004881549626588821,
          0.005318961106240749,
          0.007672983221709728,
          0.013948644511401653,
          -0.04158686846494675,
          -0.060075122863054276,
          0.03957589715719223,
          -0.08354002982378006,
          -0.09674441069364548,
          -0.19744285941123962,
          0.005771302618086338
        ],
        [
          -0.42318639159202576,
          0.2267245352268219,
          0.3006727397441864,
          0.4089619517326355,
          -0.2537194490432739,
          -0.3715835511684418,
          -0.2033659964799881,
          0.06531236320734024,
          0.16930536925792694,
          0.05833238363265991,
          -0.08133798092603683,
          -0.0665832981467247,
          -0.06460972875356674,
          0.01475193165242672,
          -0.08051323145627975,
          0.008789478801190853,
          -0.06438981741666794,
          -0.014680043794214725,
          0.1047418937087059,
          -0.03563424199819565,
          0.04179393872618675,
          0.014633170329034328,
          -0.06021980568766594,
          -0.017980417236685753
        ],
        [
          0.03383273631334305,
          -0.03392994776368141,
          -0.0761195570230484,
          0.04392246901988983,
          -0.25767219066619873,
          0.025163235142827034,
          -0.03979659453034401,
          -0.04782625660300255,
          0.1659928560256958,
          -0.08554254472255707,
          0.2050095498561859,
          -0.015115133486688137,
          0.07494904845952988,
          -0.06515763700008392,
          -0.5940300226211548,
          -0.3626563549041748,
          0.07643057405948639,
          -0.01208354439586401,
          0.07600286602973938,
          -0.43829476833343506,
          0.19804872572422028,
          0.16867901384830475,
          0.2538585960865021,
          0.09865802526473999
        ],
        [
          -0.1268461048603058,
          -0.08354295790195465,
          -0.27530550956726074,
          -0.07824011892080307,
          -0.12683922052383423,
          -0.19453676044940948,
          -0.021885709837079048,
          -0.08046116679906845,
          0.1698632538318634,
          -0.14679697155952454,
          0.0012185070663690567,
          0.06235327571630478,
          0.15922993421554565,
          -0.33185523748397827,
          0.00010752584785223007,
          -0.27786293625831604,
          0.06760945916175842,
          -0.0030491070356220007,
          0.028547139838337898,
          -0.08528930693864822,
          -0.036622073501348495,
          -0.1718348115682602,
          0.07272081077098846,
          -0.26800960302352905
        ],
        [
          0.017191480845212936,
          0.05947081372141838,
          0.05136413872241974,
          0.021754160523414612,
          0.04036283493041992,
          -0.015833068639039993,
          -0.005933078937232494,
          0.03260431066155434,
          0.019522080197930336,
          -0.01786205917596817,
          0.016075141727924347,
          0.0007843583589419723,
          0.2781180143356323,
          0.3167283535003662,
          -0.2079746276140213,
          0.28567495942115784,
          0.27628904581069946,
          -0.20081520080566406,
          -0.2628841698169708,
          -0.3293495774269104,
          0.18320292234420776,
          -0.28258925676345825,
          -0.4028652310371399,
          0.21702587604522705
        ],
        [
          0.3072187602519989,
          0.32597047090530396,
          0.2141343355178833,
          -0.3967618942260742,
          -0.33539897203445435,
          -0.2217589169740677,
          -0.2840060889720917,
          -0.2504783272743225,
          -0.1588296890258789,
          0.2875771224498749,
          0.27584126591682434,
          0.20300982892513275,
          -0.020300379022955894,
          0.01032663881778717,
          0.0059612710028886795,
          -0.012223665602505207,
          -0.012440511025488377,
          0.005468279123306274,
          0.014925634488463402,
          -0.00924091786146164,
          -0.0029396594036370516,
          0.05256635695695877,
          -0.013776358217000961,
          0.0025761688593775034
        ],
        [
          -0.0348718985915184,
          -0.005257652141153812,
          0.044013552367687225,
          -0.028315046802163124,
          -0.013001415878534317,
          0.04259354993700981,
          0.0008363208035007119,
          0.04354497045278549,
          0.005277526564896107,
          -0.01249504555016756,
          0.024504641070961952,
          0.015131711028516293,
          -0.29661697149276733,
          -0.29858291149139404,
          -0.30236905813217163,
          -0.2153528928756714,
          -0.24297352135181427,
          -0.25260984897613525,
          0.2959946095943451,
          0.23798982799053192,
          0.34581661224365234,
          0.2691260576248169,
          0.2306632101535797,
          0.27789878845214844
        ],
        [
          0.1395907998085022,
          0.10515496134757996,
          -0.1408904641866684,
          -0.21459223330020905,
          -0.07607849687337875,
          0.22669602930545807,
          -0.3151586353778839,
          0.087437704205513,
          -0.401712030172348,
          0.21079160273075104,
          -0.03054490126669407,
          -0.19708886742591858,
          0.009995820932090282,
          -0.07997509837150574,
          0.2354000359773636,
          -0.5228520631790161,
          -0.02413848042488098,
          -0.0758054181933403,
          0.2186863124370575,
          -0.2849087119102478,
          -0.14921371638774872,
          0.03178449720144272,
          -0.0033363832626491785,
          0.0673389881849289
        ],
        [
          -0.11722160130739212,
          -0.034291453659534454,
          -0.2222970873117447,
          0.0860837921500206,
          -0.06798162311315536,
          0.048070117831230164,
          -0.1421089619398117,
          -0.026814598590135574,
          0.013607213273644447,
          -0.05754052847623825,
          -0.10366076231002808,
          0.002276216633617878,
          0.031065067276358604,
          -0.04464876279234886,
          -0.013428622856736183,
          -0.07953210175037384,
          0.04342227056622505,
          0.003397991880774498,
          -0.034725431352853775,
          -0.11092332750558853,
          -0.13671544194221497,
          -0.08939128369092941,
          -0.22818994522094727,
          0.057290058583021164
        ],
        [
          0.25840088725090027,
          0.2950355112552643,
          -0.23861078917980194,
          0.25669458508491516,
          0.2772459089756012,
          -0.2822238504886627,
          -0.2947967052459717,
          -0.29983654618263245,
          0.31233686208724976,
          -0.24256670475006104,
          -0.2962825298309326,
          0.26269808411598206,
          -0.052627842873334885,
          0.02569969929754734,
          -0.015022128820419312,
          -0.0047146109864115715,
          0.006313850171864033,
          -0.02993493527173996,
          0.03434646874666214,
          0.026255536824464798,
          0.025426408275961876,
          0.051344942301511765,
          -0.008474352769553661,
          -0.040227968245744705
        ],
        [
          0.03969965875148773,
          0.06307845562696457,
          0.073332779109478,
          -0.12545207142829895,
          0.17654377222061157,
          0.07918258756399155,
          -0.2685949504375458,
          -0.05029502883553505,
          -0.0759463980793953,
          0.11761317402124405,
          -0.3156985342502594,
          0.11265210807323456,
          0.2760496437549591,
          -0.4940980076789856,
          0.04292682558298111,
          -0.1319202184677124,
          -0.2306503802537918,
          -0.13374893367290497,
          0.2355053424835205,
          0.20559732615947723,
          -0.28656575083732605,
          -0.0918128713965416,
          0.03171492740511894,
          -0.16710016131401062
        ],
        [
          -0.221694678068161,
          0.18327529728412628,
          -0.16703520715236664,
          0.2565194368362427,
          -0.21383406221866608,
          0.27745941281318665,
          0.2840992212295532,
          -0.1747553050518036,
          0.32042717933654785,
          -0.40061232447624207,
          0.27901336550712585,
          -0.3671678900718689,
          0.013776526786386967,
          0.00535396346822381,
          -0.03647037222981453,
          0.024295169860124588,
          0.03517729416489601,
          0.0341450572013855,
          0.03734941408038139,
          -0.004939576610922813,
          -0.01455271802842617,
          0.041681502014398575,
          -0.08862486481666565,
          0.011153418570756912
        ],
        [
          0.019784675911068916,
          0.11820833384990692,
          0.06970050185918808,
          -0.059970032423734665,
          0.002674167975783348,
          0.06584595888853073,
          -0.04712514206767082,
          -0.09605266153812408,
          0.09377112984657288,
          0.07445891201496124,
          0.007483798544853926,
          -0.03980954363942146,
          -0.44620949029922485,
          0.4433515965938568,
          0.27400434017181396,
          0.11992776393890381,
          -0.15464000403881073,
          -0.08131615817546844,
          0.30537208914756775,
          -0.3062276840209961,
          -0.20758122205734253,
          0.09777571260929108,
          -0.06456461548805237,
          -0.048058461397886276
        ],
        [
          0.25208398699760437,
          0.32861506938934326,
          -0.05643632635474205,
          -0.09941715002059937,
          -0.05879458785057068,
          -0.027967900037765503,
          -0.026066334918141365,
          -0.055900342762470245,
          -0.001481620012782514,
          -0.40663474798202515,
          -0.2714846730232239,
          0.024681543931365013,
          -0.03531067818403244,
          -0.09071878343820572,
          0.06934161484241486,
          -0.18098920583724976,
          0.13297933340072632,
          -0.010592533275485039,
          0.19289308786392212,
          -0.35216277837753296,
          -0.06208181008696556,
          -0.018231350928544998,
          0.07310763746500015,
          -0.17082715034484863
        ],
        [
          0.17997989058494568,
          0.21478745341300964,
          0.07821344584226608,
          0.3119731843471527,
          0.42601948976516724,
          0.21188852190971375,
          -0.1717476099729538,
          -0.21403805911540985,
          -0.07239824533462524,
          -0.32785719633102417,
          -0.4010692834854126,
          -0.25019678473472595,
          -0.04206100106239319,
          0.011344079859554768,
          0.006583112291991711,
          -0.0507393479347229,
          0.004754236433655024,
          0.054843246936798096,
          0.06823159009218216,
          0.017087364569306374,
          -0.035244375467300415,
          0.014183559454977512,
          -0.05153680592775345,
          -0.03531728312373161
        ],
        [
          -0.16624782979488373,
          0.010673354379832745,
          0.3383232653141022,
          0.004076431039720774,
          -0.11374689638614655,
          -0.3964587450027466,
          -0.26613128185272217,
          -0.011959157884120941,
          -0.16970443725585938,
          0.19965645670890808,
          0.03119993954896927,
          -0.14831756055355072,
          -0.0050489637069404125,
          -0.16544486582279205,
          0.10153954476118088,
          0.1721443384885788,
          0.038326017558574677,
          -0.07226540148258209,
          -0.1677989810705185,
          0.23942270874977112,
          -0.3463738262653351,
          -0.26111534237861633,
          -0.29438814520835876,
          0.04431385546922684
        ],
        [
          -0.12211015820503235,
          -0.02911747246980667,
          -0.00274114147759974,
          0.018740175291895866,
          0.03451884910464287,
          -0.07097441703081131,
          -0.05450422689318657,
          -0.0001757735008141026,
          0.04115523025393486,
          0.03656185418367386,
          -0.07739711552858353,
          0.006227604113519192,
          -0.0791516825556755,
          0.030950132757425308,
          -0.03463023155927658,
          -0.0017227110220119357,
          -0.10727004706859589,
          -0.03783334791660309,
          0.05035759508609772,
          -0.09923536330461502,
          -0.03595724701881409,
          -0.09261754155158997,
          -0.09233099967241287,
          0.008480070158839226
        ],
        [
          -0.10693158209323883,
          0.07628126442432404,
          -0.09973939508199692,
          -0.07041248679161072,
          -0.08740872889757156,
          -0.11534125357866287,
          -0.09919779002666473,
          -0.08264047652482986,
          -0.0900375172495842,
          -0.018306614831089973,
          0.09064853936433792,
          -0.06734339892864227,
          -0.11349308490753174,
          -0.022641893476247787,
          -0.0640064999461174,
          -0.10005922615528107,
          0.0010497529292479157,
          -0.09505875408649445,
          0.07839290797710419,
          0.08794217556715012,
          -0.03927016258239746,
          0.02945040911436081,
          -0.02045721746981144,
          0.0950188934803009
        ],
        [
          0.016933083534240723,
          0.03178679198026657,
          0.017882348969578743,
          0.038578446954488754,
          -0.10648993402719498,
          0.1379292905330658,
          -0.128729909658432,
          0.04681902751326561,
          0.039340466260910034,
          -0.052398473024368286,
          -0.010231534950435162,
          -0.01797761768102646,
          0.2151976078748703,
          -0.051800042390823364,
          -0.11537772417068481,
          -0.16007092595100403,
          -0.6060878038406372,
          0.07674330472946167,
          -0.3608056902885437,
          0.3665749430656433,
          0.1752939671278,
          0.22008146345615387,
          -0.11458376049995422,
          -0.31208670139312744
        ],
        [
          -0.0948692187666893,
          0.007078831549733877,
          0.023471448570489883,
          -0.18704862892627716,
          -0.1079895943403244,
          -0.44127070903778076,
          0.09566324949264526,
          0.2240191102027893,
          0.14156854152679443,
          0.10264278948307037,
          -0.28833943605422974,
          0.1558733582496643,
          -0.05579495057463646,
          0.22655551135540009,
          -0.2684036195278168,
          -0.07185360789299011,
          -0.3158501386642456,
          -0.03726457059383392,
          0.18337716162204742,
          -0.02337077632546425,
          -0.06648911535739899,
          -0.05842674523591995,
          0.02503211237490177,
          0.1990925371646881
        ],
        [
          -0.1769028902053833,
          -0.3091674745082855,
          0.34203845262527466,
          0.13907450437545776,
          0.30632540583610535,
          -0.3281250298023224,
          0.12072581797838211,
          0.31297650933265686,
          -0.2944740056991577,
          -0.15282239019870758,
          -0.3018534481525421,
          0.2898603081703186,
          -0.015383106656372547,
          0.011250089854001999,
          -0.02572503127157688,
          -0.043359871953725815,
          0.018291117623448372,
          0.027032863348722458,
          -0.010675645433366299,
          0.004278757609426975,
          -0.026638582348823547,
          0.005910632666200399,
          -0.022851495072245598,
          0.022472212091088295
        ],
        [
          -0.03640802204608917,
          0.03925392031669617,
          0.03580064699053764,
          0.02775370329618454,
          0.055036984384059906,
          -0.020090611651539803,
          0.00443861773237586,
          -0.012634563259780407,
          0.020164160057902336,
          -0.06198594719171524,
          -0.034651342779397964,
          -0.06167587265372276,
          0.28959542512893677,
          -0.3740791976451874,
          -0.057707782834768295,
          -0.2611851096153259,
          0.27871885895729065,
          0.015723247081041336,
          0.25548452138900757,
          -0.30897536873817444,
          -0.032123010605573654,
          -0.2799084186553955,
          0.36329391598701477,
          -0.06129002571105957
        ],
        [
          -0.008734420873224735,
          -0.27614277601242065,
          -0.028152257204055786,
          0.16715289652347565,
          0.20322319865226746,
          0.20666544139385223,
          0.008801473304629326,
          0.1157626286149025,
          -0.30681976675987244,
          -0.12445524334907532,
          0.11502236872911453,
          -0.10035230964422226,
          -0.10216939449310303,
          0.30636003613471985,
          -0.004067824687808752,
          -0.11852561682462692,
          -0.00027105057961307466,
          0.054968561977148056,
          -0.006457507610321045,
          -0.2839886546134949,
          0.023347700014710426,
          0.23355628550052643,
          -0.009154473431408405,
          -0.5317567586898804
        ],
        [
          0.10956311225891113,
          -0.07738626003265381,
          -0.14040713012218475,
          0.3767678737640381,
          -0.33172619342803955,
          -0.43936753273010254,
          -0.22395993769168854,
          0.13397584855556488,
          0.2333047240972519,
          -0.343423455953598,
          0.25847962498664856,
          0.35298940539360046,
          -0.01764090731739998,
          0.030957315117120743,
          -0.044899724423885345,
          0.010592227801680565,
          0.05650079995393753,
          0.022655658423900604,
          0.03534632548689842,
          0.012311771512031555,
          0.015707649290561676,
          -0.00588728254660964,
          0.0021788019221276045,
          -0.038314178586006165
        ],
        [
          -0.029047807678580284,
          -0.0653824657201767,
          -0.08239424228668213,
          -0.0007005920051597059,
          0.04747795686125755,
          0.07157578319311142,
          0.00463046645745635,
          0.0003088040102738887,
          -0.07908608019351959,
          -0.09373614192008972,
          -0.10936729609966278,
          -0.0056223482824862,
          -0.0025684083811938763,
          -0.14907188713550568,
          -0.07876093685626984,
          0.003885530633851886,
          0.08455824106931686,
          -0.0552326999604702,
          0.013510983437299728,
          -0.12720012664794922,
          0.030344003811478615,
          -0.18092238903045654,
          -0.08773789554834366,
          -0.06387995183467865
        ],
        [
          0.04249702766537666,
          -0.03345933556556702,
          0.08045385032892227,
          -0.07863402366638184,
          -0.04088425263762474,
          -0.09237701445817947,
          -0.06312882900238037,
          -0.07516925781965256,
          0.012206003069877625,
          -0.03986438363790512,
          -0.08847921341657639,
          0.07338498532772064,
          -0.06969381123781204,
          -0.07401145994663239,
          0.011883357539772987,
          -0.08519922196865082,
          0.05258144438266754,
          -0.07741653174161911,
          -0.09579794853925705,
          0.026879724115133286,
          -0.09124746918678284,
          0.008872025646269321,
          -0.02331678569316864,
          -0.13163721561431885
        ],
        [
          -0.2588370144367218,
          0.05238707363605499,
          -0.11605241894721985,
          -0.012063628062605858,
          -0.029952872544527054,
          0.03564944118261337,
          0.0925503745675087,
          -0.14850351214408875,
          -0.26062867045402527,
          0.04979114234447479,
          0.09867683053016663,
          0.058558955788612366,
          -0.0713268369436264,
          0.28088733553886414,
          -0.3537222743034363,
          -0.1524876058101654,
          0.06154792383313179,
          0.25896456837654114,
          0.0006475915433838964,
          0.10262849181890488,
          -0.13924628496170044,
          0.08535140752792358,
          -0.6231652498245239,
          -0.4631730616092682
        ],
        [
          0.10211405158042908,
          -0.09376482665538788,
          0.30391886830329895,
          -0.37362977862358093,
          -0.33118367195129395,
          -0.0468311682343483,
          -0.15292660892009735,
          0.24453052878379822,
          0.06813331693410873,
          0.06972698122262955,
          -0.19035924971103668,
          -0.2909644544124603,
          0.13453403115272522,
          -0.2906149923801422,
          -0.3647233843803406,
          0.02683859132230282,
          0.11310005187988281,
          0.12386102229356766,
          -0.014963769353926182,
          -0.32571157813072205,
          0.06740881502628326,
          -0.10715964436531067,
          0.04262709990143776,
          -0.1313420981168747
        ],
        [
          0.25122618675231934,
          -0.2112564593553543,
          -0.21764615178108215,
          -0.25577205419540405,
          0.20424585044384003,
          0.19747935235500336,
          -0.4095461368560791,
          0.3036080002784729,
          0.2915878891944885,
          0.350200355052948,
          -0.23759400844573975,
          -0.3190060257911682,
          -0.004418255295604467,
          0.007417920511215925,
          -0.028700387105345726,
          -0.018589194864034653,
          0.026832345873117447,
          0.03407152369618416,
          0.030137207359075546,
          -0.006543629802763462,
          -0.009076426737010479,
          0.02612939290702343,
          -0.012544806115329266,
          0.02288009785115719
        ],
        [
          -0.305470734834671,
          -0.2649764120578766,
          -0.27784138917922974,
          0.2545997202396393,
          0.2519717216491699,
          0.2843271791934967,
          -0.3469279110431671,
          -0.26295849680900574,
          -0.29891738295555115,
          0.2717306613922119,
          0.28473085165023804,
          0.31777963042259216,
          0.014487702399492264,
          -0.013496940024197102,
          -0.04029838740825653,
          -0.005695582367479801,
          0.000988452578894794,
          0.008951741270720959,
          0.033688973635435104,
          -0.022955112159252167,
          -0.007934064604341984,
          0.026120195165276527,
          0.0021608618553727865,
          -0.029170500114560127
        ],
        [
          -0.041714321821928024,
          -0.09637526422739029,
          -0.06406024843454361,
          0.023179128766059875,
          -0.12067096680402756,
          0.06721965223550797,
          0.049121104180812836,
          0.0832444503903389,
          -0.056237976998090744,
          -0.03408781439065933,
          -0.08313802629709244,
          -0.025243302807211876,
          0.004826515447348356,
          -0.11358535289764404,
          -0.02974649704992771,
          -0.10143908858299255,
          -0.005612886510789394,
          0.0781739130616188,
          -0.10845306515693665,
          -0.12688757479190826,
          0.06073540076613426,
          -0.08467965573072433,
          -0.04093778878450394,
          -0.1388523280620575
        ],
        [
          -0.34012824296951294,
          -0.11351343989372253,
          0.08568953722715378,
          -0.47499755024909973,
          -0.3899420499801636,
          0.10236365348100662,
          0.2162078320980072,
          0.22283481061458588,
          -0.12449608743190765,
          0.21631598472595215,
          0.06767331808805466,
          -0.05525125190615654,
          -0.08091919124126434,
          -0.0708092674612999,
          -0.24690690636634827,
          0.10311342030763626,
          -0.052507657557725906,
          -0.06410045921802521,
          0.22649797797203064,
          -0.13670629262924194,
          -0.011796953156590462,
          -0.15171395242214203,
          0.061615344136953354,
          -0.15559439361095428
        ],
        [
          -0.09080685675144196,
          0.0014872305328026414,
          -0.1271730214357376,
          0.010972128249704838,
          -0.08512149006128311,
          0.06921140104532242,
          -0.07499885559082031,
          -0.05056493729352951,
          0.012858624570071697,
          -0.08279550820589066,
          -0.10224539041519165,
          -0.10030098259449005,
          0.06520257145166397,
          -0.009353728964924812,
          -0.03064471110701561,
          -0.1598065048456192,
          -0.02660093456506729,
          0.00040298394742421806,
          -0.01697167381644249,
          -0.011089445091784,
          -0.012376275844871998,
          -0.030863747000694275,
          0.05302147939801216,
          0.07008978724479675
        ],
        [
          0.29869475960731506,
          -0.3340449333190918,
          0.40963444113731384,
          -0.31692060828208923,
          0.3313477039337158,
          -0.29126352071762085,
          0.09930763393640518,
          -0.09193886071443558,
          0.1752895712852478,
          -0.20544900000095367,
          0.22611165046691895,
          -0.22853940725326538,
          0.009386866353452206,
          -0.006295152008533478,
          0.007475750986486673,
          0.013371310196816921,
          0.03239937126636505,
          0.009765843860805035,
          0.03665320575237274,
          0.016984539106488228,
          0.06877773255109787,
          0.0057360888458788395,
          -0.04626207798719406,
          -0.03561845049262047
        ],
        [
          -0.09719819575548172,
          -0.10738856345415115,
          0.16625404357910156,
          0.08065779507160187,
          0.028701988980174065,
          -0.02167235128581524,
          -0.22743995487689972,
          0.05014839768409729,
          0.15009266138076782,
          0.09134690463542938,
          -0.15080730617046356,
          -0.16327078640460968,
          0.1365259438753128,
          -0.3192733824253082,
          0.2930057942867279,
          -0.14174774289131165,
          0.23221296072006226,
          -0.1790175586938858,
          -0.31266313791275024,
          0.049625612795352936,
          0.1259121596813202,
          0.042574260383844376,
          -0.43536636233329773,
          -0.46257472038269043
        ],
        [
          -0.08083476126194,
          0.05727314203977585,
          0.019044725224375725,
          -0.0025506443344056606,
          -0.0535094253718853,
          -0.02036898583173752,
          0.03210315853357315,
          -0.166713684797287,
          -0.06303223222494125,
          -0.07481848448514938,
          0.008464515209197998,
          -0.07155096530914307,
          -0.09541606903076172,
          -0.05303771421313286,
          0.04939398914575577,
          0.06413618475198746,
          -0.07690474390983582,
          -0.1555974781513214,
          -0.025555159896612167,
          -0.22714126110076904,
          -0.1623399257659912,
          -0.0029487591236829758,
          0.05069158226251602,
          0.029448509216308594
        ],
        [
          -0.009927883744239807,
          0.07107826322317123,
          0.008623788133263588,
          -0.0396544449031353,
          0.020940229296684265,
          0.015518969856202602,
          0.03513000160455704,
          0.04904678091406822,
          0.02982364594936371,
          -0.018675638362765312,
          -0.035336848348379135,
          0.015116124413907528,
          0.305837482213974,
          0.4404619038105011,
          0.10826987773180008,
          -0.2875243127346039,
          -0.4270765483379364,
          -0.08466622978448868,
          -0.1892571896314621,
          -0.33290159702301025,
          -0.04506782442331314,
          0.19376760721206665,
          0.20783646404743195,
          0.013408430851995945
        ],
        [
          0.028341908007860184,
          0.01696363091468811,
          0.29351547360420227,
          -0.283258318901062,
          0.13959328830242157,
          -0.1638648808002472,
          -0.008999844081699848,
          -0.02431817166507244,
          -0.06851668655872345,
          0.06838446855545044,
          -0.28971487283706665,
          -0.11151981353759766,
          -0.2922787666320801,
          0.06949988752603531,
          -0.03779660537838936,
          -0.11477735638618469,
          0.22866791486740112,
          0.1254613995552063,
          0.1664097011089325,
          -0.01635468564927578,
          0.013415299355983734,
          0.15907013416290283,
          -0.27908816933631897,
          -0.12329933792352676
        ],
        [
          -0.04859817773103714,
          0.056440677493810654,
          -0.0042793964967131615,
          -0.03683735802769661,
          0.016584210097789764,
          0.07261375337839127,
          -0.01365408394485712,
          -0.02108073979616165,
          -0.0023719968739897013,
          -0.03818381205201149,
          0.05062629282474518,
          0.012535914778709412,
          -0.22658677399158478,
          -0.3348639905452728,
          0.2969166934490204,
          0.23521891236305237,
          0.29435184597969055,
          -0.28971657156944275,
          0.2721255123615265,
          0.2771768569946289,
          -0.2844822108745575,
          -0.24178439378738403,
          -0.3294738531112671,
          0.2708919942378998
        ],
        [
          -0.02946598269045353,
          0.014387179166078568,
          0.02103174477815628,
          -0.018090402707457542,
          0.026382433250546455,
          0.047564778476953506,
          -0.08456174284219742,
          -0.06661339104175568,
          0.06031607836484909,
          0.09490448981523514,
          -0.1115904450416565,
          -0.1570579707622528,
          0.01849580556154251,
          -0.20502512156963348,
          -0.03542380779981613,
          -0.13482187688350677,
          -0.14442549645900726,
          -0.011315731331706047,
          -0.14931899309158325,
          -0.038524776697158813,
          0.02690378576517105,
          0.02756243757903576,
          -0.03579775243997574,
          -0.020146766677498817
        ],
        [
          0.1569664478302002,
          0.10686664283275604,
          -0.028946632519364357,
          -0.19598767161369324,
          0.24081455171108246,
          -0.40163737535476685,
          0.10415812581777573,
          -0.30915704369544983,
          -0.22973527014255524,
          -0.24167364835739136,
          -0.15148288011550903,
          0.1873035728931427,
          0.17161843180656433,
          -0.0690397173166275,
          0.07964814454317093,
          -0.07565955817699432,
          0.16403411328792572,
          -0.16043686866760254,
          0.15209023654460907,
          -0.27058306336402893,
          -0.30369728803634644,
          -0.03801172226667404,
          -0.05995705723762512,
          -0.003872409462928772
        ],
        [
          0.08196303248405457,
          0.012308997102081776,
          -0.08724511414766312,
          0.024802440777420998,
          -0.1050160825252533,
          -0.07641330361366272,
          -0.08595472574234009,
          -0.038850974291563034,
          -0.06340589374303818,
          -0.05210310220718384,
          -0.051588669419288635,
          -0.10171914845705032,
          0.05965251475572586,
          -0.06266023218631744,
          -0.10278811305761337,
          0.0006255277548916638,
          -0.07411513477563858,
          -0.05966982990503311,
          -0.07033304870128632,
          -0.11615749448537827,
          -0.1111626923084259,
          -0.07075606286525726,
          0.05988852679729462,
          0.040696170181035995
        ],
        [
          0.053693998605012894,
          0.02092890255153179,
          -0.016946783289313316,
          -0.03421618044376373,
          -0.084873266518116,
          -0.027811763808131218,
          0.07019901275634766,
          -0.07480926811695099,
          -0.0633702501654625,
          0.023128937929868698,
          0.034192316234111786,
          -0.0356961265206337,
          -0.07143246382474899,
          0.045073818415403366,
          0.016523776575922966,
          -0.10779751092195511,
          0.003810327500104904,
          -0.10932607203722,
          -0.11586561799049377,
          -0.030958589166402817,
          -0.07173869758844376,
          0.002273717662319541,
          -0.004748631734400988,
          -0.12140047550201416
        ],
        [
          -0.004441212397068739,
          0.03468338027596474,
          -0.002238024026155472,
          0.014799478463828564,
          0.02802377939224243,
          -0.016986720263957977,
          -0.03126036003232002,
          0.030988862738013268,
          0.02800404652953148,
          -0.011894991621375084,
          0.048138007521629333,
          -0.0005928380996920168,
          0.2649180591106415,
          0.17185597121715546,
          0.2526603639125824,
          -0.3084399700164795,
          -0.24733282625675201,
          -0.28126388788223267,
          -0.30188602209091187,
          -0.2693624496459961,
          -0.3122747242450714,
          0.33305594325065613,
          0.21902041137218475,
          0.3152938187122345
        ],
        [
          0.09327547997236252,
          -0.026763489469885826,
          -0.04806121066212654,
          -0.1661957949399948,
          0.013501151464879513,
          0.00862566102296114,
          -0.0656626746058464,
          -0.015264921821653843,
          0.06592173129320145,
          -0.13273277878761292,
          -0.07743413746356964,
          -0.11879752576351166,
          -0.1474243849515915,
          0.029017817229032516,
          -0.12424281984567642,
          -0.09799125045537949,
          -0.07100121676921844,
          -0.02244604006409645,
          -0.10060639679431915,
          0.04516708105802536,
          0.03641932085156441,
          0.0002595454570837319,
          -0.1822529137134552,
          0.008216414600610733
        ],
        [
          0.028072061017155647,
          0.008888395503163338,
          0.09054404497146606,
          0.04071865975856781,
          -0.025851400569081306,
          0.06370402127504349,
          0.03801901265978813,
          0.042905643582344055,
          -0.23541006445884705,
          -0.3985591530799866,
          -0.20859088003635406,
          -0.08744022250175476,
          -0.09823731333017349,
          -0.31213265657424927,
          -0.4677537679672241,
          -0.011335449293255806,
          0.19509747624397278,
          -0.20853140950202942,
          -0.196550652384758,
          -0.2577592134475708,
          0.07006227225065231,
          -0.02824232541024685,
          -0.03595678135752678,
          -0.11429707705974579
        ],
        [
          -0.07377586513757706,
          -0.11958438158035278,
          0.10994686186313629,
          -0.5555418729782104,
          -0.41127631068229675,
          0.07817014306783676,
          0.11809290945529938,
          0.03163876384496689,
          0.06385216861963272,
          -0.148652121424675,
          0.13363201916217804,
          -0.33037033677101135,
          0.15915082395076752,
          -0.26711156964302063,
          -0.16337938606739044,
          0.18795840442180634,
          0.24179409444332123,
          0.08713767677545547,
          -0.09529019147157669,
          -0.2566945552825928,
          0.04717332497239113,
          -0.2580423653125763,
          0.013280603103339672,
          0.05435827746987343
        ],
        [
          -0.09097858518362045,
          -0.07744817435741425,
          -0.03952466696500778,
          0.04176022484898567,
          0.008967624977231026,
          -0.05364606902003288,
          -0.17153248190879822,
          -0.08555472642183304,
          -0.01391079742461443,
          0.025526564568281174,
          -0.03859122842550278,
          0.03897425904870033,
          0.02108263038098812,
          -0.10617074370384216,
          0.005967631004750729,
          -0.061124201864004135,
          -0.10018493980169296,
          -0.0049745747819542885,
          -0.013353069312870502,
          0.033699266612529755,
          -0.10775962471961975,
          -0.09858279675245285,
          0.025806911289691925,
          0.0008691842667758465
        ],
        [
          -0.4698547422885895,
          0.21243064105510712,
          0.5149711966514587,
          0.09396759420633316,
          -0.02406800352036953,
          -0.04949967935681343,
          0.29111620783805847,
          -0.11847168207168579,
          -0.36471474170684814,
          0.15907840430736542,
          -0.03991105407476425,
          -0.21922022104263306,
          -0.02929379604756832,
          0.0242464542388916,
          -0.01647976227104664,
          0.01937779225409031,
          0.00524175213649869,
          0.03930705413222313,
          0.013832581229507923,
          -0.03819085285067558,
          -0.005252168979495764,
          0.09528326988220215,
          -0.016272403299808502,
          0.011664815247058868
        ],
        [
          0.10844138264656067,
          -0.33031970262527466,
          0.1341695636510849,
          -0.3044929504394531,
          -0.37459424138069153,
          0.1079203262925148,
          0.009559002704918385,
          -0.0001615593646420166,
          -0.5728158950805664,
          -0.04211977496743202,
          0.32666459679603577,
          0.18741990625858307,
          -0.14716795086860657,
          -0.014857948757708073,
          -0.06823458522558212,
          0.07868638634681702,
          -0.013160040602087975,
          0.1742997020483017,
          -0.015805397182703018,
          -0.152916818857193,
          -0.18477824330329895,
          -0.20096886157989502,
          0.05943072959780693,
          -0.08585704118013382
        ],
        [
          0.11579205840826035,
          0.013115462847054005,
          0.22578391432762146,
          0.11114327609539032,
          -0.2460009902715683,
          -0.4375719428062439,
          -0.29890480637550354,
          -0.42420637607574463,
          0.16593849658966064,
          -0.12779010832309723,
          0.34869953989982605,
          0.058376915752887726,
          -0.013908838853240013,
          -0.3043184280395508,
          -0.21247291564941406,
          -0.22296589612960815,
          0.016029007732868195,
          -0.24763573706150055,
          0.06204879656434059,
          -0.04564422369003296,
          -0.02786426991224289,
          -0.020977666601538658,
          0.06914068758487701,
          0.10526292026042938
        ],
        [
          -0.20094117522239685,
          0.23015455901622772,
          0.17612875998020172,
          -0.20725445449352264,
          0.20961302518844604,
          0.18572789430618286,
          -0.2229456603527069,
          0.20304100215435028,
          0.18933932483196259,
          -0.224959596991539,
          0.20685310661792755,
          0.1673910915851593,
          0.21766003966331482,
          -0.2139827460050583,
          -0.20858053863048553,
          0.21136151254177094,
          -0.1998618245124817,
          -0.2157340794801712,
          0.20107458531856537,
          -0.2230038046836853,
          -0.21044442057609558,
          0.21808792650699615,
          -0.2010173350572586,
          -0.16859380900859833
        ],
        [
          0.1487949937582016,
          0.29258617758750916,
          0.15601566433906555,
          0.1377822756767273,
          0.29620179533958435,
          0.13860587775707245,
          0.12517905235290527,
          0.300693541765213,
          0.12643377482891083,
          0.15170878171920776,
          0.2835424542427063,
          0.18293409049510956,
          -0.15897557139396667,
          -0.29953667521476746,
          -0.14094242453575134,
          -0.14982329308986664,
          -0.28999951481819153,
          -0.1476820558309555,
          -0.1538279801607132,
          -0.28272807598114014,
          -0.14681291580200195,
          -0.16366912424564362,
          -0.2995835244655609,
          -0.15551382303237915
        ],
        [
          -0.02573535591363907,
          0.04505106806755066,
          0.021072858944535255,
          -0.0010557725327089429,
          -0.028709715232253075,
          -0.0005622066091746092,
          0.021125439554452896,
          0.0412307009100914,
          0.036713846027851105,
          0.015301489271223545,
          -0.035003453493118286,
          0.0330180823802948,
          -0.29510876536369324,
          -0.2973472476005554,
          0.06151662394404411,
          0.2408885806798935,
          0.2949398159980774,
          -0.07132650166749954,
          -0.37112170457839966,
          -0.4410535395145416,
          0.11745823174715042,
          0.33943021297454834,
          0.364244282245636,
          -0.13174709677696228
        ],
        [
          0.2852966785430908,
          0.28384625911712646,
          -0.20205652713775635,
          -0.3301355540752411,
          -0.23656512796878815,
          0.2429453283548355,
          0.2794937491416931,
          0.32979175448417664,
          -0.21565434336662292,
          -0.3163217604160309,
          -0.2740797996520996,
          0.258709192276001,
          -0.007493640761822462,
          0.02081914059817791,
          -0.0003504031046759337,
          0.03095741756260395,
          -0.01694555953145027,
          0.005715352017432451,
          0.057773690670728683,
          -0.052515916526317596,
          0.0074743106961250305,
          0.005312814377248287,
          -0.06353425979614258,
          -0.07406977564096451
        ],
        [
          -0.16703519225120544,
          0.22476720809936523,
          -0.15987655520439148,
          0.2101566046476364,
          -0.3446875512599945,
          0.27634650468826294,
          -0.3058317005634308,
          0.37468934059143066,
          -0.33228573203086853,
          0.19230960309505463,
          -0.26635077595710754,
          0.21861682832241058,
          0.01816176250576973,
          0.049118027091026306,
          0.012212700210511684,
          0.03218277171254158,
          0.015359784476459026,
          -0.023998385295271873,
          0.02939213067293167,
          0.04271210357546806,
          0.03211309015750885,
          -0.046602215617895126,
          -0.06456448137760162,
          -0.06865808367729187
        ],
        [
          0.17345447838306427,
          -0.2894882559776306,
          0.1394329071044922,
          0.1804010421037674,
          -0.25759005546569824,
          0.13778437674045563,
          0.14017191529273987,
          -0.2551463842391968,
          0.123362235724926,
          0.15818661451339722,
          -0.3007153868675232,
          0.168018639087677,
          -0.20640066266059875,
          0.2577846944332123,
          -0.16079454123973846,
          -0.19803237915039062,
          0.2618550658226013,
          -0.17827707529067993,
          -0.1759822815656662,
          0.27271130681037903,
          -0.13743071258068085,
          -0.20766885578632355,
          0.2675703763961792,
          -0.1499507874250412
        ],
        [
          -0.03235410898923874,
          -0.12214326113462448,
          -0.061877258121967316,
          0.0035995387006551027,
          -0.07607495039701462,
          0.05310309678316116,
          -0.1342696249485016,
          0.013376469723880291,
          0.049367066472768784,
          -0.034009117633104324,
          -0.005108853802084923,
          0.036443352699279785,
          0.0034664913546293974,
          -0.0627494752407074,
          0.026490410789847374,
          0.047313202172517776,
          -0.024238014593720436,
          -0.06639358401298523,
          0.009295246563851833,
          -0.0809222012758255,
          -0.0802668109536171,
          -0.01912359893321991,
          -0.021299945190548897,
          -0.05367279797792435
        ],
        [
          0.21766258776187897,
          -0.2166978418827057,
          -0.24362729489803314,
          -0.2848424017429352,
          0.23497165739536285,
          0.24370557069778442,
          0.3136904835700989,
          -0.30787697434425354,
          -0.35146018862724304,
          -0.3363485038280487,
          0.33679136633872986,
          0.3219257891178131,
          -0.016718748956918716,
          0.03480750694870949,
          -0.06078186631202698,
          0.06429906189441681,
          -0.02807152271270752,
          0.06942175328731537,
          0.017361199483275414,
          0.0009487250354140997,
          -0.011682046577334404,
          0.009380253031849861,
          -0.030222058296203613,
          -0.034465204924345016
        ],
        [
          -0.2928644120693207,
          0.22132661938667297,
          -0.2764691412448883,
          -0.10839414596557617,
          -0.05745788663625717,
          -0.1809248924255371,
          0.22406871616840363,
          -0.13021206855773926,
          -0.11008543521165848,
          -0.3122829496860504,
          0.14326919615268707,
          0.3775569498538971,
          0.0223145242780447,
          -0.06378725171089172,
          -0.16434785723686218,
          -0.24238887429237366,
          -0.2199842929840088,
          0.07416985183954239,
          0.03492901846766472,
          0.20890691876411438,
          -0.15607400238513947,
          0.03575509041547775,
          0.045504648238420486,
          0.042256083339452744
        ],
        [
          -0.08511233329772949,
          -0.09417583793401718,
          -0.06213982775807381,
          0.07311026006937027,
          -0.08038637787103653,
          0.07258392125368118,
          -0.08877981454133987,
          -0.11777400970458984,
          -0.10536015778779984,
          0.030624505132436752,
          -0.0773664191365242,
          0.059407833963632584,
          -0.051390234380960464,
          -0.11586003005504608,
          -0.016058310866355896,
          -0.02421559765934944,
          -0.056745223701000214,
          -0.04727625474333763,
          0.022946976125240326,
          -0.07378852367401123,
          -0.06729643046855927,
          -0.08180209994316101,
          0.09916359931230545,
          0.05466261878609657
        ],
        [
          -0.05228368192911148,
          -0.04173515737056732,
          -0.0349326953291893,
          -0.020315058529376984,
          -0.06237172335386276,
          -0.017340900376439095,
          0.01351640373468399,
          -0.083992600440979,
          0.08174175024032593,
          -0.052792876958847046,
          0.05502038449048996,
          0.07607521861791611,
          -0.0058953892439603806,
          -0.030099067836999893,
          -0.10595045238733292,
          -0.10375647991895676,
          -0.050801198929548264,
          -0.0029944581910967827,
          -0.11072611063718796,
          0.04588451609015465,
          -0.06470799446105957,
          -0.05784880742430687,
          0.04269588738679886,
          -0.07459380477666855
        ],
        [
          -0.16438840329647064,
          0.12267563492059708,
          -0.031587254256010056,
          0.022231029346585274,
          0.10147261619567871,
          -0.2815457880496979,
          -0.19657765328884125,
          -0.30134063959121704,
          0.07676277309656143,
          -0.05722161754965782,
          -0.16286227107048035,
          0.06107332557439804,
          0.05691760778427124,
          -0.07054968923330307,
          -0.13164076209068298,
          0.03796996548771858,
          -0.25988224148750305,
          0.1449219435453415,
          -0.1468982696533203,
          -0.05067075416445732,
          -0.22709783911705017,
          -0.1781066507101059,
          0.044451259076595306,
          -0.031245820224285126
        ],
        [
          0.17514802515506744,
          -0.09225320816040039,
          -0.062314510345458984,
          -0.28715646266937256,
          0.0726659893989563,
          -0.18536673486232758,
          -0.22969824075698853,
          -0.003640529466792941,
          0.02688436023890972,
          -0.0866423174738884,
          0.04146173596382141,
          0.2767881453037262,
          -0.05778799578547478,
          -0.13970765471458435,
          0.27787965536117554,
          0.005705263931304216,
          -0.09994402527809143,
          -0.1495855748653412,
          0.23156437277793884,
          -0.07980255037546158,
          0.06102772429585457,
          -0.335693359375,
          -0.15114204585552216,
          -0.5071430206298828
        ],
        [
          -0.010002660565078259,
          0.02350946143269539,
          0.0806000679731369,
          -0.020109694451093674,
          -0.023615073412656784,
          0.03166121989488602,
          -0.1522652953863144,
          -0.0038747908547520638,
          0.0633486956357956,
          0.061445388942956924,
          0.0012895497493445873,
          -0.03856172412633896,
          -0.3908027708530426,
          0.21111127734184265,
          -0.4799831807613373,
          0.32287120819091797,
          -0.1973402500152588,
          0.3183514475822449,
          0.28702789545059204,
          -0.16289617121219635,
          0.22390566766262054,
          -0.07318931818008423,
          -0.007893419824540615,
          -0.15114089846611023
        ],
        [
          0.14854033291339874,
          0.07819857448339462,
          -0.13774332404136658,
          -0.38526949286460876,
          -0.09329404681921005,
          0.05251582711935043,
          -0.02756134234368801,
          -0.21880696713924408,
          -0.07957451045513153,
          -0.10016101598739624,
          0.10943704843521118,
          0.02048926055431366,
          0.05661563202738762,
          -0.20791901648044586,
          0.14202432334423065,
          -0.11974970251321793,
          -0.40910860896110535,
          -0.17731702327728271,
          0.029165560379624367,
          0.18440447747707367,
          -0.058661945164203644,
          -0.2078898400068283,
          0.09549281746149063,
          -0.25139880180358887
        ],
        [
          -0.016884662210941315,
          0.0057740965858101845,
          0.04947739094495773,
          0.013374179601669312,
          0.046964723616838455,
          -0.036499299108982086,
          -0.04164305701851845,
          0.013467375189065933,
          0.030904505401849747,
          0.01940331980586052,
          -0.005130674224346876,
          0.0016414521960541606,
          0.3782899081707001,
          0.0595492422580719,
          -0.42757701873779297,
          -0.39428389072418213,
          -0.06864047795534134,
          0.4527485966682434,
          0.18300002813339233,
          -0.010149497538805008,
          -0.1794252097606659,
          -0.16351544857025146,
          -0.07776420563459396,
          0.17808972299098969
        ],
        [
          -0.08083502948284149,
          0.023652439936995506,
          0.03988833352923393,
          0.019715934991836548,
          -0.01939338818192482,
          -0.02557707019150257,
          -0.0314856693148613,
          0.020598050206899643,
          0.029035096988081932,
          0.01354293618351221,
          0.05400002375245094,
          -0.04744943976402283,
          0.29114288091659546,
          -0.12747792899608612,
          0.3117397129535675,
          -0.2872747778892517,
          0.09301620721817017,
          -0.3218920826911926,
          0.30577966570854187,
          -0.12963728606700897,
          0.35336121916770935,
          -0.31141549348831177,
          0.06103619560599327,
          -0.3917560875415802
        ],
        [
          -0.09279190003871918,
          -0.10277209430932999,
          -0.03720381483435631,
          -0.044684965163469315,
          0.03153090178966522,
          -0.021357864141464233,
          -0.032527197152376175,
          -0.11883976310491562,
          -0.09876294434070587,
          -0.001620250171981752,
          0.003229007124900818,
          -0.057515550404787064,
          -0.06009071320295334,
          -0.06851489841938019,
          0.023469217121601105,
          -0.13747382164001465,
          0.03019692376255989,
          -0.005266317166388035,
          -0.020288849249482155,
          -0.1047838032245636,
          0.017081275582313538,
          0.052861686795949936,
          -0.006835669744759798,
          -0.0329410694539547
        ],
        [
          0.025703327730298042,
          -0.13823609054088593,
          -0.08998800069093704,
          -0.036885280162096024,
          0.05019581317901611,
          -0.04156304895877838,
          -0.020332440733909607,
          -0.08955743163824081,
          0.021616041660308838,
          -0.10812298208475113,
          -0.15355487167835236,
          0.0012611207785084844,
          -0.040377289056777954,
          0.014239913783967495,
          -0.03797605261206627,
          -0.03465787321329117,
          -0.046498775482177734,
          -0.16307196021080017,
          0.06037108972668648,
          -0.1293521225452423,
          0.0003138628962915391,
          -0.14454054832458496,
          -0.07422508299350739,
          -0.0043195257894694805
        ],
        [
          -0.13225917518138885,
          0.002411049325019121,
          -0.09158194065093994,
          -0.14788378775119781,
          -0.024786487221717834,
          -0.023862071335315704,
          -0.012198283337056637,
          -0.026022007688879967,
          -0.017292072996497154,
          -0.0902315303683281,
          -0.06514406949281693,
          -0.04209175705909729,
          -0.11643873900175095,
          0.011556596495211124,
          0.009246551431715488,
          0.03071882762014866,
          0.06268526613712311,
          0.004963023588061333,
          0.029189765453338623,
          -0.0359034463763237,
          -0.07778623700141907,
          0.0009555424912832677,
          0.01876864582300186,
          -0.12077026069164276
        ],
        [
          0.09292874485254288,
          0.016643580049276352,
          0.01855984702706337,
          -0.048001524060964584,
          0.013003571890294552,
          0.05716628208756447,
          -0.04159197956323624,
          0.0406760610640049,
          -0.03268974646925926,
          -0.007918154820799828,
          0.005836440250277519,
          -0.007701634429395199,
          0.04649565741419792,
          -0.3337240517139435,
          -0.3830793797969818,
          -0.056110091507434845,
          0.34725844860076904,
          0.3675152063369751,
          0.07651040703058243,
          -0.2880023717880249,
          -0.3192988932132721,
          -0.024927150458097458,
          0.22505399584770203,
          0.2520225942134857
        ],
        [
          0.064377561211586,
          -0.1817220151424408,
          0.12223886698484421,
          -0.0838581770658493,
          0.015615234151482582,
          -0.02339966595172882,
          0.027478590607643127,
          0.03567212447524071,
          -0.24649494886398315,
          -0.21691247820854187,
          -0.05282113701105118,
          0.05341696739196777,
          -0.15699182450771332,
          -0.13779179751873016,
          -0.1278841644525528,
          0.04753757268190384,
          0.024259058758616447,
          -0.09812919795513153,
          -0.10929092764854431,
          -0.12197160720825195,
          0.003979835193604231,
          -0.0670817568898201,
          -0.10337944328784943,
          0.0669335126876831
        ],
        [
          0.041250765323638916,
          0.16420045495033264,
          -0.07007011026144028,
          0.013506952673196793,
          -0.5865882635116577,
          -0.07965003699064255,
          -0.22051739692687988,
          0.09990782290697098,
          0.345819354057312,
          0.07866980135440826,
          0.06032568961381912,
          -0.36521124839782715,
          0.012755148112773895,
          -0.07255645841360092,
          0.06300314515829086,
          0.04119657725095749,
          -0.13790762424468994,
          0.1351269632577896,
          -0.015267913229763508,
          0.1660749912261963,
          -0.07771314680576324,
          -0.15672694146633148,
          -0.3062534034252167,
          -0.15128204226493835
        ],
        [
          -0.016995148733258247,
          0.031439367681741714,
          0.04581575095653534,
          0.013009480200707912,
          -0.03151606768369675,
          0.07468811422586441,
          0.0006271153688430786,
          0.04064939171075821,
          0.009149985387921333,
          -0.03377038240432739,
          -0.015600490383803844,
          -0.07993284612894058,
          0.10906776785850525,
          -0.13360647857189178,
          -0.15695428848266602,
          -0.15557311475276947,
          0.14619311690330505,
          0.20132851600646973,
          0.28114110231399536,
          -0.25390034914016724,
          -0.3900977671146393,
          -0.24433763325214386,
          0.2239171415567398,
          0.3596670925617218
        ]
      ],
      "bias": [
        -0.03160599619150162,
        -0.056388311088085175,
        0.005051899701356888,
        -0.11501095443964005,
        -0.054648078978061676,
        -0.03905842825770378,
