{
  "shared_layers": [
    {
      "weight": [
        [
          0.075120709836483,
          -0.4100121557712555,
          -0.17625528573989868,
          0.055287208408117294,
          0.1437826156616211,
          -0.11784128099679947,
          0.003729598829522729,
          0.21930278837680817,
          -0.13357174396514893,
          -0.20120583474636078,
          -0.005391954444348812,
          -0.07050003111362457,
          0.18941865861415863,
          0.1479838639497757,
          -0.24643519520759583,
          0.243882417678833,
          0.39083266258239746,
          0.051023174077272415,
          -0.12239445000886917,
          -0.26292675733566284,
          0.043962836265563965,
          -0.13248614966869354,
          0.13534420728683472,
          0.08454633504152298
        ],
        [
          0.36784183979034424,
          0.05060427263379097,
          0.15139058232307434,
          0.20277300477027893,
          -0.1955065131187439,
          0.11099701374769211,
          -0.04395214095711708,
          0.07404576987028122,
          -0.16136260330677032,
          0.13332156836986542,
          -0.17136672139167786,
          -0.3270007371902466,
          -0.2791144549846649,
          0.19501987099647522,
          0.007914339192211628,
          -0.1478738784790039,
          0.15294963121414185,
          0.07052638381719589,
          -0.4242634177207947,
          0.0010625997092574835,
          0.13970084488391876,
          0.2598373591899872,
          -0.16387419402599335,
          0.22238068282604218
        ],
        [
          0.14368540048599243,
          0.1296178549528122,
          -0.15211623907089233,
          -0.1627625972032547,
          0.4167662560939789,
          -0.26102975010871887,
          -0.234758660197258,
          0.21920716762542725,
          -0.044474974274635315,
          0.14379233121871948,
          0.3112354874610901,
          -0.1544768512248993,
          -0.12965033948421478,
          -0.08852706104516983,
          0.27846384048461914,
          0.02188309282064438,
          -0.1426922082901001,
          -0.12355160713195801,
          0.04185336083173752,
          -0.29695838689804077,
          0.09158209711313248,
          0.1408407837152481,
          -0.1460418701171875,
          -0.11779681593179703
        ],
        [
          -0.15229281783103943,
          0.20535115897655487,
          0.007136063184589148,
          -0.010435489937663078,
          -0.08800455182790756,
          0.0761992409825325,
          0.10147475451231003,
          0.061633218079805374,
          -0.22189347445964813,
          -0.22551679611206055,
          0.11667614430189133,
          0.15303891897201538,
          -0.009008126333355904,
          0.0772695243358612,
          0.17924407124519348,
          0.33686167001724243,
          -0.21526388823986053,
          -0.0867021456360817,
          0.3778732120990753,
          0.18112877011299133,
          -0.28358152508735657,
          -0.40613797307014465,
          -0.15864627063274384,
          0.08349864184856415
        ],
        [
          0.3148508667945862,
          -0.2555862069129944,
          0.06830374896526337,
          0.07070434093475342,
          0.14645177125930786,
          0.2128295749425888,
          -0.21810883283615112,
          -0.06153189763426781,
          -0.02096724323928356,
          -0.12928542494773865,
          0.040837161242961884,
          0.1939561367034912,
          0.12139377743005753,
          0.31492429971694946,
          -0.09867650270462036,
          -0.04835168644785881,
          0.16967959702014923,
          -0.1863771378993988,
          0.04897525906562805,
          -0.01391786802560091,
          0.04606439173221588,
          -0.3095318377017975,
          -0.2876538634300232,
          -0.20689325034618378
        ],
        [
          -0.25231972336769104,
          -0.16197018325328827,
          0.17632132768630981,
          0.26840439438819885,
          -0.2790766656398773,
          -0.11283312737941742,
          -0.06589989364147186,
          0.4507710337638855,
          -0.225202277302742,
          0.13042324781417847,
          -0.13787691295146942,
          0.35072800517082214,
          -0.0010103468084707856,
          0.24884673953056335,
          0.13098770380020142,
          -0.051274653524160385,
          -0.044499825686216354,
          -0.30788758397102356,
          0.14187437295913696,
          -0.2174779623746872,
          0.050916124135255814,
          0.25759631395339966,
          -0.14899942278862,
          -0.042371563613414764
        ],
        [
          -0.18720246851444244,
          0.15046146512031555,
          0.09876248985528946,
          0.1818614900112152,
          0.40318965911865234,
          0.3343343734741211,
          0.029251324012875557,
          0.04398427531123161,
          0.24658611416816711,
          -0.19543881714344025,
          -0.030984940007328987,
          0.0026302055921405554,
          -0.03200109302997589,
          -0.1450423151254654,
          0.2312753051519394,
          0.004600455518811941,
          0.006438557058572769,
          -0.2923261821269989,
          -0.1573326736688614,
          -0.03819269314408302,
          -0.21701717376708984,
          0.016701072454452515,
          -0.27586469054222107,
          -0.32675108313560486
        ],
        [
          0.040830474346876144,
          -0.4504035413265228,
          0.3413257300853729,
          0.20170661807060242,
          0.12710024416446686,
          -0.0379396453499794,
          -0.3090954124927521,
          0.24862676858901978,
          -0.14702509343624115,
          -0.020592091605067253,
          -0.127070814371109,
          0.07580222189426422,
          0.23492243885993958,
          0.11228487640619278,
          -0.043974194675683975,
          0.10618150234222412,
          -0.35788577795028687,
          -0.14594309031963348,
          -0.1382945477962494,
          0.18195301294326782,
          0.2721749544143677,
          -0.2003786712884903,
          0.12121527642011642,
          -0.20008155703544617
        ],
        [
          0.058096446096897125,
          0.33866360783576965,
          -0.2471180260181427,
          -0.15178833901882172,
          0.1418953835964203,
          0.012645709328353405,
          -0.23158875107765198,
          0.36542150378227234,
          0.1890374720096588,
          -0.29240161180496216,
          0.0973050445318222,
          -0.01792421005666256,
          -0.10365334898233414,
          0.12968407571315765,
          0.048345036804676056,
          -0.01314620766788721,
          -0.3655816614627838,
          -0.023096894845366478,
          0.3277025520801544,
          -0.1857587993144989,
          -0.21733342111110687,
          0.31281977891921997,
          -0.06497516483068466,
          -0.033971622586250305
        ],
        [
          0.007529586087912321,
          -0.12000572681427002,
          -0.34666571021080017,
          -0.155345618724823,
          0.28468337655067444,
          -0.052525632083415985,
          0.07856734842061996,
          0.39667844772338867,
          -0.0018044462194666266,
          0.3423745334148407,
          0.1441514641046524,
          0.20056632161140442,
          0.3043673634529114,
          -0.11282438784837723,
          0.16589388251304626,
          -0.32651060819625854,
          -0.016403377056121826,
          -0.05395737662911415,
          -0.37583690881729126,
          -0.09411118179559708,
          0.19182246923446655,
          -0.017225151881575584,
          -0.12327328324317932,
          0.05951130390167236
        ],
        [
          0.21757496893405914,
          -0.09343145042657852,
          -0.2554895877838135,
          -0.23553849756717682,
          -0.2521713674068451,
          -0.17071355879306793,
          0.24393106997013092,
          -0.143988698720932,
          -0.09190360456705093,
          0.2057148665189743,
          -0.3372904360294342,
          0.005871224217116833,
          0.17420530319213867,
          0.24992775917053223,
          -0.13149692118167877,
          -0.23316828906536102,
          -0.06784415245056152,
          0.1746988743543625,
          -0.14093784987926483,
          0.3284817934036255,
          0.08259108662605286,
          -0.21182730793952942,
          0.3538833558559418,
          0.266431599855423
        ],
        [
          0.07405973970890045,
          0.08747367560863495,
          0.1532963067293167,
          0.06744318455457687,
          -0.0022126701660454273,
          0.20970487594604492,
          0.16051141917705536,
          0.3165270984172821,
          0.0510527528822422,
          -0.27426114678382874,
          0.29189959168434143,
          -0.048019129782915115,
          -0.2704242169857025,
          -0.23761558532714844,
          0.05197959765791893,
          0.24389180541038513,
          -0.2274937927722931,
          0.06932122260332108,
          -0.012571634724736214,
          -0.14774155616760254,
          -0.28498879075050354,
          0.06179805472493172,
          -0.3027147352695465,
          -0.1600169837474823
        ],
        [
          0.09245149791240692,
          -0.015424219891428947,
          -0.07717343419790268,
          0.22837238013744354,
          0.28367534279823303,
          0.013055742718279362,
          0.24402301013469696,
          -0.07315836101770401,
          0.23410722613334656,
          0.3448317348957062,
          -0.27269622683525085,
          -0.24090100824832916,
          -0.45852339267730713,
          -0.06572233885526657,
          0.2614324390888214,
          -0.1320321261882782,
          -0.031463589519262314,
          0.12981100380420685,
          -0.31649088859558105,
          0.2200876921415329,
          -0.040873441845178604,
          0.1959027796983719,
          -0.0035421436186879873,
          -0.09936759620904922
        ],
        [
          0.2552710771560669,
          -0.2039729356765747,
          0.3203060030937195,
          0.15414832532405853,
          -0.2580041289329529,
          -0.17652489244937897,
          -0.12022656947374344,
          -0.021144120022654533,
          0.2818528711795807,
          0.14394928514957428,
          0.02272656373679638,
          0.05938545987010002,
          -0.2607342600822449,
          -0.1351861208677292,
          0.27285313606262207,
          -0.19251428544521332,
          0.05275004729628563,
          -0.36510786414146423,
          0.03481005132198334,
          0.2722384035587311,
          0.15303221344947815,
          -0.08384404331445694,
          0.32011571526527405,
          -0.3945351541042328
        ],
        [
          -0.10370294749736786,
          0.075501449406147,
          0.15308426320552826,
          0.2387179285287857,
          -0.2379947006702423,
          0.1685897558927536,
          0.004050644114613533,
          -0.04625014588236809,
          -0.04454774037003517,
          -0.052705783396959305,
          -0.03169099986553192,
          0.06028074398636818,
          -0.1782187670469284,
          0.14962626993656158,
          -0.21094055473804474,
          -0.10999704152345657,
          0.23220184445381165,
          0.08593191206455231,
          0.1981162577867508,
          0.001614114735275507,
          0.1039462760090828,
          -0.3697952926158905,
          0.046459298580884933,
          0.07715126127004623
        ],
        [
          -0.14605481922626495,
          0.12770332396030426,
          -0.38023898005485535,
          0.04539727792143822,
          -0.08244296163320541,
          -0.2201976627111435,
          0.126369446516037,
          -0.3545905351638794,
          -0.20984937250614166,
          0.20613256096839905,
          -0.25615718960762024,
          -0.05204074829816818,
          -0.22471953928470612,
          0.39434316754341125,
          0.32930535078048706,
          0.047992486506700516,
          0.07647049427032471,
          -0.04688263684511185,
          -0.07884402573108673,
          0.02851269580423832,
          0.336824506521225,
          0.13109545409679413,
          0.0006298543885350227,
          0.2628962993621826
        ],
        [
          -0.3233519494533539,
          0.19853763282299042,
          -0.14173734188079834,
          -0.24779099225997925,
          -0.12140019983053207,
          -0.07017204910516739,
          0.04850856959819794,
          0.21581220626831055,
          0.24057868123054504,
          0.21347729861736298,
          0.1068318709731102,
          0.05402419716119766,
          0.38572028279304504,
          -0.04582568258047104,
          -0.18787509202957153,
          0.24280798435211182,
          -0.28108155727386475,
          -0.27438223361968994,
          -0.16605885326862335,
          0.03808397799730301,
          -0.17986685037612915,
          0.07313980162143707,
          -0.15775486826896667,
          0.14110587537288666
        ],
        [
          -0.24888531863689423,
          0.17906121909618378,
          -0.009429166093468666,
          -0.0685557872056961,
          -0.09534969180822372,
          0.30913323163986206,
          0.23109455406665802,
          -0.007194227539002895,
          -0.3163740038871765,
          -0.11599716544151306,
          -0.07118980586528778,
          -0.16896295547485352,
          -0.09299089759588242,
          0.15530188381671906,
          0.31231048703193665,
          0.11885672062635422,
          -0.2169732302427292,
          0.09646419435739517,
          0.04783836752176285,
          -0.36668846011161804,
          0.26885125041007996,
          0.1302344799041748,
          0.12943755090236664,
          -0.3795913755893707
        ],
        [
          -0.23017193377017975,
          -0.19398103654384613,
          -0.16066469252109528,
          -0.043596189469099045,
          0.013908903114497662,
          -0.1447153240442276,
          -0.2115793228149414,
          -0.1256328523159027,
          -0.19797377288341522,
          -0.2496429830789566,
          -0.13281869888305664,
          -0.22044749557971954,
          0.43486034870147705,
          0.3510048985481262,
          0.41914108395576477,
          0.2747754752635956,
          -0.1666751503944397,
          0.2621362805366516,
          0.14461761713027954,
          -0.08907269686460495,
          0.28212064504623413,
          -0.28454044461250305,
          -0.045533161610364914,
          0.08898142725229263
        ],
        [
          -0.13035699725151062,
          -0.09203904122114182,
          0.15271197259426117,
          0.06670749187469482,
          -0.12418349832296371,
          -0.19087448716163635,
          0.5259146690368652,
          0.2978360652923584,
          0.25084006786346436,
          0.04485473036766052,
          0.19527466595172882,
          -0.21639440953731537,
          -0.1273377239704132,
          -0.28978800773620605,
          0.07971834391355515,
          0.24324879050254822,
          -0.06283068656921387,
          -0.23153653740882874,
          -0.3053731322288513,
          0.14831089973449707,
          -0.11492915451526642,
          -0.01940016821026802,
          -0.13391153514385223,
          0.18758469820022583
        ],
        [
          -0.23157045245170593,
          0.053766097873449326,
          -0.3770748972892761,
          0.16443176567554474,
          -0.10671348124742508,
          -0.016795478761196136,
          -0.11217349022626877,
          0.28758013248443604,
          -0.16371820867061615,
          -0.29398655891418457,
          0.24509653449058533,
          0.24910588562488556,
          0.28505560755729675,
          -0.2728210389614105,
          0.18171553313732147,
          0.1272839903831482,
          -0.20482280850410461,
          0.19039101898670197,
          0.2786400318145752,
          0.2639213800430298,
          0.2534492611885071,
          -0.16122108697891235,
          -0.1124105229973793,
          -0.36011040210723877
        ],
        [
          -0.14273615181446075,
          0.28710538148880005,
          -0.21676874160766602,
          0.11638747900724411,
          -0.29713329672813416,
          -0.11135397106409073,
          -0.27477380633354187,
          -0.060864612460136414,
          0.11386143416166306,
          0.08398685604333878,
          0.36125448346138,
          -0.045544594526290894,
          0.3009776771068573,
          0.3225875198841095,
          -0.14267762005329132,
          -0.10857107490301132,
          -0.12928469479084015,
          0.2548799216747284,
          0.1099243015050888,
          -0.3611040711402893,
          0.10936526954174042,
          -0.21737293899059296,
          -0.12554645538330078,
          -0.04793138802051544
        ],
        [
          -0.031838733702898026,
          -0.018313191831111908,
          0.20678895711898804,
          -0.14665594696998596,
          -0.2791427671909332,
          9.27589790080674e-05,
          0.1278655081987381,
          -0.37354356050491333,
          0.09702278673648834,
          0.0697726160287857,
          -0.19915015995502472,
          0.10125579684972763,
          -0.05487553030252457,
          0.41420355439186096,
          0.13780996203422546,
          -0.08787897229194641,
          0.4723418951034546,
          -0.2526373565196991,
          0.008959504775702953,
          0.1517709493637085,
          0.19620221853256226,
          -0.12213275581598282,
          -0.27320289611816406,
          -0.11637791246175766
        ],
        [
          -0.06241900473833084,
          -0.17608509957790375,
          0.23810544610023499,
          -0.24962888658046722,
          -0.024371782317757607,
          -0.24984711408615112,
          0.09393704682588577,
          0.17702452838420868,
          -0.011060425080358982,
          0.2898278534412384,
          -0.47705888748168945,
          0.20476551353931427,
          0.029791517183184624,
          0.022105293348431587,
          0.11942551285028458,
          -0.1282004565000534,
          0.12057612091302872,
          0.12068773061037064,
          -0.021597741171717644,
          0.4192368984222412,
          0.007252148352563381,
          -0.19826890528202057,
          0.21961039304733276,
          -0.19238774478435516
        ],
        [
          -0.0904034823179245,
          -0.21636392176151276,
          -0.1745312511920929,
          0.23444892466068268,
          -0.4242190718650818,
          -0.04478948563337326,
          -0.014471773989498615,
          -0.03558521345257759,
          0.21631385385990143,
          -0.055021826177835464,
          -0.18840280175209045,
          -0.15035665035247803,
          0.33608517050743103,
          0.22963285446166992,
          0.3204057514667511,
          0.17956727743148804,
          0.14635832607746124,
          -0.030633583664894104,
          -0.21801552176475525,
          0.2577078938484192,
          0.016608960926532745,
          -0.3007914423942566,
          0.37348687648773193,
          -0.1695081889629364
        ],
        [
          0.0018978443695232272,
          0.1113039031624794,
          -0.1491926908493042,
          0.2552492320537567,
          -0.03308280184864998,
          0.23233315348625183,
          0.18764962255954742,
          -0.22474336624145508,
          -0.14134645462036133,
          0.03348569944500923,
          -0.3238925039768219,
          0.13506156206130981,
          0.219946950674057,
          -0.1255304217338562,
          -0.05918414890766144,
          -0.3509467840194702,
          0.1689038723707199,
          0.006471120286732912,
          -0.12387976050376892,
          0.2403394728899002,
          -0.030868563801050186,
          -0.04523137956857681,
          0.2321065068244934,
          0.12260227650403976
        ],
        [
          -0.2660667896270752,
          -0.17902818322181702,
          -0.08715371042490005,
          -0.20315073430538177,
          -0.26536208391189575,
          -0.10265649855136871,
          -0.2466043084859848,
          -0.2738253176212311,
          0.28259894251823425,
          -0.22441771626472473,
          -0.15243743360042572,
          -0.15258248150348663,
          -0.12600521743297577,
          0.13933353126049042,
          -0.06508182734251022,
          0.22540369629859924,
          0.32809484004974365,
          0.3114379942417145,
          0.34809425473213196,
          -0.04221486672759056,
          -0.1775793880224228,
          0.2468784600496292,
          0.17540986835956573,
          -0.14078976213932037
        ],
        [
          0.10508580505847931,
          -0.20678970217704773,
          -0.20827937126159668,
          -0.09959524124860764,
          -0.2830750644207001,
          -0.2976645231246948,
          0.020042110234498978,
          0.04092485457658768,
          -0.2663152515888214,
          0.11515332758426666,
          0.10071390122175217,
          -0.059369269758462906,
          0.028658265247941017,
          0.24191704392433167,
          0.42203956842422485,
          -0.044841840863227844,
          0.08089026063680649,
          0.20642969012260437,
          0.048936814069747925,
          -0.2590496838092804,
          0.15331202745437622,
          0.1111832782626152,
          0.2731949985027313,
          -0.22118514776229858
        ],
        [
          0.03852257877588272,
          0.16847874224185944,
          -0.13647852838039398,
          0.2617764174938202,
          -0.22731511294841766,
          0.16877341270446777,
          -0.16994880139827728,
          -0.13159571588039398,
          0.2806522846221924,
          -0.19640116393566132,
          -0.22181658446788788,
          0.1201518103480339,
          -0.08332040160894394,
          0.12894797325134277,
          -0.2425907701253891,
          0.09291696548461914,
          0.005354988854378462,
          -0.29589173197746277,
          -0.4186602532863617,
          0.29181936383247375,
          -0.21332266926765442,
          0.31698572635650635,
          0.20445477962493896,
          0.09966567903757095
        ],
        [
          0.2127452790737152,
          -0.3584274649620056,
          -0.11802791804075241,
          -0.12300129979848862,
          -0.14553378522396088,
          0.26466912031173706,
          -0.08794858306646347,
          0.03810485079884529,
          0.08937271684408188,
          -0.32180559635162354,
          -0.34964966773986816,
          -0.008359204977750778,
          0.25807708501815796,
          0.23742128908634186,
          -0.0880616158246994,
          -0.013281087391078472,
          0.42572176456451416,
          -0.29652175307273865,
          -0.12217551469802856,
          0.3455435037612915,
          0.01882324367761612,
          0.13558058440685272,
          0.04370652139186859,
          0.03432212024927139
        ],
        [
          -0.10153821110725403,
          0.11722202599048615,
          -0.2114066630601883,
          -0.01382724940776825,
          0.22182495892047882,
          -0.3862496018409729,
          -0.18455660343170166,
          -0.17792299389839172,
          -0.06615589559078217,
          -0.08592211455106735,
          -0.02863452583551407,
          -0.3634677827358246,
          0.2116064578294754,
          0.2079799622297287,
          0.3358815908432007,
          0.08902368694543839,
          -0.13902738690376282,
          0.30010339617729187,
          0.12769362330436707,
          -0.24182026088237762,
          0.3485449254512787,
          -0.07034807652235031,
          0.0034455666318535805,
          0.2793453633785248
        ],
        [
          0.0891801118850708,
          -0.03202231228351593,
          0.05980265885591507,
          0.11893262714147568,
          0.20081783831119537,
          -0.1612911820411682,
          0.047150641679763794,
          -0.25774240493774414,
          0.2448951154947281,
          -0.039531391113996506,
          0.11188486218452454,
          0.33011364936828613,
          -0.07709386944770813,
          0.16794663667678833,
          -0.1837696135044098,
          -0.10363549739122391,
          0.01588263362646103,
          -0.22642013430595398,
          0.2188582718372345,
          0.36244460940361023,
          -0.12387382239103317,
          -0.09309548139572144,
          -0.42230865359306335,
          -0.24708262085914612
        ],
        [
          -0.37236854434013367,
          -0.08064858615398407,
          -0.17419862747192383,
          -0.2125217467546463,
          -0.18461036682128906,
          -0.27046048641204834,
          -0.29996293783187866,
          0.11797592788934708,
          0.22253409028053284,
          -0.22348491847515106,
          0.11400681734085083,
          0.27145466208457947,
          -0.004214847460389137,
          -0.0915902629494667,
          0.03525419533252716,
          0.3452039659023285,
          -0.06750188022851944,
          -0.1471162587404251,
          0.1138421818614006,
          0.07744993269443512,
          0.16885654628276825,
          0.35891303420066833,
          -0.024490538984537125,
          0.17598968744277954
        ],
        [
          -0.2651416063308716,
          -0.2987454831600189,
          0.14798510074615479,
          -0.2447957545518875,
          -0.2921604812145233,
          -0.09529472887516022,
          0.11839551478624344,
          0.26150304079055786,
          0.06323065608739853,
          -0.02351866476237774,
          -0.07488639652729034,
          0.21030113101005554,
          -0.2939547598361969,
          0.31232690811157227,
          -0.31811782717704773,
          -0.21596309542655945,
          0.11035504937171936,
          0.1382846236228943,
          0.05491967126727104,
          -0.4622880816459656,
          0.10274645686149597,
          0.3219991624355316,
          0.3248308300971985,
          0.15432719886302948
        ],
        [
          -0.24744287133216858,
          0.15740111470222473,
          -0.22139830887317657,
          -0.10007230192422867,
          0.05680040270090103,
          0.08262965828180313,
          -0.3252667784690857,
          -0.2209905982017517,
          0.01165283378213644,
          -0.06224963441491127,
          0.05791743844747543,
          -0.11321885138750076,
          0.12750385701656342,
          -0.23103657364845276,
          -0.22553949058055878,
          0.5010411143302917,
          -0.3271656334400177,
          0.3216284215450287,
          0.1559947282075882,
          0.031204544007778168,
          0.33708298206329346,
          0.05520852655172348,
          0.3323069214820862,
          -0.07642939686775208
        ],
        [
          -0.019098998978734016,
          0.21845345199108124,
          0.08313816785812378,
          -0.07055796682834625,
          0.32970190048217773,
          -0.00679440051317215,
          -0.26396945118904114,
          0.1323593556880951,
          -0.32041430473327637,
          -0.07355833798646927,
          -0.01956932619214058,
          -0.14323292672634125,
          0.10626266151666641,
          -0.41340741515159607,
          -0.16053427755832672,
          0.004006942734122276,
          -0.0470520481467247,
          0.33224695920944214,
          -0.20944829285144806,
          -0.14138899743556976,
          0.21659451723098755,
          0.3502001464366913,
          -0.11658496409654617,
          -0.03230343014001846
        ],
        [
          0.24250321090221405,
          -0.1295403242111206,
          -0.1729859858751297,
          0.23276157677173615,
          -0.04444725438952446,
          -0.00865751039236784,
          -0.0014393465826287866,
          -0.14942990243434906,
          -0.0016652679769322276,
          0.18608686327934265,
          -0.30102604627609253,
          0.17006459832191467,
          -0.17204834520816803,
          0.44774866104125977,
          -0.14010822772979736,
          0.019447345286607742,
          3.450171107033384e-06,
          0.21952593326568604,
          0.31735891103744507,
          0.4349345862865448,
          0.08637538552284241,
          -0.32056137919425964,
          -0.4027421474456787,
          -0.27501437067985535
        ],
        [
          0.1522032916545868,
          -0.268194317817688,
          0.21482038497924805,
          0.02018851414322853,
          -0.23494382202625275,
          0.18210294842720032,
          0.1574091613292694,
          0.16675379872322083,
          0.19361652433872223,
          -0.013602407649159431,
          -0.0076629905961453915,
          -0.03211833909153938,
          0.005441240034997463,
          0.28960785269737244,
          0.1650654524564743,
          -0.2686302959918976,
          -0.0090824905782938,
          0.05498591065406799,
          -0.3030185103416443,
          0.12860071659088135,
          -0.054508958011865616,
          0.21005840599536896,
          -0.20258142054080963,
          -0.2150343507528305
        ],
        [
          0.14661192893981934,
          -0.10055359452962875,
          0.24256646633148193,
          0.19653385877609253,
          0.09841744601726532,
          -0.09262833744287491,
          -0.3308217525482178,
          -0.28005126118659973,
          -0.3422722816467285,
          -0.09752347320318222,
          -0.16538360714912415,
          0.1982298493385315,
          -0.295014888048172,
          -0.32128822803497314,
          0.21228259801864624,
          0.09948711097240448,
          0.07592697441577911,
          -0.20288555324077606,
          -0.23253843188285828,
          0.23607595264911652,
          -0.15115025639533997,
          0.4244314134120941,
          0.44832509756088257,
          0.04282529652118683
        ],
        [
          0.17950235307216644,
          -0.007089112885296345,
          -0.0023971693590283394,
          0.02478586696088314,
          0.051404260098934174,
          0.15047092735767365,
          -0.024687519297003746,
          -0.09248305857181549,
          0.25045377016067505,
          -0.23114389181137085,
          0.10785471647977829,
          -0.013725546188652515,
          0.33577144145965576,
          -0.37802085280418396,
          0.24745063483715057,
          -0.04093727469444275,
          -0.02548854611814022,
          -0.2679702043533325,
          0.04648678004741669,
          -0.0812700018286705,
          0.13965755701065063,
          -0.07688363641500473,
          0.23419341444969177,
          -0.07995044440031052
        ],
        [
          -0.28976011276245117,
          0.13653352856636047,
          0.1701623946428299,
          0.22631460428237915,
          0.18134060502052307,
          0.0572744682431221,
          0.12196987122297287,
          0.22874759137630463,
          0.13614894449710846,
          -0.12122958153486252,
          -0.07273256778717041,
          -0.2735753059387207,
          0.2989934980869293,
          -0.22450797259807587,
          -0.18332017958164215,
          -0.10210549086332321,
          0.26795947551727295,
          -0.3008058965206146,
          -0.035375118255615234,
          -0.40325912833213806,
          0.2320534586906433,
          -0.1026940792798996,
          0.039758019149303436,
          0.20041188597679138
        ],
        [
          0.13508670032024384,
          -0.06512501090765,
          0.3448626697063446,
          -0.17360348999500275,
          -0.3072704076766968,
          -0.008053915575146675,
          -0.25237512588500977,
          -0.15198172628879547,
          0.32927384972572327,
          -0.2007954865694046,
          0.18064641952514648,
          0.2670300304889679,
          0.43722933530807495,
          0.10553149878978729,
          0.049608517438173294,
          -0.039263855665922165,
          -0.07280033081769943,
          -0.32268399000167847,
          0.13478955626487732,
          0.15879108011722565,
          -0.4224092364311218,
          -0.2530598044395447,
          0.08871233463287354,
          -0.0615033358335495
        ],
        [
          -0.2122514694929123,
          0.04678061231970787,
          -0.01927911303937435,
          -0.09290096908807755,
          0.12444301694631577,
          0.00395212322473526,
          0.04322996363043785,
          -0.2041250765323639,
          0.0096956891939044,
          -0.18623986840248108,
          0.1291406750679016,
          -0.06160130724310875,
          0.08781936019659042,
          0.18749482929706573,
          0.09558065235614777,
          0.2267114222049713,
          0.1970345675945282,
          -0.10946154594421387,
          0.019119426608085632,
          -0.1083872839808464,
          -0.0343654602766037,
          0.09692537784576416,
          -0.029610637575387955,
          -0.009631814435124397
        ],
        [
          0.1628510057926178,
          0.21808479726314545,
          -0.26159411668777466,
          0.16060978174209595,
          0.0884813666343689,
          -0.2579326331615448,
          0.1795491725206375,
          0.22006285190582275,
          0.0838448628783226,
          -0.14873871207237244,
          -0.33979108929634094,
          -0.009237583726644516,
          -0.18676543235778809,
          -0.3343053460121155,
          0.3096528947353363,
          -0.13473443686962128,
          -0.1899576485157013,
          0.09192133694887161,
          0.09373277425765991,
          -0.15707635879516602,
          0.19004687666893005,
          -0.29447731375694275,
          0.2914823293685913,
          0.27420732378959656
        ],
        [
          -0.37796589732170105,
          -0.296012818813324,
          -0.0794106125831604,
          -0.01223252434283495,
          0.12315760552883148,
          0.20638175308704376,
          -0.022612744942307472,
          0.07150843739509583,
          0.23904620110988617,
          0.17845019698143005,
          -0.37329357862472534,
          -0.08384323120117188,
          0.07762929052114487,
          -0.1055389866232872,
          -0.2468421906232834,
          -0.15345874428749084,
          -0.046491287648677826,
          -0.36743420362472534,
          0.22309064865112305,
          0.10115408152341843,
          0.12067172676324844,
          0.23787297308444977,
          0.3729569911956787,
          0.23737497627735138
        ],
        [
          -0.26236429810523987,
          0.27848583459854126,
          0.07923723757266998,
          0.0044231172651052475,
          -0.0548042468726635,
          0.14552952349185944,
          0.15499767661094666,
          0.11096487194299698,
          0.28536656498908997,
          -0.1594715565443039,
          -0.2084483504295349,
          -0.012961050495505333,
          0.14055480062961578,
          0.07543357461690903,
          -0.17889970541000366,
          0.1033778116106987,
          -0.056344304233789444,
          0.23609212040901184,
          0.013399395160377026,
          -0.20020870864391327,
          -0.41077542304992676,
          0.3148001730442047,
          -0.2184448093175888,
          -0.026337390765547752
        ],
        [
          -0.19854992628097534,
          -0.057606324553489685,
          0.3225937783718109,
          0.13629506528377533,
          0.3800232410430908,
          -0.08825353533029556,
          0.09298526495695114,
          0.06672008335590363,
          0.3384040892124176,
          0.20363445580005646,
          0.09398321062326431,
          0.3322959542274475,
          0.07893391698598862,
          0.1352674663066864,
          0.03951622545719147,
          -0.08884460479021072,
          -0.19648130238056183,
          -0.1975647360086441,
          -0.1320694535970688,
          -0.2918719947338104,
          -0.4125816524028778,
          -0.2477891743183136,
          -0.15973246097564697,
          -0.2564164996147156
        ],
        [
          -0.04170547425746918,
          0.0976308062672615,
          0.09153851121664047,
          -0.20406635105609894,
          0.015857521444559097,
          -0.21795430779457092,
          -0.19216467440128326,
          0.1675385981798172,
          0.14846135675907135,
          -0.1986871212720871,
          -0.025839265435934067,
          -0.17282690107822418,
          0.4620547592639923,
          0.02547074481844902,
          0.07829001545906067,
          0.0928989052772522,
          -0.18237265944480896,
          0.352670818567276,
          -0.09894238412380219,
          0.24569116532802582,
          0.07066705822944641,
          -0.14523056149482727,
          -0.2125099152326584,
          -0.26374104619026184
        ],
        [
          -0.07081227004528046,
          -0.3181582987308502,
          0.1822262704372406,
          -0.07252660393714905,
          0.12137028574943542,
          -0.02697625197470188,
          0.09850504994392395,
          -0.3054578900337219,
          0.14774398505687714,
          -0.3406095802783966,
          0.06503979861736298,
          0.21795518696308136,
          -0.009163565933704376,
          -0.11370847374200821,
          -0.34600740671157837,
          0.10566569864749908,
          0.14902514219284058,
          0.15768852829933167,
          -0.12772820889949799,
          -0.024594342336058617,
          -0.0316874235868454,
          0.3150615990161896,
          0.3032205402851105,
          -0.2496204972267151
        ],
        [
          -0.005124896299093962,
          -0.043174199759960175,
          -0.24637126922607422,
          -0.20987190306186676,
          -0.15843510627746582,
          -0.17382201552391052,
          0.05735461041331291,
          -0.019504046067595482,
          0.25115078687667847,
          -0.22465898096561432,
          0.36322805285453796,
          0.17991593480110168,
          0.0438992865383625,
          -0.3170418441295624,
          0.13590256869792938,
          0.35970360040664673,
          0.10791951417922974,
          0.13920795917510986,
          0.3727763891220093,
          -0.08778461068868637,
          0.08918844163417816,
          -0.03502615541219711,
          -0.29062095284461975,
          -0.22475893795490265
        ],
        [
          -0.19040709733963013,
          -0.15795135498046875,
          -0.010440685786306858,
          -0.28902965784072876,
          0.0669008269906044,
          0.33232495188713074,
          0.06499315798282623,
          -0.1878143846988678,
          0.29340311884880066,
          -0.10465215891599655,
          -0.2496061623096466,
          0.11994350701570511,
          0.2831895351409912,
          -0.2589736878871918,
          -0.0991940051317215,
          0.3429279029369354,
          0.015114670619368553,
          -0.16726283729076385,
          0.16025546193122864,
          0.42736804485321045,
          -0.2949957847595215,
          -0.24834991991519928,
          0.19899708032608032,
          -0.3244249224662781
        ],
        [
          -0.002527248580008745,
          -0.07789471745491028,
          -0.19024483859539032,
          0.11578904837369919,
          0.3074069917201996,
          0.04700600728392601,
          0.2382861077785492,
          0.11586113274097443,
          0.2951282560825348,
          -0.01687200367450714,
          0.17978128790855408,
          -0.1270974576473236,
          -0.18538394570350647,
          -0.19537104666233063,
          0.14750084280967712,
          -0.21030293405056,
          -0.45118746161460876,
          0.10907378792762756,
          0.145364448428154,
          -0.36403340101242065,
          -0.3208361566066742,
          -0.13068923354148865,
          0.14729923009872437,
          0.1105756089091301
        ],
        [
          0.2635880708694458,
          -0.010445278137922287,
          -0.02867673523724079,
          0.17845562100410461,
          0.008536304347217083,
          -0.3623664677143097,
          0.3521555960178375,
          -0.15651506185531616,
          0.2392682433128357,
          0.12809647619724274,
          0.39801836013793945,
          0.19384059309959412,
          -0.1635342836380005,
          -0.10382209718227386,
          -0.3374157249927521,
          -0.13289564847946167,
          -0.1288847178220749,
          0.05229934677481651,
          -0.4223541021347046,
          -0.19228920340538025,
          0.3343889117240906,
          0.10344643145799637,
          -0.062078725546598434,
          -0.0713670402765274
        ],
        [
          0.28652358055114746,
          0.09144137799739838,
          0.018324879929423332,
          -0.20269039273262024,
          -0.0788956880569458,
          0.10549986362457275,
          0.0762772485613823,
          0.013793028891086578,
          -0.17677955329418182,
          -0.09489928185939789,
          0.15348131954669952,
          0.06996289640665054,
          0.16767095029354095,
          0.2662655711174011,
          -0.1927812248468399,
          0.3259006142616272,
          -0.1559586226940155,
          -0.07550224661827087,
          -0.2151254564523697,
          -0.3194924592971802,
          0.1868939846754074,
          -0.3058969974517822,
          0.2748929560184479,
          -0.11483834683895111
        ],
        [
          0.23978090286254883,
          -0.001882155891507864,
          -0.09657987952232361,
          -0.100083127617836,
          0.16780917346477509,
          -0.3106611371040344,
          -0.2427411526441574,
          -0.10701172798871994,
          -0.0037011541426181793,
          0.09308046847581863,
          -0.1857154816389084,
          0.0218780767172575,
          -0.06632325798273087,
          0.2173926830291748,
          0.13460378348827362,
          0.1365361362695694,
          -0.38773971796035767,
          0.15651005506515503,
          0.17347130179405212,
          -0.1085248589515686,
          -0.3319490849971771,
          -0.04708848521113396,
          0.25772884488105774,
          0.377470999956131
        ],
        [
          0.1384107917547226,
          0.1410205364227295,
          0.2833137810230255,
          0.03553462028503418,
          0.012287085875868797,
          0.34082671999931335,
          0.1752220243215561,
          -0.22561995685100555,
          0.3917666971683502,
          0.11765903234481812,
          0.017551325261592865,
          0.027626845985651016,
          0.18602405488491058,
          -0.21519632637500763,
          -0.20000074803829193,
          -0.2336384803056717,
          0.055102694779634476,
          -0.3722153902053833,
          0.1490209400653839,
          -0.18796730041503906,
          -0.2487829178571701,
          -0.36222198605537415,
          0.09059260785579681,
          0.0541272833943367
        ],
        [
          -0.26111727952957153,
          -0.042921021580696106,
          -0.1500018835067749,
          -0.2178921103477478,
          0.23244580626487732,
          0.1482909470796585,
          0.007432037964463234,
          0.021584441885352135,
          0.011279313825070858,
          0.1745835393667221,
          -0.2508172392845154,
          0.22119741141796112,
          -0.1785050928592682,
          -0.07045318931341171,
          0.215445414185524,
          -0.3343639373779297,
          0.0459587424993515,
          -0.1356029212474823,
          0.36828893423080444,
          0.026041246950626373,
          0.12168077379465103,
          0.1600387543439865,
          0.16556969285011292,
          -0.3093569874763489
        ],
        [
          0.06738453358411789,
          -0.10433780401945114,
          0.13587403297424316,
          -0.023361869156360626,
          0.07342147082090378,
          0.34731829166412354,
          -0.24463681876659393,
          0.2277870774269104,
          0.09619955718517303,
          0.08070991188287735,
          -0.21352246403694153,
          0.088570736348629,
          0.05845465138554573,
          -0.30433526635169983,
          -0.4475577771663666,
          0.2038406878709793,
          0.12219853699207306,
          0.16296987235546112,
          0.24931944906711578,
          -0.11829224973917007,
          -0.06960485130548477,
          -0.2841014862060547,
          -0.12518571317195892,
          0.025097934529185295
        ],
        [
          0.39112767577171326,
          -0.025614630430936813,
          -0.20363749563694,
          0.030879857018589973,
          -0.3029599189758301,
          -0.09635833650827408,
          0.1976190060377121,
          0.21000434458255768,
          0.17990829050540924,
          0.318739652633667,
          0.1351483315229416,
          -0.28691115975379944,
          -0.3666682541370392,
          -0.1412639021873474,
          -0.275182843208313,
          -0.2819254994392395,
          0.22326061129570007,
          0.03519359603524208,
          -0.32465866208076477,
          0.010395845398306847,
          0.23678982257843018,
          -0.2940189838409424,
          0.13552875816822052,
          0.2318565547466278
        ],
        [
          0.04895636439323425,
          -0.2862926423549652,
          0.15803024172782898,
          0.1192852333188057,
          0.19942821562290192,
          -0.20041431486606598,
          0.18588730692863464,
          0.2091706544160843,
          -0.26159030199050903,
          0.22821423411369324,
          0.008699205704033375,
          -0.140450581908226,
          -0.31664666533470154,
          -0.007712348829954863,
          0.2514060139656067,
          -0.3229847550392151,
          0.13088054955005646,
          0.3002118170261383,
          0.20590893924236298,
          0.04650498926639557,
          -0.13357296586036682,
          -0.16775383055210114,
          -0.1823168843984604,
          -0.2604164481163025
        ],
        [
          0.15813632309436798,
          -0.2489311248064041,
          -0.16063465178012848,
          -0.17763270437717438,
          0.30891895294189453,
          0.130618616938591,
          -0.05767357349395752,
          -0.01387062482535839,
          -0.17130102217197418,
          -0.35021543502807617,
          0.2886694073677063,
          0.1875152736902237,
          -0.08741065859794617,
          0.051523853093385696,
          -0.013479049317538738,
          0.41402170062065125,
          -0.2680830955505371,
          -0.05379541590809822,
          -0.10660018026828766,
          -0.26685723662376404,
          -0.15007634460926056,
          0.0421428456902504,
          0.14168332517147064,
          0.24906142055988312
        ],
        [
          0.1482011079788208,
          -0.15638037025928497,
          0.2002912312746048,
          0.42108771204948425,
          0.023194031789898872,
          -0.09211712330579758,
          0.1856013983488083,
          -0.2732327878475189,
          -0.20198458433151245,
          -0.04834828898310661,
          -0.10954312980175018,
          0.251677542924881,
          -0.430866003036499,
          0.15183666348457336,
          0.0049742660485208035,
          0.2037268579006195,
          0.10396423190832138,
          -0.012384645640850067,
          -0.29912444949150085,
          0.1280343234539032,
          -0.12747350335121155,
          -0.2917653024196625,
          0.2973685562610626,
          0.19753247499465942
        ],
        [
          0.07383819669485092,
          0.2533515393733978,
          0.24779953062534332,
          -0.011834301985800266,
          0.01288189273327589,
          -0.2195761799812317,
          -0.07342194020748138,
          -0.22413091361522675,
          0.23309020698070526,
          0.24943725764751434,
          0.14685788750648499,
          -0.20990511775016785,
          0.17617596685886383,
          -0.0341707319021225,
          0.24852712452411652,
          -0.3886569142341614,
          -0.11738315969705582,
          -0.1786256730556488,
          -0.15438096225261688,
          -0.03658876568078995,
          -0.001188583322800696,
          0.2104063630104065,
          -0.11431390792131424,
          -0.32555079460144043
        ],
        [
          0.2731771171092987,
          0.10220928490161896,
          -0.2125241905450821,
          0.46211057901382446,
          0.08394688367843628,
          0.2460586428642273,
          -0.06703264266252518,
          0.060143377631902695,
          0.04809151589870453,
          -0.028463605791330338,
          0.1278705894947052,
          0.024494778364896774,
          -0.32266417145729065,
          -0.06563496589660645,
          0.26197177171707153,
          -0.28622275590896606,
          -0.10188210010528564,
          0.19265016913414001,
          -0.34285515546798706,
          -0.2411268651485443,
          -0.10106437653303146,
          0.04291030019521713,
          -0.1252753585577011,
          -0.15489110350608826
        ],
        [
          -0.1258469820022583,
          -0.2372729480266571,
          0.08040234446525574,
          -0.27740973234176636,
          -0.1873624622821808,
          0.20589494705200195,
          -0.2324342578649521,
          0.02396852895617485,
          0.25919675827026367,
          -0.3080853819847107,
          -0.28763604164123535,
          -0.003487722249701619,
          0.3363911807537079,
          -0.0020019137300550938,
          -0.26329749822616577,
          0.2729809582233429,
          0.09170248359441757,
          -0.2871857285499573,
          0.1435680091381073,
          0.24988526105880737,
          -0.0356094129383564,
          0.19700407981872559,
          0.12861096858978271,
          -0.010705611668527126
        ],
        [
          -0.11105085909366608,
          -0.354600727558136,
          -0.2484218180179596,
          0.23776203393936157,
          -0.07495075464248657,
          0.11688648909330368,
          0.17463381588459015,
          -0.09693725407123566,
          -0.14700046181678772,
          -0.004744026344269514,
          -0.049237824976444244,
          0.12368758022785187,
          -0.17438314855098724,
          -0.043039072304964066,
          0.10924968123435974,
          0.2448880523443222,
          0.5165150165557861,
          0.07992610335350037,
          0.10172297060489655,
          -0.046037185937166214,
          0.17793403565883636,
          -0.43075424432754517,
          0.2819289267063141,
          -0.33367860317230225
        ],
        [
          0.4210209846496582,
          -0.23192429542541504,
          -0.17789891362190247,
          -0.07626108825206757,
          -0.12100476026535034,
          0.12300404906272888,
          -0.24994602799415588,
          -0.0751689076423645,
          0.16778632998466492,
          0.07283834367990494,
          0.0337798073887825,
          -0.018183331936597824,
          -0.3216480016708374,
          0.05286002904176712,
          -0.014406411908566952,
          -0.33169353008270264,
          0.3624289035797119,
          0.21423038840293884,
          0.35045963525772095,
          0.002802252536639571,
          -0.3218192160129547,
          0.13110114634037018,
          0.14880678057670593,
          -0.0686761662364006
        ],
        [
          0.19092118740081787,
          -0.1644873321056366,
          0.16655531525611877,
          -0.1492767035961151,
          -0.22900672256946564,
          0.12056528776884079,
          0.1916414201259613,
          -0.34465235471725464,
          -0.28661730885505676,
          -0.04155370593070984,
          -0.08711834996938705,
          -0.37081408500671387,
          0.0726243257522583,
          0.24720989167690277,
          0.23481589555740356,
          0.025593826547265053,
          0.13790062069892883,
          0.18732993304729462,
          0.19121989607810974,
          -0.16492636501789093,
          -0.032283294945955276,
          -0.13135667145252228,
          0.23918548226356506,
          -0.14507633447647095
        ],
        [
          -0.13250328600406647,
          -0.16053161025047302,
          0.1735592931509018,
          0.018260598182678223,
          -0.025527216494083405,
          -0.16281463205814362,
          0.07649261504411697,
          -0.31481412053108215,
          0.029469270259141922,
          0.12519235908985138,
          0.1467238813638687,
          -0.1795337051153183,
          -0.1830538809299469,
          0.2738758325576782,
          -0.14731505513191223,
          -0.24875660240650177,
          -0.021285725757479668,
          -0.13573840260505676,
          0.0417637936770916,
          0.2320731282234192,
          0.06398387253284454,
          0.11400415003299713,
          0.22024504840373993,
          0.16096366941928864
        ],
        [
          0.08012910932302475,
          0.32034242153167725,
          -0.0399971678853035,
          -0.08205534517765045,
          0.18268939852714539,
          0.30743077397346497,
          0.04826568439602852,
          -0.22439540922641754,
          -0.1546807587146759,
          0.1315097212791443,
          -0.11074088513851166,
          0.29445144534111023,
          0.19459174573421478,
          0.24949845671653748,
          -0.20449204742908478,
          -0.3660034239292145,
          -0.023867333307862282,
          0.05467510595917702,
          0.11593644320964813,
          -0.29905733466148376,
          0.08542314916849136,
          0.14654022455215454,
          0.09029653668403625,
          -0.3841235339641571
        ],
        [
          0.02793450653553009,
          -0.23164555430412292,
          -0.35254061222076416,
          0.15593446791172028,
          0.15527699887752533,
          0.2548774480819702,
          -0.22119899094104767,
          -0.0804009884595871,
          0.11992504447698593,
          0.21368634700775146,
          0.0034720762632787228,
          0.0066106426529586315,
          0.04301495477557182,
          -0.19554434716701508,
          0.27086880803108215,
          0.15501335263252258,
          0.38257691264152527,
          -0.14722692966461182,
          0.11826983094215393,
          -0.14763659238815308,
          -0.2496456503868103,
          -0.08445261418819427,
          -0.26876261830329895,
          0.18580222129821777
        ],
        [
          -0.03325765207409859,
          -0.3470696806907654,
          0.05580589547753334,
          0.15501095354557037,
          0.10894757509231567,
          0.29675382375717163,
          -0.27921298146247864,
          -0.1364712119102478,
          0.18098311126232147,
          0.2988502085208893,
          0.0029953191988170147,
          0.12139821797609329,
          0.23803551495075226,
          0.2609354257583618,
          -0.27666985988616943,
          -0.20696550607681274,
          0.2794419229030609,
          0.07875780016183853,
          0.011938104405999184,
          0.10353336483240128,
          -0.17446717619895935,
          -0.2301235944032669,
          -0.1826748549938202,
          -0.31804776191711426
        ],
        [
          -0.3506442904472351,
          0.27154695987701416,
          -0.41330644488334656,
          -0.14765678346157074,
          -0.002206772565841675,
          -0.3461378216743469,
          -0.26215028762817383,
          0.169106125831604,
          -0.09246130287647247,
          -0.09094781428575516,
          0.10587599873542786,
          -0.14982810616493225,
          0.13390736281871796,
          -0.23147791624069214,
          0.13623446226119995,
          -0.15831874310970306,
          -0.02676757425069809,
          0.23804734647274017,
          0.3664107024669647,
          -0.03893599286675453,
          0.0825139507651329,
          -0.09185107797384262,
          0.2048064023256302,
          0.386592835187912
        ],
        [
          0.2706555724143982,
          0.26835474371910095,
          -0.03694203123450279,
          0.3736565411090851,
          0.14627018570899963,
          -0.30308881402015686,
          0.193082794547081,
          0.04777594655752182,
          -0.20440709590911865,
          -0.13554048538208008,
          0.14625360071659088,
          0.12162372469902039,
          -0.08891265839338303,
          -0.23681119084358215,
          -0.19126416742801666,
          -0.23868012428283691,
          -0.19916093349456787,
          0.37583622336387634,
          -0.10770219564437866,
          -0.09186871349811554,
          -0.10226000100374222,
          -0.1425316482782364,
          -0.1726607084274292,
          0.005519258324056864
        ],
        [
          -0.06084148958325386,
          0.25943586230278015,
          -0.13471175730228424,
          0.27494582533836365,
          0.38741424679756165,
          0.014478766359388828,
          -0.15380875766277313,
          -0.10673466324806213,
          -0.1301422417163849,
          -0.05890173092484474,
          0.3186599612236023,
          -0.07825206220149994,
          -0.1370844841003418,
          -0.19997723400592804,
          0.05457363277673721,
          -0.11187716573476791,
          -0.4245947003364563,
          -0.32077276706695557,
          0.17426025867462158,
          -0.06058347597718239,
          0.4244454801082611,
          -0.12919709086418152,
          -0.009433404542505741,
          0.21776339411735535
        ],
        [
          0.36063235998153687,
          -0.058685410767793655,
          -0.22007820010185242,
          -0.14649558067321777,
          -0.04223988950252533,
          -0.3867519795894623,
          -0.1492529660463333,
          -0.05909302458167076,
          0.14903923869132996,
          -0.07358208298683167,
          -0.34003597497940063,
          0.12055228650569916,
          -0.2625511586666107,
          0.009537307545542717,
          0.24824178218841553,
          0.14996521174907684,
          0.32109764218330383,
          -0.1196664348244667,
          0.0011944813886657357,
          -0.0803641676902771,
          0.2817186415195465,
          0.10363560914993286,
          -0.17252449691295624,
          0.15993539988994598
        ],
        [
          0.003225102322176099,
          -0.1415543258190155,
          0.01630513370037079,
          -0.024621879681944847,
          -0.05562056973576546,
          0.10780872404575348,
          0.13932088017463684,
          0.13431867957115173,
          0.3734862208366394,
          0.09301102161407471,
          0.17521841824054718,
          0.34739118814468384,
          -0.29374754428863525,
          0.2446068823337555,
          0.08309143036603928,
          -0.07592738419771194,
          -0.11305345594882965,
          -0.42138728499412537,
          -0.18439315259456635,
          -0.1369210034608841,
          -0.35206201672554016,
          0.3557089865207672,
          -0.08127736300230026,
          -0.07975390553474426
        ],
        [
          -0.3723852336406708,
          -0.008739098906517029,
          0.009572785347700119,
          -0.42054110765457153,
          0.19361424446105957,
          0.22446659207344055,
          -0.2676973044872284,
          0.13318321108818054,
          -0.004915736615657806,
          -0.167758971452713,
          0.14926595985889435,
          0.010793796740472317,
          0.09277919679880142,
          0.17186009883880615,
          -0.1234392449259758,
          0.267637699842453,
          -0.272818922996521,
          0.2310497909784317,
          0.31433266401290894,
          -0.04685857146978378,
          -0.01022976916283369,
          0.19022636115550995,
          -0.3264697790145874,
          0.20883774757385254
        ],
        [
          0.1223488450050354,
          -0.12346895039081573,
          0.21592223644256592,
          0.2659619450569153,
          0.039067383855581284,
          0.2911517918109894,
          0.1395648717880249,
          -0.12834982573986053,
          0.241021528840065,
          0.19746847450733185,
          0.17410720884799957,
          0.19313430786132812,
          0.13072067499160767,
          -0.079193115234375,
          0.10743613541126251,
          -0.3215785324573517,
          -0.03602749854326248,
          0.020576823502779007,
          0.08634832501411438,
          -0.23138634860515594,
          -0.3968326151371002,
          -0.5032958984375,
          0.11000804603099823,
          -0.1360611766576767
        ],
        [
          -0.14470931887626648,
          -0.28830766677856445,
          -0.3016497790813446,
          0.23412905633449554,
          -0.19776836037635803,
          -0.3141171634197235,
          -0.08135509490966797,
          -0.25596100091934204,
          -0.039492763578891754,
          -0.05162652209401131,
          0.04871358722448349,
          0.07271472364664078,
          0.14461928606033325,
          -0.213631734251976,
          0.2815433144569397,
          0.18656007945537567,
          0.2520764470100403,
          0.27078932523727417,
          -0.22721326351165771,
          0.026905199512839317,
          0.1128954216837883,
          0.17734196782112122,
          0.3360758125782013,
          -0.12383288145065308
        ],
        [
          0.28038692474365234,
          0.03380873054265976,
          0.13641080260276794,
          0.29273146390914917,
          -0.12097584456205368,
          -0.31260043382644653,
          0.2332521677017212,
          0.0453636534512043,
          -0.07703423500061035,
          -0.19222129881381989,
          -0.10079237818717957,
          -0.14884386956691742,
          -0.03652235120534897,
          -0.15663784742355347,
          0.10352304577827454,
          -0.079678975045681,
          -0.09034637361764908,
          0.07120595127344131,
          0.15801051259040833,
          0.18032211065292358,
          -0.01469009555876255,
          -0.27083930373191833,
          0.14083018898963928,
          0.10516604036092758
        ],
        [
          0.16561447083950043,
          0.08182524144649506,
          0.1678246259689331,
          0.2788149416446686,
          0.14393500983715057,
          -0.08853200823068619,
          0.2885817587375641,
          -0.03353989124298096,
          0.08587148040533066,
          0.27068132162094116,
          -0.06146155670285225,
          -0.19613726437091827,
          -0.23667295277118683,
          -0.20382392406463623,
          -0.17220620810985565,
          -0.3887796401977539,
          -0.12316405773162842,
          0.023339176550507545,
          0.11668310314416885,
          0.15339845418930054,
          -0.09492672234773636,
          -0.3066970407962799,
          0.1590954065322876,
          0.07865434885025024
        ],
        [
          -0.1347203105688095,
          -0.20450137555599213,
          -0.19857735931873322,
          0.15790480375289917,
          0.25311192870140076,
          -0.014172744005918503,
          0.2364223301410675,
          -0.2829236686229706,
          -0.08902470767498016,
          -0.09478770196437836,
          0.17478059232234955,
          -0.13262008130550385,
          0.04484951123595238,
          0.21380525827407837,
          0.0387912355363369,
          -0.36998251080513,
          0.02573184296488762,
          -0.22163760662078857,
          -0.10161271691322327,
          -0.19040612876415253,
          -0.2124098688364029,
          0.37140047550201416,
          0.17478640377521515,
          0.45881977677345276
        ],
        [
          -0.2048456072807312,
          -0.16807593405246735,
          0.10236316919326782,
          0.1402830183506012,
          -0.18636395037174225,
          0.0030563976615667343,
          -0.30980104207992554,
          -0.04578099772334099,
          0.253518283367157,
          -0.3457164168357849,
          0.02944847010076046,
          -0.018376635387539864,
          0.04243098571896553,
          -0.021734686568379402,
          0.08290029317140579,
          0.09777268767356873,
          0.08372097462415695,
          -0.31978362798690796,
          0.46492207050323486,
          -0.11092076450586319,
          0.0023410178255289793,
          0.12579169869422913,
          0.11820103228092194,
          -0.09041983634233475
        ],
        [
          0.07989266514778137,
          -0.449218213558197,
          -0.15082894265651703,
          0.02652287855744362,
          0.07338212430477142,
          -0.016463488340377808,
          -0.2736144959926605,
          -0.07599249482154846,
          0.20612187683582306,
          -0.20126698911190033,
          -0.22740326821804047,
          -0.23293621838092804,
          -0.1802997589111328,
          0.20983083546161652,
          0.0915401428937912,
          0.09032408893108368,
          0.21134395897388458,
          0.17243874073028564,
          0.04140854626893997,
          0.019989807158708572,
          -0.21188026666641235,
          0.10994330793619156,
          0.3002053499221802,
          0.2702295482158661
        ],
        [
          0.008568642660975456,
          0.1324034333229065,
          -0.18753327429294586,
          -0.11686792969703674,
          0.07890086621046066,
          -0.2645508050918579,
          -0.2585628926753998,
          -0.02246462181210518,
          -0.05718860775232315,
          -0.3157435655593872,
          0.15295350551605225,
          -0.3597644567489624,
          0.4198727309703827,
          -0.22446909546852112,
          0.22756050527095795,
          -0.04622723162174225,
          0.09136046469211578,
          0.35928741097450256,
          -0.12480208277702332,
          0.22365659475326538,
          0.3668493628501892,
          0.16369901597499847,
          -0.31380340456962585,
          0.13066864013671875
        ],
        [
          0.2413707971572876,
          0.025268033146858215,
          0.00833357498049736,
          -0.10168537497520447,
          0.149488627910614,
          -0.04832139238715172,
          -0.2773289382457733,
          0.07259145379066467,
          -0.24375535547733307,
          0.15630561113357544,
          0.3177390694618225,
          0.05521140620112419,
          0.2601279318332672,
          -0.32520726323127747,
          -0.06105576828122139,
          0.048902034759521484,
          -0.23308560252189636,
          -0.17232532799243927,
          -0.002328846836462617,
          -0.18770287930965424,
          0.07868422567844391,
          -0.038241252303123474,
          -0.29398319125175476,
          0.35903090238571167
        ],
        [
          -0.03493983671069145,
          -0.1950652301311493,
          0.33997929096221924,
          -0.27359405159950256,
          -0.23019540309906006,
          0.08062393218278885,
          0.04394116625189781,
          -0.2653081715106964,
          0.06803011149168015,
          0.19304296374320984,
          -0.03040945529937744,
          -0.105562224984169,
          0.08793192356824875,
          0.26476824283599854,
          -0.09735007584095001,
          0.26464754343032837,
          0.007838717661798,
          -0.24600546061992645,
          0.3040854334831238,
          0.07539317011833191,
          0.04686276614665985,
          -0.27560484409332275,
          0.2961267828941345,
          -0.16899915039539337
        ],
        [
          0.24804624915122986,
          -0.039666492491960526,
          -0.14919792115688324,
          -0.19190989434719086,
          0.2963791489601135,
          0.1210281178355217,
          0.1539466381072998,
          0.18189184367656708,
          0.19546818733215332,
          0.13683901727199554,
          0.022117529064416885,
          -0.11047815531492233,
          0.1141090840101242,
          -0.07767742872238159,
          -0.006547370459884405,
          0.16437429189682007,
          -0.3323504626750946,
          0.009020570665597916,
          -0.19104641675949097,
          -0.0013636990915983915,
          0.032320402562618256,
          -0.3270511031150818,
          -0.06488729268312454,
          -0.024396462365984917
        ],
        [
          -0.15062032639980316,
          0.2201739102602005,
          0.38479292392730713,
          -0.1633254587650299,
          0.07748895138502121,
          0.20066870748996735,
          -0.1336108148097992,
          -0.3106060028076172,
          0.14211201667785645,
          -0.23778676986694336,
          -0.10075973719358444,
          0.2085358202457428,
          -0.01271117851138115,
          0.04713071137666702,
          -0.3628203570842743,
          -0.04758385568857193,
          0.22627507150173187,
          -0.14465180039405823,
          0.10462036728858948,
          0.17670977115631104,
          -0.30135348439216614,
          0.4281095266342163,
          -0.2577844560146332,
          -0.22141948342323303
        ],
        [
          -0.005507624242454767,
          -0.23631125688552856,
          -0.2503622770309448,
          -0.23991861939430237,
          0.04634089395403862,
          0.021211551502346992,
          0.12617896497249603,
          -0.07225226610898972,
          -0.16117195785045624,
          0.14625008404254913,
          0.012217877432703972,
          0.04630202427506447,
          -0.02332148142158985,
          -0.10573645681142807,
          0.4374810755252838,
          -0.2575794756412506,
          -0.1666562557220459,
          0.07221177220344543,
          -0.25187817215919495,
          0.3709286153316498,
          0.39113184809684753,
          0.37015610933303833,
          -0.22033055126667023,
          -0.26296040415763855
        ],
        [
          0.28154656291007996,
          0.20097364485263824,
          -0.07178426533937454,
          -0.3044058680534363,
          0.17024153470993042,
          0.2997860908508301,
          -0.13009709119796753,
          -0.06104424595832825,
          0.43653029203414917,
          0.194669708609581,
          0.2165471911430359,
          0.16194313764572144,
          -0.13388504087924957,
          -0.18709634244441986,
          -0.27022072672843933,
          0.21843011677265167,
          -0.19817979633808136,
          -0.16372926533222198,
          0.09312715381383896,
          0.0752045139670372,
          -0.1076982170343399,
          -0.17504563927650452,
          0.0597551204264164,
          -0.3496914207935333
        ],
        [
          -0.009963838383555412,
          -0.3030945658683777,
          -0.12056401371955872,
          -0.17915955185890198,
          0.06869707256555557,
          -0.10029290616512299,
          -0.37829509377479553,
          -0.025888169184327126,
          0.010628982447087765,
          -0.01095099002122879,
          -0.10711594671010971,
          -0.2539757192134857,
          0.17722178995609283,
          0.24428020417690277,
          0.22019127011299133,
          0.13830706477165222,
          0.20718984305858612,
          -0.19120703637599945,
          0.2801496386528015,
          -0.2819792926311493,
          0.06291021406650543,
          0.3617890775203705,
          0.06942754983901978,
          -0.02302999421954155
        ],
        [
          -0.160198375582695,
          -0.08346016705036163,
          0.08367843180894852,
          -0.17112821340560913,
          -0.027262598276138306,
          0.14495839178562164,
          -0.009744015522301197,
          -0.1988517791032791,
          0.14521391689777374,
          0.14408956468105316,
          0.29265618324279785,
          0.02927699312567711,
          -0.3095032572746277,
          -0.08022940158843994,
          -0.49190855026245117,
          0.07643092423677444,
          0.2799954414367676,
          0.053066685795784,
          -0.03821423277258873,
          0.03252610191702843,
          0.18407128751277924,
          -0.08479971438646317,
          -0.24499519169330597,
          0.19781658053398132
        ],
        [
          0.037929143756628036,
          0.2872280180454254,
          0.34412795305252075,
          -0.11778756976127625,
          0.23433560132980347,
          0.2403169572353363,
          -0.06883501261472702,
          0.13970763981342316,
          0.1457904428243637,
          -0.31992286443710327,
          0.19513759016990662,
          0.07724570482969284,
          0.21014000475406647,
          -0.29053056240081787,
          -0.32656702399253845,
          -0.25042885541915894,
          -0.24199441075325012,
          -0.39835742115974426,
          0.31498098373413086,
          -0.2449866384267807,
          0.16587378084659576,
          0.01276339404284954,
          -0.12582722306251526,
          -0.03860551118850708
        ],
        [
          -0.19776774942874908,
          0.19148798286914825,
          0.07267332822084427,
          0.044451091438531876,
          0.09100155532360077,
          0.0685778558254242,
          0.24287693202495575,
          0.052542414516210556,
          0.09206508845090866,
          -0.09635850787162781,
          0.17475377023220062,
          0.31385600566864014,
          -0.21634545922279358,
          0.055200327187776566,
          -0.12243319302797318,
          0.19435623288154602,
          0.17037345468997955,
          -0.22819548845291138,
          -0.11779854446649551,
          -0.37085476517677307,
          0.010623943991959095,
          -0.2425994724035263,
          0.09830643236637115,
          -0.3302180767059326
        ],
        [
          -0.3686020076274872,
          0.04565469175577164,
          0.26256585121154785,
          -0.3100166320800781,
          0.19287480413913727,
          -0.23166076838970184,
          -0.3357362747192383,
          -0.071050263941288,
          -0.02311144769191742,
          0.19498732686042786,
          -0.005317484028637409,
          0.41028934717178345,
          0.3981618881225586,
          -0.29075396060943604,
          -0.19162385165691376,
          0.2225441187620163,
          -0.09174143522977829,
          -0.006941592786461115,
          0.03186677396297455,
          -0.28002700209617615,
          0.1446795016527176,
          -0.018246818333864212,
          0.4781455397605896,
          -0.14938977360725403
        ],
        [
          -0.1338893175125122,
          -0.06302345544099808,
          0.21516384184360504,
          0.16319486498832703,
          -0.020766358822584152,
          0.1643247902393341,
          -0.08781056851148605,
          0.0664384588599205,
          0.12461962550878525,
          -0.12388195842504501,
          0.4048466086387634,
          -0.09178519994020462,
          -0.039648640900850296,
          -0.08134306967258453,
          -0.2566090524196625,
          -0.10501064360141754,
          -0.2803846597671509,
          0.06244294345378876,
          -0.05329859256744385,
          0.0711880624294281,
          0.29217588901519775,
          0.37557005882263184,
          -0.2098488062620163,
          -0.3828679025173187
        ],
        [
          0.24002738296985626,
          -0.2556189000606537,
          0.07200343161821365,
          -0.19571849703788757,
          -0.30322742462158203,
          0.1672152578830719,
          0.2142813354730606,
          -0.38908419013023376,
          0.08421628922224045,
          -0.15014566481113434,
          -0.15175452828407288,
          0.27433329820632935,
          0.09252457320690155,
          0.14439907670021057,
          -0.1356063336133957,
          -0.15200379490852356,
          -0.08069907873868942,
          0.1521444469690323,
          -0.22196485102176666,
          0.1574237197637558,
          -0.29559996724128723,
          0.341581255197525,
          0.36729761958122253,
          -0.1936463862657547
        ],
        [
          -0.2559055685997009,
          -0.1058625727891922,
          -0.07931190729141235,
          -0.11803766340017319,
          -0.06901813298463821,
          0.17989471554756165,
          0.07516705244779587,
          -0.3089287579059601,
          0.0019464649958536029,
          0.12680383026599884,
          -0.07508266717195511,
          -0.3711024522781372,
          0.10840577632188797,
          0.09655556827783585,
          0.22222553193569183,
          0.2412339597940445,
          0.18956246972084045,
          0.11276621371507645,
          -0.08229463547468185,
          0.2528730630874634,
          0.23212116956710815,
          0.18367432057857513,
          0.12886889278888702,
          -0.27590397000312805
        ],
        [
          -0.12760785222053528,
          0.23355938494205475,
          -0.10741802304983139,
          -0.23744414746761322,
          0.11805246025323868,
          0.009155173785984516,
          0.1077222228050232,
          0.1409294605255127,
          -0.38158825039863586,
          -0.21686489880084991,
          0.2353839874267578,
          -0.19220592081546783,
          0.17031562328338623,
          -0.03924357518553734,
          0.20369260013103485,
          0.2535223662853241,
          -0.08364132046699524,
          -0.1286926120519638,
          0.25990185141563416,
          0.035519570112228394,
          0.06442983448505402,
          -0.13597536087036133,
          -0.1733567714691162,
          0.058498796075582504
        ],
        [
          0.09575551748275757,
          0.24864168465137482,
          0.06346940249204636,
          -0.1925773322582245,
          -0.22621333599090576,
          0.3326757848262787,
          -0.2268742471933365,
          -0.3557199537754059,
          0.051721155643463135,
          -0.10552117228507996,
          0.08137433230876923,
          0.14970241487026215,
          0.23647159337997437,
          0.11187830567359924,
          0.15980970859527588,
          0.08805059641599655,
          0.013894127681851387,
          -0.1663653552532196,
          -0.2611382007598877,
          0.13584692776203156,
          -0.3801083564758301,
          0.30504512786865234,
          0.051213011145591736,
          -0.06391944736242294
        ],
        [
          0.028338652104139328,
          -0.09478460252285004,
          0.180006742477417,
          0.04433988407254219,
          0.12254233658313751,
          -0.30944710969924927,
          -0.036738380789756775,
          -0.23179635405540466,
          -0.014426840469241142,
          0.10672935843467712,
          0.026268895715475082,
          -0.4282620847225189,
          -0.19796258211135864,
          -0.11076744645833969,
          0.2664601504802704,
          0.3768957555294037,
          0.17167703807353973,
          0.20433160662651062,
          -0.2728694677352905,
          0.10264704376459122,
          0.040610458701848984,
          -0.10079732537269592,
          -0.01331280916929245,
          0.19111935794353485
        ],
        [
          -0.17501917481422424,
          0.08514770120382309,
          0.008212026208639145,
          0.15397727489471436,
          -0.06336074322462082,
          0.028973815962672234,
          -0.15721146762371063,
          0.20565439760684967,
          -0.05088009685277939,
          0.09932637214660645,
          0.015048464760184288,
          0.16802804172039032,
          0.016052676364779472,
          -0.35493695735931396,
          -0.23545992374420166,
          -0.10715378075838089,
          0.29440048336982727,
          0.11759745329618454,
          0.09014099091291428,
          0.12888887524604797,
          -0.1460210084915161,
          0.15168409049510956,
          -0.1652902513742447,
          0.08329205214977264
        ],
        [
          -0.28559577465057373,
          -0.20095427334308624,
          0.1287071257829666,
          0.18173785507678986,
          0.01503949798643589,
          -0.2116542011499405,
          -0.29033362865448,
          -0.01973145268857479,
          0.18377341330051422,
          0.01077261008322239,
          -0.0557745136320591,
          -0.02145160175859928,
          0.494902104139328,
          0.26964664459228516,
          -0.16911634802818298,
          0.2015487402677536,
          -0.24304382503032684,
          0.13081564009189606,
          0.04997161030769348,
          -0.015750965103507042,
          -0.22577176988124847,
          -0.16377294063568115,
          0.036573223769664764,
          0.2046876847743988
        ],
        [
          0.08760261535644531,
          -0.3064053952693939,
          0.2887657880783081,
          -0.07354000210762024,
          0.04818188399076462,
          0.2061055302619934,
          0.023320535197854042,
          0.028809720650315285,
          0.19311852753162384,
          -0.3069973886013031,
          -0.04047083854675293,
          -0.20357084274291992,
          0.25968003273010254,
          0.336997389793396,
          -0.032353274524211884,
          -0.0313720628619194,
          -0.3394061326980591,
          0.09819652885198593,
          -0.0326031856238842,
          -0.1705736368894577,
          -0.018395056948065758,
          -0.005679246503859758,
          0.3958131670951843,
          -0.27119195461273193
        ],
        [
          0.13957735896110535,
          0.056994758546352386,
          -0.17400217056274414,
          0.18670102953910828,
          0.08608604967594147,
          0.029290873557329178,
          0.18485823273658752,
          0.253857284784317,
          0.06543229520320892,
          0.03862634673714638,
          0.026947367936372757,
          -0.042977239936590195,
          -0.4261683523654938,
          0.18291005492210388,
          -0.10652481764554977,
          -0.12247340381145477,
          -0.3478401005268097,
          0.028080295771360397,
          -0.19233077764511108,
          -0.08602555841207504,
          0.29184234142303467,
          0.4153515100479126,
          -0.08280694484710693,
          -0.2658025324344635
        ],
        [
          0.22782030701637268,
          0.26941192150115967,
          -0.06151793897151947,
          -0.19241082668304443,
          0.32449251413345337,
          -0.15114939212799072,
          0.2703777551651001,
          -0.09410983324050903,
          0.13545472919940948,
          0.1238192617893219,
          -0.16842927038669586,
          0.21195241808891296,
          0.14311379194259644,
          0.07160907983779907,
          0.08631175011396408,
          0.26300233602523804,
          0.1330031305551529,
          -0.05755487084388733,
          -0.3026839792728424,
          -0.2740529775619507,
          -0.26944106817245483,
          -0.4595176577568054,
          -0.4100801348686218,
          0.2106902003288269
        ],
        [
          -0.0014870112063363194,
          -0.2644105851650238,
          -0.2623096704483032,
          -0.1042105183005333,
          0.1994207501411438,
          -0.4353701174259186,
          0.23912939429283142,
          -0.21906714141368866,
          -0.014784040860831738,
          -0.25196030735969543,
          0.1591297835111618,
          -0.15238051116466522,
          -0.21282711625099182,
          0.28494179248809814,
          0.11801345646381378,
          -0.2426086664199829,
          0.22996145486831665,
          0.3131985664367676,
          0.16741280257701874,
          -0.07561608403921127,
          0.36473649740219116,
          0.14390568435192108,
          -0.21534445881843567,
          0.06066581979393959
        ],
        [
          0.0784880518913269,
          0.27555787563323975,
          0.2922568619251251,
          -0.0464809350669384,
          0.3685283660888672,
          -0.05162080004811287,
          -0.06690263003110886,
          0.3705945312976837,
          0.010944952256977558,
          -0.2125856727361679,
          -0.1592855155467987,
          -0.11079820990562439,
          0.006921909749507904,
          -0.0901346504688263,
          0.24647001922130585,
          0.2969185411930084,
          0.0814133808016777,
          -0.14108066260814667,
          -0.07347061485052109,
          -0.3279378116130829,
          -0.014864763244986534,
          -0.3435875475406647,
          -0.28286778926849365,
          -0.3094819486141205
        ],
        [
          -0.25345394015312195,
          -0.0072843218222260475,
          0.21643908321857452,
          0.057944413274526596,
          -0.1657080054283142,
          0.10829659551382065,
          -0.23354880511760712,
          -0.34043943881988525,
          0.28022143244743347,
          -0.0707801878452301,
          -0.2196853905916214,
          -0.14271169900894165,
          0.17185436189174652,
          0.28258398175239563,
          -0.19983869791030884,
          0.2586638331413269,
          0.2743526101112366,
          -0.15744461119174957,
          0.09096693247556686,
          -0.17109371721744537,
          0.07698927819728851,
          0.10989205539226532,
          0.03210606798529625,
          0.11181214451789856
        ],
        [
          0.2498016655445099,
          -0.09725869446992874,
          -0.18499235808849335,
          0.3139727711677551,
          -0.007578631862998009,
          0.1405942291021347,
          0.2029901146888733,
          -0.028371451422572136,
          -0.08026336878538132,
          0.3265105187892914,
          0.008906629867851734,
          0.09477299451828003,
          -0.21055199205875397,
          -0.11678492277860641,
          -0.3513660728931427,
          0.0906035453081131,
          -0.24854391813278198,
          -0.0253477543592453,
          -0.2926081717014313,
          -0.18235556781291962,
          0.16815586388111115,
          -0.07418908923864365,
          -0.21416255831718445,
          0.34690937399864197
        ],
        [
          0.24891212582588196,
          0.027793802320957184,
          -0.17090557515621185,
          0.46835872530937195,
          0.22083500027656555,
          0.07463715970516205,
          0.23367489874362946,
          -0.25318643450737,
          0.1240203008055687,
          0.054926883429288864,
          -0.03354808688163757,
          0.0552973672747612,
          -0.004380133002996445,
          0.13195736706256866,
          -0.05691086873412132,
          -0.2949608266353607,
          -0.19616205990314484,
          -0.15603020787239075,
          -0.3612326979637146,
          -0.09940928220748901,
          0.26066508889198303,
          -0.3348742723464966,
          0.14996136724948883,
          -0.19293329119682312
        ],
        [
          0.15432322025299072,
          -0.026454119011759758,
          -0.16232597827911377,
          -0.0661260187625885,
          0.1691034734249115,
          -0.17704634368419647,
          0.17250053584575653,
          0.1785508245229721,
          0.2555018663406372,
          -0.34899112582206726,
          -0.3538661003112793,
          0.13730305433273315,
          0.05495287477970123,
          0.3800411820411682,
          -0.3622424602508545,
          -0.12038464844226837,
          -0.29613614082336426,
          -0.018597204238176346,
          0.18472102284431458,
          0.28009355068206787,
          0.2421053647994995,
          -0.0827454924583435,
          -0.3333388864994049,
          0.16565847396850586
        ],
        [
          0.10881681740283966,
          -0.08776982128620148,
          -0.3926011025905609,
          -0.07294652611017227,
          -0.10110537707805634,
          0.06960359960794449,
          -0.21675343811511993,
          -0.007987527176737785,
          -0.08650748431682587,
          0.18268242478370667,
          0.268138587474823,
          -0.24589116871356964,
          0.5156860947608948,
          -0.06755631417036057,
          0.4249681532382965,
          -0.24603231251239777,
          0.08781830966472626,
          0.15911029279232025,
          -0.12257686257362366,
          0.04622520133852959,
          -0.07606646418571472,
          -0.1094062328338623,
          -0.15998923778533936,
          0.2518891394138336
        ],
        [
          -0.26619717478752136,
          -0.2393369823694229,
          -0.2152324765920639,
          0.20792381465435028,
          -0.21741919219493866,
          -0.04897448793053627,
          -0.08248242735862732,
          -0.3713529109954834,
          -0.10205528140068054,
          -0.07282540947198868,
          -0.07066904008388519,
          0.26251086592674255,
          0.17764858901500702,
          0.5093865990638733,
          0.10020865499973297,
          -0.14863580465316772,
          0.2001546174287796,
          -0.12393759936094284,
          0.011904513463377953,
          0.3300689458847046,
          0.16008642315864563,
          0.049172110855579376,
          -0.10292496532201767,
          0.10606174916028976
        ],
        [
          0.0004334336263127625,
          -0.38687705993652344,
          -0.3441854417324066,
          0.19176197052001953,
          -0.14506796002388,
          0.19463513791561127,
          0.1112288162112236,
          -0.270513653755188,
          -0.24072137475013733,
          0.0010951563017442822,
          0.022624963894486427,
          -0.16717474162578583,
          -0.059125546365976334,
          0.436428040266037,
          -0.03519930690526962,
          -0.06704925745725632,
          0.1437377631664276,
          -0.11502554267644882,
          0.0694860965013504,
          0.3037280738353729,
          0.18158510327339172,
          -0.29533958435058594,
          0.09033654630184174,
          0.33707180619239807
        ],
        [
          0.09729249030351639,
          0.22957703471183777,
          -0.08272671699523926,
          0.03505081310868263,
          -0.18019665777683258,
          0.17535170912742615,
          -0.0760415643453598,
          0.3027188181877136,
          -0.24228861927986145,
          0.08514510095119476,
          0.03387613222002983,
          0.046206358820199966,
          0.09580791741609573,
          -0.19843745231628418,
          0.3248228430747986,
          -0.18963097035884857,
          0.016767924651503563,
          -0.2062567174434662,
          -0.24701523780822754,
          -0.31762224435806274,
          -0.21814808249473572,
          0.05003949627280235,
          -0.03989207372069359,
          0.2637777030467987
        ],
        [
          -0.015272794291377068,
          0.00418594665825367,
          0.1272941529750824,
          0.20277780294418335,
          0.19036813080310822,
          0.320764422416687,
          0.09338589757680893,
          0.2921638488769531,
          0.09527237713336945,
          0.31253698468208313,
          0.25651898980140686,
          0.031526949256658554,
          -0.2599770724773407,
          -0.1253703385591507,
          -0.06117511913180351,
          -0.018575189635157585,
          -0.3120604157447815,
          -0.2658749222755432,
          -0.19954191148281097,
          -0.21062025427818298,
          -0.3069104254245758,
          -0.07807859033346176,
          0.06958267092704773,
          -0.07336338609457016
        ],
        [
          0.12229796499013901,
          0.08335219323635101,
          -0.017775362357497215,
          0.2370654195547104,
          -0.1631336659193039,
          0.21174117922782898,
          0.26389554142951965,
          0.2045302540063858,
          0.4229362905025482,
          0.007893930189311504,
          -0.03971738740801811,
          -0.18430906534194946,
          0.032538581639528275,
          0.2589361071586609,
          -0.3264961838722229,
          -0.006714079063385725,
          0.2360750287771225,
          -0.11844705790281296,
          -0.3001129627227783,
          -0.2545263171195984,
          0.10652903467416763,
          -0.3400677442550659,
          -0.23964467644691467,
          -0.18437235057353973
        ],
        [
          -0.05985017120838165,
          0.024447152391076088,
          -0.03814668953418732,
          -0.23655809462070465,
          0.3503224849700928,
          0.23624135553836823,
          -0.22880983352661133,
          -0.06585805863142014,
          0.1668262630701065,
          -0.008372395299375057,
          0.08834581077098846,
          -0.07648343592882156,
          -0.288362592458725,
          -0.04871981963515282,
          -0.11838402599096298,
          0.2767309546470642,
          -0.08700884133577347,
          -0.14109978079795837,
          0.23510678112506866,
          -0.009820431470870972,
          0.16544122993946075,
          0.28213217854499817,
          -0.16585703194141388,
          -0.08225924521684647
        ],
        [
          0.2611158788204193,
          -0.015759127214550972,
          -0.06454380601644516,
          -0.1780419498682022,
          -0.2280537486076355,
          -0.13040147721767426,
          0.25557559728622437,
          -0.16783316433429718,
          -0.07282837480306625,
          -0.04230181872844696,
          -0.023648224771022797,
          0.06558945775032043,
          -0.25461602210998535,
          -0.1629548966884613,
          0.29725292325019836,
          -0.06939993798732758,
          0.0592523030936718,
          -0.12728488445281982,
          0.06457670032978058,
          -0.14026206731796265,
          0.3275894820690155,
          -0.27149471640586853,
          0.17294572293758392,
          0.13360631465911865
        ],
        [
          0.09723009914159775,
          -0.25808513164520264,
          0.09060460329055786,
          -0.13823895156383514,
          0.16904786229133606,
          0.04484276846051216,
          0.23767586052417755,
          0.09953288733959198,
          0.020585061982274055,
          -0.33693021535873413,
          -0.004577663727104664,
          0.07492540776729584,
          0.2357109785079956,
          -0.2677397131919861,
          -0.34226542711257935,
          -0.24373456835746765,
          0.31385236978530884,
          -0.15139925479888916,
          0.0020059740636497736,
          -0.008552195504307747,
          -0.1658097803592682,
          0.193678081035614,
          -0.008866486139595509,
          0.1699485033750534
        ],
        [
          -0.14524707198143005,
          -0.28202110528945923,
          0.3067574203014374,
          0.10003913193941116,
          -0.2962139844894409,
          -0.05063668638467789,
          0.07317060232162476,
          -0.14985300600528717,
          0.02729172818362713,
          0.09097451716661453,
          0.17548775672912598,
          -0.028455760329961777,
          -0.13209286332130432,
          0.4166565239429474,
          0.029570335522294044,
          0.15735454857349396,
          -0.1806197613477707,
          -0.23127906024456024,
          0.01747424528002739,
          0.38255152106285095,
          -0.33994558453559875,
          -0.08953754603862762,
          -0.13910454511642456,
          0.3478010296821594
        ],
        [
          0.15091711282730103,
          0.19201438128948212,
          0.13143107295036316,
          0.16151417791843414,
          -0.1444961130619049,
          0.20470991730690002,
          -0.31869253516197205,
          0.02056463249027729,
          0.3549652695655823,
          0.12440405040979385,
          -0.03921779245138168,
          0.27396759390830994,
          -0.2979351878166199,
          0.19541916251182556,
          -0.3646183907985687,
          0.21476124227046967,
          -0.2433590590953827,
          -0.35944265127182007,
          -0.09898285567760468,
          0.0706930160522461,
          -0.0323479138314724,
          -0.10178841650485992,
          0.2796250879764557,
          -0.15838181972503662
        ],
        [
          0.33155232667922974,
          0.052352022379636765,
          -0.011341993696987629,
          0.13065312802791595,
          -0.15827520191669464,
          -0.06246451288461685,
          -0.17467567324638367,
          -0.08441043645143509,
          0.03074529394507408,
          -0.008116479031741619,
          -0.11995239555835724,
          -0.04449328035116196,
          -0.35570964217185974,
          0.14156468212604523,
          0.15878136456012726,
          0.07971973717212677,
          0.09633135795593262,
          -0.22748684883117676,
          0.16589847207069397,
          -0.007645285688340664,
          0.1715749204158783,
          0.040700770914554596,
          -0.1606859266757965,
          -0.049451328814029694
        ],
        [
          0.29171696305274963,
          0.15144819021224976,
          -0.09268347173929214,
          0.22035516798496246,
          -0.24478477239608765,
          0.04990759119391441,
          0.038240693509578705,
          0.05765882506966591,
          0.16700348258018494,
          0.3306732773780823,
          0.07924804836511612,
          -0.16450317203998566,
          -0.4001704752445221,
          0.05149893835186958,
          -0.10920970141887665,
          -0.20172066986560822,
          -0.039688386023044586,
          0.2724982500076294,
          -0.1663203090429306,
          0.02205973118543625,
          0.06229928135871887,
          -0.34457942843437195,
          0.19981487095355988,
          -0.22782699763774872
        ],
        [
          -0.0913177877664566,
          0.17436760663986206,
          0.07966499030590057,
          0.11341188848018646,
          0.07060190290212631,
          -0.028954382985830307,
          -0.2609422206878662,
          -0.06515918672084808,
          0.32465773820877075,
          0.08574004471302032,
          -0.2959196865558624,
          0.25774896144866943,
          0.24346023797988892,
          0.24095718562602997,
          -0.08006500452756882,
          0.005390975158661604,
          0.08464932441711426,
          -0.01821322552859783,
          -0.1196012943983078,
          -0.3641248345375061,
          -0.2621416747570038,
          0.2939065396785736,
          0.10695303976535797,
          -0.35771188139915466
        ]
      ],
      "bias": [
        -0.017041755840182304,
        -0.08187306672334671,
        0.04950506612658501,
        0.024048833176493645,
        0.024306170642375946,
        -0.00823374092578888,
        0.11008738726377487,
        0.08831460028886795,
        -0.13233038783073425,
        -0.14841681718826294,
        0.02049383334815502,
        0.08688857406377792,
        -0.08517394959926605,
        -0.08242599666118622,
        -0.1027163416147232,
        -0.03874313831329346,
        0.11635348200798035,
        0.11675012111663818,
        -0.036352839320898056,
        -0.137623593211174,
        -0.09134805202484131,
        0.14063158631324768,
        0.07684649527072906,
        -0.15885895490646362,
        -0.004653618671000004,
        -0.038605526089668274,
        0.13945980370044708,
        0.0769469141960144,
        0.03149883449077606,
        0.05119287222623825,
        -0.11291774362325668,
        -0.09686574339866638,
        -0.04201413318514824,
        -0.006533143110573292,
        0.014403659850358963,
        0.08425576984882355,
        -0.052660148590803146,
        -0.12353352457284927,
        0.018581561744213104,
