{
  "shared_layers": [
    {
      "weight": [
        [
          0.24615158140659332,
          0.12154684960842133,
          -0.02898256666958332,
          -0.024700338020920753,
          -0.6163573861122131,
          -0.11876702308654785,
          -0.35288742184638977,
          0.13954614102840424,
          -0.4657672643661499,
          -0.04025610163807869,
          0.11602063477039337,
          0.22626522183418274,
          0.011408442631363869,
          0.22298270463943481,
          -0.10499979555606842,
          -0.1407681107521057,
          0.019536232575774193,
          0.07305406779050827,
          0.041161853820085526,
          -0.04573933035135269,
          -0.16556145250797272,
          0.0865989550948143,
          -0.10646475106477737,
          -0.06191393360495567
        ],
        [
          -0.4219973385334015,
          -0.01179821789264679,
          0.00026189908385276794,
          -0.1012950986623764,
          0.18757736682891846,
          -0.3333972692489624,
          -0.09163080900907516,
          -0.16249454021453857,
          0.15946681797504425,
          0.18008063733577728,
          -0.04994632303714752,
          -0.1658264696598053,
          -0.23407553136348724,
          -0.25869515538215637,
          0.011245186440646648,
          0.110051229596138,
          0.10121245682239532,
          0.05936853587627411,
          -0.17092372477054596,
          0.06408849358558655,
          0.2086939513683319,
          0.0998736098408699,
          -0.019486485049128532,
          -0.43120309710502625
        ],
        [
          0.2856244742870331,
          -0.08050191402435303,
          -0.2606721818447113,
          -0.3764799237251282,
          0.057644423097372055,
          0.3141320049762726,
          -0.3304154872894287,
          0.022004755213856697,
          0.2852992117404938,
          0.3882406949996948,
          -0.06389480829238892,
          -0.2978677451610565,
          0.013074186630547047,
          0.02922855317592621,
          -0.0411166250705719,
          0.002603686647489667,
          0.013643857091665268,
          -0.01454362366348505,
          -0.025001630187034607,
          0.020905902609229088,
          -0.021370073780417442,
          -0.0024618159513920546,
          0.03453655168414116,
          0.048570193350315094
        ],
        [
          0.09221433103084564,
          -0.027507565915584564,
          0.033894557505846024,
          -0.03067009337246418,
          -0.08974587172269821,
          -0.015398062765598297,
          0.01835557632148266,
          0.04631950333714485,
          -0.0015852215001359582,
          -0.09619908779859543,
          -0.006914294790476561,
          0.0007668083417229354,
          -0.10457711666822433,
          -0.08774639666080475,
          -0.008465933613479137,
          0.08399522304534912,
          -0.026457566767930984,
          -0.09513647854328156,
          -0.014712431468069553,
          -0.10494527965784073,
          -0.040224067866802216,
          -0.03867679461836815,
          -0.10706371068954468,
          -0.012210189364850521
        ],
        [
          -0.05139083042740822,
          0.0015158350579440594,
          -0.052926719188690186,
          0.0031699822284281254,
          -0.05811262130737305,
          -0.016103757545351982,
          -0.00047757106949575245,
          -0.0195838063955307,
          -0.006453597452491522,
          -0.037258513271808624,
          -0.05944162979722023,
          -0.015680275857448578,
          0.016271764412522316,
          -0.030192457139492035,
          -0.1348341554403305,
          0.007280824705958366,
          -0.13681276142597198,
          -0.11221905052661896,
          -0.05988677218556404,
          -0.10692641884088516,
          0.0031754409428685904,
          -0.014704585075378418,
          -0.058181680738925934,
          -0.08725455403327942
        ],
        [
          -0.41003814339637756,
          -0.05422483757138252,
          -0.11584660410881042,
          0.06432283669710159,
          -0.039586085826158524,
          0.20044361054897308,
          0.26197922229766846,
          0.1607922464609146,
          -0.5030786395072937,
          -0.045967839658260345,
          0.009545428678393364,
          0.1925053596496582,
          0.20240560173988342,
          -0.10120873898267746,
          -0.21597003936767578,
          -0.12594696879386902,
          -0.07784947752952576,
          0.062311384826898575,
          -0.3059867024421692,
          -0.045020222663879395,
          -0.1837722212076187,
          0.05211066082119942,
          0.046723343431949615,
          0.020630966871976852
        ],
        [
          -0.37949422001838684,
          0.1864120066165924,
          -0.17335638403892517,
          0.2971239984035492,
          0.117728590965271,
          -0.2953854501247406,
          -0.05274161323904991,
          -0.49724531173706055,
          -0.3458099961280823,
          0.020780308172106743,
          0.04736805334687233,
          0.2821327745914459,
          -0.17433315515518188,
          -0.023545049130916595,
          0.09335259348154068,
          -0.07524523138999939,
          0.0535132922232151,
          -0.024294476956129074,
          0.03054153360426426,
          0.1060214638710022,
          -0.03192509710788727,
          0.05310910567641258,
          -0.030351625755429268,
          -0.20764942467212677
        ],
        [
          -0.026633404195308685,
          -0.020616155117750168,
          -0.01794559881091118,
          0.02771240472793579,
          -0.07130007445812225,
          0.057781022042036057,
          0.023008301854133606,
          0.04266875237226486,
          -0.04781750962138176,
          0.038229525089263916,
          0.037684012204408646,
          -0.015586274676024914,
          -0.26441675424575806,
          0.3160189986228943,
          0.2030140608549118,
          -0.2595439553260803,
          0.2714606821537018,
          0.20003001391887665,
          0.320495069026947,
          -0.37961921095848083,
          -0.28098058700561523,
          0.1806412786245346,
          -0.19223350286483765,
          -0.13200496137142181
        ],
        [
          -0.29531946778297424,
          -0.4786377251148224,
          -0.23816482722759247,
          0.1005261242389679,
          0.2717982232570648,
          0.23578093945980072,
          0.0891311913728714,
          0.0401533842086792,
          -0.010610802099108696,
          0.07590069621801376,
          0.14246001839637756,
          0.11297549307346344,
          -0.02706737443804741,
          0.08414085954427719,
          -0.1583610624074936,
          0.11676260828971863,
          -0.12813925743103027,
          0.1262528896331787,
          0.05600129812955856,
          0.08754637092351913,
          -0.14931724965572357,
          -0.1214175745844841,
          -0.06610297411680222,
          0.1309444010257721
        ],
        [
          -0.01871001347899437,
          0.010637512430548668,
          0.017533043399453163,
          -0.017010463401675224,
          0.007901409640908241,
          0.040041521191596985,
          -0.01583155430853367,
          -0.024597449228167534,
          0.00251546548679471,
          0.0485311783850193,
          -0.04562946781516075,
          0.03851085156202316,
          -0.2032269537448883,
          -0.22590084373950958,
          0.1394539624452591,
          0.3110657334327698,
          0.3142302632331848,
          -0.2357764095067978,
          0.3046188950538635,
          0.3260645270347595,
          -0.20910651981830597,
          -0.38353025913238525,
          -0.31258365511894226,
          0.2583587169647217
        ],
        [
          -0.1740201711654663,
          0.3557378649711609,
          -0.2835463881492615,
          -0.19161288440227509,
          0.25203269720077515,
          -0.18902194499969482,
          0.1704992800951004,
          -0.3650970160961151,
          0.2649453580379486,
          0.14584198594093323,
          -0.30330780148506165,
          0.23808686435222626,
          -0.047564033418893814,
          0.020979085937142372,
          -0.014158488251268864,
          -0.05679257959127426,
          -0.053378019481897354,
          0.028436526656150818,
          -0.00962778925895691,
          0.00988709181547165,
          -0.01624048501253128,
          0.02386404760181904,
          0.0696403980255127,
          0.024121122434735298
        ],
        [
          0.2635655701160431,
          -0.11201830208301544,
          0.2516270577907562,
          0.32954517006874084,
          -0.1224544495344162,
          0.34659543633461,
          -0.2925247848033905,
          0.0778389573097229,
          -0.3228166997432709,
          -0.3284899592399597,
          0.11308417469263077,
          -0.3270033895969391,
          0.016066553071141243,
          0.025563111528754234,
          -0.030344193801283836,
          -0.018747827038168907,
          -0.01781904138624668,
          0.025244180113077164,
          -0.007384620141237974,
          -0.0337330587208271,
          0.016668159514665604,
          0.01796245574951172,
          0.050850775092840195,
          0.04594368115067482
        ],
        [
          -0.22210006415843964,
          -0.35644078254699707,
          0.25603756308555603,
          0.20298495888710022,
          0.34247058629989624,
          -0.261736124753952,
          -0.18214565515518188,
          -0.28018051385879517,
          0.2300221174955368,
          0.18261580169200897,
          0.31265178322792053,
          -0.250577449798584,
          -0.018499694764614105,
          0.06729155033826828,
          -0.0207669697701931,
          -0.011142104864120483,
          -0.04823567345738411,
          0.009307319298386574,
          -0.052070535719394684,
          -0.02481808327138424,
          0.011103473603725433,
          0.017613664269447327,
          0.016603738069534302,
          -0.011726684868335724
        ],
        [
          -0.04797681048512459,
          -0.054107531905174255,
          -0.09677395224571228,
          -0.03537897393107414,
          -0.05418502166867256,
          0.08102184534072876,
          -0.016902461647987366,
          -0.019152062013745308,
          0.044690340757369995,
          0.06551550328731537,
          -0.11425545811653137,
          -0.09670776128768921,
          -0.12344136834144592,
          0.0065406071953475475,
          -0.042337797582149506,
          -0.0372479073703289,
          0.07694920897483826,
          -0.08283041417598724,
          -0.1123509407043457,
          -0.031869374215602875,
          -0.00443636579439044,
          -0.014240465126931667,
          -0.06287305802106857,
          -0.09438857436180115
        ],
        [
          0.04816100001335144,
          0.2539418041706085,
          0.2619507610797882,
          -0.01614387333393097,
          -0.017861343920230865,
          -0.01769428886473179,
          0.08115857094526291,
          0.2929697036743164,
          0.23771463334560394,
          -0.17332614958286285,
          -0.4424542188644409,
          -0.4704008102416992,
          -0.011500190012156963,
          0.0032029091380536556,
          -0.0400172658264637,
          -0.0045564486645162106,
          0.034157656133174896,
          0.05431022867560387,
          -0.015648914501070976,
          0.004605960100889206,
          -0.014398007653653622,
          -0.07420716434717178,
          -0.005994174163788557,
          0.053787510842084885
        ],
        [
          -0.10448409616947174,
          0.0075182537548244,
          -0.002013229066506028,
          -0.043243054300546646,
          -0.1996324360370636,
          0.03470055013895035,
          0.10372662544250488,
          -0.06380978971719742,
          -0.2966618537902832,
          -0.0487838089466095,
          0.08157657831907272,
          -0.020556394010782242,
          0.10990261286497116,
          0.035088010132312775,
          -0.1818632036447525,
          -0.14134037494659424,
          -0.2515946626663208,
          -0.13586515188217163,
          -0.10622812807559967,
          -0.16550889611244202,
          0.09478585422039032,
          -0.03506648913025856,
          0.08206551522016525,
          0.038837503641843796
        ],
        [
          -0.19131410121917725,
          -0.2308855950832367,
          -0.012326703406870365,
          0.016163578256964684,
          0.10506521910429001,
          -0.008703893050551414,
          -0.024281734600663185,
          -0.01654323749244213,
          -0.27644839882850647,
          0.013038866221904755,
          -0.06854663789272308,
          0.11855807900428772,
          -0.04057895392179489,
          -0.2406316101551056,
          -0.037452250719070435,
          -0.1978636234998703,
          0.02661728672683239,
          -0.04940216243267059,
          0.120195671916008,
          0.03786168247461319,
          0.021192660555243492,
          -0.11497820168733597,
          -0.04612692818045616,
          -0.13660036027431488
        ],
        [
          0.12616044282913208,
          0.17789459228515625,
          0.09677720069885254,
          0.0472189337015152,
          -0.14326272904872894,
          -0.3503914177417755,
          -0.002631770446896553,
          -0.4187539219856262,
          -0.3941906988620758,
          0.099688820540905,
          -0.14581502974033356,
          -0.07302136719226837,
          -0.06419647485017776,
          0.04526543617248535,
          -0.03784995153546333,
          0.15640568733215332,
          -0.3047964572906494,
          0.051500312983989716,
          -0.013781106099486351,
          -0.2117968201637268,
          -0.07156650722026825,
          -0.023887071758508682,
          0.015058820135891438,
          -0.2876710891723633
        ],
        [
          0.08771474659442902,
          0.14109943807125092,
          0.11842308938503265,
          -0.34109511971473694,
          -0.3684351444244385,
          -0.47043803334236145,
          0.10176930576562881,
          0.10688470304012299,
          0.04727666452527046,
          0.1646348387002945,
          0.2088099867105484,
          0.20983614027500153,
          0.011483483016490936,
          0.04820916801691055,
          0.007356833666563034,
          -0.01022399589419365,
          -0.061349112540483475,
          0.010739029385149479,
          -0.01679111272096634,
          -0.03614070266485214,
          -0.06950075924396515,
          0.03682709112763405,
          0.06568211317062378,
          0.004412336274981499
        ],
        [
          -0.2615125775337219,
          0.09601054340600967,
          0.05248803272843361,
          -0.02039784938097,
          0.06992294639348984,
          0.12638786435127258,
          0.19546887278556824,
          0.24867664277553558,
          -0.23598605394363403,
          0.07381312549114227,
          -0.4483228027820587,
          -0.22905254364013672,
          -0.15110449492931366,
          -0.4984133243560791,
          -0.11898855119943619,
          -0.3204909563064575,
          0.04916243627667427,
          -0.004130600951611996,
          0.07307593524456024,
          0.011824484914541245,
          0.05219398811459541,
          0.2263776957988739,
          0.02690230682492256,
          -0.19427861273288727
        ],
        [
          0.0829228088259697,
          0.1645306497812271,
          0.03787854313850403,
          -0.0733819305896759,
          -0.052123866975307465,
          -0.08692765235900879,
          0.03970811143517494,
          -0.1305602639913559,
          -0.09658116102218628,
          0.022826876491308212,
          0.1400439739227295,
          0.05930401384830475,
          -0.48910611867904663,
          0.0334455668926239,
          -0.5094704031944275,
          -0.012202982790768147,
          -0.031203094869852066,
          0.14438305795192719,
          0.015425173565745354,
          0.03692412003874779,
          0.1253935545682907,
          0.2037316858768463,
          0.02318151667714119,
          0.09887202084064484
        ],
        [
          -0.1994866281747818,
          -0.02516174502670765,
          -0.164386585354805,
          -0.13208232820034027,
          0.039337363094091415,
          -0.18703588843345642,
          -0.02341630309820175,
          0.15401333570480347,
          0.22321945428848267,
          -0.014822621829807758,
          -0.06912778317928314,
          -0.10748153924942017,
          0.17334826290607452,
          -0.08432238548994064,
          0.1201634407043457,
          -0.012274028733372688,
          0.13725359737873077,
          -0.2930067479610443,
          -0.29430657625198364,
          -0.1946069598197937,
          -0.06856436282396317,
          -0.3329784572124481,
          0.04083959013223648,
          0.1033610999584198
        ],
        [
          0.36131927371025085,
          -0.3425685167312622,
          -0.07008856534957886,
          -0.2618827521800995,
          0.22752642631530762,
          0.0334087572991848,
          -0.35019785165786743,
          0.33503082394599915,
          0.10032666474580765,
          0.3057025969028473,
          -0.2782095968723297,
          -0.046134158968925476,
          0.005978425964713097,
          0.022150443866848946,
          -0.047410234808921814,
          -0.016757098957896233,
          -0.01733887381851673,
          0.03603395074605942,
          0.01453094556927681,
          -0.01718408614397049,
          -0.07899168133735657,
          -0.010035624727606773,
          0.05453020706772804,
          0.024276021867990494
        ],
        [
          -0.03404727578163147,
          -0.05383211374282837,
          -0.006875788792967796,
          -0.1114056259393692,
          0.06569560617208481,
          0.035419099032878876,
          -0.08726708590984344,
          -0.12275560200214386,
          0.05053310841321945,
          0.054034266620874405,
          -0.11265265196561813,
          -0.010986450128257275,
          -0.09933494031429291,
          0.04650001600384712,
          -0.009684623219072819,
          -0.08299846202135086,
          0.06704772263765335,
          0.07178745418787003,
          -0.082108274102211,
          -0.11481960117816925,
          -0.08376028388738632,
          -0.04767249524593353,
          -0.014644764363765717,
          -0.06137550622224808
        ],
        [
          -0.1160607635974884,
          -0.0397493802011013,
          0.02767311967909336,
          0.05505434423685074,
          -0.17680081725120544,
          0.031632065773010254,
          -0.029740989208221436,
          -0.03775708004832268,
          -0.0719824954867363,
          -0.06793846189975739,
          0.04611337184906006,
          -0.14448823034763336,
          -0.10981640964746475,
          -0.06164921820163727,
          0.10336456447839737,
          -0.06479848921298981,
          0.03514667972922325,
          -0.17466561496257782,
          -0.11036539077758789,
          -0.018899697810411453,
          -0.03853783756494522,
          0.03922859951853752,
          -0.09741847962141037,
          -0.09499143809080124
        ],
        [
          -0.0023462611716240644,
          -0.08135669678449631,
          -0.07151205837726593,
          -0.06238911300897598,
          -0.04802296310663223,
          0.04018762707710266,
          -0.08403170108795166,
          -0.11063694953918457,
          -0.010972918011248112,
          0.02773836813867092,
          0.07199481129646301,
          -0.04724322631955147,
          0.08929601311683655,
          -0.09280651807785034,
          -0.012017588131129742,
          0.06243405491113663,
          -0.03263740614056587,
          -0.09162168204784393,
          0.045290589332580566,
          0.02714492380619049,
          -0.06558042764663696,
          -0.09691675752401352,
          -0.08657612651586533,
          -0.0013086297549307346
        ],
        [
          0.012196284718811512,
          0.003010781714692712,
          -0.013243244029581547,
          0.013565080240368843,
          0.011804073117673397,
          -0.014090185984969139,
          -0.0007015620358288288,
          -0.0001586733851581812,
          -0.02791624888777733,
          0.02241690456867218,
          0.008057823404669762,
          -0.009426501579582691,
          -0.29856806993484497,
          -0.1929216980934143,
          -0.25461718440055847,
          0.37405526638031006,
          0.20045222342014313,
          0.3202865421772003,
          0.23901517689228058,
          0.17244106531143188,
          0.2557002902030945,
          -0.38702988624572754,
          -0.20382913947105408,
          -0.31430384516716003
        ],
        [
          -0.3439417779445648,
          -0.23546938598155975,
          -0.279715895652771,
          -0.1393837034702301,
          0.21146930754184723,
          -0.05807974189519882,
          -0.021940238773822784,
          0.003763439366593957,
          0.21966023743152618,
          0.25005480647087097,
          -0.1601233035326004,
          -0.37818390130996704,
          -0.08684555441141129,
          -0.03654995560646057,
          0.126341313123703,
          -0.3318983018398285,
          -0.20758704841136932,
          -0.21971231698989868,
          -0.052560195326805115,
          0.12843558192253113,
          0.09442217648029327,
          0.13215430080890656,
          -0.054839812219142914,
          -0.13418705761432648
        ],
        [
          0.007723445072770119,
          -0.06934218853712082,
          0.0009515462443232536,
          0.07771728187799454,
          0.014815307222306728,
          -0.09855484962463379,
          0.2117961198091507,
          -0.03117905557155609,
          0.06378505378961563,
          -0.0703120082616806,
          -0.07429726421833038,
          -0.019245047122240067,
          -0.049842774868011475,
          0.015813857316970825,
          -0.3079829812049866,
          -0.6139030456542969,
          -0.35122042894363403,
          -0.060823287814855576,
          -0.19751004874706268,
          0.2825210690498352,
          0.003949721343815327,
          0.22460293769836426,
          -0.32525381445884705,
          0.18189877271652222
        ],
        [
          -0.228182852268219,
          0.24897298216819763,
          -0.2649747133255005,
          0.2579870820045471,
          -0.29585930705070496,
          0.2919032871723175,
          0.26190242171287537,
          -0.312341570854187,
          0.28011101484298706,
          -0.23522119224071503,
          0.28114160895347595,
          -0.27268925309181213,
          -0.00458855414763093,
          0.0034558570478111506,
          -0.05773020535707474,
          0.001233719289302826,
          0.0066515784710645676,
          0.03191349655389786,
          0.014620037749409676,
          -0.014336626045405865,
          -0.014098878018558025,
          -0.020627766847610474,
          0.011627862229943275,
          0.011244609020650387
        ],
        [
          -0.16218872368335724,
          -0.1368817687034607,
          -0.03307586535811424,
          -0.02766890823841095,
          -0.06670983880758286,
          -0.04228217154741287,
          -0.016954900696873665,
          -0.053481049835681915,
          -0.08873604238033295,
          0.11940060555934906,
          0.030314838513731956,
          0.0357394814491272,
          -0.013046006672084332,
          0.294240266084671,
          -0.13361985981464386,
          0.2787133753299713,
          -0.27097973227500916,
          0.3688259422779083,
          0.01706758141517639,
          0.02092260681092739,
          0.05439339950680733,
          -0.4831980764865875,
          -0.3797430694103241,
          -0.05803995206952095
        ],
        [
          -0.01711641252040863,
          0.03355179354548454,
          0.05376394838094711,
          0.16387300193309784,
          -0.2995041310787201,
          -0.30350974202156067,
          0.00020512886112555861,
          -0.030837789177894592,
          -0.1086164340376854,
          -0.1874188780784607,
          0.20646075904369354,
          0.22748884558677673,
          -0.08679327368736267,
          0.1643502414226532,
          -0.10201877355575562,
          -0.12762300670146942,
          -0.35052770376205444,
          0.18442219495773315,
          -0.11685243248939514,
          -0.16514593362808228,
          0.020997149869799614,
          -0.3003009259700775,
          0.08646780252456665,
          -0.18934108316898346
        ],
        [
          -0.0736829861998558,
          -0.04234466329216957,
          -0.019995132461190224,
          0.002899505663663149,
          0.035436201840639114,
          -0.026171935722231865,
          -0.11090925335884094,
          0.009747980162501335,
          -0.110332190990448,
          0.15224674344062805,
          -0.025218477472662926,
          0.10852117091417313,
          -0.38884979486465454,
          -0.13147972524166107,
          0.3000745177268982,
          0.11764422059059143,
          0.03955032676458359,
          -0.08193202316761017,
          -0.23116368055343628,
          -0.12005659192800522,
          0.1432250440120697,
          0.38486483693122864,
          0.1874256581068039,
          -0.3466630280017853
        ],
        [
          0.2986092269420624,
          0.1398923099040985,
          -0.11772565543651581,
          0.3146001994609833,
          0.15385830402374268,
          -0.14644457399845123,
          0.3025573194026947,
          0.1396172046661377,
          -0.138668492436409,
          0.29530516266822815,
          0.1535470187664032,
          -0.13935476541519165,
          -0.29285895824432373,
          -0.12702925503253937,
          0.13412261009216309,
          -0.31631284952163696,
          -0.13495831191539764,
          0.12135124951601028,
          -0.32548677921295166,
          -0.134590744972229,
          0.13496847450733185,
          -0.296781450510025,
          -0.15399394929409027,
          0.09477097541093826
        ],
        [
          -0.004495228640735149,
          -0.04969049245119095,
          0.009388796985149384,
          -0.047674961388111115,
          -0.01564755104482174,
          0.03259928897023201,
          0.01740219071507454,
          -0.0015919123543426394,
          -0.04995056614279747,
          -0.0033964961767196655,
          0.0384393148124218,
          0.045937519520521164,
          -0.3792339265346527,
          -0.20239253342151642,
          -0.4153444766998291,
          0.2394493818283081,
          0.12629778683185577,
          0.3125486969947815,
          -0.14943887293338776,
          -0.1289834976196289,
          -0.20391935110092163,
          0.25395143032073975,
          0.16585291922092438,
          0.29271048307418823
        ],
        [
          -0.04086146131157875,
          -0.028107818216085434,
          -0.038297198712825775,
          -0.038905069231987,
          -0.0707118958234787,
          0.09282491356134415,
          0.10893318057060242,
          0.04932250455021858,
          -0.27964743971824646,
          -0.05584125220775604,
          -0.11528658866882324,
          -0.043449852615594864,
          0.012069451622664928,
          -0.10263083130121231,
          -0.08416189253330231,
          0.23577874898910522,
          -0.41977110505104065,
          0.003737806575372815,
          0.018481209874153137,
          -0.13033699989318848,
          -0.02802705392241478,
          -0.373942106962204,
          0.27017712593078613,
          -0.07132617384195328
        ],
        [
          0.03435860201716423,
          -0.16786682605743408,
          -0.01016759593039751,
          0.05903000384569168,
          -0.033387165516614914,
          -0.15259826183319092,
          -0.15062212944030762,
          -0.09039421379566193,
          0.007663458585739136,
          0.04673986881971359,
          0.03871958702802658,
          -0.0034884780179709196,
          -0.024532224982976913,
          -0.027779199182987213,
          -0.1681368350982666,
          -0.018812736496329308,
          0.030687903985381126,
          -0.0698539987206459,
          -0.08732622116804123,
          0.030143829062581062,
          0.05150383710861206,
          -0.027802299708127975,
          -0.18665526807308197,
          0.04388265684247017
        ],
        [
          0.27734434604644775,
          0.27342724800109863,
          -0.2979970872402191,
          0.2672082185745239,
          0.25636449456214905,
          -0.3264629542827606,
          -0.23943570256233215,
          -0.235518217086792,
          0.23801390826702118,
          -0.27327221632003784,
          -0.25684529542922974,
          0.3312967121601105,
          -0.015081414952874184,
          1.5115309906832408e-05,
          -0.01101551204919815,
          -0.0673009380698204,
          -0.015083149075508118,
          0.002202817937359214,
          -0.03088628686964512,
          -0.04149773716926575,
          -0.004568456672132015,
          -0.011530769057571888,
          0.019702332094311714,
          -0.010680417530238628
        ],
        [
          0.1488131433725357,
          -0.2099696695804596,
          0.22211167216300964,
          -0.3420473039150238,
          0.15393266081809998,
          0.11139146238565445,
          -0.16816860437393188,
          -0.6104081869125366,
          -0.3514244258403778,
          0.12790071964263916,
          0.17481759190559387,
          -0.17487849295139313,
          -0.14136968553066254,
          -0.24653781950473785,
          0.12109196186065674,
          0.07398265600204468,
          0.04455989599227905,
          0.013145329430699348,
          0.0048233093693852425,
          -0.08078964054584503,
          -0.13175247609615326,
          -0.017478371039032936,
          0.01731327548623085,
          -0.09469535946846008
        ],
        [
          -0.11169052869081497,
          0.054851680994033813,
          -0.12553948163986206,
          -0.06659520417451859,
          -0.18848636746406555,
          -0.057010576128959656,
          0.15715132653713226,
          0.053560856729745865,
          0.100950226187706,
          -0.09542503207921982,
          -0.030190937221050262,
          -0.12593746185302734,
          -0.20034408569335938,
          -0.07885117828845978,
          -0.08051501214504242,
          -0.05301755294203758,
          -0.06806018203496933,
          0.010660268366336823,
          0.02012605406343937,
          -0.22717083990573883,
          -0.1090964525938034,
          -0.030192425474524498,
          0.11245672404766083,
          -0.044785723090171814
        ],
        [
          -0.01741914451122284,
          0.034343816339969635,
          -0.051628753542900085,
          -0.06464540958404541,
          -0.07443633675575256,
          0.039699628949165344,
          0.03476545587182045,
          0.05361434072256088,
          -0.012278839945793152,
          -0.002213140483945608,
          0.002496899338439107,
          0.075721874833107,
          0.3645358383655548,
          -0.3026758134365082,
          0.033256907016038895,
          -0.14234566688537598,
          0.1373026818037033,
          -0.06428088247776031,
          0.2494237720966339,
          -0.27384617924690247,
          0.02331901341676712,
          -0.3855059742927551,
          0.362679123878479,
          -0.09931778907775879
        ],
        [
          -0.010424463078379631,
          -0.002598206978291273,
          0.08031180500984192,
          -0.15916132926940918,
          -0.03536733239889145,
          0.0560360811650753,
          0.04828311502933502,
          -0.004384748172014952,
          -0.20145955681800842,
          -0.04146004095673561,
          0.007898514159023762,
          -0.09699559211730957,
          0.012423157691955566,
          0.030591504648327827,
          -0.09204471856355667,
          -0.031977102160453796,
          0.02354769967496395,
          -0.08439799398183823,
          -0.13730894029140472,
          -0.1034814715385437,
          0.045048464089632034,
          0.014403706416487694,
          -0.006318672560155392,
          -0.1361827850341797
        ],
        [
          -0.011728150770068169,
          -0.06964672356843948,
          0.038494013249874115,
          0.07129018008708954,
          -0.040400125086307526,
          -0.05061833932995796,
          -0.11494539678096771,
          -0.03671230748295784,
          0.033242203295230865,
          -0.1023072674870491,
          -0.05921291932463646,
          -0.1214178279042244,
          -0.002146524377167225,
          0.03481990098953247,
          -0.03997204452753067,
          -0.048255037516355515,
          0.048094116151332855,
          0.04427880048751831,
          -0.03729603439569473,
          0.04788614436984062,
          -0.06804114580154419,
          -0.06313157081604004,
          -0.010799208655953407,
          -0.06867346912622452
        ],
        [
          0.08542142063379288,
          -0.49762454628944397,
          0.10296414792537689,
          0.11574660986661911,
          -0.11982600390911102,
          -0.23770186305046082,
          -0.529558002948761,
          -0.19475777447223663,
          -0.0017110587796196342,
          0.11876928061246872,
          0.2114843726158142,
          0.1490623950958252,
          0.09810306131839752,
          -0.08371918648481369,
          -0.2677448093891144,
          -0.007879463955760002,
          -0.2059541940689087,
          -0.25083085894584656,
          -0.006953848525881767,
          0.11193995922803879,
          -0.011766924522817135,
          0.061690378934144974,
          -0.23570385575294495,
          0.12158393859863281
        ],
        [
          0.007888033986091614,
          0.08221301436424255,
          -0.19498547911643982,
          -0.03371310234069824,
          -0.2901895344257355,
          0.06031406298279762,
          -0.089826300740242,
          0.194920152425766,
          0.056963000446558,
          -0.2022312730550766,
          -0.05598640441894531,
          -0.09552109986543655,
          -0.4224080741405487,
          -0.2273591309785843,
          0.1443362534046173,
          -0.27296575903892517,
          0.23889870941638947,
          -0.2951703369617462,
          0.045334093272686005,
          -0.26584234833717346,
          -0.31722527742385864,
          0.0652751550078392,
          -0.006846352480351925,
          0.08271035552024841
        ],
        [
          0.33051934838294983,
          -0.293436199426651,
          -0.2485020011663437,
          0.2511924207210541,
          -0.27684658765792847,
          -0.18110845983028412,
          -0.2991078794002533,
          0.27047622203826904,
          0.1834985911846161,
          -0.2989247143268585,
          0.29720667004585266,
          0.2102254182100296,
          -0.009909716434776783,
          -0.008846485055983067,
          0.011271711438894272,
          -0.011366765014827251,
          0.004779411945492029,
          0.01925157755613327,
          -0.014061455614864826,
          -0.003908444661647081,
          -0.011552554555237293,
          -0.021782265976071358,
          0.05847756192088127,
          0.0005573959788307548
        ],
        [
          -0.004814531188458204,
          0.035602375864982605,
          -0.03191157430410385,
          -0.04952952265739441,
          -0.08654884994029999,
          0.06401988118886948,
          -0.02217022515833378,
          -0.1197892501950264,
          0.010456775315105915,
          -0.01376605499535799,
          -0.06993278115987778,
          -0.2767132818698883,
          -0.064680315554142,
          0.05011299252510071,
          -0.09756486117839813,
          0.009956689551472664,
          -0.04415150731801987,
          0.12902328372001648,
          0.04471706226468086,
          0.03946460410952568,
          -0.12456247210502625,
          -0.18964515626430511,
          -0.20553146302700043,
          -0.1074906587600708
        ],
        [
          -0.002008255571126938,
          -0.05016244947910309,
          0.007843905128538609,
          -0.026961734518408775,
          0.012051491066813469,
          0.07005482912063599,
          0.02760808914899826,
          0.0010226164013147354,
          -0.03464711457490921,
          0.0018655186286196113,
          -0.0010831460822373629,
          0.028271891176700592,
          0.22459003329277039,
          0.13167494535446167,
          0.2708015441894531,
          -0.2660420536994934,
          -0.16777656972408295,
          -0.31670910120010376,
          0.2967790365219116,
          0.17607304453849792,
          0.3589061200618744,
          -0.2767445743083954,
          -0.1782522201538086,
          -0.3253893256187439
        ],
        [
          -0.028354967013001442,
          -0.12496871501207352,
          -0.22999055683612823,
          -0.0319577194750309,
          -0.034546881914138794,
          -0.07337217777967453,
          -0.1837366670370102,
          0.016000663861632347,
          -0.055509623140096664,
          0.006315579172223806,
          -0.053968388587236404,
          0.08777718245983124,
          0.13701161742210388,
          0.019035745412111282,
          -0.33550798892974854,
          -0.05332324653863907,
          0.16827717423439026,
          0.15139515697956085,
          -0.001113787409849465,
          -0.3046390116214752,
          0.21463719010353088,
          -0.2711426317691803,
          -0.10790945589542389,
          -0.21819067001342773
        ],
        [
          -0.13971412181854248,
          -0.058809686452150345,
          -0.08029581606388092,
          -0.04498860612511635,
          -0.15344390273094177,
          0.09654892981052399,
          0.06019625812768936,
          0.12326592206954956,
          -0.09493612498044968,
          0.024593599140644073,
          -0.1340208351612091,
          -0.061250705271959305,
          -0.09750046581029892,
          0.0060304906219244,
          0.0015045992331579328,
          0.05297160893678665,
          -0.04750277101993561,
          -0.06935190409421921,
          -0.05569988861680031,
          -0.1662829965353012,
          -0.06613601744174957,
          -0.10855720937252045,
          0.012797912582755089,
          -0.05893278867006302
        ],
        [
          -0.13652350008487701,
          -0.11821527779102325,
          0.02699260599911213,
          0.014777305535972118,
          0.05349272862076759,
          0.016174152493476868,
          0.032628633081912994,
          0.02422182261943817,
          -0.11661816388368607,
          0.028595810756087303,
          -0.059692587703466415,
          -0.03765394166111946,
          0.030269775539636612,
          -0.14359509944915771,
          -0.025713233277201653,
          -0.005818689242005348,
          0.01836727373301983,
          -0.04873296990990639,
          -0.10245546698570251,
          0.08368992805480957,
          -0.011326809413731098,
          -0.12937217950820923,
          -0.12705251574516296,
          -0.10459131002426147
        ],
        [
          0.2820376455783844,
          -0.23876415193080902,
          0.2209637314081192,
          -0.36323872208595276,
          0.26541033387184143,
          -0.2926042973995209,
          0.30838415026664734,
          -0.24902357161045074,
          0.25650840997695923,
          -0.24857284128665924,
          0.24399033188819885,
          -0.2151637077331543,
          -0.0007630876498296857,
          -0.017568055540323257,
          -0.019624171778559685,
          -0.018896395340561867,
          -0.03382313624024391,
          -0.0018443013541400433,
          -0.005213954020291567,
          -0.023729290813207626,
          0.003973977640271187,
          -0.01150971557945013,
          -0.022400060668587685,
          0.019622651860117912
        ],
        [
          -0.025560768321156502,
          -0.16157041490077972,
          0.048698540776968,
          -0.03366781771183014,
          -0.06358371675014496,
          -0.0431772843003273,
          -0.016037339344620705,
          -0.17874541878700256,
          -0.1466263383626938,
          0.036895718425512314,
          0.046370815485715866,
          -0.019175373017787933,
          0.04492079094052315,
          -0.18806171417236328,
          0.004024750553071499,
          -0.15575993061065674,
          0.004452341701835394,
          0.010211586020886898,
          -0.03868669271469116,
          -0.10507553070783615,
          -0.06528151035308838,
          0.024889659136533737,
          0.0070632454007864,
          -0.1034872755408287
        ],
        [
          -0.438534677028656,
          -0.21000543236732483,
          0.4686507284641266,
          0.16561837494373322,
          0.049648467451334,
          -0.1173546239733696,
          -0.08216562867164612,
          -0.011965261772274971,
          0.10173618793487549,
          0.3873711824417114,
          0.17812393605709076,
          -0.3341412842273712,
          -0.01035077404230833,
          -0.05283565819263458,
          -0.006684451829642057,
          -0.09267314523458481,
          -0.03157864883542061,
          -0.0018459648126736283,
          0.003745606169104576,
          -0.012186053209006786,
          0.007222019601613283,
          0.04420566186308861,
          0.05086151137948036,
          -0.005253707990050316
        ],
        [
          0.06766713410615921,
          -0.12172746658325195,
          0.32445937395095825,
          0.08101323992013931,
          -0.1166008859872818,
          0.31841614842414856,
          0.07207266241312027,
          -0.13159418106079102,
          0.3212169110774994,
          0.07516885548830032,
          -0.11602117121219635,
          0.3288707435131073,
          -0.08685309439897537,
          0.10883881896734238,
          -0.33072033524513245,
          -0.08271639049053192,
          0.12247079610824585,
          -0.33422720432281494,
          -0.09875509887933731,
          0.11907889693975449,
          -0.33622944355010986,
          -0.08078020066022873,
          0.11201882362365723,
          -0.341195672750473
        ],
        [
          -0.07232563197612762,
          0.258008748292923,
          0.10902754962444305,
          -0.07961490750312805,
          0.09897711873054504,
          -0.0018206203822046518,
          -0.08079520612955093,
          -0.0415102019906044,
          -0.008839339017868042,
          0.10569488257169724,
          -0.4352823495864868,
          0.007817455567419529,
          -0.042389702051877975,
          -0.14601649343967438,
          -0.19524823129177094,
          -0.02950609289109707,
          0.10958517342805862,
          0.15128183364868164,
          -0.1783415824174881,
          -0.1412384808063507,
          -0.34777215123176575,
          0.10338158160448074,
          0.08706073462963104,
          0.26316526532173157
        ],
        [
          -0.03079228103160858,
          -0.006242711097002029,
          -0.0036035904195159674,
          0.010276309214532375,
          -0.04203622043132782,
          0.00684037571772933,
          -0.005174143705517054,
          -0.014997115358710289,
          0.0118932593613863,
          0.05739141255617142,
          0.029256166890263557,
          -0.00514891417697072,
          0.020862355828285217,
          0.11235204339027405,
          0.004616708494722843,
          0.19103951752185822,
          -0.45707017183303833,
          -0.30216801166534424,
          0.030475059524178505,
          -0.14689725637435913,
          -0.09351322054862976,
          -0.19787679612636566,
          0.48585274815559387,
          0.3404260575771332
        ],
        [
          0.006553513929247856,
          0.0028459052555263042,
          -0.01584109105169773,
          0.014138907194137573,
          -0.03125971183180809,
          0.04145795479416847,
          0.024102281779050827,
          0.02037207968533039,
          -0.02055971324443817,
          0.031016135588288307,
          0.011628348380327225,
          -0.015246103517711163,
          -0.32815811038017273,
          -0.24114874005317688,
          0.23515625298023224,
          -0.3167411983013153,
          -0.24981704354286194,
          0.24861189723014832,
          0.23484081029891968,
          0.2301410436630249,
          -0.24506030976772308,
          0.3034534454345703,
          0.30818408727645874,
          -0.27257078886032104
        ],
        [
          0.025256842374801636,
          -0.011448785662651062,
          0.0916740894317627,
          -0.08363975584506989,
          0.043278008699417114,
          -0.05836247280240059,
          -0.10867540538311005,
          0.05100661888718605,
          -0.06891849637031555,
          -0.030548101291060448,
          0.009874450974166393,
          -0.05498639866709709,
          -0.04564470425248146,
          -0.07249747961759567,
          -0.014417626895010471,
          -0.08298142999410629,
          -0.02937210537493229,
          -0.04820239171385765,
          -0.11176209896802902,
          0.06479727476835251,
          -0.007925156503915787,
          -0.02635621465742588,
          -0.003637240268290043,
          -0.07376687973737717
        ],
        [
          -0.14669054746627808,
          -0.22344954311847687,
          0.249557226896286,
          0.17172478139400482,
          0.2778918743133545,
          -0.293207049369812,
          0.24803772568702698,
          0.2715369164943695,
          -0.3291899561882019,
          -0.23738577961921692,
          -0.30255818367004395,
          0.37416696548461914,
          0.01269636768847704,
          0.02793695218861103,
          -0.023378612473607063,
          -0.02625216357409954,
          -0.011650895699858665,
          -0.02017263136804104,
          -0.021657096222043037,
          -0.034728046506643295,
          -0.018892869353294373,
          -0.027482222765684128,
          0.037942249327898026,
          -0.024226857349276543
        ],
        [
          -0.1126585379242897,
          0.2761945128440857,
          0.3129756450653076,
          0.10366511344909668,
          -0.30936986207962036,
          -0.2835359573364258,
          0.09706112742424011,
          -0.33350273966789246,
          -0.31504541635513306,
          -0.09783108532428741,
          0.34135156869888306,
          0.35517826676368713,
          0.006712557747960091,
          -0.0018471443327143788,
          0.00083966925740242,
          -0.040091630071401596,
          -0.02725587598979473,
          -0.03213198855519295,
          -0.005374889355152845,
          -0.013181393966078758,
          -0.03158410266041756,
          0.00028230089810676873,
          0.07323483377695084,
          0.0020153969526290894
        ],
        [
          -0.00265683070756495,
          -0.13831856846809387,
          -0.13308429718017578,
          0.03583475574851036,
          -0.1523197740316391,
          0.03813260793685913,
          -0.16609172523021698,
          0.01512952707707882,
          0.004968456923961639,
          0.008350612595677376,
          0.04940101131796837,
          -0.148442804813385,
          -0.07186385989189148,
          -0.011769996955990791,
          0.015337291173636913,
          -0.010172135196626186,
          -0.11961828917264938,
          0.028348419815301895,
          -0.06899914145469666,
          0.051171526312828064,
          -0.14356130361557007,
          -0.06259223818778992,
          -0.10276778787374496,
          -0.08665047585964203
        ],
        [
          0.05970929563045502,
          0.03207429125905037,
          0.001455155317671597,
          -0.02495451830327511,
          -0.1760621815919876,
          0.08628696203231812,
          -0.06162608787417412,
          0.07030914723873138,
          0.0008755514281801879,
          0.05708005279302597,
          0.053419847041368484,
          -0.012141717597842216,
          0.056748636066913605,
          -0.24072355031967163,
          -0.33812034130096436,
          0.0926843136548996,
          -0.2039002925157547,
          -0.2563120424747467,
          -0.10372061282396317,
          0.23458348214626312,
          0.3952716588973999,
          -0.09977512806653976,
          0.1845186948776245,
          0.25218498706817627
        ],
        [
          -0.1766979694366455,
          -0.21851837635040283,
          -0.0076050288043916225,
          -0.12070383131504059,
          -0.1697096824645996,
          0.026987800374627113,
          0.01511232927441597,
          -0.03651038929820061,
          0.07642682641744614,
          0.04937344416975975,
          0.051566436886787415,
          -0.25174081325531006,
          -0.12818163633346558,
          0.03906339779496193,
          0.026250265538692474,
          -0.17033624649047852,
          0.06482096016407013,
          -0.1354856938123703,
          0.05490565299987793,
          -0.014350561425089836,
          -0.045020025223493576,
          -0.33293309807777405,
          -0.15732412040233612,
          0.030816826969385147
        ],
        [
          0.05558575689792633,
          -0.012167314998805523,
          0.09486845135688782,
          -0.1604481190443039,
          -0.04038390517234802,
          -0.1229926273226738,
          -0.13065412640571594,
          -0.33640405535697937,
          -0.03594880923628807,
          0.091770239174366,
          -0.0261745173484087,
          -0.17250066995620728,
          0.05882198363542557,
          -0.06018226221203804,
          -0.14058305323123932,
          -0.024723580107092857,
          -0.010492059402167797,
          0.06924574822187424,
          -0.21657299995422363,
          -0.05744905024766922,
          -0.23408427834510803,
          -0.03410540893673897,
          -0.22114141285419464,
          0.06797601282596588
        ],
        [
          -0.09695780277252197,
          -0.047741249203681946,
          -0.13506531715393066,
          -0.07237531244754791,
          -0.1175711378455162,
          -0.04681606963276863,
          -0.010516018606722355,
          0.011814262717962265,
          -0.04095595329999924,
          0.031952131539583206,
          0.006452887784689665,
          0.03726915270090103,
          0.019372303038835526,
          0.0382036492228508,
          -0.05382579565048218,
          -0.10862982273101807,
          -0.14061729609966278,
          0.06855480372905731,
          0.027564987540245056,
          0.05380143225193024,
          -0.17186816036701202,
          -0.031520407646894455,
          -0.12220024317502975,
          0.011262521147727966
        ],
        [
          -0.05171661823987961,
          -0.03074628859758377,
          -0.002276613377034664,
          0.032441720366477966,
          -0.05118488892912865,
          0.01684385910630226,
          0.03245414420962334,
          0.00821682345122099,
          0.0022755987010896206,
          0.04019670933485031,
          -0.015273566357791424,
          -0.004702472593635321,
          0.31021127104759216,
          -0.3799823224544525,
          -0.25495168566703796,
          -0.2628324329853058,
          0.2794206738471985,
          0.18762335181236267,
          -0.2648872137069702,
          0.3020828068256378,
          0.1869572550058365,
          0.1943718045949936,
          -0.21255721151828766,
          -0.11441782116889954
        ],
        [
          -0.1824866384267807,
          -0.03561965376138687,
          0.0990125760436058,
          0.04895144701004028,
          -0.1765638291835785,
          -0.15687932074069977,
          0.18748696148395538,
          0.08058079332113266,
          -0.3605537414550781,
          -0.030447322875261307,
          -0.046997521072626114,
          0.09578864276409149,
          0.15144696831703186,
          0.24073316156864166,
          -0.20462000370025635,
          -0.05281557887792587,
          -0.12493226677179337,
          0.029522927477955818,
          -0.4797986149787903,
          -0.19332721829414368,
          -0.15063810348510742,
          0.07903784513473511,
          -0.23535004258155823,
          0.2094452828168869
        ],
        [
          0.0022124366369098425,
          -0.004676159005612135,
          -0.003517545061185956,
          -0.0404602475464344,
          -0.005918742157518864,
          0.022472232580184937,
          0.03410392254590988,
          0.03745170310139656,
          -0.08104260265827179,
          0.02651161141693592,
          0.029523713514208794,
          0.00011792857549153268,
          0.1592969298362732,
          -0.1617281585931778,
          0.04109276458621025,
          0.31894055008888245,
          -0.33662253618240356,
          0.26197177171707153,
          -0.32580527663230896,
          0.276146799325943,
          -0.2638677954673767,
          -0.17672257125377655,
          0.1337166428565979,
          -0.15694572031497955
        ],
        [
          0.18368954956531525,
          0.1116422712802887,
          0.0864952802658081,
          -0.08646924048662186,
          -0.29894590377807617,
          0.06930627673864365,
          -0.21039405465126038,
          0.16634036600589752,
          -0.10575718432664871,
          -0.05196326971054077,
          -0.05536323040723801,
          -0.35142767429351807,
          -0.3743761479854584,
          -0.3338484764099121,
          0.04796047508716583,
          0.05888630822300911,
          0.12696591019630432,
          -0.07047135382890701,
          -0.3844994008541107,
          0.035090722143650055,
          0.1250307410955429,
          0.15546198189258575,
          -0.12251578271389008,
          0.1737000048160553
        ],
        [
          0.31093212962150574,
          0.35231074690818787,
          -0.35389214754104614,
          0.022737421095371246,
          0.005038697272539139,
          -0.001407312578521669,
          -0.3256816267967224,
          -0.36740052700042725,
          0.3726954162120819,
          0.03292052075266838,
          0.008435347117483616,
          0.016405556350946426,
          -0.023207953199744225,
          0.009762444533407688,
          0.006529458332806826,
          -0.03836148977279663,
          -0.027065075933933258,
          0.027224142104387283,
          0.014389965683221817,
          -0.014207116328179836,
          -0.02099551074206829,
          0.029101537540555,
          0.04089896380901337,
          -0.007074414286762476
        ],
        [
          0.21116457879543304,
          0.20080426335334778,
          0.20068222284317017,
          -0.33018314838409424,
          -0.33416494727134705,
          -0.3026616871356964,
          0.3542850911617279,
          0.3306792974472046,
          0.29084450006484985,
          -0.20736785233020782,
          -0.2164447158575058,
          -0.17312169075012207,
          0.012372755445539951,
          -0.004111624322831631,
          -0.030139995738863945,
          0.02572891302406788,
          -0.014103978872299194,
          0.021580247208476067,
          -0.008272022008895874,
          0.01481896173208952,
          -0.04686699062585831,
          -0.033481039106845856,
          0.04704219102859497,
          0.025640247389674187
        ],
        [
          0.017840031534433365,
          0.004045931156724691,
          -0.00033330279984511435,
          0.003826678963378072,
          -0.0002703944919630885,
          0.00724082300439477,
          -0.012430069968104362,
          0.0229341983795166,
          -0.03421388939023018,
          0.018963515758514404,
          0.025237364694476128,
          0.04663591459393501,
          0.23118743300437927,
          -0.28342825174331665,
          0.29904603958129883,
          -0.30354923009872437,
          0.2706810534000397,
          -0.3193275034427643,
          -0.28101280331611633,
          0.253472238779068,
          -0.29747194051742554,
          0.2602940499782562,
          -0.24139998853206635,
          0.29376962780952454
        ],
        [
          0.01678553596138954,
          0.013016742654144764,
          0.029600905254483223,
          -0.007545377593487501,
          -0.009314818307757378,
          -0.024520883336663246,
          -0.0074947914108633995,
          0.02637026086449623,
          -0.04721510410308838,
          0.042504843324422836,
          0.014204905368387699,
          0.004614838398993015,
          0.40617820620536804,
          0.3828655481338501,
          -0.10392528772354126,
          -0.39610904455184937,
          -0.3673042356967926,
          0.09949427098035812,
          0.22129452228546143,
          0.19255708158016205,
          -0.03746189922094345,
          -0.2530011534690857,
          -0.21755285561084747,
          0.04117223247885704
        ],
        [
          -0.123514324426651,
          0.02278098091483116,
          -0.14491474628448486,
          -0.08716635406017303,
          -0.13858096301555634,
          -0.14160402119159698,
          -0.018155526369810104,
          0.16247864067554474,
          0.08065301924943924,
          0.022253673523664474,
          -0.26231589913368225,
          0.007965302094817162,
          -0.2996964454650879,
          -0.06662160903215408,
          -0.10314091295003891,
          0.057317353785037994,
          -0.019688967615365982,
          0.07240453362464905,
          -0.09564472734928131,
          -0.030659429728984833,
          0.11073843389749527,
          0.029559845104813576,
          -0.13605841994285583,
          -0.2079441249370575
        ],
        [
          -0.10934238880872726,
          -0.126754492521286,
          -0.05297689139842987,
          -0.023616217076778412,
          -0.02022077888250351,
          0.028822585940361023,
          -0.10760807991027832,
          -0.12277131527662277,
          -0.02851434238255024,
          0.068987175822258,
          -0.048626095056533813,
          -0.10216224193572998,
          -0.025197720155119896,
          -0.023067228496074677,
          -0.032405756413936615,
          -0.10268793255090714,
          0.05212975665926933,
          0.04179014265537262,
          -0.03533926233649254,
          0.03309259191155434,
          0.015760725364089012,
          -0.043687671422958374,
          -0.09980607032775879,
          0.012770182453095913
        ],
        [
          0.031250424683094025,
          -0.12118180096149445,
          0.029380448162555695,
          0.0664418637752533,
          0.031147968024015427,
          -0.28512415289878845,
          -0.2946072518825531,
          -0.1073673814535141,
          0.2402815967798233,
          0.22072038054466248,
          0.04429137706756592,
          0.10205283761024475,
          0.06240987777709961,
          0.14383737742900848,
          -0.18288452923297882,
          0.055534228682518005,
          -0.13912466168403625,
          0.037228602916002274,
          -0.2656242549419403,
          -0.3445168435573578,
          -0.3326877951622009,
          -0.15265323221683502,
          -0.11391675472259521,
          0.2550063133239746
        ],
        [
          -0.09655526280403137,
          -0.31993696093559265,
          -0.06896542757749557,
          0.028179192915558815,
          -0.29913854598999023,
          0.026311054825782776,
          0.12262776494026184,
          0.21587391197681427,
          0.0835120677947998,
          -0.10554122179746628,
          0.16855603456497192,
          -0.2513890862464905,
          0.03525189682841301,
          -0.292509526014328,
          0.033902108669281006,
          -0.2205767035484314,
          0.11933920532464981,
          -0.0365009680390358,
          0.14759214222431183,
          0.17771531641483307,
          -0.2992907166481018,
          -0.12745605409145355,
          0.07614500820636749,
          0.08328092098236084
        ],
        [
          -0.04910442978143692,
          0.2207709103822708,
          -0.15669308602809906,
          -0.09892626106739044,
          -0.2010752558708191,
          -0.24567872285842896,
          -0.31586161255836487,
          -0.07257185876369476,
          0.0016173355979844928,
          0.14653407037258148,
          -0.024630771949887276,
          0.11703800410032272,
          0.13426941633224487,
          0.16039983928203583,
          0.24922728538513184,
          -0.2978106737136841,
          0.17015057802200317,
          -0.015401222743093967,
          -0.11667493730783463,
          -0.44453194737434387,
          0.17000892758369446,
          0.1311364769935608,
          -0.14298582077026367,
          -0.21333137154579163
        ],
        [
          -0.13852959871292114,
          -0.121579110622406,
          -0.0059935711324214935,
          0.022258959710597992,
          0.03061499074101448,
          0.09224392473697662,
          0.0987161323428154,
          -0.1028473749756813,
          -0.26888710260391235,
          -0.0013642642879858613,
          -0.024079177528619766,
          0.10877510905265808,
          0.2140921950340271,
          -0.08732599765062332,
          0.057046253234148026,
          -0.3702404201030731,
          0.20899875462055206,
          -0.29221975803375244,
          0.05902905389666557,
          -0.27560365200042725,
          0.16207805275917053,
          -0.027164075523614883,
          0.16908814013004303,
          -0.1413712203502655
        ],
        [
          -0.003895835718140006,
          -0.008810934610664845,
          0.037714552134275436,
          0.022848835214972496,
          -0.030545901507139206,
          -0.010376960039138794,
          0.03206672519445419,
          -0.012353167869150639,
          -0.008477716706693172,
          0.03818618506193161,
          0.05441227927803993,
          0.002146749524399638,
          0.28845492005348206,
          0.2625422179698944,
          0.21771366894245148,
          0.27459752559661865,
          0.25840917229652405,
          0.22628013789653778,
          -0.43021154403686523,
          -0.3504028022289276,
          -0.28631284832954407,
          -0.21075452864170074,
          -0.16906648874282837,
          -0.143636554479599
        ],
        [
          -0.32259124517440796,
          -0.2715916931629181,
          -0.09643133729696274,
          0.2901891767978668,
          0.2741967439651489,
          0.029346086084842682,
          0.3283044993877411,
          0.34435853362083435,
          0.0423763208091259,
          -0.37443703413009644,
          -0.32404062151908875,
          -0.08398745954036713,
          0.009183747693896294,
          0.006851860787719488,
          -0.00698557123541832,
          -0.002263691509142518,
          -0.012738806195557117,
          -0.001682115369476378,
          0.02957647107541561,
          -0.025613579899072647,
          -0.003009531879797578,
          -0.025991877540946007,
          0.031072072684764862,
          0.06033586710691452
        ],
        [
          0.18038144707679749,
          -0.15602003037929535,
          0.2532878816127777,
          -0.3771631419658661,
          0.11709587275981903,
          -0.38510966300964355,
          0.03203124552965164,
          0.044226404279470444,
          -0.10170015692710876,
          0.20747879147529602,
          -0.08243616670370102,
          0.19529405236244202,
          0.043116625398397446,
          -0.01562257669866085,
          -0.09450620412826538,
          0.03327985480427742,
          0.06454946100711823,
          -0.05438011884689331,
          -0.06323866546154022,
          -0.07246100157499313,
          -0.0912204161286354,
          -0.041443873196840286,
          0.08824668079614639,
          0.12646983563899994
        ],
        [
          0.1759522557258606,
          0.19578783214092255,
          -0.23824848234653473,
          -0.30257365107536316,
          -0.13406918942928314,
          0.13705502450466156,
          0.10917512327432632,
          -0.017683492973446846,
          -0.233240008354187,
          -0.04923968389630318,
          -0.09437654912471771,
          0.11589910835027695,
          -0.2899979054927826,
          0.02410418726503849,
          -0.2929157316684723,
          -0.0904173031449318,
          -0.2212277352809906,
          0.061571914702653885,
          0.0494978241622448,
          -0.06108299642801285,
          -0.06177210807800293,
          0.28990140557289124,
          0.11068673431873322,
          0.072904571890831
        ],
        [
          -0.16593389213085175,
          -0.02829623967409134,
          -0.10889110714197159,
          0.08978035300970078,
          0.0354045107960701,
          -0.02370806783437729,
          -0.00011549286864465103,
          -0.1622186154127121,
          -0.00926254317164421,
          -0.012235472910106182,
          -0.015281998552381992,
          -0.014596162363886833,
          0.13464978337287903,
          0.06663896143436432,
          -0.027843905612826347,
          -0.12668538093566895,
          -0.22154977917671204,
          -0.14047501981258392,
          -0.020535914227366447,
          0.06060604006052017,
          -0.06749659031629562,
          -0.10715832561254501,
          -0.03788135573267937,
          0.06944572925567627
        ],
        [
          -0.004755801521241665,
          -0.06623941659927368,
          -0.001280620926991105,
          -0.021619746461510658,
          -0.05313446745276451,
          0.026655642315745354,
          0.004395689815282822,
          -0.019395675510168076,
          -0.042601242661476135,
          -0.07599470019340515,
          0.0030484492890536785,
          -0.03102545067667961,
          -0.10437285155057907,
          0.027305440977215767,
          -0.12647150456905365,
          -0.1139264926314354,
          -0.07216721773147583,
          0.01222207210958004,
          -0.09235771745443344,
          0.04135376214981079,
          0.0313604436814785,
          0.025544242933392525,
          -0.03818369656801224,
          -0.02253367193043232
        ],
        [
          -0.06236982345581055,
          -0.08888766169548035,
          -0.27072063088417053,
          -0.04305892437696457,
          0.06692877411842346,
          0.04836388677358627,
          -0.2437407225370407,
          -0.11531981825828552,
          0.08959880471229553,
          -0.04004243388772011,
          -0.03136591240763664,
          0.01743953302502632,
          -0.15210871398448944,
          -0.4869959056377411,
          -0.26685646176338196,
          -0.07379966974258423,
          0.0671515017747879,
          -0.22720792889595032,
          0.10692859441041946,
          -0.23369671404361725,
          0.1584618240594864,
          -0.3222995698451996,
          0.10800059884786606,
          0.09053994715213776
        ],
        [
          -0.17574749886989594,
          -0.04691881313920021,
          -0.04228127375245094,
          0.06442167609930038,
          -0.014825308695435524,
          0.04486455023288727,
          -0.08498440682888031,
          0.017657877877354622,
          0.051360227167606354,
          -0.20948868989944458,
          0.057898350059986115,
          0.0563034862279892,
          0.14783057570457458,
          -0.06838584691286087,
          0.003002554876729846,
          -0.11676738411188126,
          0.10539763420820236,
          0.2666904628276825,
          -0.13447906076908112,
          -0.45767781138420105,
          -0.2951057255268097,
          -0.35600611567497253,
          0.32397952675819397,
          -0.3219738006591797
        ],
        [
          -0.32728394865989685,
          0.21169038116931915,
          -0.10667131841182709,
          -0.13186968863010406,
          0.07166124880313873,
          0.15997199714183807,
          -0.11615833640098572,
          -0.0039635272696614265,
          0.2924603223800659,
          -0.1663220077753067,
          0.18613171577453613,
          -0.35973337292671204,
          -0.12214203178882599,
          -0.2715175151824951,
          -0.01357312873005867,
          0.12871287763118744,
          0.020090054720640182,
          0.11393023282289505,
          0.11178354918956757,
          -0.1883762776851654,
          -0.20203393697738647,
          -0.4707809090614319,
          -0.29987385869026184,
          -0.2164686769247055
        ],
        [
          0.043948978185653687,
          -0.20805922150611877,
          -0.003506419016048312,
          0.035470277070999146,
          0.09920747578144073,
          -0.03499520197510719,
          -0.19346286356449127,
          -0.056205231696367264,
          -0.2792414128780365,
          -0.010934724472463131,
          0.0479823499917984,
          -0.019880255684256554,
          -0.24322226643562317,
          0.02279449626803398,
          -0.019038397818803787,
          0.03973769769072533,
          0.06295628845691681,
          0.06150826811790466,
          -0.25656241178512573,
          -0.0204982440918684,
          -0.20478129386901855,
          0.10646210610866547,
          -0.11874162405729294,
          -0.1950325220823288
        ],
        [
          -0.10342187434434891,
          -0.2817915678024292,
          -0.20522330701351166,
          -0.10009878873825073,
          -0.28410258889198303,
          -0.1957991123199463,
          -0.1091228723526001,
          -0.2873169779777527,
          -0.2173255831003189,
          -0.10658341646194458,
          -0.29464584589004517,
          -0.22544445097446442,
          0.09836272150278091,
          0.27433109283447266,
          0.21822069585323334,
          0.0847403034567833,
          0.28806644678115845,
          0.22065457701683044,
          0.09618079662322998,
          0.3028373420238495,
          0.2165086269378662,
          0.09346151351928711,
          0.280633807182312,
          0.19870120286941528
        ],
        [
          -0.013408428989350796,
          0.031023703515529633,
          0.005792491603642702,
          0.02644290216267109,
          -0.04535927250981331,
          0.028301289305090904,
          0.018124235793948174,
          0.024149250239133835,
          -0.028564803302288055,
          0.02839006297290325,
          0.02029847539961338,
          0.0041959211230278015,
          -0.27319246530532837,
          0.27981114387512207,
          -0.19097952544689178,
          0.274286687374115,
          -0.3485546112060547,
          0.17146390676498413,
          -0.3392398953437805,
          0.28850969672203064,
          -0.2122844159603119,
          0.23613475263118744,
          -0.27560362219810486,
          0.1628219187259674
        ],
        [
          0.10435441136360168,
          0.06314967572689056,
          -0.09188175946474075,
          -0.32660427689552307,
          -0.2115858644247055,
          0.35574808716773987,
          0.37784281373023987,
          0.27369505167007446,
          -0.46208634972572327,
          -0.1710488349199295,
          -0.06764254719018936,
          0.18457724153995514,
          -0.0036036025267094374,
          0.015255323611199856,
          -0.01130632683634758,
          0.02463332936167717,
          -0.05207841843366623,
          0.0747348889708519,
          -0.049749910831451416,
          0.002099730307236314,
          -0.014584311284124851,
          0.04134059324860573,
          0.050640106201171875,
          0.032381895929574966
        ],
        [
          -0.32516059279441833,
          0.32729077339172363,
          0.16480767726898193,
          0.27251821756362915,
          -0.30452582240104675,
          -0.1832830309867859,
          -0.27289584279060364,
          0.2597334086894989,
          0.14200572669506073,
          0.3018651306629181,
          -0.289613276720047,
          -0.16635358333587646,
          -0.006903159897774458,
          0.03649038448929787,
          -0.04283900558948517,
          -0.033377837389707565,
          0.01611420512199402,
          -0.014490275643765926,
          -0.005851821042597294,
          -0.017642086371779442,
          -0.006706295534968376,
          0.004780789837241173,
          0.022176308557391167,
          0.020633602514863014
        ],
        [
          0.008338655345141888,
          0.15163378417491913,
          0.17433683574199677,
          -0.4251087009906769,
          -0.022419428452849388,
          -0.06067844480276108,
          0.14387480914592743,
          -0.47154179215431213,
          0.04903916269540787,
          0.14810630679130554,
          0.06550490111112595,
          -0.6054152250289917,
          -0.02779874950647354,
          -0.06191074848175049,
          -0.1630263775587082,
          -0.09384950250387192,
          -0.11832792311906815,
          0.16945584118366241,
          -0.15615837275981903,
          0.013222014531493187,
          -0.02469320222735405,
          0.01908259280025959,
          0.034247156232595444,
          -0.01636619120836258
        ],
        [
          -0.4491661787033081,
          -0.09757762402296066,
          -0.4624289870262146,
          0.16733556985855103,
          0.048576004803180695,
          0.20961225032806396,
          -0.12276086211204529,
          -0.009692865423858166,
          -0.1561029851436615,
          0.414145290851593,
          0.07967589050531387,
          0.3517351746559143,
          0.061528656631708145,
          0.014732442796230316,
          -0.011995336972177029,
          0.003267967374995351,
          -0.034204140305519104,
          0.031109582632780075,
          0.0571957603096962,
          0.007581300567835569,
          -0.051083359867334366,
          -0.04429240524768829,
          0.09206261485815048,
          0.0807671919465065
        ],
        [
          0.020970240235328674,
          -0.14046677947044373,
          -0.11389622092247009,
          -0.41073158383369446,
          -0.11746741086244583,
          -0.22438573837280273,
          -0.034313999116420746,
          0.014216244220733643,
          -0.3939545154571533,
          0.07647356390953064,
          -0.09620661288499832,
          0.2323213517665863,
          -0.002488167490810156,
          0.04058889299631119,
          -0.015925588086247444,
          0.07930542528629303,
          0.13174916803836823,
          -0.3771178722381592,
          -0.1387770175933838,
          -0.0958370491862297,
          0.032396990805864334,
          -0.11172541230916977,
          -0.17840293049812317,
          0.04697265848517418
        ],
        [
          -0.01312671136111021,
          -0.03427526354789734,
          -0.03733527287840843,
          0.0009095784043893218,
          0.012028224766254425,
          0.023128554224967957,
          0.020379146561026573,
          0.0044022188521921635,
          -0.02408524416387081,
          0.02495809644460678,
          0.027870958670973778,
          0.025025932118296623,
          -0.13781040906906128,
          -0.2684817910194397,
          0.2722899913787842,
          0.08914850652217865,
          0.2100500911474228,
          -0.2873806357383728,
          -0.13634340465068817,
          -0.33278802037239075,
          0.33539801836013794,
          0.12376981973648071,
          0.34328967332839966,
          -0.3390938639640808
        ],
        [
          -0.009651118889451027,
          -0.15484590828418732,
          -0.062201764434576035,
          -0.17850664258003235,
          0.13658137619495392,
          -0.00925394892692566,
          0.23745374381542206,
          0.06851157546043396,
          -0.11178911477327347,
          -0.15582837164402008,
          0.03692815080285072,
          0.09068956971168518,
          0.21945801377296448,
          -0.35035452246665955,
          -0.03663233667612076,
          0.05939130857586861,
          0.21717888116836548,
          -0.20239515602588654,
          -0.19835388660430908,
          -0.19986942410469055,
          -0.5070516467094421,
          -0.1812145859003067,
          -0.026390137150883675,
          0.2824418544769287
        ],
        [
          0.2536603808403015,
          0.2983556091785431,
          0.1855318397283554,
          0.2763071656227112,
          0.3191554844379425,
          0.2628779411315918,
          -0.24958743155002594,
          -0.33250874280929565,
          -0.2667405605316162,
          -0.19186556339263916,
          -0.31442639231681824,
          -0.22558866441249847,
          0.007980062626302242,
          0.01483374834060669,
          -0.014273347333073616,
          -0.030102254822850227,
          -0.001904373406432569,
          -0.0015486364718526602,
          -0.011187284253537655,
          -0.011009318754076958,
          0.005849018227308989,
          -0.04852106794714928,
          0.040756408125162125,
          -0.003018011339008808
        ],
        [
          -0.05883568897843361,
          -0.07725810259580612,
          -0.032681871205568314,
          -0.0012290767626836896,
          -0.10598636418581009,
          -7.551182352472097e-05,
          -0.2234954684972763,
          -0.13521307706832886,
          -0.18087244033813477,
          0.08978918939828873,
          -0.12124311178922653,
          -0.002741089556366205,
          -0.008961834944784641,
          -0.12555690109729767,
          -0.3144034445285797,
          -0.18290212750434875,
          -0.07261311262845993,
          0.11741393804550171,
          -0.15118080377578735,
          0.018274527043104172,
          0.07742470502853394,
          0.030274663120508194,
          -0.12621919810771942,
          -0.1448098123073578
        ],
        [
          -0.043180350214242935,
          0.008203579112887383,
          0.0033807551953941584,
          0.028492845594882965,
          -0.01687348447740078,
          0.08411986380815506,
          0.011219016276299953,
          0.039284367114305496,
          0.029678786173462868,
          0.04801212623715401,
          -0.07315468043088913,
          -0.01685248501598835,
          0.26125940680503845,
          0.23582743108272552,
          -0.3572061359882355,
          0.20545293390750885,
          0.1550542712211609,
          -0.24242442846298218,
          -0.40508827567100525,
          -0.24374012649059296,
          0.39348623156547546,
          -0.09776315838098526,
          -0.018548540771007538,
          0.13780638575553894
        ],
        [
          -0.31228867173194885,
          -0.21064333617687225,
          0.03645334392786026,
          -0.13660594820976257,
          0.07275830954313278,
          0.003639936214312911,
          0.10492680221796036,
          -0.18440783023834229,
          0.08945084363222122,
          0.01665443740785122,
          0.04623561352491379,
          -0.31298261880874634,
          -0.1025000736117363,
          -0.14483068883419037,
          0.0586933009326458,
          -0.06989885866641998,
          0.1231561154127121,
          -0.03861568123102188,
          -0.16306620836257935,
          -0.10235746204853058,
          -0.17759539186954498,
          0.09115451574325562,
          -0.020893102511763573,
          -0.0752093642950058
        ],
        [
          0.2839117646217346,
          0.07219462096691132,
          0.2858429253101349,
          -0.21026693284511566,
          -0.056333329528570175,
          -0.20172816514968872,
          -0.3953343629837036,
          -0.10353916883468628,
          -0.4273454248905182,
          0.3319990038871765,
          0.0913112461566925,
          0.3749031126499176,
          0.08602919429540634,
          0.021571243181824684,
          -0.11028210073709488,
          -0.05500618368387222,
          0.048781707882881165,
          0.05454619228839874,
          0.0471775159239769,
          0.02393399551510811,
          -2.7443642466096207e-05,
          -0.07231488078832626,
          0.03414195030927658,
          0.048175178468227386
        ],
        [
          0.02811230905354023,
          0.10530003160238266,
          -0.09544247388839722,
          -0.12561668455600739,
          -0.2932329475879669,
          0.1618174910545349,
          -0.2652089595794678,
          -0.031263317912817,
          -0.17776815593242645,
          0.11221691220998764,
          0.047245804220438004,
          -0.263515830039978,
          0.10903479158878326,
          0.04608107730746269,
          0.03688379004597664,
          -0.041794922202825546,
          -0.1396506279706955,
          -0.04162611439824104,
          -0.3082626760005951,
          -0.13707557320594788,
          -0.20596741139888763,
          -0.006208337843418121,
          0.1086452528834343,
          0.12439070641994476
        ],
        [
          0.1695193499326706,
          -0.3750321567058563,
          -0.3152366578578949,
          -0.10765329003334045,
          0.28545284271240234,
          0.2087262123823166,
          0.11890938133001328,
          -0.20362995564937592,
          -0.2104112207889557,
          -0.1951252520084381,
          0.32701024413108826,
          0.21798944473266602,
          0.05783791095018387,
          0.050523653626441956,
          -0.0301780067384243,
          -0.06607002764940262,
          -0.060840409249067307,
          0.027648141607642174,
          0.006802658084779978,
          -0.046093184500932693,
          -0.0004295581311453134,
          -0.008642991073429585,
          0.06006868556141853,
          -0.05175397917628288
        ],
        [
          0.1313624083995819,
          -0.3200511634349823,
          0.08749846369028091,
          -0.22871005535125732,
          -0.11160692572593689,
          -0.09858410805463791,
          -0.01571151241660118,
          0.18760010600090027,
          -0.2505076825618744,
          0.2067323625087738,
          0.07736200094223022,
          -0.05079035088419914,
          -0.38871634006500244,
          -0.02612922340631485,
          0.10876181721687317,
          0.06617151200771332,
          0.054721295833587646,
          0.18331483006477356,
          0.11964777112007141,
          -0.4193088114261627,
          0.03226305916905403,
          -0.015567938797175884,
          0.18370366096496582,
          -0.320890337228775
        ],
        [
          -0.2555682361125946,
          0.24878130853176117,
          0.033042144030332565,
          -0.2562761902809143,
          0.25327804684638977,
          0.021004967391490936,
          -0.2496640831232071,
          0.2459111511707306,
          0.02231503091752529,
          -0.27172738313674927,
          0.26323431730270386,
          0.017819151282310486,
          0.25372493267059326,
          -0.25697606801986694,
          -0.03456965833902359,
          0.24775660037994385,
          -0.24955572187900543,
          -0.022407477721571922,
          0.2353261411190033,
          -0.22768190503120422,
          -0.0196077823638916,
          0.2392292320728302,
          -0.26550182700157166,
          -0.039255913347005844
        ],
        [
          -0.0758298859000206,
          -0.14126750826835632,
          -0.07180338352918625,
          0.007065680809319019,
          0.04277516156435013,
          0.04229000210762024,
          0.06339613348245621,
          0.018766336143016815,
          -0.1521819829940796,
          -0.07016918808221817,
          -0.04956378415226936,
          0.016020314767956734,
          0.2930721044540405,
          -0.03686720132827759,
          -0.3108966648578644,
          -0.27516743540763855,
          0.2821907103061676,
          -0.07670861482620239,
          0.0961284264922142,
          -0.16045121848583221,
          0.4210704267024994,
          -0.29947948455810547,
          -0.4089389443397522,
          -0.20724020898342133
        ],
        [
          -0.04621436446905136,
          -0.002187004778534174,
          0.0030414299108088017,
          -0.023347822949290276,
          -0.010207810439169407,
          -0.018071971833705902,
          0.03196599334478378,
          0.02246122807264328,
          -0.038262441754341125,
          0.043404899537563324,
          -0.010867912322282791,
          -0.02915516309440136,
          0.29097649455070496,
          -0.27829548716545105,
          0.37042897939682007,
          0.13181380927562714,
          -0.11575594544410706,
          0.17384158074855804,
          -0.09705357253551483,
          0.07815604656934738,
          -0.04484223201870918,
          -0.3743125796318054,
          0.31289201974868774,
          -0.397745281457901
        ],
        [
          -0.07056854665279388,
          0.03943556547164917,
          0.03937341272830963,
          -0.39124795794487,
          0.2768818438053131,
          0.38774392008781433,
          0.3520568609237671,
          -0.29354432225227356,
          -0.3709460496902466,
          0.07108048349618912,
          -0.06248224154114723,
          -0.042920034378767014,
          -0.011724253185093403,
          0.01597665809094906,
          0.0006139127071946859,
          0.0028386416379362345,
          -0.0009855951648205519,
          -0.013327544555068016,
          -0.04667656868696213,
          -0.025699082762002945,
          -0.036262352019548416,
          0.006924932356923819,
          0.027610616758465767,
          0.04675590991973877
        ],
        [
          0.11444830894470215,
          -0.10981108993291855,
          0.16080519556999207,
          -0.22407203912734985,
          -0.16440606117248535,
          -0.3473050892353058,
          -0.11721282452344894,
          0.10635273903608322,
          -0.025094376876950264,
          0.039845094084739685,
          -0.06269838660955429,
          -0.018872898072004318,
          -0.12531715631484985,
          -0.31842106580734253,
          -0.10393074154853821,
          0.11721619218587875,
          -0.04065375030040741,
          -0.1580773890018463,
          -0.08578060567378998,
          0.07848962396383286,
          -0.016032520681619644,
          -0.1281360238790512,
          0.0934758111834526,
          -0.015079472213983536
        ],
        [
          -0.05528758838772774,
          0.04575072228908539,
          -0.06720230728387833,
          -0.06859492510557175,
          -0.15990808606147766,
          -0.15688872337341309,
          0.024690814316272736,
          0.14738145470619202,
          -0.1065240353345871,
          -0.03209800645709038,
          -0.07180753350257874,
          0.0952896848320961,
          -0.4565799832344055,
          0.15885835886001587,
          -0.027744149789214134,
          -0.04788605123758316,
          -0.3560294508934021,
          0.29387137293815613,
          0.27060237526893616,
          0.08761310577392578,
          0.021715309470891953,
          -0.06963235884904861,
          -0.3217170238494873,
          -0.30918923020362854
        ],
        [
          0.03232693299651146,
          0.06921294331550598,
          -0.03774150460958481,
          -0.220282644033432,
          -0.24647603929042816,
          0.03813118487596512,
          0.14406819641590118,
          -0.27355292439460754,
          0.08711355924606323,
          0.11159104853868484,
          0.09633035212755203,
          -0.2018171101808548,
          0.18293972313404083,
          0.019920341670513153,
          0.15754395723342896,
          0.1844760626554489,
          -0.14715515077114105,
          0.09075096994638443,
          0.020280735567212105,
          0.0006164595833979547,
          -0.5289071202278137,
          -0.3680145740509033,
          -0.22497019171714783,
          0.13412007689476013
        ],
        [
          -0.0018930885707959533,
          -0.00044729289948008955,
          -0.0009865626925602555,
          -0.021468713879585266,
          -0.04909249022603035,
          0.02084234729409218,
          0.007437530905008316,
          0.032514020800590515,
          -0.026162970811128616,
          0.019383655861020088,
          -0.015575137920677662,
          -0.0033178378362208605,
          -0.26643261313438416,
          0.2257525771856308,
          0.2512296736240387,
          0.3438839316368103,
          -0.24604502320289612,
          -0.31537944078445435,
          -0.3191348910331726,
          0.21925678849220276,
          0.27769917249679565,
          0.23308061063289642,
          -0.181065633893013,
          -0.2477070689201355
        ],
        [
          -0.0640580803155899,
          0.05639108270406723,
          -0.0891493558883667,
          0.06241314113140106,
          -0.10046841949224472,
          -0.03972364962100983,
          -0.12079133093357086,
          -0.09230073541402817,
          0.05985800549387932,
          -0.0663653090596199,
          0.0563577339053154,
          -0.08564867824316025,
          -0.09249473363161087,
          0.056530922651290894,
          -0.10157493501901627,
          -0.056607894599437714,
          -0.09046505391597748,
          -0.09280195087194443,
          -0.03436719626188278,
          -0.041751764714717865,
          -0.09357036650180817,
          0.019310811534523964,
          -0.04215114936232567,
          -0.0793103575706482
        ],
        [
          0.02901981584727764,
          0.01563020795583725,
          0.0038375994190573692,
          0.009828122332692146,
          -0.003989426419138908,
          0.008124396204948425,
          0.012893070466816425,
          0.004663627129048109,
          -0.043920040130615234,
          0.05593295022845268,
          0.01795034483075142,
          0.020823059603571892,
          -0.24968093633651733,
          0.39154893159866333,
          0.3576442301273346,
          0.010469612665474415,
          -0.04150113835930824,
          -0.061827681958675385,
          -0.03570275381207466,
          0.07038938999176025,
          0.08339280635118484,
          0.2240157574415207,
          -0.4098350703716278,
          -0.38302868604660034
        ],
        [
          -0.103385791182518,
          0.017256051301956177,
          -0.24020448327064514,
          -0.11389709264039993,
          -0.04560024291276932,
          -0.032927319407463074,
          0.1973751336336136,
          0.02799217961728573,
          0.14950083196163177,
          0.059999480843544006,
          -0.036280557513237,
          0.004439991898834705,
          0.26482391357421875,
          0.17170757055282593,
          -0.38212886452674866,
          -0.275444895029068,
          -0.07942640781402588,
          0.24282969534397125,
          0.1468992829322815,
          0.028501378372311592,
          -0.14359116554260254,
          -0.2725498378276825,
          -0.05828346312046051,
          0.25328201055526733
        ],
        [
          -0.11725743860006332,
          -0.11029486358165741,
          -0.10038164258003235,
          -0.11392317712306976,
          -0.017589585855603218,
          -0.05568951740860939,
          -0.025311341509222984,
          0.007712217979133129,
          -0.04753589630126953,
          0.07324473559856415,
          -0.017524804919958115,
          -0.14261256158351898,
          -0.04949859529733658,
          0.05735895037651062,
          -0.020695669576525688,
          -0.11132097244262695,
          -0.06353052705526352,
          -0.06130001321434975,
          -0.003967055585235357,
          -0.014882984571158886,
          0.0158744715154171,
          0.00974681880325079,
          0.035362690687179565,
          -0.1457098126411438
        ],
        [
          0.012384430505335331,
          0.03798610344529152,
          0.02577652409672737,
          -0.04937257617712021,
          -0.04436514526605606,
          -0.014216531999409199,
          0.05843481048941612,
          0.04029223322868347,
          -0.020239803940057755,
          0.02382959984242916,
          -0.0033231498673558235,
          0.039654530584812164,
          -0.21046389639377594,
          0.23201903700828552,
          -0.279044508934021,
          -0.2435041218996048,
          0.22103847563266754,
          -0.29996970295906067,
          0.300692617893219,
          -0.3811729848384857,
          0.339581161737442,
          0.14324386417865753,
          -0.1844143122434616,
          0.20976290106773376
        ],
        [
          -0.12776058912277222,
          -0.3359144330024719,
          -0.4779915511608124,
          -0.03437630459666252,
          0.008574891835451126,
          -0.0028140328358858824,
          0.0620669461786747,
          0.24552753567695618,
          0.2907138168811798,
          0.11693504452705383,
          0.21525032818317413,
          0.2770003378391266,
          -0.022456053644418716,
          -0.025377687066793442,
          -0.06238515302538872,
          -0.022126559168100357,
          0.00474213482812047,
          -0.008299345150589943,
          0.046905502676963806,
          -0.049334265291690826,
          -0.00814093742519617,
          -0.007669623475521803,
          0.026111511513590813,
          0.006322505883872509
        ],
        [
          -0.013831475749611855,
          -0.14618268609046936,
          -0.029676374047994614,
          -0.0003382011200301349,
          -0.046324096620082855,
          0.031862299889326096,
          0.03629210591316223,
          0.08995960652828217,
          -0.014063018374145031,
          0.060003612190485,
          -0.06129765138030052,
          0.0379483737051487,
          -0.06760259717702866,
          -0.2323269546031952,
          0.22325588762760162,
          0.12260397523641586,
          0.3699159622192383,
          -0.5246787071228027,
          -0.11820627748966217,
          -0.1106041818857193,
          0.09993802756071091,
          -0.03017626330256462,
          -0.19485996663570404,
          0.20378045737743378
        ],
        [
          0.07030975073575974,
          -0.15346725285053253,
          0.07595019787549973,
          -0.030721575021743774,
          -0.10978783667087555,
          0.004186595790088177,
          0.047311630100011826,
          -0.05025846138596535,
          0.072548508644104,
          -0.1302453577518463,
          0.09610618650913239,
          -0.31068381667137146,
          0.02118062600493431,
          0.16620199382305145,
          0.06504552066326141,
          -0.06813282519578934,
          -0.18280749022960663,
          -0.2053878903388977,
          -0.10767491161823273,
          -0.10807099938392639,
          -0.01502609346061945,
          -0.08369513601064682,
          -0.07902517169713974,
          -0.058583490550518036
        ],
        [
          -0.23194833099842072,
          -0.010079349391162395,
          0.19542336463928223,
          -0.19625769555568695,
          -0.07686521857976913,
          -0.05882296711206436,
          0.047517817467451096,
          -0.20126430690288544,
          -0.10172445327043533,
          0.04623943194746971,
          0.08342340588569641,
          -0.21788829565048218,
          0.296025812625885,
          -0.16067324578762054,
          0.12626050412654877,
          -0.24550876021385193,
          -0.3127131760120392,
          -0.14249859750270844,
          -0.38744083046913147,
          -0.06986502557992935,
          0.1540047824382782,
          0.010793832130730152,
          0.26965802907943726,
          -0.11974173039197922
        ],
        [
          0.08562274277210236,
          0.1482452154159546,
          -0.12290628999471664,
          -0.46100494265556335,
          -0.3948308229446411,
          0.3665023446083069,
          0.1373744010925293,
          0.1525515466928482,
          -0.1724812239408493,
          0.28226399421691895,
          0.2151711881160736,
          -0.1637256145477295,
          -0.009200690314173698,
          0.007829512469470501,
          -0.006335717625916004,
          -0.12573514878749847,
          0.017196174710989,
          -0.03148593381047249,
          0.046197663992643356,
          -0.08067081868648529,
          -0.04089982435107231,
          -0.006433287635445595,
          0.02946234866976738,
          -0.015411891974508762
        ],
        [
          0.013191699981689453,
          -0.01444648765027523,
          -0.004897894337773323,
          0.05716848745942116,
          0.02209988236427307,
          -0.05913243815302849,
          0.02730361372232437,
          -0.0023479233495891094,
          -0.035738956183195114,
          0.03540761396288872,
          0.035113874822854996,
          0.029883993789553642,
          -0.3375564217567444,
          -0.13231037557125092,
          -0.27150779962539673,
          -0.36748215556144714,
          -0.0935317650437355,
          -0.2999879717826843,
          0.33653464913368225,
          0.087277352809906,
          0.3109228312969208,
          0.24671587347984314,
          0.12809184193611145,
          0.16553153097629547
        ],
        [
          0.07356827706098557,
          0.020233873277902603,
          -0.1326110064983368,
          -0.04851993918418884,
          -0.06756391376256943,
          0.05326942354440689,
          -0.1290469616651535,
          -0.1150205135345459,
          -0.0027961714658886194,
          -0.019186746329069138,
          -0.10143961012363434,
          -0.16684924066066742,
          -0.009342619217932224,
          0.062214262783527374,
          0.029866820201277733,
          -0.1375148594379425,
          -0.03498273342847824,
          -0.15182246267795563,
          -0.027808012440800667,
          -0.014844034798443317,
          -0.17429804801940918,
          -0.049792543053627014,
          0.010218719951808453,
          0.010646944865584373
        ],
        [
          -0.0526270866394043,
          -0.012856617569923401,
          -0.012722662650048733,
          0.00029263595934025943,
          0.044581834226846695,
          0.039096567779779434,
          0.030669547617435455,
          0.036419712007045746,
          0.035956088453531265,
          0.017643051221966743,
          -0.0322650782763958,
          0.02257869951426983,
          0.2390238642692566,
          -0.051166996359825134,
          -0.3321154713630676,
          -0.2931331992149353,
          0.0312490351498127,
          0.3819519281387329,
          -0.24587558209896088,
          0.06148302182555199,
          0.2959443926811218,
          0.3198511600494385,
          -0.03615190088748932,
          -0.358636736869812
        ]
      ],
      "bias": [
        -0.1461666077375412,
        -0.008795532397925854,
        -0.01023877877742052,
        -0.11213210970163345,
        0.06770622730255127,
        -0.06011669337749481,
        -0.13575245440006256,
