{
  "shared_layers": [
    {
      "weight": [
        [
          -0.2333943459717705,
          0.1832481982070131,
          0.23097415812748145,
          -0.18977039730715894,
          0.005958582942633734,
          0.2927876481606825,
          -0.2921437158143839,
          -0.04908834670494466,
          0.25844787590560364,
          0.030257792264627992,
          0.11737405190729946,
          -0.014313902471447579,
          0.18120866378049955,
          -0.025290211939969234,
          -0.10273510886312147,
          -0.16520887014348404,
          -0.05739148668664415,
          -0.08613339597635579,
          0.01041080733130304,
          -0.2503805082702203,
          -0.24463299727131788,
          -0.07730403799921923,
          -0.11197151924612947,
          0.14495151189200994
        ],
        [
          0.25274922394947535,
          -0.08050578092411241,
          -0.0552550128862455,
          0.1870768610704614,
          -0.3336258503557668,
          -0.06128538117157944,
          -0.17678972808923263,
          -0.2560209877096274,
          -0.1830850941091154,
          0.08658159940431151,
          -0.24688294240080294,
          0.16477505313314708,
          0.1388535402350696,
          0.4068635878016119,
          -0.08480898754051559,
          -0.2525285475563317,
          0.022691088353038735,
          0.030738597539161097,
          0.014197873578720958,
          0.0268959659404127,
          -0.027795934022475464,
          0.3044264624355598,
          -0.2054429823678416,
          0.21863660952687552
        ],
        [
          0.30655412181273434,
          0.1817996800563958,
          0.043558973530203576,
          0.26524603276892045,
          -0.10424191669093741,
          -0.17273715722633942,
          0.17027371849985548,
          -0.07709418423534813,
          -0.0375240375391286,
          0.29155824474332614,
          0.257013190045143,
          -0.19003946580914008,
          -0.22741143268128247,
          0.01878383003861561,
          -0.08561189732425586,
          -0.2731892850619419,
          -0.06614157624621164,
          -0.021734671478400674,
          -0.25931879544211744,
          0.05667938032434879,
          0.09448856273869692,
          -0.02776544942131001,
          0.016300168981741272,
          0.035910226500144235
        ],
        [
          0.06209827078681887,
          0.165503930218485,
          0.2829936810051336,
          0.146925244201503,
          0.05215787329681797,
          0.1735322719569416,
          0.3016681277966047,
          0.15682001349804633,
          -0.18718685057972936,
          0.2520078704021101,
          -0.008392766605218836,
          -0.09833244068933344,
          0.14927281535503617,
          -0.03521280225349778,
          -0.10898100311284609,
          0.08566211567861333,
          -0.05622183538423576,
          -0.2957484357096994,
          -0.27035663093030354,
          0.029545941393863746,
          -0.3362365893371834,
          -0.11289492180487175,
          -0.17430707221450104,
          0.01189527525665318
        ],
        [
          -0.2322000367236331,
          -0.21468129076761483,
          0.4031941113099314,
          -0.1555776804616606,
          -0.22831158593476572,
          0.3236970886707638,
          -0.046376996720365576,
          -0.0555774197185818,
          0.32668059602773014,
          -0.123760281117809,
          0.2588197161428081,
          0.08571294092149194,
          -0.01844317720345367,
          -0.18529014587022946,
          -0.20906679918896123,
          -0.007497696797726595,
          -0.1332133300675078,
          0.07560730655813135,
          -0.05115225263816429,
          0.12354960452052303,
          0.02112634909551713,
          -0.19731280294638207,
          0.260331611017644,
          -0.23553612424093767
        ],
        [
          -0.3105239555934202,
          0.10544059748401438,
          0.09894362235310535,
          -0.18091650310006238,
          -0.24972166481297942,
          -0.26083362243680946,
          -0.21827881704977947,
          -0.30233118913957047,
          -0.14107043455775867,
          -0.18630563375566003,
          -0.0376272662559196,
          -0.028697662308655236,
          -0.0643655807902424,
          0.14991470653310532,
          0.200840162634886,
          0.09923971391652532,
          0.15187894241215177,
          0.30976111171498477,
          0.07331289861184737,
          0.25784126551112796,
          0.2114819202699569,
          -0.1770275004159841,
          0.10410862206269074,
          -0.10114377444890878
        ],
        [
          0.1451463287235306,
          -0.0967123285254676,
          0.09105276078862587,
          -0.12756176828027774,
          0.10548968964979158,
          0.2878498007893055,
          0.13452638945274667,
          0.04051458932780104,
          0.13058977898349367,
          -0.11430355824540213,
          0.26456052214490994,
          0.2404368406697325,
          -0.15258942232829142,
          -0.1336239869383281,
          -0.18309065576348676,
          -0.0019493422865508785,
          -0.2991201396368481,
          -0.26309119033434336,
          0.15803863606647092,
          -0.07369189383833798,
          -0.08133196385387251,
          -0.029618721729134143,
          -0.25545278593272924,
          -0.16743435766403747
        ],
        [
          -0.20861767913556942,
          -0.010369900626349743,
          0.02523141669009138,
          -0.15852893411178312,
          0.15312858312687497,
          0.1535935667608056,
          0.12031878198502952,
          0.07730494310419014,
          -0.10247387335599017,
          0.14105521536817264,
          0.20194985973936844,
          0.0012256904471780502,
          0.1398235660292446,
          -0.10144569252841974,
          -0.05207185883779989,
          0.23414137677718375,
          0.09992440541485804,
          -0.10834771323463509,
          0.29812080218534187,
          -0.25504408091257436,
          -0.25852332259960514,
          0.012346475809624582,
          -0.2824344964132672,
          0.028728113470695787
        ],
        [
          -0.28829249621061076,
          0.20235091554713053,
          -0.007749122247954929,
          -0.14418444284364157,
          0.31277048326217277,
          -0.07972186893493777,
          -0.025488998796460535,
          0.2321652479722988,
          -0.16703304436581895,
          -0.1023694101045786,
          0.0009733659954382971,
          -0.25589698315376136,
          0.3074343247252197,
          0.15382275517247568,
          0.2304676891988683,
          0.02288285991235984,
          -0.26668383256080375,
          -0.16260778069551696,
          -0.19184710169746655,
          -0.18384415321884345,
          0.19381947113702083,
          0.07188344452690183,
          -0.013819337159617905,
          -0.055690611704898314
        ],
        [
          0.12652041330837752,
          -0.20665129079539368,
          0.016832885501022906,
          -0.16461279249302962,
          -0.010408451795095761,
          -0.14337083061771783,
          0.24233833080763714,
          -0.127697760785744,
          0.07689658804162577,
          0.17768729734935093,
          -0.09294451593312969,
          0.09952008858435263,
          0.137738079791883,
          0.3100957976743652,
          -0.23229070914569616,
          -0.07247193599583532,
          0.025629739568672403,
          -0.2457989101922291,
          0.2707417993278676,
          0.1013978856369994,
          -0.24874970768762555,
          -0.27227962212784507,
          -0.1884546660210524,
          0.08265546220787427
        ],
        [
          -0.19021681961098658,
          -0.2934706736748271,
          -0.021406366902176965,
          -0.2827220168559412,
          -0.006520085073340707,
          0.1782832859427115,
          0.15301437127321546,
          -0.1953116507078947,
          0.3071651160429374,
          -0.1419834609617318,
          0.15258592511269112,
          -0.16824705638819634,
          0.14753142215842618,
          0.02873774850872035,
          0.12302743912055315,
          -0.031474931434082316,
          -0.05948442950961404,
          -0.13357422204861105,
          0.41100476640852396,
          -0.07829481894080999,
          -0.10339739730570281,
          -0.04268938429374518,
          0.11443084553319521,
          -0.08617908293078026
        ],
        [
          0.053955045789046745,
          -0.17867462755029265,
          0.012788008800181213,
          -0.2347992018320721,
          0.06482828100629422,
          0.2145064514164942,
          -0.3246233606927766,
          0.13008406490146862,
          0.026416192289827542,
          -0.29951535713828503,
          -0.08251981401002458,
          -3.820829863215508e-05,
          0.25145784513159547,
          0.18017966048226594,
          -0.12651945374883833,
          0.0730222426491585,
          0.2206020758747702,
          -0.04382072914482711,
          0.0993379413239391,
          0.25438224833298073,
          -0.09223109393458286,
          0.02892941908443037,
          -0.22795477072997358,
          0.30548172762094666
        ],
        [
          0.12455443102526653,
          -0.10267577676625723,
          0.11555652833611718,
          0.048275576834165675,
          -0.24824108303568865,
          0.15499042756151868,
          0.17653040826359634,
          -0.284559845521529,
          -0.04018525893968821,
          0.10038947471267654,
          -0.3496860468822935,
          -0.02111255896000629,
          0.19460476202323568,
          0.08051771924749221,
          0.015337125535187218,
          0.18568604783018494,
          0.13477459215453894,
          -0.20667420824209262,
          -0.040115913954144634,
          0.2731737281005078,
          0.072359279794172,
          -0.04918466683861189,
          0.19427144293560913,
          -0.2682951974372378
        ],
        [
          -0.04064003143573147,
          0.0291306062730549,
          -0.23176419682426797,
          -0.14864312060208335,
          -0.007418356018487687,
          -0.04281774433042694,
          -0.17137104962963043,
          0.04351246502618039,
          -0.18587978667350974,
          -0.14061148282241112,
          0.14769768064406408,
          0.19216300230545813,
          0.27268849246682586,
          0.10150480237614076,
          0.08625633540345061,
          0.05330001938329232,
          -0.1661389473279616,
          0.25931828309262683,
          0.20959927853532165,
          -0.21452307857816205,
          0.02769120132818808,
          0.24185238558148484,
          -0.12000118643523228,
          -0.09639116023342709
        ],
        [
          0.03352094964760086,
          -0.0640055585302426,
          0.1294237526385622,
          -0.06978643318488008,
          0.20996996497599454,
          0.16008455190859489,
          -0.020089561366906136,
          -0.08963850852493979,
          0.27080761167966344,
          -0.014126662348287439,
          0.09562204521573912,
          -0.1007834195240903,
          0.199762408659195,
          -0.1377703546643453,
          -0.18604545976514664,
          0.01671513763479682,
          0.13291276609131908,
          -0.030418779217356643,
          -0.12322781433135137,
          0.20076283206870255,
          -0.3278056764762589,
          -0.05624926631973121,
          0.028395749020954167,
          -0.02192227306134742
        ],
        [
          0.18620848007140758,
          -0.10514092008058906,
          -0.07557844928149615,
          0.2112607656881268,
          -0.137622433039969,
          0.13146262436800601,
          -0.15343875589486297,
          -0.0654854312592565,
          0.20189879348277034,
          0.22186484111607502,
          -0.3039427231548121,
          -0.14816247346777167,
          0.03987397753993687,
          0.3924122296687992,
          -0.15799869194066385,
          -0.14558329681228732,
          -0.0380577139752334,
          -0.1437678712542606,
          -0.07762891758422749,
          0.22375858401503407,
          -0.016014117917903144,
          -0.36667338818640277,
          0.2075607092398986,
          -0.0976266454110938
        ],
        [
          -0.19737763996869595,
          0.15018018891930293,
          -0.27984501453232896,
          -0.06378843570517533,
          -0.07760860065426034,
          -0.033516411369447094,
          -0.19564756072608608,
          -0.2143231045121121,
          -0.16969914816408121,
          -0.2421506174369017,
          0.04482795859127029,
          -0.20269385392163805,
          0.07484805940844069,
          -0.1068410458308265,
          0.16568775263471286,
          -0.025886547545468964,
          0.08990301236174449,
          0.19584045573844203,
          -0.00586048435001028,
          -0.15663452285433618,
          0.1839020116083848,
          0.2991957123080597,
          0.24671459797800693,
          0.3387402819469216
        ],
        [
          0.09524037825789738,
          -0.16652794716912142,
          -0.16641647134444715,
          0.25293662700618863,
          -0.19031043640756484,
          -0.22192160854266835,
          0.3556023599800075,
          -0.03630902654575619,
          0.0016989082359247832,
          0.02769127956821087,
          0.19522003830356993,
          0.11472374216908975,
          -0.11869668216719809,
          0.0949981420150824,
          0.1462259286216422,
          -0.12849750233795298,
          -0.20943456208308617,
          0.028325120753764876,
          -0.25787223925918407,
          -0.024914973668719843,
          0.14533654917680242,
          0.07978377217427153,
          -0.3890680846441508,
          0.1824671191295557
        ],
        [
          0.0893656527307408,
          -0.11481044459637434,
          0.229717849454005,
          -0.06541540882318543,
          -0.12259714595999227,
          0.2797375913179744,
          0.12048551736872971,
          0.030263950826845472,
          0.29752809140194303,
          -0.12722654115097548,
          0.31646521853496834,
          0.0394071351699393,
          -0.016672323687209216,
          -0.047603321612325694,
          0.07506817061011412,
          -0.15661865249028165,
          -0.2507502740101071,
          -0.08825405308092099,
          -0.21543781506877466,
          -0.35269500903903744,
          0.029332371344407762,
          0.21238888521896318,
          0.0050220276090343925,
          -0.14127819631651048
        ],
        [
          -0.20761389699795982,
          -0.12334818909958217,
          -0.24918350091110872,
          -0.20250993074312848,
          0.15259112484479034,
          0.0053773781145567325,
          -0.24519448930105403,
          -0.04653542557483512,
          0.01745653491575152,
          -0.06289287896734105,
          0.14178664937523877,
          -0.05901718038620815,
          0.09651276601343509,
          -0.20258399313277092,
          0.27017828014994005,
          0.1124583569032584,
          -0.23296745016171422,
          0.25789553555960376,
          -0.11045684025129657,
          -0.19625202647893866,
          0.2697957763263298,
          0.3712983384165297,
          0.10674319069349908,
          -0.0429860875924393
        ],
        [
          -0.21863268577165493,
          0.1528710652838252,
          0.1641020451304436,
          -0.028009774274179562,
          0.13542988128775615,
          -0.1432093993203655,
          -0.1660213017635263,
          0.18060062181483547,
          0.1119077305273161,
          -0.06129648428507234,
          0.21579821404286603,
          -0.06013798048060971,
          0.21117980012126278,
          -0.03451597066701896,
          -0.12186165243315529,
          0.2754541710441611,
          -0.3032714589912563,
          -0.15739239441904532,
          -0.20477615564572957,
          -0.2926931934007753,
          0.04076586886459041,
          0.15874656458252137,
          -0.08404823197703601,
          0.03448361458911659
        ],
        [
          0.08829799774215209,
          0.20207805458485745,
          0.16650293706700572,
          -0.05938879348632492,
          -0.03756561356834846,
          0.014912816830555573,
          -0.24127444132677756,
          0.19015715581774809,
          0.23047250757927942,
          -0.09593248977566791,
          0.12581564246084592,
          -0.036931637390310953,
          0.09485337424231999,
          -0.2611883615386905,
          0.0420350006224536,
          0.12898334665698163,
          -0.05804309197860281,
          -0.03222739483847298,
          -0.11511620661450861,
          -0.1461728032586402,
          -0.20206675195831247,
          -0.1418116687745456,
          0.2652791033038066,
          -0.2759847697576613
        ],
        [
          0.10006095680746437,
          -0.07650605747260153,
          0.10923957999089874,
          0.051750014602240615,
          -0.2986547704754761,
          -0.07616916577826344,
          -0.05095990301082566,
          -0.04846743722830027,
          -0.21086418654864678,
          0.17563936492988777,
          -0.082671446127391,
          -0.1053800015795624,
          0.2342874544369712,
          0.2654458674407789,
          0.07344008490705876,
          -0.05232241960748561,
          -0.15035880851605948,
          0.1841444386638732,
          -0.0749728232257287,
          -0.10307504322355308,
          0.2847808522935679,
          -0.205843049689667,
          -0.03913261394803952,
          0.32095570395828155
        ],
        [
          -0.05368407879048735,
          0.22256396076543059,
          0.21559167179056005,
          -0.03617201505020784,
          0.09071295949303544,
          0.04751255360354505,
          0.26898868953625005,
          0.15491005231951002,
          0.151398621533464,
          0.042949193465638504,
          -0.08758520747721177,
          0.32503114865161814,
          -0.2537444055855763,
          0.16699566254003267,
          -0.28329265361516115,
          -0.315486305088393,
          0.1708811100751625,
          -0.16058256558042772,
          -0.3237303438704678,
          0.06088850306200557,
          -0.11048344522913875,
          -0.31896726966258987,
          0.16184017631477823,
          -0.08072025441575104
        ],
        [
          -0.1317700025370635,
          0.2140971563644182,
          0.15009258205551648,
          -0.008594754180946606,
          -0.1592334870982539,
          0.02443980971437676,
          -0.12501093439954308,
          0.3125578248240153,
          -0.06416571720429066,
          0.03579717627483634,
          -0.0123137087281611,
          0.15981112932299063,
          -0.12779960945703045,
          -0.1754635059485926,
          0.10317141770332078,
          -0.2238356010328297,
          -0.03640781239949635,
          0.1486563641908255,
          -0.07386911199247408,
          -0.2079082848802627,
          -0.07138738076544682,
          -0.07089133852642311,
          -0.08249501460788894,
          0.07674933707080768
        ],
        [
          -0.009430119994654996,
          0.11524450025496659,
          0.1028098829412774,
          0.12416095597683653,
          0.10597700999551711,
          0.05731493501995631,
          0.23217781327529538,
          0.1777461834050684,
          0.14806713340034067,
          -0.18932581993954956,
          -0.08762036371396965,
          0.005452726080399689,
          0.10698120755167813,
          0.15172616378996745,
          -0.2296413652334226,
          -0.1766569155128692,
          0.17990683582483716,
          0.15026146154350392,
          0.04778838503316498,
          -0.22256348448583654,
          0.3007855790148482,
          -0.03813882457124283,
          -0.15527027118958447,
          -0.33413227945088475
        ],
        [
          -0.019952736128752424,
          -0.22683371204872166,
          -0.12928387645624434,
          0.05461219608310237,
          0.020635600472946797,
          -0.14897809458227806,
          0.17015116700120694,
          -0.19494327470375428,
          -0.3025882117268202,
          0.0548830033698102,
          -0.07060244882519147,
          0.16768186908321053,
          0.14301292492081147,
          -0.13067269513156632,
          0.22957257241232173,
          -0.09823335072740524,
          -0.15801994157410962,
          0.04631450115682525,
          0.08586282960344539,
          0.13701806940792946,
          0.23899685480979052,
          0.06998590811117485,
          0.08051051211815427,
          0.03338404661838185
        ],
        [
          -0.1550488594429593,
          -0.11127464050378609,
          -0.34001260248755044,
          0.09853383925876719,
          -0.0097902159976508,
          -0.1545556847839043,
          0.11978038847583138,
          0.04447708356020035,
          -0.06707746769265671,
          0.19125534094821936,
          -0.1412390652594907,
          -0.25946928432599836,
          0.273976821724008,
          0.0524558184356682,
          0.32904307809594563,
          -0.10825661717656204,
          0.28240217588807204,
          0.15574314731187042,
          -0.3245030213367473,
          0.05226222323378065,
          -0.11432081341059375,
          -0.2006168090324567,
          0.28812225456602203,
          -0.0025177351167617766
        ],
        [
          0.0900722022606887,
          0.12293803383980328,
          0.02723893891693335,
          0.02584523524990372,
          -0.20052987139953735,
          -0.24036014421971383,
          0.09891406572205366,
          -0.02323685516819417,
          -0.24840743807475207,
          0.11168332271442022,
          -0.14860670702430895,
          -0.1908626613425473,
          -0.30084134733286866,
          0.29865349348079595,
          -0.00759593610078877,
          -0.203786029989586,
          -0.13097406912981857,
          0.25928929503578774,
          0.023790412005102464,
          0.16177707140258588,
          0.11066906029203602,
          0.2036317811452583,
          0.20868409290525214,
          -0.07184328440439469
        ],
        [
          -0.1438374655845924,
          0.005288579536522204,
          0.19044720491306538,
          0.10782734725063008,
          0.008269618742168573,
          -0.15177229306890458,
          -0.23934049059782497,
          -0.23265262053382268,
          0.2513998115896942,
          -0.09232086976568292,
          0.11670350318389368,
          -0.056384029581852735,
          -0.12535494941071368,
          -0.12287799722643808,
          0.1047862762550311,
          0.23872508202739487,
          0.09205082331359206,
          -0.13843369261630079,
          0.11145694377110109,
          -0.0003514618356867178,
          0.07498396732300393,
          -0.026730585195312094,
          -0.032029683407130645,
          -0.2003532740946679
        ],
        [
          -0.23558912766646709,
          0.34760896995274976,
          -0.1816079916078672,
          -0.24845084640855697,
          0.06336125657516396,
          0.12050006970243776,
          0.05190714977148781,
          0.0025942795351056825,
          -0.07783997318599409,
          -0.10737460131147616,
          0.07458270849687786,
          -0.1391657664441876,
          0.12853378109087524,
          -0.20890284211140356,
          -0.1931235622707028,
          0.14697439663532852,
          -0.2109983198678653,
          -0.2388978984528657,
          0.25121526001276123,
          -0.09915270414663532,
          -0.024274102773914657,
          0.3076233520221839,
          -0.10926436170879845,
          0.3074966588805721
        ],
        [
          0.004872737985020109,
          -0.025010565638426557,
          0.2749321218844362,
          0.08327878858592407,
          -0.04615491153902684,
          0.03575389786134606,
          0.1842220611481352,
          -0.249707696421826,
          0.16599898807415595,
          -0.28871598048404096,
          -0.23673851949727298,
          0.1945245749135465,
          0.1847075854105566,
          0.048400854448444296,
          -0.09012286288327302,
          0.006983320129351294,
          0.15325176099203763,
          -0.3542121467809711,
          -0.03850280308423907,
          -0.05240934743662456,
          -0.24220102220932532,
          -0.017010771385015104,
          0.2667827105377864,
          0.10166072818739688
        ],
        [
          0.16107090595701437,
          0.21780499277839094,
          -0.026873310577064272,
          0.26663713478715156,
          0.06089708453495949,
          0.07436774667599987,
          0.23766918140518803,
          0.23251481860441248,
          0.20297517527566683,
          0.16893508313445452,
          0.2110832248112649,
          0.19288254272114738,
          0.06332092444701061,
          -0.2576158267646231,
          -0.34869138031471414,
          -0.008356365261094878,
          -0.14590539903110036,
          -0.11690262266536584,
          -0.11142625004397126,
          -0.3467147405453841,
          0.02824450454876146,
          0.03975116205028468,
          -0.3009787733564358,
          -0.2027872556300388
        ],
        [
          0.07203917458512057,
          0.3202486759025338,
          -0.21904730234042852,
          0.25987695015826956,
          0.057080051464850345,
          -0.16854583430485195,
          0.10411520587713204,
          0.13434403642475448,
          -0.20928069436082625,
          -0.15475347692066493,
          0.2086838845050676,
          0.11234398686555785,
          -0.3117500290382533,
          0.09455108538028789,
          0.008494963328043118,
          -0.30655518172295315,
          -0.025106595699930855,
          0.22392723526139227,
          -0.25181388427324114,
          0.09190921423993821,
          0.240408252550853,
          -0.18861528950066775,
          0.1729787825515034,
          -0.05268747159563493
        ],
        [
          0.08399963329101068,
          0.04965325342087963,
          -0.07789372509041864,
          0.2003927157747063,
          0.16802681153813923,
          -0.2704966653923259,
          -0.10835230029466009,
          0.11439483434859125,
          -0.20267508201666137,
          -0.09985399169526304,
          0.05920287297270346,
          0.026936974041089624,
          -0.24010863218143622,
          0.08427779782747,
          0.31320723289366875,
          0.007151267973679276,
          0.040178090191391534,
          0.24475931657697475,
          -0.14118850098434474,
          0.20888688130146252,
          -0.09432372101162463,
          0.12154916249375829,
          -0.17088170917905524,
          -0.13238699129974743
        ],
        [
          -0.0690125796879573,
          0.19602388146728333,
          -0.09449138816182144,
          0.2490164023246117,
          0.3274884907326665,
          0.07587364069882643,
          0.2253097513528032,
          0.0959064509097949,
          0.02688377470587434,
          0.04622257525673961,
          0.03471293347546542,
          -0.3015715296767807,
          -0.07515113505524267,
          -0.16986723630414927,
          -0.06624693926278315,
          -0.009895505800428684,
          -0.26673634765283666,
          0.31803457183111883,
          -0.17905816889083373,
          -0.2832068060524745,
          -0.049633307432954965,
          -0.15999471908330196,
          0.13754847437348053,
          0.1899513644564104
        ],
        [
          0.2160198525993263,
          0.014526788659838466,
          -0.20314915678870282,
          0.28608440443057903,
          -0.22210262349982188,
          0.18374810335198458,
          -0.03138327962634486,
          0.05792047932509172,
          -0.1539899701089737,
          0.11177403981192237,
          -0.005906504551658044,
          0.2330170574520887,
          -0.3609866052042487,
          0.04015460862942805,
          0.14248047336757116,
          0.1431456702803498,
          0.04739782917970949,
          -0.058609086435667625,
          -0.20170508877172505,
          0.16084744343389096,
          -0.21680842827304425,
          -0.27739716541408965,
          0.21096050197965338,
          -0.08424949098297849
        ],
        [
          -0.11769934739744027,
          -0.035447059635891516,
          -0.0471306229232034,
          -0.24693584411494496,
          0.09741386325408109,
          -0.07684945239068647,
          -0.31150679542857507,
          0.069528456720629,
          -0.208916023585725,
          -0.04715472190598612,
          0.24358853455292528,
          0.02710421795764487,
          0.19276852873737466,
          0.1427631847771664,
          0.15710446570579764,
          0.19894628282215704,
          0.12704796682764596,
          0.10342184351683255,
          0.37119402998015866,
          0.004927933581569258,
          0.16306203410416364,
          -0.10139698275331528,
          -0.34708870747789394,
          -0.196770937159679
        ],
        [
          0.015111706968393342,
          -0.06626491008654108,
          -0.3405389372222936,
          0.03668480966274388,
          -0.19643403166378523,
          -0.2888959335036838,
          -0.03406811661947024,
          0.07962438639092083,
          0.1727028426345596,
          -0.15734932142557492,
          0.08592183927787518,
          -0.16511251271919883,
          0.08395257696214166,
          0.08135307233710257,
          0.04756301209934298,
          -0.24613218169765622,
          0.028863970084396114,
          -0.09416934448753705,
          -0.22846596260989224,
          0.23787268397362824,
          0.3001275319168241,
          0.2653582971731268,
          -0.17872244309024604,
          0.28520401171635085
        ],
        [
          -0.11575714652614767,
          0.09117316876627804,
          -0.23668355070843838,
          3.416957885181058e-05,
          0.1372580118826992,
          -0.07532265153254482,
          0.17642216863724738,
          -0.173755191103015,
          0.10657761823686644,
          0.06079682419404353,
          0.21338667441924622,
          -0.23510450588042958,
          -0.13147272889612316,
          0.12561116289962768,
          -0.08135964356441183,
          -0.10209883673011487,
          -0.012217721566619775,
          0.11800146625962551,
          -0.27015829772898875,
          -0.23025550270212186,
          0.0872235030110189,
          -0.14484906488060886,
          0.05345845704678273,
          -0.00042177595597337375
        ],
        [
          0.001898418315497438,
          -0.27864581283336104,
          -0.08049157544424693,
          0.2395883475376138,
          0.1048904023528744,
          0.0472577705894162,
          0.1924863602775525,
          -0.14675573122462263,
          0.1311781521983144,
          0.017357604417125465,
          0.1079361424611681,
          0.16016152157149474,
          -0.3025067772097214,
          0.2804203316453425,
          0.22305935924544068,
          -0.287943908646032,
          0.1913017450384158,
          -0.029517988649722535,
          0.009289095339202531,
          -0.06334607405332715,
          -0.03733572325555964,
          -0.29238321835597,
          0.23595697403902494,
          -0.14541948513405947
        ],
        [
          0.11908376715962851,
          0.2547819834270097,
          -0.2513145919318992,
          0.08736150082328892,
          0.2602615513737637,
          -0.22021404246860743,
          -0.1420638693745935,
          -0.009963933792905475,
          -0.007073662108076383,
          0.14896718507440487,
          0.13114130836949509,
          -0.08564065092452496,
          -0.1309368454598865,
          -0.016265150662223928,
          0.2627491839209125,
          -0.1173557961311918,
          0.15991247673529915,
          0.015512472384843675,
          -0.3010915813449731,
          -0.22813378094928824,
          0.1059978470494152,
          -0.37128700336859866,
          0.008714773395371085,
          -0.07982750850770598
        ],
        [
          0.04464566241959322,
          0.11734230510335654,
          -0.12514069046245166,
          -0.023475644800560563,
          0.06414633431327087,
          0.028006860457768207,
          0.07020284932073755,
          -0.16205311278860696,
          0.06957207459607472,
          -0.1674461568009891,
          -0.08761453842995838,
          -0.17073316947393855,
          -0.25690226254958637,
          -0.14104372901531254,
          0.2489125035620569,
          0.13654649117809303,
          -0.04935048644162258,
          0.23017333046648553,
          0.014288565453445756,
          -0.11452333418548255,
          -0.18470705841095833,
          0.25155792072069777,
          0.26780442101320184,
          -0.15327603990874594
        ],
        [
          0.2709668509572127,
          0.015117773913421178,
          -0.2323164435405719,
          -0.007098229709469283,
          0.059352211116317326,
          -0.2981714631757038,
          0.2576979654808821,
          0.053865804855946754,
          -0.3135966685285352,
          -0.14057514687752146,
          0.035651011562817816,
          -0.26402475087792665,
          -0.06691555551982381,
          0.22241152647715665,
          0.18821445713009197,
          -0.2146888158226162,
          -0.019944365582498177,
          0.12558216453598062,
          -0.15080786681834873,
          0.21486079098805913,
          -0.04162208464855514,
          0.26912691226799174,
          -0.0982254351789104,
          0.12237445151090953
        ],
        [
          0.046531143996398655,
          0.05691657804597476,
          0.05874767092799534,
          0.29257617956879234,
          0.1563301003182026,
          0.1649708330170839,
          0.24710502080377478,
          -0.1629166539500285,
          0.17016865321210123,
          0.16746032712442774,
          -0.13698143504249372,
          0.0009320307982489888,
          0.016469304671460922,
          -0.03986276268361582,
          -0.17471847268097526,
          -0.28779281323610423,
          0.23835380099756798,
          -0.1457439966087674,
          -0.3545911173637766,
          0.005006342605509437,
          0.017647341424889777,
          -0.15746505400846292,
          -0.2730204683209449,
          -0.08512741098212906
        ],
        [
          0.039567982473742866,
          0.2109578784135601,
          0.03494122789590726,
          0.18926302610009677,
          0.2810485733984909,
          0.24392399035471551,
          -0.008773138610375264,
          0.2845726178023022,
          -0.1158106297344994,
          0.09615957277048817,
          0.16466460268872868,
          -0.12362219506624701,
          -0.2738934262368039,
          -0.28058562268440507,
          0.1794443843264024,
          -0.28686141292174433,
          -0.13473151688481844,
          -0.14326398504138424,
          -0.07600550739821936,
          0.165198654726324,
          0.24252931896894445,
          -0.35424795730449116,
          -0.18157295046730595,
          -0.022713525375000147
        ],
        [
          -0.27175608549304875,
          0.07418393378797883,
          -0.17741322907192922,
          -0.1910081565016371,
          0.14322370705722395,
          -0.11194641084542,
          -0.056495834102290844,
          -0.16547343003388496,
          0.15261016221391163,
          -0.0378625818925388,
          -0.2077109799763085,
          -0.07673437985761908,
          0.22033507537748087,
          -0.024401260944546185,
          -0.03844494387619258,
          0.32302065626986926,
          0.08081899902989495,
          0.17083158550200378,
          0.23483527361789583,
          0.15194142943033856,
          -0.01506844148582584,
          0.09650590169345545,
          0.17639591961521878,
          -0.021702460422065552
        ],
        [
          0.37779283797707025,
          -0.13474092928346912,
          -0.2771180227775437,
          0.3143939970253616,
          -0.07337766874524923,
          -0.01611550444379264,
          0.2746190043214316,
          -0.01572698631608991,
          -0.23893209648240904,
          0.15797465362274407,
          -0.18084512707589723,
          -0.0658701565720834,
          -0.20642478176998133,
          -0.0022697073312755163,
          0.21618356860088175,
          0.024348687699102096,
          -0.01720007693219284,
          -0.010580986263792001,
          -0.058687672101796526,
          -0.07806083867041463,
          0.015309111693974867,
          -0.2348613319808321,
          0.16998138742512348,
          -0.06776573514508871
        ],
        [
          0.1750685901573218,
          -0.1337674050587017,
          -0.0006027577348611594,
          -0.05000230096672548,
          -0.008646387535806736,
          -0.03596657739879757,
          -0.19494299582757957,
          0.270892712662085,
          0.20120564944829192,
          -0.03403393383366957,
          -0.016240107153343605,
          -0.268710639637417,
          0.03194911803929766,
          -0.14298253989914486,
          0.3070000607234826,
          0.09966289622465173,
          -0.09422462031263966,
          -0.02578484187243239,
          0.037535348389527524,
          -0.18648020269337445,
          0.23877389777760286,
          -0.09081362038081986,
          -0.09986306978343118,
          0.14294496146834496
        ],
        [
          -0.15200035648967256,
          -0.33130691741311685,
          -0.011847488478019851,
          -0.0412052022970788,
          -0.12382509571850488,
          0.025363356541011364,
          0.1640364320764352,
          -0.10100123767681653,
          -0.014627735242797339,
          0.007380413800893469,
          -0.03703077823758578,
          0.20486321329932872,
          -0.2610261193992826,
          0.33344468953704165,
          -0.09184199048580315,
          0.16438656270796273,
          0.0547324381077302,
          0.07089907233551661,
          -0.2565148733879114,
          0.0625886073838486,
          0.06918006428643263,
          0.02729254585594163,
          0.2576574690091438,
          0.003582288369343223
        ],
        [
          0.2077975806483033,
          -0.11019990508327117,
          0.26317449578313706,
          0.03835256092255869,
          -0.0045344862876469175,
          0.21064461273449384,
          -0.017431310718913084,
          -0.15749786897412932,
          0.3299928021180788,
          0.04029291273370287,
          0.04979271775274953,
          0.20564538627650308,
          -0.09490017140270673,
          -0.008611004862380405,
          0.15620939134809278,
          -0.03933657759732579,
          0.21800023223827397,
          -0.17791863043692763,
          -0.32420962276916004,
          0.10090541382413497,
          -0.17255676697731542,
          0.12799550948370825,
          -0.09633433216296537,
          -0.3946955040613145
        ],
        [
          0.06588631580461708,
          -0.0830986082817415,
          0.18052202630537464,
          -0.06434634218717167,
          -0.27706529921178663,
          0.010380026786706556,
          0.01877662667710002,
          -0.08160327244539897,
          -0.01795633970819083,
          0.053171578519886,
          0.023125056412930497,
          -0.019184762091070538,
          0.1478441323696657,
          0.09768375587477264,
          0.2708297883883802,
          -0.024683375171050376,
          -0.01923281329465775,
          0.30046128283460366,
          0.2558956784899668,
          -0.277706242952708,
          -0.30228216771064564,
          -0.0249724047492725,
          0.31462130309751135,
          0.125642213160614
        ],
        [
          0.22823232779018576,
          0.19451264741742558,
          0.055332295562309335,
          0.3722297428909753,
          -0.049088482946326034,
          -0.0316198573921252,
          0.3090222789310011,
          0.22049014289553484,
          -0.16065850132309292,
          0.08246031186340966,
          0.041595901354354356,
          0.20076303985480662,
          0.13475710318845935,
          -0.016190065753305467,
          0.06460136279871743,
          -0.18749436836041414,
          -0.2215401344939759,
          0.20064962239176054,
          0.07445516354711997,
          -0.28320646724601684,
          -0.22986525441312386,
          -0.4205671742353424,
          -0.037943000576449615,
          -0.3168945942039043
        ],
        [
          -0.3534989494078179,
          0.00015920717869469323,
          -0.2877468632623937,
          -0.27054996390075375,
          -0.15753131003921428,
          0.16060803242790092,
          -0.30614496970207944,
          -0.2330486978329038,
          0.02867953548544458,
          -0.0033979670717877385,
          -0.12105442162998489,
          -0.04035222981102843,
          0.3167106696322437,
          0.2516565945909063,
          0.23164375227420064,
          -0.0685985553455885,
          0.18695930711986994,
          -0.047702145464342774,
          -0.0894572840245778,
          0.2740281900362823,
          0.1945637449165868,
          0.23965610415692093,
          0.1280807186825371,
          0.0977518029161425
        ],
        [
          -0.22140592833652448,
          0.14872039803778947,
          0.06741929042501209,
          -0.22855473931792994,
          0.013757203565996022,
          0.1859395464718349,
          0.02128882148706093,
          -0.04193481658769107,
          -0.16869963069116115,
          -0.0933983964520028,
          0.0708435091994069,
          0.14597666232150186,
          0.18622652102065224,
          0.10755144355062599,
          -0.19233949960470065,
          0.17899440234237013,
          0.1784680373135457,
          -0.262397568203847,
          -0.16842598262030384,
          0.20827084588727615,
          -0.07202280715181388,
          -0.15408276832007328,
          0.044141299147255085,
          -0.34312204215680125
        ],
        [
          -0.06551694650714954,
          0.024628959171084947,
          -0.08807324574254546,
          0.003667216926782156,
          -0.07025249595190067,
          0.28898763958582807,
          0.1450109567647608,
          -0.11312135852809828,
          0.1738353725330002,
          0.1849450472061352,
          -0.19090433971917983,
          -0.09498858434436402,
          -0.3631378217661874,
          0.24480329664010633,
          0.1771230724925211,
          0.20597878949696952,
          0.16024877430594694,
          -0.2586421746958889,
          -0.10503414350253487,
          -0.01728688083190298,
          -0.1830583056884117,
          0.2571688724427736,
          -0.025709216175195865,
          -0.1613671635860174
        ],
        [
          0.2330781044151501,
          -0.11606911841367798,
          0.021268968989417318,
          0.16030038802002103,
          -0.20502173925243233,
          -0.12916372134136148,
          0.3203794299947344,
          0.05820928181066455,
          -0.25146374682762773,
          -0.09804070841322467,
          -0.1516824644390694,
          -0.20997173684646483,
          -0.05520904388844999,
          0.10072585285284037,
          0.3244879561418739,
          -0.2825333968625032,
          0.2358492131181187,
          0.2958195960597535,
          -0.30839344513257694,
          -0.13505738344169999,
          -0.05015598460035236,
          0.25296587051910574,
          -0.06872962706881158,
          -0.051174777456109134
        ],
        [
          0.057478778758014375,
          -0.19680089690320904,
          -0.027120571760354168,
          0.24936924168381666,
          0.009288043393114197,
          0.14133645133100003,
          0.17362357370884093,
          -0.22825227661430145,
          -0.08787263455213588,
          -0.18718012799560318,
          0.20071623871649355,
          -0.017986144472499344,
          -0.18049686290206246,
          0.09408277408710351,
          0.2370943172426619,
          0.02801154007304826,
          -0.005620699238358986,
          -0.0017452037761304421,
          -0.009742897057566237,
          0.051070475493547415,
          0.11173860791597062,
          -0.060224217177952746,
          -0.19614948079617586,
          0.25607500687302764
        ],
        [
          0.1281437252529339,
          0.19266762147548042,
          -0.04129721498526948,
          0.14398841703100881,
          0.1444785391024698,
          0.25394297380099934,
          -0.1511021706843909,
          0.01180967018202829,
          0.2537379130551952,
          -0.14677897630025513,
          0.061795333439481445,
          0.11376363432095903,
          -0.14170142166852379,
          0.15481710184807274,
          -0.2835467992125902,
          0.013516434486125795,
          -0.2030828023120125,
          -0.09945233107197103,
          -0.28813333272497305,
          -0.030938847817238622,
          -0.24893236777419872,
          0.18511910935292938,
          0.03834762737716357,
          0.10523760387814568
        ],
        [
          0.2385586937446385,
          -0.013019200468435167,
          0.08097103040999318,
          -0.08366793127848769,
          0.08146017716128845,
          -0.20139686437888543,
          0.10853648678287006,
          0.19020683963782054,
          -0.14527236617279146,
          0.12746173727601948,
          -0.08273854284603437,
          -0.1555366444036092,
          -0.4095640702568784,
          0.02810139603718248,
          0.2313353443358887,
          -0.188486910702623,
          0.07479358362049862,
          0.005489097261525595,
          -0.2964942583366353,
          0.09030938986090419,
          0.23463820753729647,
          0.035650346425978995,
          -0.2362386538808991,
          0.32364569958881756
        ],
        [
          -0.12692495991720495,
          -0.023550313454622194,
          0.11234265638185971,
          -0.0855692006976395,
          -0.1066122624506346,
          -0.0530229837298245,
          -0.27198765486011867,
          -0.16384493501397743,
          0.07161390444823008,
          0.2126789729456899,
          0.060733689385370465,
          0.0014955932125838701,
          0.12095735244467899,
          0.018174894177487685,
          0.21606549938996453,
          -0.039898494150269685,
          -0.29169837681023053,
          -0.29713451146325626,
          0.3830887921309662,
          0.06647207511658079,
          -0.2174475155469785,
          -0.1840549945237158,
          0.23395425270309575,
          -0.3216267207787651
        ],
        [
          -0.13781914552370714,
          -0.020140581873836015,
          -0.018241505973363378,
          -0.22645428869900142,
          0.09191711210564758,
          -0.27565262661883805,
          0.11729896388066618,
          0.07662335999791155,
          -0.24256922766646913,
          -0.22073504996641466,
          -0.03633878799237811,
          -0.07201944386158274,
          0.2935951310181305,
          -0.28638825633396553,
          0.2633820913267057,
          0.30170363013900525,
          0.0824560543318167,
          0.14769865317682182,
          -0.016761323107189252,
          0.20892406977665115,
          0.11187947416573059,
          -0.34249715683091214,
          -0.15034199989043204,
          0.10769977956237575
        ],
        [
          0.042037291256488814,
          -0.2247272071399652,
          -0.0695037563679016,
          0.19285214857428673,
          -0.17537105030684866,
          -0.07695790841451362,
          -0.052159638416457044,
          -0.1850995475220544,
          -0.14195343040422076,
          -0.049325079107881156,
          0.10677088204138814,
          0.19865375090843027,
          -0.11716736064377378,
          -0.1300272484871237,
          -0.2684683225104934,
          -0.0751774616748381,
          -0.03501059407450735,
          -0.07211024170467603,
          -0.24422344827806544,
          0.03816293941357192,
          -0.03864539157046006,
          0.3811980026793552,
          0.22877168051426292,
          -0.18468192403166692
        ],
        [
          0.11127887471549329,
          0.3024406654876407,
          0.09972832751809306,
          -0.06283145907724456,
          0.15123406050202193,
          0.2002475535746744,
          -0.14985870102542034,
          0.33217781667280155,
          -0.0431005953514065,
          -0.04287139083618324,
          0.04805665935383622,
          0.13530136936501586,
          -0.17152057665254922,
          0.2159126950486433,
          -0.14737696089156918,
          -0.1633155470631854,
          -0.25956739675886664,
          0.10085623843044336,
          0.136706839189694,
          -0.29366269183892746,
          -0.19860719456474918,
          -0.17182676802857103,
          -0.25990648123444104,
          -0.2352506543793034
        ],
        [
          0.01651579759247889,
          -0.30729815678725914,
          -0.20807979655535733,
          -0.2383614735660981,
          -0.34447705010644036,
          0.046825780304885295,
          -0.04582211537975527,
          -0.2881309301776727,
          -0.15552365803855492,
          0.02538440965821351,
          0.15827016873610403,
          0.05557786494318451,
          0.2889563799543726,
          0.19426523720490518,
          0.3354664198705707,
          0.11834575241058239,
          0.11870387573121167,
          -0.1413208922096403,
          0.054627072162360533,
          -0.12262929671511291,
          0.07051733613438298,
          0.2763681924162569,
          -0.08592790785642782,
          -0.061271759305139166
        ],
        [
          -0.08208374064365644,
          0.17263120447135577,
          -0.10960389943244621,
          0.14945026355291857,
          -0.035512197242540164,
          -0.10375676482027112,
          0.02913532548616135,
          0.004413335024528623,
          -0.05017874141486616,
          0.2490833323228675,
          0.14752202794973995,
          0.1541425862019736,
          -0.21754336160285026,
          -0.2922001845411005,
          -0.11098629413564824,
          0.26519991476112625,
          -0.16929950247858835,
          0.07683524250896999,
          0.1422623573204269,
          -0.08709677538843333,
          -0.14645150800490936,
          0.15946242433197494,
          -0.23046228674784625,
          -0.11258372218790492
        ],
        [
          -0.005583736960133799,
          0.24992427154463423,
          0.26742814723219704,
          -0.19295928841476945,
          0.2533568993920286,
          -0.13146618373868335,
          -0.045363169509669496,
          0.19904073933452593,
          0.0946631584053826,
          -0.08482520181089581,
          -0.03230073000584275,
          0.18169453169165248,
          0.27110239344271697,
          0.20883077876409736,
          0.08331080445005522,
          0.1802007059743008,
          -0.20511469912345684,
          -0.10138753875632717,
          -0.11422139647817284,
          -0.30188454961235883,
          -0.25755064263869193,
          -0.04939190277777917,
          -0.28647117238441366,
          -0.008184550540802134
        ],
        [
          -0.06679087192357258,
          0.2794674053803838,
          -0.4076912956480325,
          -0.15969700428926942,
          0.07001445494235871,
          -0.24424088242237704,
          0.03482915617283764,
          0.03421127096857047,
          -0.010972853166518816,
          -0.14152018750587672,
          0.043642399022940176,
          -0.10068772526863042,
          0.16348793549817492,
          0.1310955778506643,
          -0.04478627037571975,
          0.3109825784024489,
          -0.1808473917574838,
          0.268549412931847,
          0.20620454371054503,
          0.17303657201320286,
          0.19785615176771285,
          -0.05765329167274198,
          -0.06332148119842,
          0.02659701755599936
        ],
        [
          0.16315873537943645,
          -0.03368622203131162,
          0.09109921019081593,
          0.1611906284713253,
          -0.10713138668054328,
          -0.2407713161347538,
          -0.1522205684058384,
          -0.08531316405365098,
          -0.012148958460249064,
          0.11124357645767251,
          0.16048238519579325,
          -0.052697466161767376,
          -0.2566319369171691,
          -0.12234738689341335,
          0.003646771522306279,
          -0.1491779546681697,
          0.2518494948004162,
          0.10059231925632088,
          -0.15570761743133096,
          0.03757949198646634,
          0.2739488636574477,
          -0.14357174938335196,
          0.1645778802943272,
          0.11105467757035498
        ],
        [
          -0.11008874629828776,
          0.13799630155674572,
          0.15144672360366315,
          -0.005192632690509798,
          -0.22017276351399703,
          0.08427678614240322,
          -0.13946004770266499,
          0.1673106848874632,
          -0.0994470090372182,
          -0.3056071230665635,
          0.10606958570742057,
          0.1714771777877743,
          0.26567859343064154,
          -0.09498786668811078,
          -0.27377189623980897,
          -0.14674546805870725,
          0.2105139127002798,
          0.030683487666645772,
          0.24973436785842498,
          0.11272050315240921,
          -0.0415544234544145,
          0.02593302510832223,
          -0.021557855248495704,
          0.1600547532965567
        ],
        [
          0.13297734184473664,
          0.14783589876798675,
          0.05994101917022343,
          0.08041080572208047,
          -0.13352524663346804,
          -0.28786562604549465,
          -0.15209309149645267,
          0.024287831209926305,
          -0.2639276334328782,
          -0.1702132186690693,
          -0.012302702093143537,
          -0.29564856467398903,
          0.19226246820037057,
          0.017972363362697984,
          -0.11649538126010205,
          -0.05296047516361163,
          0.1859196600165253,
          0.2769560647941893,
          -0.1231367178160957,
          -0.08694218374777557,
          0.2721830867850052,
          0.06412689505679647,
          0.17838648449383757,
          0.2869143955363103
        ],
        [
          0.16961257424154058,
          0.2366954691419132,
          -0.03439001448356531,
          0.12001749843749274,
          -0.07081843779853368,
          -0.2309862404699232,
          0.19703102689384525,
          -0.05332316259575287,
          -0.22465531763059707,
          -0.26623708854457534,
          -0.23344347722942424,
          -0.16486631739577007,
          0.1885673009533857,
          -0.2880766338715954,
          0.29077519707625116,
          -0.02714520526835362,
          0.257539490712862,
          0.03387330250645332,
          0.32170433699326145,
          -0.1039586405021946,
          -0.12822053621998886,
          0.13312718635875084,
          -0.03455839814939925,
          -0.19094410585893812
        ],
        [
          -0.14207426057403036,
          -0.05402960458011704,
          0.16814034610618253,
          0.07907621081518497,
          -0.014640084175592656,
          0.2483670609694377,
          0.20475311784108374,
          -0.2793610992598573,
          0.2997432132520566,
          0.12368466380908942,
          0.08376283188244117,
          -0.09287461394640141,
          0.10886999641701589,
          0.2024771468732271,
          -0.25703392970968614,
          0.1969633647967766,
          -0.1637191174738601,
          -0.018357023952209787,
          -0.24117096376774183,
          0.22420796247699132,
          -0.16095254011944407,
          -0.2618725839758251,
          -0.14812058993862479,
          -0.1132100815301942
        ],
        [
          -0.06490887449050174,
          -0.07731718092812406,
          -0.08113400859358447,
          0.16065703369429174,
          0.03333232768496048,
          -0.04739936781043697,
          0.08948428717463944,
          0.04534298888744018,
          -0.1655827111415521,
          0.03506129385883657,
          0.03098914164668307,
          -0.3153228038278345,
          -0.20475199094606053,
          -0.04894145912841267,
          0.164277050547894,
          0.017795464823785554,
          0.12028072589636589,
          0.17172203747656328,
          -0.21597752800795933,
          -0.07062068101133342,
          0.2877100309827956,
          0.12713802635491575,
          -0.2549368453232063,
          0.21618887655853314
        ],
        [
          0.13833999762827306,
          -0.009627138085929726,
          0.11421830992066505,
          -0.14253841211226864,
          0.2629314765404387,
          0.08114737592353177,
          0.22824582021528358,
          -0.04456972611400147,
          -0.16706015232633692,
          0.009753957925720293,
          -0.17843180837175387,
          -0.0728372926870951,
          -0.09810661829993862,
          0.012432690501408591,
          -0.057070139863882624,
          -0.20634901905717834,
          -0.19032514769807657,
          0.1924351501422075,
          -0.07787843947858383,
          0.10076823668976931,
          0.3712077389622327,
          -0.1328830788106817,
          -0.22530296387673984,
          0.23203044872967543
        ],
        [
          0.012357812689921751,
          0.246903740430886,
          0.08898224685184311,
          -0.10035642511253628,
          0.3051438550755021,
          0.14379773687356623,
          -0.09563200053634051,
          0.06934450078226345,
          0.20598121032753838,
          0.05347385020604327,
          0.2556037791896472,
          -0.11825340577648015,
          -0.27822675335505104,
          -0.15417847340425442,
          -0.17563722843237042,
          -0.24554772473148292,
          0.03290865628484642,
          0.2147800559641599,
          0.08137357987310642,
          -0.1598827706648219,
          -0.13222756372149408,
          0.0372245402876939,
          -0.2880158035663507,
          0.1990712585818968
        ],
        [
          0.047869921847195,
          0.3368948350511064,
          -0.0450772076698007,
          0.23149998660672935,
          0.15416416967206126,
          -0.044642172233370074,
          0.0959746890882313,
          -0.04965573874711785,
          -0.0055486789892676015,
          -0.11413513391155802,
          0.10887586793440297,
          0.16715130838561842,
          0.04154091065110291,
          -0.26126611757028123,
          0.2979120843465411,
          -0.24133625748862367,
          -0.33442664565884295,
          0.062401208538857104,
          0.06399695994124377,
          -0.1844453166184922,
          -0.16382303738187104,
          -0.31419990150844074,
          -0.3060328712063918,
          0.23613725387179377
        ],
        [
          0.30473006860136576,
          0.04697567432126557,
          0.20020024412538637,
          0.044693322681330874,
          -0.0641120310185754,
          0.043927168244416864,
          0.3111772211592192,
          -0.29320317441021854,
          0.050768164505892166,
          0.05577851554977125,
          -0.006111281695331955,
          -0.1511723793247697,
          -0.18376023177777245,
          0.28894779230421436,
          -0.024955483264468212,
          0.08679382097646973,
          0.24579643120727682,
          -0.2205022205010238,
          -0.24779329938649,
          -0.17395958379222187,
          0.11554496446429253,
          -0.28291216062591235,
          -0.16324893790956385,
          0.09601579801827377
        ],
        [
          -0.1746957324413938,
          -0.07664739694309183,
          -0.1678627269253278,
          -0.167496081904856,
          0.18934870599034062,
          0.05575227990645873,
          0.09247914715116946,
          0.010691037563716428,
          -0.30456449508494227,
          0.28299220638382044,
          0.043980007007851166,
          0.044286117089928086,
          -0.12899665760523055,
          -0.19052638257526253,
          0.1314272482723603,
          -0.25628830558231,
          0.170130685964082,
          -0.04788267821560528,
          -0.1383438748256947,
          0.14891977404740941,
          0.17158236789586143,
          0.08162556082423666,
          -0.05224053213776454,
          0.25220755466984635
        ],
        [
          0.14910097350774318,
          -0.26890081724564563,
          0.26552059186029414,
          -0.005072721402515749,
          0.0435825740245563,
          0.2065185229214143,
          -0.18091493576255024,
          -0.07994884672518783,
          -0.12203475651519331,
          -0.1812772686473137,
          -0.009785801237239143,
          0.37415017767588105,
          -0.1896698457486725,
          0.011276626190203849,
          -0.3500412705512724,
          0.026955687205091828,
          0.22405532351846816,
          -0.14416943881207578,
          0.11807476464984938,
          0.05104905989517205,
          -0.2742646539659041,
          -0.23407040874840268,
          0.27672648226443886,
          -0.05123106790812208
        ],
        [
          0.32678833259507417,
          -0.3102857105359799,
          0.02820870021493434,
          0.33852380410538196,
          -0.2088164081072993,
          -0.1209242401690411,
          0.21486350379284044,
          -0.25127810279960805,
          0.20679412044634127,
          0.07416048915777435,
          -0.0653362572657368,
          -0.1444936797216019,
          -0.18202584537646743,
          0.08473266802381835,
          -0.17401041362338107,
          0.05998121623796552,
          0.020880155170991677,
          0.0014454926122971072,
          -0.18374770512805225,
          0.051866382751703737,
          -0.14193746167419902,
          0.09900535979410303,
          0.2516465314420129,
          0.16167875701723589
        ],
        [
          0.040406453504689785,
          -0.27305373852716847,
          -0.12715399565434765,
          0.25169290544668643,
          -0.23698511891190507,
          -0.08268882794224418,
          0.2328027804569858,
          -0.30741424081510554,
          -0.08035612720890463,
          0.2146254906767244,
          -0.12009426009533641,
          -0.014698205008655712,
          -0.01291852535994623,
          0.21620010793223046,
          -0.24648137605378073,
          -0.05548815172296297,
          0.09892449003727936,
          -0.02516486046328368,
          0.16154966844791246,
          0.24460577140770598,
          0.1988581323212436,
          -0.21462853413594035,
          0.30857953390785614,
          -0.17897309690550908
        ],
        [
          -0.11105809379030372,
          0.07133279531215724,
          -0.023572110524494684,
          -0.06369103319204845,
          0.23962590531253206,
          -0.06787393127784765,
          0.2704635541703815,
          0.2589292044304356,
          -0.25668631669178316,
          0.31887777231305264,
          -0.05858793493254401,
          -0.18013465633479958,
          -0.2690380663854753,
          -0.2776076647456757,
          0.18429022586215826,
          -0.325885807417709,
          0.09874060980071808,
          0.16716308015825446,
          -0.3449065244166946,
          -0.16770186786982189,
          0.09962810589602507,
          0.21231997747602382,
          0.17882908532466063,
          -0.08842071694214644
        ],
        [
          -0.12832532965778878,
          -0.11138288100356206,
          -0.1332785928488705,
          -0.05328135986946345,
          0.14632442153451827,
          0.05805787080666272,
          0.12802208948424124,
          0.011084943234444864,
          0.05785001364435731,
          -0.0720092332741022,
          -0.17292468698303257,
          -0.07151929569981472,
          0.03929213606494165,
          0.26211402502421266,
          -0.162788731835832,
          0.12191927003276533,
          -0.11447006009768775,
          0.21973436597857454,
          0.10570791393084357,
          -0.13481002755421637,
          0.1854684001218605,
          0.4340182018508514,
          -0.27132619561931753,
          -0.2529787827451584
        ],
        [
          0.14740470328324007,
          -0.007247502732853131,
          -0.3025988001636133,
          -0.08759770563480895,
          -0.24970449670506223,
          -0.1437885311482258,
          0.0066416260419616445,
          -0.18226451782198125,
          -0.24752281758108322,
          0.042957416410948794,
          -0.31557257553743867,
          0.03388142525764127,
          0.18056372618676983,
          -0.1661964013187552,
          0.12591351501068657,
          0.07184608596515339,
          -0.009157849222000409,
          -0.044434168188803524,
          0.3095564851382038,
          -0.05717783413599789,
          0.19166236145655388,
          -0.10361818887436106,
          0.29910436974907856,
          0.16688110413908647
        ],
        [
          0.03804516225358482,
          0.07535110937930883,
          -0.023994372174291984,
          -0.028338167153230526,
          -0.18593393589321844,
          -0.17083147548015135,
          -0.12972593908030475,
          0.0010491479880610154,
          -0.04563444387408945,
          0.2664008793409861,
          0.20730727766726895,
          -0.19022919364085053,
          0.09835559034466193,
          0.0027681454896787724,
          -0.03085458030288435,
          -0.06750345481755073,
          0.2469739766151366,
          0.26850702589319264,
          -0.23429636234646145,
          0.035143130507129756,
          -0.18407226337737614,
          -0.10526986953502224,
          -0.1864642230521381,
          0.07440187243003668
        ],
        [
          -0.16527892125391971,
          -0.021280133825138135,
          0.12695284040370922,
          -0.12125646495328993,
          -0.25439382021033347,
          -0.09324238797296804,
          0.06307567840169574,
          0.02293407521901956,
          0.11208059947242599,
          0.09264971216039183,
          -0.3255497763249074,
          -0.13847441339419111,
          -0.1412548691152039,
          0.2890640905660238,
          0.20818211937203718,
          0.007323045749245879,
          0.2045326170148326,
          -0.05704237575702167,
          -0.07168903349902224,
          0.21459245789374923,
          -0.12709993883603882,
          -0.1269767739653547,
          0.23102120248262084,
          0.00756088133811269
        ],
        [
          0.17555795903191548,
          0.2040807511058731,
          0.3201250626883215,
          -0.09634413083256226,
          0.05748435438660759,
          0.12341511798312428,
          0.03092503047088471,
          0.09598498972444244,
          -0.12794348382252868,
          -0.12586535920967815,
          0.15767225187584055,
          0.1920244316044,
          -0.22628284145899358,
          -0.20608996380781924,
          -0.2855573005508373,
          0.026897141621108418,
          -0.01521656712684199,
          -0.22559487844035633,
          0.07250527220480472,
          -0.2874953649274753,
          0.02747710250517186,
          0.24114069517398629,
          0.029693256304269097,
          -0.16502417105138995
        ],
        [
          -0.3720474240083904,
          0.18331390205494516,
          0.2471672071466726,
          -0.2265539191846136,
          -0.07119014432362193,
          -0.006481394222306437,
          -0.06014665574497753,
          0.1093063067564271,
          0.10017240316277944,
          -0.27670615410121224,
          0.2088777101026969,
          -0.18777048323661225,
          0.269624605341308,
          0.08722174377137443,
          0.19852612525483315,
          0.041430486153434525,
          -0.0664540732611963,
          -0.298710888372698,
          0.3428643136245283,
          0.036339432413783686,
          0.10532460335074685,
          0.11832703923393224,
          0.14958272941163242,
          -0.2310325559075412
        ],
        [
          -0.09638496732874134,
          0.06526741821871311,
          -0.13251639347471522,
          0.12068861976244026,
          -0.0226347293450709,
          0.06300413905347178,
          -0.2506413606971671,
          0.18773601681259658,
          0.06953561259652603,
          -0.11242081961615462,
          0.08537305556505065,
          -0.1132585015867784,
          -0.05886034107637249,
          0.32184596474749166,
          0.14330877195344494,
          0.03420955004432109,
          0.16422856133441627,
          -0.027040130377365103,
          0.07926016643865068,
          -0.27677079185626446,
          0.051949778833333814,
          -0.05774026957791888,
          -0.12579869398083257,
          0.21394840543355512
        ],
        [
          0.018812314748386696,
          0.04347031601708688,
          0.04566538690218329,
          -0.13820363017247322,
          0.11230134168755605,
          0.07577649048955656,
          -0.10650553466465652,
          0.11719977414348778,
          -0.04677483495468224,
          0.17596300406475515,
          -0.05007005368396943,
          0.08582232205025978,
          0.14511299365548536,
          0.08221924074863422,
          -0.08435145170485002,
          -0.24667125642495236,
          -0.22629548973498295,
          -0.06470221969443045,
          -0.2259840450469138,
          0.22607181014940522,
          0.1404170319631467,
          0.426211042077178,
          0.03483146038429404,
          -0.3239300389037946
        ],
        [
          0.20090907403110594,
          -0.024099410426805926,
          0.082551949650817,
          -0.06927746610330132,
          -0.13122649836969955,
          -0.09774427583076878,
          0.15204080245582804,
          -0.1478113190599463,
          0.1928956715266946,
          0.09657155955601228,
          -0.19050541412246086,
          -0.0273066605233323,
          -0.2357303585828741,
          0.07986694477970159,
          -0.18207652602720806,
          -0.04228208509016492,
          0.22227785113654275,
          0.12726615507224817,
          0.045477439021804934,
          0.2822525047409494,
          -0.14837875557617375,
          0.09038127597452213,
          0.019573867044303594,
          -0.06518343175025208
        ],
        [
          0.021771586176080136,
          -0.21505383448743048,
          -0.060788729528160126,
          -0.0035764227820155423,
          -0.2556968969378984,
          0.21555030592340188,
          0.15864270279888698,
          -0.2080939504645375,
          -0.03454814314993712,
          0.22994873196120355,
          0.0050266334387770225,
          -0.1323077042852238,
          0.2552497357898171,
          0.03316239350438755,
          -0.3171784656727778,
          -0.15794833882029424,
          0.11299774109522108,
          -0.03156174496824246,
          0.02439061357844891,
          -0.08466575656926997,
          -0.23065451584366667,
          0.2824947796774302,
          0.2397282456903694,
          -0.19576637015470805
        ],
        [
          0.30500455853957137,
          0.21657350576721995,
          -0.23315092391772968,
          0.2464756634943045,
          0.2977656207032149,
          -0.14664285686051123,
          0.170941697683058,
          -0.034648342654003295,
          -0.14988336177068853,
          -0.15250431322722027,
          0.2961322111578094,
          -0.035709276266742355,
          -0.03628973382060987,
          0.07074302673517278,
          0.2568069020021247,
          -0.19323676840739856,
          0.018159853318756337,
          -0.15742319552340783,
          0.06808184683927099,
          -0.1193761906699351,
          -0.19518511303514546,
          0.06125438925162727,
          -0.05123238099354274,
          -0.2521907370024416
        ],
        [
          0.15731138914767592,
          -0.1560310156376332,
          0.17490903762532575,
          -0.13059460614196017,
          -0.010325623273705242,
          -0.06299416815303169,
          -0.21568899064146296,
          0.1585164462660541,
          0.22143769791712745,
          0.09801665193590169,
          -0.03438085918564937,
          0.20580878784519296,
          -0.25138234598104764,
          0.18601707514594512,
          0.17359158553532314,
          -0.019130074588000458,
          0.0046379744431706725,
          0.12185612200031527,
          0.19328419493849774,
          -0.07033351968518069,
          -0.32173940818763136,
          0.3129758039431177,
          -0.1773490545549409,
          -0.3671573011648583
        ],
        [
          0.190230456847164,
          -0.0476085185553247,
          -0.03840007043074615,
          0.09813657261787588,
          -0.012012934006294138,
          -0.2709407557872201,
          0.008323623135511493,
          0.26623397893671585,
          0.005078625174966978,
          -0.08349962400506865,
          -0.055071508481526865,
          -0.16012203479331416,
          0.378875553793837,
          -0.3074132763805976,
          -0.10443027163902162,
          0.2910654104263262,
          -0.14111985993532558,
          -0.04683984643835344,
          -0.024776841659799875,
          0.15794772266015275,
          0.036567677915255614,
          -0.48845527243419956,
          0.24118042013461152,
          0.27812904834925584
        ],
        [
          -0.14133502276540935,
          0.012855187320521419,
          0.02898869250734514,
          0.05458115367801044,
          0.022452676399778864,
          0.10826481510950939,
          -0.37632030934266447,
          0.0006056969961240246,
          -0.04947129624230267,
          -0.09576902187030015,
          0.036243797146849055,
          -0.036082308175514055,
          0.08503302533612432,
          0.2902297649386899,
          -0.32376088098008576,
          0.0908813386945815,
          0.1108846258960215,
          -0.017727789426127568,
          -0.0046520099439179416,
          0.2789181640313886,
          0.18256722389005545,
          0.2520207365279882,
          0.04843316039852381,
          -0.274739375370831
        ],
        [
          -0.0064572596970032484,
          0.0006778231130560476,
          -0.11547765312837184,
          0.1190462715797778,
          0.2090353866230594,
          -0.3401959479470749,
          -0.02330326871546295,
          -0.06736973333888328,
          -0.2644835586284614,
          -0.13125793287412676,
          0.17394960580108348,
          0.0045328208189860195,
          0.02795763624706075,
          -0.13674842077016433,
          0.24094242785546377,
          -0.04581904623779186,
          -0.22695910315587015,
          0.0667524230532056,
          -0.04388364123486469,
          0.07703181925439401,
          0.2837926655946911,
          -0.08872372670638515,
          0.041720362738835386,
          0.07022319025636177
        ],
        [
          -0.21151677690811704,
          -0.05649588516653787,
          -0.25380271932960974,
          0.07640194865324468,
          -0.14510892439258039,
          -0.08340446230925017,
          -0.2824473409505028,
          0.13120111837456888,
          -0.11195257479558107,
          -0.27424549286131616,
          -0.14391815177531528,
          0.25475762653370354,
          0.29008723761312605,
          0.007978346745731611,
          -0.085179128652031,
          0.3103828139368717,
          -0.11272930516971073,
          0.20361709209247733,
          0.10690165730486417,
          0.06603222379880455,
          -0.057007810122905615,
          0.1598399775348099,
          -0.10909230814296755,
          -0.08761015672806335
        ],
        [
          -0.17171074253848725,
          0.09012058901188348,
          0.21250867406131585,
          -0.048194762547987165,
          -0.22381311151210495,
          0.09010423809475077,
          -0.1979589234387341,
          -0.18781717007634469,
          0.20293244001667501,
          0.04862514119332861,
          -0.028252844780656566,
          -0.2308187086411467,
          -0.17949850243051013,
          0.31846573746579965,
          -0.020188036720815605,
          -0.2771128793167735,
          0.02726012908835073,
          0.09285812555723115,
          0.16012654314067745,
          0.32207303672791027,
          -0.09210289238708129,
          -0.018253117577661335,
          -0.0497876387591926,
          0.06994943517698106
        ],
        [
          0.13765319146140123,
          0.0547018228649357,
          -0.3480000512700116,
          -0.18353358812992834,
          0.14500397007106355,
          -0.33302708501771844,
          0.15225204408443455,
          -0.03888737409940871,
          -0.05829308588886026,
          -0.09011443090064347,
          0.06408310732449082,
          -0.004092339594390792,
          0.032390980608721344,
          0.2608499079302258,
          0.03250687267662294,
          -0.27912507556250127,
          0.1448231229184007,
          0.13884647670146952,
          -0.24361600021982177,
          0.19870369903938043,
          0.00703039788788293,
          0.18041593761423388,
          0.09595500453705337,
          0.3435192854052402
        ],
        [
          -0.17636310416187193,
          -0.18606550457019155,
          0.22570093295500737,
          0.08858234596761715,
          0.08402065325727341,
          0.06054520669771536,
          -0.11983083636351365,
          -0.2084635429374029,
          0.10324200549134865,
          0.06981858089476042,
          -0.15858249028413185,
          0.31936617039493914,
          -0.016161915416442334,
          -0.08807397238119409,
          0.06350982963895277,
          -0.0074796557166332475,
          0.1895104797128883,
          -0.2948251840128975,
          -0.19679514463806042,
          0.29798568200426656,
          -0.2990056238877747,
          0.31041661501155526,
          -0.07699712877549651,
          -0.013435194944819099
        ],
        [
          0.14119623675428633,
          0.07318067697102397,
          -0.12673388514965453,
          -0.2284838773163743,
          -0.2698609283109511,
          0.009471000022364106,
          -0.03029369453483293,
          -0.21253486401361993,
          0.05332403576809084,
          0.10255360573188703,
          0.05619501741052959,
          0.17251247968456324,
          0.34459576466754716,
          -0.011290058452701597,
          0.045941684574674305,
          0.2052064162830379,
          0.1460443935107981,
          0.23185933006337914,
          -0.275931176450908,
          -0.24259751190141754,
          -0.13825304449056805,
          -0.17674895981750013,
          -0.2967405195164365,
          0.1303153200958236
        ],
        [
          0.15856464867310913,
          0.044621158404924026,
          0.11408645463332108,
          0.11426957766345536,
          -0.24987574613189664,
          0.010562365703549263,
          0.21369910273171605,
          0.003120359160372517,
          -0.0033735713615245665,
          0.238825005530229,
          -0.08112679923985369,
          -0.11490394636765512,
          -0.04914547379244862,
          0.22554092850962293,
          -0.2695244069977035,
          -0.17703006935037388,
          -0.09605456762849543,
          -0.08468891703557328,
          -0.0829736454185246,
          0.042311636920644796,
          0.11125679532338245,
          -0.3327437552013979,
          0.18300003595843436,
          0.13443378190398736
        ],
        [
          -0.03502472927989172,
          0.2960149515418257,
          0.06744630803221735,
          -0.044908140806844854,
          0.17223999522103897,
          0.2536250977338787,
          0.03714337589337543,
          0.0777678570543231,
          0.2896485361382425,
          0.24987220281479375,
          -0.13208620791859932,
          0.14864366523345293,
          -0.07829720657238001,
          -0.2546598634551823,
          -0.26114912386914807,
          -0.23595184511223027,
          -0.07310629110952202,
          -0.03245745640908637,
          -0.06794201551163404,
          -0.07301354253345986,
          0.021566356986761764,
          -0.004116038847753448,
          -0.11718163067379378,
          0.049503038494314554
        ],
        [
          0.0948437892511942,
          0.3053173530200631,
          0.03309118391612334,
          0.0835339745709163,
          0.05357418662057635,
          -0.03860920028891871,
          0.022991715086799328,
          0.3560518539755043,
          -0.04149025197008422,
          0.21211075927532633,
          -0.07938205376464381,
          0.11883616606243545,
          -0.15511599012552954,
          -0.3789944582455255,
          -0.03638471035872432,
          -0.05078135222716981,
          -0.3046332633010187,
          -0.2673938241535921,
          0.058829420909269826,
          0.06765554551039522,
          -0.29623833376963593,
          0.2431743837154267,
          0.2012478542596662,
          0.16742733248823807
        ],
        [
          0.043416359712383515,
          0.1072626264800675,
          0.1910875348985657,
          -0.13383041718868866,
          0.2965413004038744,
          0.04148107189042587,
          -0.2290698510356606,
          -0.02522418775494324,
          -0.12612570420670147,
          0.1633697605824722,
          -0.1161567382503004,
          0.07049431611189434,
          0.1398155606477215,
          0.29236037295448314,
          -0.339327827163048,
          0.3285500288035955,
          -0.25404187724918875,
          -0.09421966079204767,
          -0.21171386343260862,
          -0.2727734983930144,
          -0.01627921994807091,
          -0.04872236649305646,
          0.11172558223611402,
          -0.08987799395460477
        ],
        [
          -0.12382591307920582,
          0.1505851536609747,
          -0.2865773145184675,
          -0.06258490655996685,
          0.08670606634604586,
          0.03788527418218506,
          -0.1776780008351715,
          0.06428663764968068,
          -0.12402641069589102,
          0.23613993767111816,
          0.12161520415005582,
          -0.07548486553087226,
          -0.033881539736298816,
          -0.0480495665468963,
          0.2435570625015625,
          0.06629452067034453,
          -0.21254009398341778,
          0.16824339170225322,
          0.02657867255890318,
          -0.2716806884514646,
          0.23586086685841048,
          -0.3387683098569471,
          0.14367226583488693,
          0.23654776172254424
        ],
        [
          -0.09760877371406639,
          0.01301628771924741,
          -0.20059698080680233,
          0.22743883290443317,
          -0.11790836418703522,
          -0.12084380315646795,
          0.07798582383269077,
          -0.09065013852761147,
          -0.15837916741380256,
          0.19204942842036116,
          0.10864037505290906,
          -0.1572312388271788,
          -0.12257264885495046,
          0.055108371928863226,
          -0.11453465846057963,
          0.23630182710793693,
          0.23387737661992347,
          -0.08560290391669693,
          0.17606763336025166,
          0.222100616702728,
          -0.12302926007759878,
          0.033919399089040944,
          -0.21336232112616701,
          -0.16328522712748134
        ],
        [
          0.05086515716865132,
          -0.2585838552037542,
          -0.16738396509011405,
          -0.010638630480890957,
          -0.2786102743416299,
          -0.242488027602167,
          0.1320915861098198,
          -0.1697351530885483,
          -0.05245109092376954,
          0.1373812482855132,
          0.0063254213307010684,
          0.15925522428924782,
          -0.282173225810731,
          0.304294489307196,
          0.036417229845814386,
          0.031790332599365645,
          0.236076909958557,
          0.21250287145402627,
          -0.01685153618066624,
          0.16275234803152316,
          0.019655562311915405,
          -0.248604337631488,
          0.11268250139491047,
          0.2380449429754855
        ],
        [
          -0.03126377212946189,
          -0.004231685753666721,
          -0.11979185261621689,
          0.08884591967584735,
          0.1782222693365532,
          0.25752944652419657,
          -0.07270879484069914,
          0.08085689832016071,
          0.19452001989591305,
          -0.32568140650965133,
          -0.05454370544006826,
          0.19048783182896092,
          0.2947039186860612,
          -0.006533700284129335,
          -0.13561647771778126,
          0.116856472759925,
          0.12163522950480274,
          -0.04567557237001463,
          0.2666035389842954,
          -0.16530400885475713,
          0.15902943377050238,
          -0.10732711146873661,
          -0.27234851005731414,
          -0.3244381028921811
        ],
        [
          0.22646822623020005,
          -0.08264128770944713,
          -0.10979521530059846,
          0.2817861921750743,
          -0.009615096386877,
          0.21009419127566661,
          0.2191057216032869,
          -0.044096895932819985,
          0.08714373520779353,
          -0.022369407719892646,
          -0.03796743934395363,
          0.2215078192316259,
          -0.28361629770146574,
          0.07112571704687456,
          0.031042319775609496,
          -0.2508289772126328,
          0.1071130336296236,
          0.12991868804695053,
          -0.11864430959011035,
          -0.0025222131965575013,
          0.08207624856401524,
          -0.03221715034315909,
          -0.15037173871484155,
          -0.3101518649011708
        ],
        [
          0.10999296382996586,
          0.16811080888369592,
          -0.25484799827787546,
          -0.1504605519371115,
          0.02930202511809711,
          0.013007936300757982,
          -0.013868780638563675,
          0.16800591282779206,
          -0.13452850363368785,
          0.1642673994034866,
          0.1507877007541043,
          0.021309929721973705,
          -0.08846477550688932,
          -0.17952937067415287,
          0.29283977663593436,
          0.29223078047867485,
          -0.2745709687389917,
          0.012921250127224431,
          -0.16098566886393498,
          0.18978027186855606,
          0.0823019665921149,
          -0.2739924837780348,
          -0.24420602907177952,
          0.05040174178886278
        ],
        [
          -0.20898346644813706,
          -0.0011601794683448734,
          0.138649216671822,
          0.027135148337620856,
          -0.2231022757601708,
          0.24994571011881406,
          0.05359350571432605,
          -0.11332476895431379,
          0.2410411302981234,
          -0.19246578889757013,
          0.1246379065889915,
          0.22748642917598264,
          -0.01689275910282996,
          -0.2780226203007938,
          -0.24120292377245883,
          0.18229044562139077,
          0.1872532383342008,
          0.12097750280579346,
          -0.10560292268805993,
          -0.10260276014600608,
          -0.03405564472015529,
          0.03301391437285597,
          0.21762365794508767,
          -0.1671958543769418
        ],
        [
          0.26626521376730644,
          -0.03643810203248765,
          -0.0587422953965427,
          0.16211273279676494,
          -0.07021297542968104,
          0.1493244883200151,
          0.2790080386688296,
          0.11975967327131992,
          0.2299025880717272,
          -0.047363539791498856,
          0.13526268692179072,
          0.08110312177798125,
          -0.1553164584908293,
          -0.13046314176965668,
          -0.31476332547802627,
          0.039948760171780465,
          -0.272819276147664,
          -0.2932478784797376,
          -0.05524336307488561,
          -0.21497176308664148,
          0.01813397486678233,
          -0.0014907527280234928,
          0.1396240313408087,
          0.1921347240973026
        ],
        [
          -0.08787052230927125,
          0.20448237334255526,
          0.26483891270109916,
          -0.2024062237829765,
          -0.06732408083002799,
          0.038678730613296665,
          -0.16148826808245512,
          -0.20839522738380403,
          -0.020851663453702457,
          -0.040415570913092336,
          -0.1212395475415872,
          0.08145376981403345,
          -0.06041267483956205,
          0.08546901740828645,
          0.1653767805545416,
          0.20834486321730503,
          -0.2229579556277641,
          -0.2344641873515513,
          0.041394033898863765,
          0.1312026635335633,
          0.04174731786038706,
          -0.13863580270621131,
          0.14330037019997816,
          0.011667090961528553
        ],
        [
          0.17243234661281473,
          -0.23717768301370157,
          0.14367705959983065,
          -0.020416378903251077,
          -0.181507913330366,
          0.264785497821645,
          -0.1362000902890544,
          -0.05269114000220165,
          0.20042932445497189,
          0.018387106225282543,
          0.08914394997776351,
          -0.019094308202988287,
          0.20131680801241925,
          0.2131595364809123,
          0.15736371268182425,
          -0.27722577134150317,
          -0.11547782899239523,
          -0.2949954400717804,
          -0.10003688946602912,
          0.06737989812473376,
          0.1841808471524368,
          -0.36993710608149094,
          0.4025725328134251,
          0.011424822532953214
        ],
        [
          -0.08263167618656242,
          -0.24793885165623133,
          0.19189787189839388,
          -0.05130602779427224,
          -0.15405337712581563,
          0.09653030749575996,
          0.030527251713402564,
          -0.24040293593190462,
          0.02726327962762526,
          -0.10188376074665241,
          -0.016418013603113454,
          0.05019440663575263,
          -0.2252017020820244,
          0.0716545030250896,
          -0.022578408458586004,
          0.13614108467850816,
          0.05422449441902366,
          0.2317868943521025,
          -0.23178732154792303,
          0.2797277221410573,
          0.014243063786920895,
          0.045311354033523,
          -0.10675916803628585,
          -0.1874878749347662
        ],
        [
          -0.09957813122309199,
          -0.15059844835476552,
          0.06431670895384259,
          -0.08887540475651534,
          -0.15586748748694113,
          0.13936533946970972,
          -0.07224891495960435,
          -0.02088824522903112,
          -0.04878064888014207,
          -0.13377454355363935,
          -0.01614000843777883,
          0.053000439854589146,
          -0.13259948183338466,
          0.24653062068454454,
          -0.28128642352200084,
          0.10390886154782036,
          0.12990749856512995,
          -0.28006528854006074,
          -0.026764874066094627,
          0.06605395139856655,
          -0.06974708185287977,
          0.38723594251602883,
          0.14310997932967742,
          0.14095199563502894
        ],
        [
          0.1415322575918022,
          0.2827174602515999,
          -0.1595070101680259,
          0.11772871763387883,
          0.22962146195232602,
          0.011442673740457638,
          0.1817578536950534,
          0.24130251376209935,
          0.011152695184684636,
          0.17021748543032128,
          0.26221897806472816,
          0.1171868650063458,
          0.02612664291335638,
          -0.23471661456854012,
          -0.14455098820263027,
          0.019086681378383718,
          -0.3511344483905085,
          -0.14026066144577878,
          0.11853171222215483,
          -0.027932335955911197,
          0.11503462417807073,
          0.18359403405928587,
          -0.3650165616514249,
          -0.30624740444017007
        ],
        [
          -0.11145176580930367,
          0.08732141458588535,
          0.054485336957006414,
          0.12692656024168517,
          -0.002528903717469977,
          0.036496526808365,
          -0.1450163688970436,
          -0.07323590809690449,
          0.008628179779585564,
          0.2295359729791374,
          -0.23111554505636148,
          -0.022584559875506695,
          -0.1693800470102432,
          0.015894559491697755,
          0.04417319321123272,
          0.14693248880019033,
          0.2693879253632227,
          -0.14140830898527978,
          -0.05508995783919025,
          0.1760224801726248,
          0.04277649130801481,
          -0.24925572008431307,
          -0.21327396506998839,
          0.19076488625977467
        ],
        [
          0.06761593864048003,
          -0.12488047921293914,
          -0.0414452065229982,
          0.10521320575925,
          -0.25287306760064665,
          0.01594874712244449,
          0.04751166236542555,
          -0.24559421114912353,
          0.08800781026813813,
          0.02351134823059177,
          0.14053584451122925,
          0.04663166416855722,
          0.24846064466865636,
          -0.0035456840764107843,
          -0.17985887330358627,
          -0.24370293298443962,
          0.010413898541873464,
          -0.07410820300257556,
          -0.19538310587036156,
          0.3568494238809236,
          -0.27280044956956057,
          0.1198581276562396,
          -0.2799342922860385,
          -0.15603158399027234
        ],
        [
          -0.2676205161431069,
          0.12846003858690955,
          -0.01530002020282711,
          -0.06978166625473324,
          -0.0023534397872478504,
          -0.19839268360039966,
          -0.16441618798501115,
          0.279003692043335,
          -0.12119767613646458,
          -0.24702254859161427,
          0.001907900204743412,
          0.1840989185995899,
          0.022642090651620088,
          0.24322549085965406,
          -0.08483926588062181,
          0.06487927607742891,
          0.2238599895351563,
          -0.23432838059014535,
          0.23019123357004995,
          -0.03903803403653922,
          -0.03573566079086443,
          0.03566778335436284,
          -0.003959058155130051,
          -0.1635523574581109
        ],
        [
          -0.1596995878997697,
          -0.33094417849485014,
          -0.14876173520047517,
          0.018022447485259586,
          -0.2293668937787218,
          0.12445585087870899,
          -0.04607777068800867,
          -0.015829823588880937,
          0.032442742946996124,
          0.019660993828234653,
          -0.184220431103031,
          -0.1704062804991431,
          -0.06713739153466758,
          0.2651661091329562,
          -0.17889426218448742,
          0.2080919356559338,
          0.21611638968267644,
          -0.02272923972100039,
          -0.022462890964817354,
          0.2593861262865596,
          -0.0725403519351038,
          -0.28521272492751226,
          -0.006514890265409023,
          0.1609332855246553
        ],
        [
          -0.1378372144353083,
          0.1734471500348325,
          -0.21101078846638568,
          -0.18003971106975009,
          0.29613607676918763,
          -0.16699463123389813,
          -0.04300430250166954,
          0.1418028573875791,
          0.03616655409347196,
          -0.06052391720028545,
          0.2769120602267568,
          0.14498874962946057,
          -0.07421037032884278,
          -0.18665780479774882,
          -0.22665328237675134,
          0.08037767347974299,
          -0.11921069813103294,
          -0.0448332341250475,
          0.00882679447662419,
          -0.18775821158947498,
          -0.20983042288415998,
          0.2959386403866814,
          0.10325860574231083,
          0.1633293879750707
        ],
        [
          0.1055726711707826,
          0.0944632424461995,
          0.23494989849143427,
          -0.16018241571349112,
          -0.08141658684800734,
          0.2496912300193937,
          -0.14617283920631538,
          0.11665451810888385,
          0.2578764872026148,
          0.20872877136422613,
          -0.11554892827802386,
          0.28258594025017164,
          -0.080628133051409,
          -0.272093447548858,
          -0.1334294410053606,
          -0.2597613770723246,
          -0.12401168162770912,
          -0.006303168208693572,
          -0.16116923844429265,
          0.23237271895850353,
          -0.07931737997810187,
          0.17057308500082746,
          0.18882115292262075,
          -0.19278045336995409
        ],
        [
          0.20788207653927543,
          0.1863302167178129,
          0.012528572912332411,
          -0.05826164778752358,
          0.0037954776036572212,
          0.04465460810996773,
          -0.0024804923951884266,
          -0.10964159781921673,
          -0.08292889937412835,
          0.21389290909488282,
          -0.14530403797687802,
          0.24050882001662927,
          0.21951222639677764,
          -0.05070491084197363,
          -0.1271817925894609,
          -0.11732688401279048,
          -0.1489414739546074,
          0.040398462784126773,
          -0.05955942661731314,
          -0.14941689725201243,
          -0.24723555584608156,
          -0.19141986037046366,
          0.2511159252446086,
          -0.2307205494887852
        ],
        [
          -0.2141836635196506,
          0.10046775498794855,
          0.2791502172767067,
          0.03387408073736493,
          -0.16046410773126682,
          0.2813957909258481,
          0.002006786510494621,
          0.18107366226285365,
          0.3242200307772408,
          -0.15522809453796654,
          -0.22370066510949183,
          0.011552057498555403,
          -0.06082256433877708,
          0.12767826845366456,
          -0.1902380724384085,
          0.1491084789356018,
          0.02096281920627911,
          -0.07559111254460622,
          -0.09613335000769947,
          0.07522182353511625,
          -0.27334562244140104,
          -0.04816076857118777,
          0.010213015202345644,
          -0.00886236338704838
        ]
      ],
      "bias": [
        -0.14136243550592814,
        0.19641426249331698,
        0.181649547938276,
        -0.06968688173231463,
        -0.07655146068404826,
        0.2076990607966658,
        -0.13763114348521605,
        -0.09560441966888301,
        -0.005697885736303253,
        0.06996463078506736,
        -0.03251331255265521,
        -0.1546604502471218,
        -0.078118508162594,
        0.01856502542632273,
        -0.18887906190906717,
        -0.09046575753497903,
        0.2283301163124663,
        0.09644384515811925,
        0.00303517606957034,
        0.15550520248168692,
        0.13851545846840713,
        -0.1776429605761018,
        -0.22219937239534995,
        -0.19964584246192646,
        0.11577934168876267,
        -0.24783732787480106,
        0.05188558758129221,
        0.08832417466537118,
        -0.12233576205024979,
        0.24578714037538277,
        0.05639374928217938,
        -0.07554986805846936,
        -0.0813795168271812,
        -0.0911726170549822,
